"dummy","w1_1","w1_2","w1_3","w1_4","w1_5","w1_6","w1_7","w1_8","w1_9","w1_10","w1_11","w1_12","w1_13","w1_14","w1_15","w1_16","w1_17","w1_18","w1_19","w1_20","w1_21","w1_22","w1_23","w1_24","w1_25","w1_26","w1_27","w1_28","w1_29","w1_30","w1_31","w1_32","w1_33","w1_34","w1_35","w1_36","w1_37","w1_38","w1_39","w1_40","w1_41","w1_42","w1_43","w1_44","w1_45","w1_46","w1_47","w1_48","w1_49","w1_50","w1_51","w1_52","w1_53","w1_54","w1_55","w1_56","w1_57","w1_58","w1_59","w1_60","w1_61","w1_62","w1_63","w1_64","w1_65","w1_66","w1_67","w1_68","w1_69","w1_70","w1_71","w1_72","w1_73","w1_74","w1_75","w1_76","w1_77","w1_78","w1_79","w1_80","w1_81","w1_82","w1_83","w1_84","w1_85","w1_86","w1_87","w1_88","w1_89","w1_90","w1_91","w1_92","w1_93","w1_94","w1_95","w1_96","w1_97","w1_98","w1_99","w1_100","w1_101","w1_102","w1_103","w1_104","w1_105","w1_106","w1_107","w1_108","w1_109","w1_110","w1_111","w1_112","w1_113","w1_114","w1_115","w1_116","w1_117","w1_118","w1_119","w1_120","w1_121","w1_122","w1_123","w1_124","w1_125","w1_126","w1_127","w1_128","w1_129","w1_130","w1_131","w1_132","w1_133","w1_134","w1_135","w1_136","w1_137","w1_138","w1_139","w1_140","w1_141","w1_142","w1_143","w1_144","w1_145","w1_146","w1_147","w1_148","w1_149","w1_150","w1_151","w1_152","w1_153","w1_154","w1_155","w1_156","w1_157","w1_158","w1_159","w1_160","w1_161","w1_162","w1_163","w1_164","w1_165","w1_166","w1_167","w1_168","w1_169","w1_170","w1_171","w1_172","w1_173","w1_174","w1_175","w1_176","w1_177","w1_178","w1_179","w1_180","w1_181","w1_182","w1_183","w1_184","w1_185","w1_186","w1_187","w1_188","w1_189","w1_190","w1_191","w1_192","w1_193","w1_194","w1_195","w1_196","w1_197","w1_198","w1_199","w1_200","w1_201","w1_202","w1_203","w1_204","w1_205","w1_206","w1_207","w1_208","w1_209","w1_210","w1_211","w1_212","w1_213","w1_214","w1_215","w1_216","w1_217","w1_218","w1_219","w1_220","w1_221","w1_222","w1_223","w1_224","w1_225","w1_226","w1_227","w1_228","w1_229","w1_230","w1_231","w1_232","w1_233","w1_234","w1_235","w1_236","w1_237","w1_238","w1_239","w1_240","w1_241","w1_242","w1_243","w1_244","w1_245","w1_246","w1_247","w1_248","w1_249","w1_250","w1_251","w1_252","w1_253","w1_254","w1_255","w1_256","w1_257","w1_258","w1_259","w1_260","w1_261","w1_262","w1_263","w1_264","w1_265","w1_266","w1_267","w1_268","w1_269","w1_270","w1_271","w1_272","w1_273","w1_274","w1_275","w1_276","w1_277","w1_278","w1_279","w1_280","w1_281","w1_282","w1_283","w1_284","w1_285","w1_286","w1_287","w1_288","w1_289","w1_290","w1_291","w1_292","w1_293","w1_294","w1_295","w1_296","w1_297","w1_298","w1_299","w1_300"
"lsu","-0.0037274518981576","-0.623084127902985","-0.339915096759796","2.47942090034485","0.00399819109588861","0.296245872974396","-0.427287518978119","1.15713036060333","0.632781445980072","-2.12980437278748","1.4170960187912","-0.0586159937083721","0.0125126289203763","-1.92611384391785","-0.150534585118294","-0.154660671949387","0.361114501953125","1.09967052936554","0.0145831108093262","-0.285802096128464","-0.511201918125153","-0.364937394857407","2.01770043373108","0.0175725035369396","-0.0375717617571354","0.0861924514174461","-0.0112336296588182","-0.890087366104126","0.985734045505524","0.00453704223036766","-0.00621866481378675","0.0907861292362213","0.0270183887332678","-0.0209056809544563","0.641223609447479","-0.237256020307541","-0.861916482448578","0.000496805529110134","0.0150886308401823","-1.98610293865204","-0.0201800893992186","0.0522395074367523","0.281183511018753","-0.0435344949364662","0.298547685146332","-0.00249502738006413","0.0683827474713326","1.44534075260162","2.8190815448761","-0.317003399133682","-0.0130882430821657","0.0528310313820839","1.88810276985168","-1.47508335113525","-0.0328463912010193","-0.88551276922226","0.305639147758484","-0.00199569808319211","0.0760267153382301","0.0187471397221088","-0.817054748535156","0.0661989524960518","-0.329234719276428","-0.301467746496201","-1.96046352386475","1.42256832122803","2.28512263298035","0.696222722530365","-0.372017115354538","0.00563738727942109","0.157051220536232","-0.0371697135269642","-0.786695420742035","0.151018351316452","3.32822132110596","2.02110362052917","-1.7500227689743","1.77481341362","-0.0299118496477604","-0.470049142837524","-0.00410745944827795","1.30529856681824","-0.148214563727379","0.0131145836785436","0.0358462482690811","-0.149561837315559","-0.181800872087479","-0.029426246881485","-0.0236851572990417","0.729068875312805","0.0277700964361429","3.08569812774658","0.172950208187103","-1.5999813079834","-0.00374784716404974","-0.0073398407548666","-0.289156436920166","0.011430156417191","-0.031538188457489","0.0385349094867706","0.599197328090668","0.00480888923630118","-0.0816985443234444","-0.0980690121650696","-0.0128765143454075","0.304980158805847","0.0382943898439407","0.0128907850012183","0.0045753251761198","0.0149356639012694","-0.0150749078020453","-0.0568316243588924","-1.85776615142822","0.0124193811789155","0.0109561067074537","-0.0129763893783092","0.265345841646194","0.949469149112701","0.27206215262413","0.00387113937176764","-0.00406461535021663","-0.0271502733230591","0.008724395185709","0.0223396886140108","-0.00651367520913482","-1.37488782405853","1.70933878421783","0.457331836223602","-0.0216814447194338","-2.72920632362366","-0.19751600921154","-0.014905771240592","0.00328581687062979","-0.00581285264343023","-1.65924823284149","0.710445046424866","0.000655865645967424","0.0142986234277487","0.00316796870902181","-0.00357942748814821","0.0131850112229586","0.0240604020655155","0.257408380508423","0.00267914147116244","0.520967960357666","0.187298864126205","0.664220869541168","-0.0157370287925005","-0.00302189798094332","-0.0148968156427145","1.29962182044983","-0.0258758999407291","-1.04953253269196","0.165760651230812","-0.255629152059555","0.758986413478851","0.404448330402374","0.105409406125546","-0.0096347127109766","-0.0253649614751339","-2.00563526153564","-0.0233922824263573","-1.45061719417572","0.22924542427063","-0.00911837443709373","-0.0197751075029373","0.367059677839279","-0.43706002831459","-0.11737847328186","-0.0102805094793439","-0.00613016914576292","0.000430208194302395","-0.788497865200043","-0.00431174645200372","0.116800770163536","0.302600890398026","-1.77466678619385","0.659078896045685","0.0338970236480236","-0.139936447143555","0.020762437954545","0.10532358288765","-0.00452864030376077","-0.417870163917542","1.01385521888733","-0.030091529712081","0.145981147885323","0.0436485856771469","-0.700798332691193","0.452721297740936","0.135404974222183","-1.27137088775635","0.959083437919617","0.124441482126713","-1.33620607852936","-0.0760774314403534","0.319562762975693","0.0150806894525886","1.15422892570496","-0.082183912396431","-0.0170530676841736","-1.63224530220032","-0.000491222133859992","0.168768584728241","-0.0211119614541531","0.011148028075695","-0.0640389397740364","-0.0187224242836237","-0.00363355944864452","-0.00190889101941139","0.0137078948318958","-0.00418040761724114","-0.00165754649788141","-0.0242539197206497","-0.0115884402766824","-1.99003922939301","0.00814408808946609","0.00763474125415087","2.50391674041748","-0.0127044348046184","-1.56172072887421","0.0295570585876703","0.0494872890412807","0.00885752961039543","0.00572716956958175","-0.318198025226593","-0.0560330040752888","0.0165419839322567","0.00722353160381317","-1.4810825586319","0.432691007852554","-0.67795342206955","-0.0140090947970748","-0.0221477933228016","0.0048779109492898","0.017876798287034","-1.86199390888214","-0.0128302192315459","-0.00644944934174418","0.0153275970369577","0.00620894739404321","-1.95981442928314","0.160146668553352","0.34981906414032","-0.485256850719452","0.0226410962641239","1.29884362220764","-0.0147724626585841","-0.0254032276570797","-0.941825449466705","0.206677302718163","0.0152970403432846","-0.39939272403717","-0.00248078699223697","0.00470274686813354","-0.356355339288712","0.643212020397186","-1.31021463871002","-0.37369567155838","-0.0108056794852018","-0.0212317313998938","0.0131065510213375","-0.0677485316991806","-0.0266508609056473","0.0143491085618734","0.00647905981168151","0.745964109897614","-0.0360903739929199","-0.0289681348949671","-0.0285392068326473","0.0117980800569057","-0.0939565151929855","1.16747236251831","0.0126729886978865","0.025193789973855","-0.0195433031767607","-1.24719870090485","-1.3111310005188","-0.391228318214417","-0.0118323899805546","0.00133325310889632","-0.829923689365387","0.0250422935932875","-0.0494780689477921","-0.00861672777682543","-0.815267860889435","-0.0168667286634445","-0.00542502198368311","0.0114461919292808","0.00623106537386775","-1.82848191261292","0.700534403324127","0.349623888731003","1.40789127349854","-0.000474271801067516","0.088136613368988","-0.0039249281398952","-1.8590145111084","-0.0124779064208269","1.66956925392151"
"lon","-0.00849373638629913","-0.547661423683167","-0.617976069450378","-0.495212078094482","0.00717458268627524","2.47178673744202","-0.190320998430252","2.83640170097351","1.05297636985779","-0.264929622411728","2.8876416683197","-0.00173210853245109","-0.00735054351389408","-0.425047844648361","-0.0503401048481464","0.0615402609109879","0.482338219881058","0.886699259281158","0.015991285443306","-0.298988908529282","3.64558124542236","-0.0279854796826839","-0.613263428211212","0.00434805871918797","-0.194961041212082","-1.80952930450439","0.00516202067956328","0.553731620311737","0.492620229721069","0.0185329951345921","0.0140381129458547","-0.128000482916832","0.0146087137982249","-0.0129089001566172","-1.3652161359787","0.0302378591150045","-0.874475240707397","-0.00495698023587465","0.00985583942383528","0.510554552078247","-0.00975265353918076","-1.67332792282104","-1.00229704380035","-0.00923442002385855","1.54237198829651","0.00877082720398903","1.7619366645813","2.35141801834106","-1.48030722141266","0.309465259313583","-0.00347508164122701","-0.213795587420464","-1.29935801029205","-0.796264231204987","0.00771269062533975","-0.490833431482315","1.04881346225739","-0.0112503180280328","-0.182001754641533","0.031132347881794","-1.14449882507324","1.08225965499878","0.0766716375946999","-0.0183014255017042","-0.117012180387974","-1.38319087028503","-1.6604175567627","-0.190460190176964","0.104053094983101","-0.00517280353233218","-0.651863157749176","-0.00716229109093547","0.366031259298325","-0.79819256067276","0.214566648006439","1.44495034217834","-0.262409389019012","-0.122720316052437","0.00861885119229555","-0.758385181427002","-0.00276912958361208","-0.468519747257233","-0.108231209218502","0.0227922145277262","-0.157501980662346","-0.49495804309845","1.67124688625336","-0.0133050810545683","0.00606420869007707","-0.0934554487466812","-0.00318717584013939","0.883377075195312","-0.231574729084969","2.0353410243988","-0.0121153788641095","-0.0108220390975475","1.16317963600159","-0.00775312865152955","0.0108933774754405","-0.00822363141924143","-1.08924198150635","0.0040197460912168","-1.19688665866852","-2.52627325057983","0.00338855618610978","-1.09101045131683","-0.531045079231262","0.0139278052374721","0.0107219647616148","0.00268181343562901","0.006218028254807","-0.0953045859932899","-0.694198548793793","-0.00229608383961022","0.0053551634773612","-1.10242211818695","0.447927981615067","1.25713646411896","2.47130417823792","0.00850615650415421","-0.0542366616427898","-0.000478503032354638","-0.00228911661542952","-0.00515164621174335","-0.00178733386565","2.87900805473328","-2.21199584007263","-1.04036784172058","0.00567169347777963","-1.77763414382935","-0.252508640289307","0.00597835099324584","-0.00720858387649059","0.00325131835415959","-0.268867522478104","0.753837883472443","-0.476034313440323","-0.0124161671847105","-0.0118616269901395","-0.00216966331936419","0.109030671417713","-0.519280612468719","-1.01602709293365","0.00738913612440228","0.760445237159729","4.05984592437744","-1.29281997680664","0.0253874659538269","0.00720954593271017","-0.00367143540643156","0.27433505654335","0.005716223269701","-1.47136068344116","-1.30733978748322","3.7761914730072","0.217068389058113","4.15011358261108","1.45936000347137","-0.0146143883466721","-0.00439977645874023","0.834183931350708","2.28900790214539","-1.06125235557556","3.0719895362854","0.0174934435635805","-0.00424660602584481","0.11251512914896","-0.108826197683811","2.29834151268005","-0.0192131698131561","0.0108569087460637","-0.00278885546140373","0.343466728925705","0.0131473373621702","-0.81684535741806","0.591608762741089","-0.171984821557999","-0.0671881586313248","-0.179625257849693","0.507461726665497","0.00504442118108273","-0.194082275032997","0.00107828562613577","-1.42912948131561","-0.990589380264282","0.00713533163070679","0.937553703784943","-0.00643623573705554","-1.00275313854218","-1.60806941986084","0.604357421398163","-2.43286848068237","3.34932017326355","0.750291526317596","-0.55331563949585","-0.866737365722656","4.14528608322144","0.00415261974558234","1.53969597816467","-0.079338863492012","-0.00581178441643715","0.257721364498138","-0.0121581917628646","-0.419393748044968","-0.0122378505766392","0.00641922373324633","-0.0469766668975353","0.00683709606528282","-0.0112645719200373","1.6809184551239","0.00732301129028201","-0.13423964381218","0.00922543555498123","-0.00308442069217563","-0.00387929612770677","-0.650810241699219","0.00815487373620272","0.000374616996850818","0.193739145994186","-0.00712070288136601","-1.77164077758789","-0.00264181476086378","-0.00349688343703747","-0.00882929656654596","0.0107978163287044","1.71202337741852","-0.0555641800165176","0.00532660493627191","-0.00132415466941893","1.14610874652863","0.321040630340576","0.802002847194672","-0.0120073519647121","-0.00090740027371794","-0.00652391742914915","0.0135180726647377","1.94265294075012","0.152620777487755","0.0159235522150993","-0.0395859070122242","-0.00108033663127571","-0.688229858875275","0.170526698231697","2.54160928726196","-0.432783156633377","-0.0120266815647483","-1.01480996608734","-0.00648271199315786","0.0178299620747566","-0.607675731182098","-0.233665212988853","0.0136708104982972","-0.428930073976517","-0.00844317115843296","0.0202729403972626","3.30075812339783","0.165578633546829","-1.45861184597015","0.899355530738831","-0.0704785957932472","0.0125208962708712","0.00978653039783239","0.52470725774765","-0.508506894111633","-0.00305711571127176","-0.0104350857436657","-1.21981942653656","-0.0152134178206325","-0.0021456356626004","-0.0110905906185508","0.0126466108486056","0.547508835792542","3.60240387916565","0.00330726546235383","-0.00075470982119441","-0.0036169714294374","0.140303641557693","-0.450092494487762","-0.238567814230919","-0.0102945081889629","0.0223546344786882","-0.222427889704704","0.206228286027908","-0.138431757688522","-0.00137866660952568","-0.362541407346725","0.001615249668248","-0.00501599349081516","-0.00237950216978788","0.01726995408535","-0.157638937234879","-0.352055996656418","-0.343228429555893","0.0500558130443096","0.00731986854225397","-0.0699105337262154","-0.011515025049448","0.899400889873505","0.00813516695052385","2.80597877502441"
"lat","-0.0150592643767595","3.4292471408844","2.02364420890808","-0.727974534034729","-0.0147982817143202","2.31303739547729","-0.890151798725128","-1.25104951858521","2.03939414024353","1.68235599994659","2.84539198875427","-0.0177736654877663","-0.00638264184817672","0.276124268770218","-1.07066702842712","0.629558682441711","1.28923237323761","-1.57823812961578","-0.00836875755339861","4.49743413925171","1.37210512161255","2.65284562110901","0.78476482629776","-0.010870018042624","0.583509147167206","-2.09509515762329","-0.00984080415219069","-2.27746725082397","0.0906515419483185","-0.0117321461439133","-0.0138095784932375","0.0177706144750118","0.00791009142994881","-0.00383051671087742","-1.89450657367706","1.11460089683533","4.47312784194946","-0.00886772107332945","-0.000894684984814376","0.752240657806396","-0.0175599902868271","-4.03946208953857","-2.53637766838074","-0.0174474306404591","1.4965478181839","0.0127364359796047","-0.198059856891632","-0.854773044586182","1.46542727947235","-1.2987574338913","0.00991113483905792","-0.351008147001266","-0.254579365253448","-1.16229391098022","-0.0176366195082664","-2.24682116508484","0.678633570671082","-0.0115427235141397","0.42674458026886","-0.0484623126685619","3.55178713798523","1.14556050300598","0.836149871349335","2.77969908714294","3.07456827163696","3.44996953010559","-0.87565004825592","0.737852215766907","1.60388886928558","0.00263039371930063","2.34441471099854","-0.0043928325176239","1.15358412265778","-3.34076166152954","1.4034651517868","0.432937413454056","-0.290982812643051","-1.78070056438446","-0.00257102726027369","-1.3801611661911","-0.00720540806651115","2.46347212791443","-0.260217308998108","0.0138449938967824","0.871186316013336","-0.0557311736047268","0.0916988179087639","0.0110964607447386","-0.011295098811388","0.505761861801147","0.0107027404010296","0.309618175029755","1.65876364707947","0.782127559185028","0.0015366873703897","0.00574930617585778","0.799937605857849","-0.0173469353467226","-0.0102262571454048","-0.00229482725262642","-1.06415569782257","-0.0185127258300781","-1.16121542453766","-1.94119894504547","0.0012237646151334","-1.12710809707642","-1.40928936004639","0.00650954525917768","-0.00103673944249749","-0.00954755861312151","0.00265908846631646","-2.73978567123413","-0.0393563397228718","-0.00464715855196118","0.00441530765965581","-1.10266447067261","1.101557970047","4.41766214370728","0.761128604412079","0.0124019756913185","-1.11274981498718","-0.00815458223223686","-0.00181912491098046","-0.0127582969143987","0.017943499609828","1.37736201286316","-1.47112464904785","-1.96480286121368","-6.07691763434559e-05","-2.81077885627747","0.403684824705124","0.0038539064116776","-0.00953714456409216","-0.010406150482595","-0.25603398680687","-0.239367589354515","0.0764515697956085","0.0194376204162836","0.0266576651483774","0.000210775004234165","-0.843103528022766","-0.838739216327667","3.60394906997681","0.00704249693080783","0.766907274723053","1.66461753845215","-0.970158696174622","-0.00788662489503622","0.00492687989026308","-0.00903827324509621","-2.51113748550415","-0.0178172402083874","1.3414511680603","-1.09511458873749","1.14021575450897","-0.922180593013763","1.05090045928955","0.109847158193588","-0.0014747706009075","-0.0123468423262239","-0.479851454496384","0.912833750247955","3.16559195518494","0.450421780347824","0.00509372726082802","0.000414010020904243","3.13524532318115","-1.64792084693909","2.38634729385376","-0.00593433203175664","0.0119901588186622","0.00396835990250111","-0.637884736061096","-0.0172930918633938","-2.62426114082336","0.181650921702385","-0.766254901885986","-0.25107878446579","0.0764889717102051","-0.289670318365097","-0.0112178539857268","0.495303362607956","0.00462778564542532","0.360477924346924","-0.592084527015686","-0.00225570169277489","-0.438674569129944","-0.377491146326065","-1.4385404586792","-1.97913837432861","-0.653274834156036","1.1242618560791","-0.600080609321594","-2.2149224281311","0.91372537612915","-0.982664525508881","-0.0468475371599197","0.00291000586003065","3.82561373710632","0.272704064846039","-0.00485118012875319","1.71854186058044","0.0192930083721876","0.416931092739105","-0.010236862115562","-0.0124977547675371","-0.790955066680908","-0.00455595552921295","-0.00927208922803402","2.23554611206055","0.0042136269621551","-0.772630453109741","-0.0165927354246378","0.0131517481058836","-0.00969161745160818","-0.589820265769958","0.00520787993445992","0.00717630237340927","1.44906067848206","0.00941064860671759","-1.87037754058838","0.0103026945143938","0.0225533433258533","0.0183627121150494","-0.00848028250038624","0.208905905485153","1.39667212963104","0.00419025029987097","0.00203480245545506","0.0455862656235695","1.60925161838531","0.266617447137833","-0.00551320286467671","0.00310880038887262","0.00619865022599697","0.00463109416887164","0.733737409114838","-2.66876864433289","-0.0045712455175817","0.38377520442009","0.0194952189922333","-1.77044177055359","-0.488267719745636","-0.206415668129921","-2.32924008369446","0.00726115936413407","0.433455914258957","0.12649168074131","0.000276400882285088","-2.19891691207886","3.4149386882782","0.0118279475718737","0.809597969055176","-0.00972966011613607","0.0185862090438604","1.59548604488373","-1.74673616886139","0.923375844955444","-0.506331980228424","0.109559118747711","-0.022277744486928","-0.00297314813360572","2.31035804748535","-1.64972519874573","-0.00224102498032153","0.00990437250584364","-1.4977422952652","-0.013876598328352","-0.0145140737295151","-0.0120130255818367","-0.0208663176745176","1.04431533813477","0.131666362285614","0.00488393846899271","0.015786200761795","0.00238228612579405","-0.745369017124176","-1.23277497291565","1.11374378204346","-0.0164665542542934","0.0104761552065611","3.73412704467773","0.210822239518166","-0.534419417381287","-0.00547454552724957","1.35257089138031","-0.00606858776882291","-0.00190307176671922","0.0139934746548533","0.023938599973917","3.35706853866577","0.31402313709259","2.24512934684753","0.164086759090424","-0.00423938361927867","-1.37291753292084","-0.0127444583922625","-0.448871314525604","-0.0105906995013356","-0.0276565067470074"
"tem","0.0145569862797856","0.423368871212006","-2.23924946784973","0.071987472474575","-0.00469559105113149","0.0754576399922371","0.102970689535141","0.212525129318237","1.24571764469147","-0.101936526596546","-1.16209018230438","0.00679564289748669","0.0161592587828636","-0.719334125518799","-0.0291349962353706","-0.586184442043304","0.152946218848228","0.237015157938004","-0.0163175612688065","0.401895672082901","-0.334108769893646","-0.47179839015007","-1.86078536510468","-0.0231550931930542","-0.469160616397858","0.782691240310669","0.0155513836070895","0.46175092458725","-0.123519651591778","-0.0240654218941927","-0.00916264392435551","0.0264321677386761","-0.0201651975512505","-0.00839421898126602","0.0786044746637344","-3.61388492584229","0.77549821138382","-0.00604167534038424","0.0135988621041179","-0.710095107555389","0.0189138762652874","0.121764436364174","0.962449610233307","0.0135316764935851","-0.301626563072205","-0.000444420322310179","0.226791828870773","1.29393970966339","0.289944767951965","0.276574581861496","-0.00168366287834942","-0.451750338077545","-0.829096674919128","0.0393439047038555","-0.00634187459945679","0.140835344791412","-2.37891387939453","0.00251688132993877","-1.44086062908173","-0.0691855251789093","0.329557448625565","-1.25285017490387","-0.254084348678589","0.780730247497559","0.210587069392204","-0.255845665931702","0.63272088766098","0.393900066614151","-1.08106565475464","0.0206859391182661","-3.29096937179565","0.0113503923639655","-1.75526487827301","0.973569989204407","0.448587507009506","-0.0873381569981575","-0.0910332426428795","-0.56487363576889","0.0120911719277501","0.765845358371735","0.0115731805562973","0.159497499465942","0.0941733196377754","-0.0345770157873631","-6.11023235321045","-2.34010076522827","0.43899205327034","0.00421919208019972","0.00915404036641121","-2.66859650611877","-0.0187486093491316","0.023373831063509","-4.72786283493042","0.87531054019928","-3.61156417056918e-05","0.00222598714753985","0.154656484723091","0.0154687846079469","-0.0103229191154242","0.000941020785830915","0.279986023902893","0.00524287577718496","-2.95435190200806","0.24972203373909","-0.0222131721675396","-2.22585391998291","-0.0549323596060276","-0.0143134305253625","0.00497290398925543","-0.0107870083302259","-0.00749928411096334","0.0049803308211267","0.533097445964813","0.00338570470921695","0.00695069506764412","0.0193572901189327","-0.751124322414398","0.629793524742126","0.378630608320236","-0.0081559456884861","-0.270589977502823","0.0138075184077024","-0.00455105258151889","0.0173890739679337","0.00473123695701361","0.170972213149071","0.15982885658741","0.175551012158394","0.000253949605394155","-0.244850471615791","-1.15577530860901","-0.0117976265028119","0.00182372960262001","-0.00529895583167672","0.179888889193535","0.0416002199053764","0.146806165575981","0.0157840400934219","-0.00916202366352081","0.00229686358943582","0.242882013320923","0.346645832061768","0.902478694915771","-0.0191316325217485","0.139803916215897","0.645423412322998","-1.03792798519135","-0.0355987772345543","-0.0248991046100855","-0.0126260053366423","0.442962169647217","-0.00957190431654453","-1.61720359325409","-0.923465430736542","-0.0827414393424988","-0.374830067157745","0.217956319451332","-0.0333749055862427","-0.0012231080327183","0.000229476136155427","-0.615790665149689","-1.15068650245667","0.0696188360452652","0.516763806343079","-0.0235146954655647","-0.0182406101375818","-1.59381818771362","0.0469023287296295","0.0304900612682104","0.0211337357759476","-0.0111512588337064","-0.000509484088979661","0.709964334964752","-0.00482707843184471","0.165287047624588","0.842948019504547","-0.171665221452713","0.134231954813004","-0.186295598745346","0.748523831367493","0.0133095886558294","-0.376549392938614","0.00881369225680828","-0.584392011165619","0.069947361946106","-0.0101165380328894","-3.57209777832031","-0.0190484877675772","0.49999064207077","1.26525449752808","0.861877739429474","0.00466590328142047","0.265890538692474","1.03117489814758","-2.12400841712952","-2.60795378684998","0.259370982646942","-0.0052870400249958","0.791362464427948","-0.454717427492142","-0.0004279381246306","-0.268669933080673","0.0191194526851177","1.10443246364594","0.0235939882695675","-0.00618346547707915","0.558772265911102","-0.0193361714482307","0.0159901566803455","-1.0426276922226","-0.00766437640413642","0.239125028252602","-0.0144981648772955","0.0148127591237426","0.00554863270372152","0.603041529655457","-0.0020786018576473","-0.00144551764242351","0.424714207649231","0.0191113483160734","0.0274523440748453","-0.00690319295972586","-0.00765569368377328","-0.00942553021013737","0.00871057342737913","-0.0722958445549011","0.728938043117523","-0.0125502338632941","0.000127349514514208","0.482867747545242","-1.40635049343109","0.173294439911842","0.0134164365008473","-0.00017644336912781","0.00967749394476414","-0.0158891268074512","0.391873180866241","0.62901908159256","-0.00211292016319931","-0.317443907260895","-0.0136372894048691","-0.5755854845047","0.00381749961525202","0.284297168254852","-0.0801299139857292","0.00888414122164249","1.66847896575928","-1.9352890253067","-0.0124481497332454","1.0340348482132","0.0319612771272659","-0.0214690137654543","1.31312847137451","-0.0186409223824739","-0.0271636936813593","-0.546127200126648","0.719652116298676","-0.249826446175575","-0.351753979921341","0.0786154568195343","-0.00670053157955408","-0.0207393784075975","0.414588302373886","-0.0198596529662609","0.0137401632964611","0.0221624467521906","0.909499943256378","0.0295851919800043","0.00568836461752653","0.0159608982503414","0.0021835551597178","-4.95124673843384","0.649183213710785","-0.0135419312864542","-0.00831180159002542","0.00302772992290556","0.90494441986084","-0.413846462965012","-4.62117481231689","0.0132774701341987","-0.00872568320482969","0.641591787338257","0.00986257754266262","0.644043624401093","-0.000379307719413191","-2.31944918632507","-0.0279638282954693","0.0185724478214979","-0.013850275427103","9.03549371287227e-05","0.0985954403877258","-3.88038277626038","0.740129768848419","-3.19525289535522","-0.0122759230434895","0.230405285954475","0.00249342666938901","-0.430173516273499","-0.0137087916955352","0.165927827358246"
"pre","0.00111867883242667","0.474275857210159","0.410445660352707","0.496742874383926","-0.00126404920592904","0.582009851932526","0.113761283457279","0.750343441963196","-0.122620679438114","0.273822069168091","0.587274253368378","0.00915650743991137","-0.0105084739625454","0.902393519878387","-0.587033271789551","0.29421004652977","0.921870946884155","0.813382685184479","-0.00695847906172276","0.221643418073654","-0.246018379926682","0.899661898612976","1.04760682582855","-0.0159005224704742","0.110411010682583","1.76757872104645","0.0035598068498075","-2.62107467651367","0.120158098638058","-0.00417289417237043","0.006950827781111","0.0504111722111702","0.0132297519594431","0.0164744816720486","-1.39396548271179","0.707010388374329","-0.237723931670189","-0.00625188555568457","-0.0143332127481699","-2.43244671821594","-0.00628344062715769","-0.389865905046463","-0.541463077068329","0.0114296805113554","-0.728244602680206","0.00863963086158037","1.27467608451843","-1.7836662530899","0.410839974880219","-0.420993000268936","0.00441814726218581","0.261418372392654","-0.558665692806244","-0.0855390727519989","0.0192594062536955","0.264795809984207","-0.219749763607979","0.00980127416551113","1.06333601474762","-0.00832349341362715","4.60009670257568","2.15477347373962","3.49765086174011","-1.50636529922485","0.566672921180725","-1.88220369815826","-0.814474284648895","-0.0880249589681625","1.25167000293732","-0.0141612654551864","2.02956962585449","0.0152950920164585","-1.08814716339111","0.0992928668856621","-1.25553607940674","0.400481402873993","-1.78918853634968e-05","0.62458997964859","0.00202789669856429","-3.02823138237","0.00302362721413374","-0.395190566778183","-0.295079261064529","-0.0139969484880567","-1.62332057952881","-0.093622162938118","-1.18461453914642","0.0202638637274504","0.00458363117650151","0.0632626861333847","0.00398029526695609","-1.23445844650269","2.17901396751404","-0.0537054464221001","-0.00488065043464303","-0.00724737392738461","-0.633623003959656","-0.00743006309494376","-0.00484894216060638","-0.0106361797079444","4.50742864608765","0.00226836861111224","-0.239158749580383","-1.12308704853058","-0.000709087238647044","-0.340920090675354","-0.447418659925461","0.013563028536737","0.0132797313854098","-0.00363329495303333","0.0100276619195938","0.691144466400146","-0.329596728086472","-0.0022796185221523","0.00359596009366214","0.476529389619827","-0.318162798881531","-0.255720347166061","-0.823214292526245","0.00605974579229951","0.198820635676384","0.00501477532088757","0.0172939132899046","-0.01165403239429","0.0190363731235266","1.2725977897644","1.864617228508","0.873869180679321","0.0070496816188097","-0.113691329956055","-0.263507008552551","-0.0153255071491003","0.00135600275825709","0.00371787860058248","2.10708260536194","-1.0035674571991","0.975107610225677","-0.0192908439785242","0.00984614342451096","0.0224253237247467","-0.820026278495789","3.01544046401978","-0.236343801021576","0.00726742343977094","-0.930379629135132","-0.761453449726105","1.49609005451202","-0.00691598653793335","0.0188394077122211","0.00850728806108236","-0.93840628862381","-0.000776549626607448","0.792114913463593","1.05875647068024","-0.789216041564941","-0.646485269069672","-1.16242778301239","-0.325932562351227","-0.00343148177489638","0.00750136421993375","0.201047971844673","0.159710228443146","-0.129728198051453","-0.0764215886592865","-0.00215289019979537","-0.00120986986439675","1.47809088230133","-0.131401598453522","-0.680039763450623","-0.00378864491358399","0.000909585505723953","-0.0042362124659121","1.46312093734741","0.0146949915215373","0.411760360002518","-0.871974289417267","-0.0305146351456642","0.468411952257156","0.430078893899918","-0.802752554416656","-0.00634611491113901","0.210315510630608","-0.00315014319494367","1.31062316894531","0.579216837882996","-0.0108989588916302","-1.23604428768158","-0.0407607518136501","0.357303529977798","0.663047015666962","-0.281034111976624","-0.925274312496185","-0.579189002513885","-4.42590999603271","0.435321569442749","0.0845408290624619","-1.77637887001038","-0.00347530306316912","0.50622022151947","0.244997560977936","-0.00244400463998318","0.434705048799515","0.00373125774785876","0.837987065315247","0.0137959122657776","0.00755630619823933","-0.187119677662849","0.00647875852882862","-0.00448912940919399","-0.123529620468616","0.00267796427942812","-0.927022039890289","-0.00476519297808409","-0.000192162406165153","0.00328123406507075","-2.01113104820251","-0.0112002333626151","0.00379988108761609","2.20519185066223","-0.00254301098175347","2.35464644432068","-0.00891843903809786","-0.0142387896776199","0.0117228496819735","-0.00273061986081302","-1.44332933425903","-0.880471050739288","-0.0154653135687113","-0.0154851404950023","0.0639506354928017","0.385744363069534","1.31476700305939","0.0140991322696209","0.00303998636081815","-0.000659906305372715","0.00582997361198068","0.523272335529327","0.253380954265594","-0.00852150656282902","0.24398872256279","-0.00372956064529717","-3.36294174194336","-0.0643899142742157","-0.329480290412903","0.236533358693123","-0.00656716385856271","-0.082948349416256","0.0130285434424877","-0.0053741279989481","2.57966876029968","0.903050243854523","-0.00148040964268148","0.718970775604248","-0.00597632071003318","-0.0143197858706117","0.344736635684967","1.10939681529999","-1.71737265586853","1.3134571313858","0.0600109659135342","0.000476732442621142","0.0104552181437612","1.55517578125","-0.0492445752024651","-0.017924640327692","-0.010699151083827","0.696437001228333","-0.00697296345606446","0.00497468933463097","0.0112135782837868","-0.0113317370414734","0.334899306297302","0.260486245155334","-0.0174596142023802","-0.0153847662732005","0.00959465280175209","-0.171389386057854","-1.70085823535919","0.396195352077484","-0.00363592244684696","-0.0105289341881871","-1.272385597229","-0.0923535376787186","0.847648084163666","0.0177840478718281","-0.101760111749172","0.00431381119415164","-0.00283598573878407","-0.0118800876662135","-0.0025139597710222","-0.244638085365295","0.238377153873444","0.332649677991867","-0.299829334020615","-0.0134756928309798","0.189664274454117","-0.00216977205127478","-0.739498436450958","0.00368015188723803","-0.218658179044724"
"rad","0.00111711455974728","-0.185771286487579","1.21481037139893","0.0624285005033016","0.00456772604957223","-0.451930940151215","0.749771237373352","0.179980650544167","0.061882171779871","0.120616056025028","0.0890152528882027","0.0359774343669415","-0.00772653939202428","0.905581057071686","0.544873237609863","-0.00386416050605476","0.695916950702667","-0.196924701333046","-0.0114259328693151","0.311154276132584","0.155982777476311","-0.0642488747835159","-1.28265118598938","0.00697594415396452","0.353710055351257","0.335163116455078","0.0231945980340242","-0.132378980517387","-1.11890232563019","0.00765391066670418","-0.0134342452511191","-0.104687444865704","-0.0028546592220664","-0.000833675148896873","-0.0334347561001778","0.0186342895030975","-1.61967527866364","0.0205917879939079","0.00258147693239152","0.645349979400635","0.00741370767354965","-0.0103991720825434","0.629678189754486","0.0339283309876919","0.263044893741608","-0.0106490384787321","0.40882995724678","1.4712769985199","-0.0586647503077984","-0.863689661026001","-0.0151739893481135","-0.0428436808288097","-0.664530456066132","-0.110774755477905","0.0273041278123856","-1.14497601985931","-1.3745242357254","-0.0121186999604106","-0.0315061509609222","0.0444521307945251","0.716005384922028","1.85408926010132","-0.485770881175995","-0.086733415722847","1.7114599943161","-0.0205493941903114","0.332916557788849","0.0421334989368916","-0.227538660168648","-0.00585843669250607","-0.0952343568205833","0.00136467418633401","-0.784625887870789","0.0820630118250847","-0.531104266643524","0.0358004793524742","-0.0950653105974197","0.0869580879807472","0.0228604525327682","-0.445024967193604","-0.0183698572218418","4.7520055770874","-0.0353254340589046","0.0144268190488219","-0.379478603601456","0.737947463989258","-0.0561817847192287","-0.0160583052784204","0.015971589833498","-0.847767353057861","-0.0121054043993354","0.0878183022141457","-0.296443283557892","-0.837378978729248","-0.0312296412885189","0.000695224502123892","0.312750846147537","-0.00480419164523482","0.0102959964424372","0.000565988884773105","-0.647037506103516","0.0265938770025969","0.0674696862697601","-0.0523944608867168","-0.0091839749366045","0.909778416156769","0.0573918707668781","-0.0180092584341764","-0.00412417389452457","-0.0137090440839529","0.000456775887869298","0.026830043643713","-1.67531085014343","0.00444031786173582","-0.0108255073428154","-0.115818791091442","-0.2459606975317","-0.0532077737152576","0.272337943315506","0.0158871468156576","-0.0839074924588203","-0.0310829766094685","0.0162285156548023","-0.00450635654851794","0.00242555164732039","-0.0947239100933075","0.294621229171753","-0.792489886283875","0.00513907289132476","0.209838554263115","0.355538785457611","0.020836865529418","0.0504242479801178","0.0115436417981982","0.18241623044014","-0.398748904466629","0.0234869681298733","-0.00249298079870641","-0.0170450750738382","0.0128014106303453","-0.599082231521606","0.616926550865173","1.29828882217407","0.0221608784049749","2.54253458976746","0.00953785423189402","0.657645404338837","0.0261450260877609","-0.00529373716562986","0.00970057118684053","-0.0544157475233078","0.0188063327223063","-0.229578301310539","-0.122206769883633","0.0570311546325684","0.571706652641296","0.263660311698914","-0.235700830817223","-0.0343787893652916","0.0343914031982422","0.175260841846466","-0.481035023927689","-0.240093752741814","0.0733450576663017","0.0182497072964907","0.00869738589972258","-0.180542588233948","-0.161931276321411","0.327049612998962","-0.0148797063156962","0.00130087323486805","-0.011299304664135","-0.241102144122124","0.0268272701650858","-0.0990975946187973","0.0401162728667259","0.640600919723511","-2.09435033798218","-0.188381597399712","-0.138581126928329","-0.00227435352280736","0.217005014419556","-0.0221986956894398","-0.0222064647823572","0.71868234872818","0.0191064141690731","-0.154297336935997","-0.145650297403336","0.367487818002701","0.427365630865097","-0.299932777881622","-0.0302672870457172","-0.916114449501038","1.08898961544037","-0.698441326618195","-0.699497401714325","-0.228295564651489","-0.0183491986244917","0.266854226589203","0.0163237173110247","-0.00414184667170048","0.367989033460617","0.00338677386753261","-0.0322587303817272","0.00508235953748226","-0.0131277870386839","-0.206399261951447","0.0221813805401325","0.00406549870967865","0.402370691299438","-0.0285878721624613","0.119480662047863","0.00380696752108634","0.0176639594137669","-0.00742590613663197","-0.704312145709991","-0.0216719638556242","-0.00774431973695755","0.104367427527905","0.00807107239961624","-0.662124395370483","-0.0298503674566746","-0.0269835311919451","0.017158905044198","0.00610539689660072","1.45443415641785","-0.326599210500717","0.00892493966966867","-0.0128587940707803","-0.220458984375","-0.147950679063797","0.145131707191467","0.00384684046730399","0.010373193770647","-0.0178338717669249","-0.00460061524063349","0.367714881896973","-1.30604910850525","0.0285046342760324","0.0971406772732735","-0.0226259734481573","3.73944211006165","0.174079388380051","-0.0866438001394272","0.884674727916718","-0.00494617968797684","-0.121902920305729","0.0850032866001129","0.0102791208773851","0.769340455532074","0.713323473930359","0.0132074747234583","5.59971714019775","0.0120973531156778","-0.00095370173221454","0.0174599289894104","0.420972138643265","-1.2249858379364","-0.061026930809021","0.124257959425449","0.0312154199928045","-0.00193798390682787","0.728055119514465","-0.0843141376972198","-0.00973036512732506","-0.0189133994281292","-0.168822050094604","0.0241472441703081","0.0189181864261627","0.0107858153060079","0.00950118992477655","-0.855731666088104","-0.898965954780579","-0.0167601108551025","-0.0102404877543449","0.0105608999729156","0.304179757833481","-0.672386050224304","1.09585201740265","0.0266531053930521","0.000915442360565066","2.14999675750732","0.0587696097791195","-1.2083488702774","0.0267357099801302","0.208543330430984","0.00864257849752903","0.0132586676627398","-0.0320759303867817","-0.0295251719653606","-0.174433633685112","0.300014168024063","-0.445582151412964","0.624079644680023","0.0059654195792973","-0.528324842453003","0.000597403675783426","-0.868695855140686","-0.00353487837128341","-0.0366528481245041"
"soil","0.00150799110997468","0.200474113225937","1.35282969474792","-3.73240184783936","-0.0241365320980549","-0.210706323385239","1.54691982269287","0.229063898324966","2.23650503158569","1.0366039276123","0.0901811048388481","0.00749629270285368","-0.00795414857566357","-0.139256790280342","1.32270264625549","0.456741273403168","1.11854386329651","0.627371728420258","-0.0198568161576986","1.49696278572083","0.43158632516861","2.05088496208191","-0.10648812353611","-0.0390719324350357","-1.79078757762909","0.857289433479309","0.00165812054183334","0.722016096115112","0.933085083961487","-0.00726403901353478","0.0170661117881536","1.11994576454163","0.0185864679515362","0.0181727278977633","-1.62938582897186","0.41587820649147","0.475648254156113","-0.0212745983153582","-0.0191920902580023","-0.0510360300540924","0.00152865063864738","0.302246659994125","-0.799292743206024","0.0089128939434886","0.460264384746552","0.0160980019718409","0.11417081207037","0.455736190080643","0.888579487800598","0.751175403594971","0.00407238677144051","0.343622535467148","-0.000309126364300027","-2.51604437828064","0.0110727734863758","0.163275703787804","0.823822736740112","-0.0971087738871574","1.00618994235992","0.375529706478119","-0.0463676601648331","0.247646749019623","1.26457476615906","1.62419092655182","-0.175523445010185","1.55196678638458","0.0342713333666325","1.75043642520905","0.627527236938477","-0.0141829727217555","-0.367725193500519","0.0115699525922537","-0.157266587018967","-2.47761940956116","-0.215296655893326","0.552165269851685","0.0836287289857864","0.643560886383057","0.0064115640707314","1.91642618179321","0.0209053233265877","0.735420823097229","-0.852794229984283","-0.0296134315431118","-0.105380274355412","0.35941281914711","0.337845981121063","0.0209733583033085","0.00891818571835756","1.3369152545929","-0.00276447273790836","-0.161346212029457","0.0397103615105152","0.168507874011993","0.0155529519543052","0.00247048889286816","-1.90893578529358","0.00578134460374713","-0.0177702959626913","-0.028678547590971","-0.614306926727295","-0.00262722396291792","0.0732333138585091","0.40752711892128","0.0077910921536386","0.00552012491971254","-2.21513915061951","0.0224821548908949","0.0259317830204964","-0.0199337843805552","0.013362062163651","1.70788609981537","0.26406055688858","-0.0161003433167934","0.0119324596598744","0.376265436410904","1.69613289833069","2.39191794395447","0.896920442581177","0.00490321917459369","1.52735948562622","0.0140837728977203","0.019332367926836","-0.00142432958818972","0.035123847424984","-2.56219816207886","0.391114205121994","-1.74686110019684","0.0230516847223043","0.760063767433167","-0.994967639446259","-0.0281512383371592","0.00145500712096691","-0.0174050014466047","-2.19870066642761","-3.21921896934509","-3.10295629501343","-0.00606474420055747","0.0231317020952702","0.0265119932591915","0.712585866451263","0.921381056308746","0.181432813405991","-0.00169909279793501","-0.328889936208725","-1.11432075500488","-0.158108219504356","-0.0215016473084688","0.0117453308776021","0.0100746294483542","0.79900074005127","-0.0101136565208435","-0.248065546154976","0.0369877591729164","0.677184820175171","0.758330285549164","0.299755364656448","0.937361598014832","0.0039974944666028","-0.0121335564181209","0.417195022106171","0.148623630404472","-0.00938394386321306","0.292450547218323","-0.0211816839873791","-0.00797660835087299","1.02988576889038","1.20691847801208","-0.523278117179871","0.00114025140646845","-0.00772407185286283","-0.00460229115560651","-2.91465950012207","0.00883653946220875","-0.0596106201410294","0.200920596718788","0.302718043327332","0.109699442982674","-2.21059560775757","0.178969502449036","-0.00786875188350677","-0.107241317629814","0.00689233187586069","1.13259494304657","-3.3949248790741","-0.0148691143840551","-0.501399993896484","-0.368226110935211","0.053337000310421","-0.130868807435036","-1.40344405174255","0.00666199158877134","0.482463628053665","0.11169420927763","-0.111611813306808","0.826182425022125","0.898585498332977","-0.00188965420238674","-0.862420618534088","-0.252034395933151","-0.00949951447546482","-0.673176050186157","0.0163652542978525","-2.45699548721313","0.0116229075938463","0.019429013133049","-0.720569670200348","-0.0220802295953035","-0.00165268825367093","-0.311647176742554","0.0172457415610552","0.934714019298553","-0.0196233261376619","0.014541432261467","0.00233870325610042","-0.515823662281036","-0.022324712947011","0.02729238756001","-0.764526784420013","0.00185433123260736","0.4564428627491","-0.00880542770028114","-0.00937377009540796","0.00564253516495228","0.0117516061291099","0.28631991147995","-2.30017113685608","-0.0262439996004105","-0.0173415020108223","0.29570659995079","0.784651339054108","0.597620904445648","0.0146943749859929","0.0114371413365006","0.0197147186845541","0.00493845203891397","0.398072808980942","1.51141965389252","-0.0112142423167825","-0.173883557319641","-0.0107223112136126","0.149448841810226","1.47480154037476","0.696803033351898","1.41622960567474","0.0136233158409595","-0.631662428379059","0.821676254272461","-0.0237616635859013","-0.213827162981033","-2.39262104034424","-0.0177260898053646","0.199345469474792","-0.0140493325889111","-0.0227864887565374","0.490430653095245","1.70408987998962","0.021864490583539","0.502652704715729","-0.428813755512238","-0.0139223281294107","0.0086019579321146","1.63136982917786","-2.44291400909424","-0.00287867547012866","0.00794582162052393","1.07862019538879","-0.00675693340599537","-0.0209191013127565","0.00686468556523323","-0.0180120542645454","0.209313035011292","0.0199564695358276","-0.0195768550038338","-0.00350432586856186","-0.0102758593857288","-0.0240784678608179","0.384498029947281","0.183448776602745","-0.0220776423811913","-0.0301670897752047","0.304789394140244","-0.0376231707632542","2.38405990600586","0.0244480725377798","0.393931865692139","-0.00267387740314007","0.00949528347700834","0.00066284229978919","0.0199653375893831","2.05416345596313","0.0629123002290726","-2.2357759475708","1.40801560878754","-0.0361054874956608","0.361800104379654","0.0212499760091305","-0.0338542312383652","0.00509967096149921","0.166938066482544"
