"dummy","w3_1","w3_2","w3_3","w3_4","w3_5","w3_6","w3_7","w3_8","w3_9","w3_10","w3_11","w3_12","w3_13","w3_14","w3_15","w3_16","w3_17","w3_18","w3_19","w3_20","w3_21","w3_22","w3_23","w3_24","w3_25","w3_26","w3_27","w3_28","w3_29","w3_30","w3_31","w3_32","w3_33","w3_34","w3_35","w3_36","w3_37","w3_38","w3_39","w3_40","w3_41","w3_42","w3_43","w3_44","w3_45","w3_46","w3_47","w3_48","w3_49","w3_50","w3_51","w3_52","w3_53","w3_54","w3_55","w3_56","w3_57","w3_58","w3_59","w3_60","w3_61","w3_62","w3_63","w3_64","w3_65","w3_66","w3_67","w3_68","w3_69","w3_70","w3_71","w3_72","w3_73","w3_74","w3_75","w3_76","w3_77","w3_78","w3_79","w3_80","w3_81","w3_82","w3_83","w3_84","w3_85","w3_86","w3_87","w3_88","w3_89","w3_90","w3_91","w3_92","w3_93","w3_94","w3_95","w3_96","w3_97","w3_98","w3_99","w3_100"
"w2_1","-1.27771174907684","1.52345597743988","-1.08462452888489","-0.236132740974426","0.727689445018768","1.06468880176544","-0.0732102021574974","1.074343085289","-3.33843111991882","-1.51257598400116","0.958046853542328","2.58818626403809","0.826877295970917","0.251758456230164","-2.90235567092896","-0.802819669246674","-1.74799287319183","-0.530345141887665","-1.13566815853119","1.91934752464294","-1.00989031791687","-0.623771131038666","-0.967855632305145","0.580599009990692","3.30810523033142","-3.33034777641296","-0.595533549785614","1.69901084899902","-1.79483735561371","1.82160234451294","1.43432903289795","1.27582728862762","1.51750504970551","-0.815441131591797","3.38090991973877","-1.92124497890472","-0.0146742826327682","-0.056956522166729","0.250605285167694","-0.630656003952026","0.841636657714844","1.22315788269043","-1.39855456352234","1.57046127319336","-0.239584058523178","-0.449210435152054","0.479826718568802","1.00104951858521","-0.10000678896904","-3.07263731956482","-1.38397216796875","0.700595855712891","-0.102670356631279","0.13957168161869","-0.458792746067047","0.518751621246338","0.412435472011566","-0.941449522972107","-1.31448745727539","-0.256635099649429","-0.661665201187134","-0.0713795125484467","-0.230327293276787","-0.141968503594398","-3.2479236125946","-1.18941593170166","-2.88153743743896","-0.578121662139893","1.4751158952713","0.0406849309802055","-0.508526265621185","-0.822108328342438","-1.0750344991684","-0.75446081161499","0.600416958332062","2.09364748001099","-1.16852867603302","-2.02655816078186","-2.4877450466156","2.76165342330933","0.0482982397079468","0.680017948150635","-0.450901925563812","0.515644550323486","0.0824228152632713","-0.330371856689453","2.58938503265381","-0.477800011634827","1.31768023967743","-1.98403441905975","-0.883095622062683","-0.207023695111275","-0.267788618803024","-0.0335269086062908","0.237391367554665","1.87045180797577","0.745497703552246","0.48746457695961","-0.180080324411392","0.460659325122833"
"w2_2","0.252154618501663","-0.0278642121702433","-1.17968702316284","-0.40744087100029","0.0212360955774784","-0.671758413314819","-1.81741201877594","0.54525101184845","0.265586674213409","0.629077792167664","-0.0619045458734035","-2.57153296470642","-0.75788152217865","-0.700189888477325","-2.08899879455566","-1.154221534729","-1.20699489116669","-1.13518333435059","-0.645903348922729","0.938768267631531","-0.845230400562286","-0.319159090518951","0.314893484115601","-0.959597051143646","-0.944496870040894","0.67563009262085","-0.760349988937378","-0.691083490848541","-0.0915952697396278","-0.653132617473602","0.22084079682827","-1.24344038963318","-2.71098184585571","-0.649063050746918","-0.415021449327469","-0.570381700992584","-0.789430677890778","-0.32257342338562","-0.0945675894618034","-0.249059244990349","-3.3660295009613","1.37913227081299","-0.499966859817505","-3.73192882537842","0.994657635688782","0.16373498737812","-4.18264102935791","-3.49068999290466","1.00569701194763","-0.280330926179886","-1.16184711456299","0.824764490127563","0.0725081041455269","0.0219067130237818","1.11705613136292","-0.666391015052795","0.656232595443726","0.972096920013428","-1.9376038312912","0.624157965183258","0.11987941712141","1.14103603363037","-0.713582992553711","1.53564119338989","0.508772313594818","0.148562207818031","-0.393653005361557","0.984436810016632","0.181435763835907","0.908558428287506","-0.600736558437347","0.737546026706696","-1.29147207736969","0.473282307386398","-0.338386178016663","-2.93601894378662","-2.54922771453857","-0.431764960289001","1.48129713535309","-1.72832489013672","0.206937313079834","-0.717686712741852","-0.469838440418243","-1.79182827472687","0.122611649334431","1.08417570590973","-3.45544934272766","-0.662977635860443","0.371600985527039","-1.2267963886261","-2.43699908256531","1.07220077514648","-3.53610754013062","-1.17283189296722","-4.9076361656189","0.689753353595734","0.0237274952232838","-0.379993081092834","0.784017264842987","0.194280326366425"
"w2_3","0.545773088932037","0.704984188079834","-0.249217420816422","-2.48505520820618","0.345289438962936","-0.495725125074387","-2.08167767524719","0.975928783416748","-0.456793457269669","0.212358027696609","-0.805051684379578","-1.19623553752899","-0.969010353088379","-2.09851145744324","-0.170480638742447","-10.714165687561","-1.08324658870697","-0.0541633889079094","-1.38225984573364","-0.507596373558044","0.868084013462067","-0.360355943441391","-0.164094150066376","0.277826875448227","-1.13463115692139","0.29369929432869","0.0796132534742355","-2.04178404808044","-0.424291789531708","0.333541363477707","0.27926629781723","-0.877891421318054","-5.90820121765137","-1.86267757415771","-1.91547930240631","-0.112667664885521","-1.15836369991302","-4.03644227981567","0.5601726770401","-0.0298458598554134","-1.35590493679047","-1.17503774166107","-0.293985486030579","-1.63949906826019","-0.0608098357915878","0.43229278922081","-2.54312300682068","0.719450652599335","-1.15852904319763","0.262358725070953","-0.155228033661842","2.19449591636658","-1.8246728181839","1.50990331172943","1.40609669685364","-1.19028377532959","0.203910142183304","1.56804192066193","-0.664646208286285","-0.483755975961685","1.1165463924408","1.38094794750214","-0.121347762644291","0.949948847293854","-0.348360538482666","-2.78120255470276","-1.82393801212311","-0.0269762240350246","0.0160836949944496","0.00678012240678072","1.07726883888245","-0.180173918604851","-0.090149000287056","-0.762665450572968","0.334113538265228","-1.45114731788635","-0.683000802993774","-1.50379347801208","0.789328992366791","0.651380121707916","0.406243443489075","0.538385212421417","1.15437936782837","-1.13068974018097","-5.41526079177856","0.465471893548965","-5.00424003601074","-0.309209376573563","1.12005639076233","-1.10272336006165","-1.24565434455872","1.02603793144226","-1.6127701997757","1.33826053142548","-3.16162252426147","0.174571231007576","1.17258667945862","-3.8616840839386","0.516431748867035","-0.296366989612579"
"w2_4","-1.78837978839874","-2.32165479660034","-2.129638671875","0.404780447483063","-3.19386768341064","0.00576364295557141","0.127727031707764","-1.45585238933563","-0.464619129896164","-0.694418907165527","-2.23968410491943","0.979765355587006","1.67212343215942","2.25004529953003","2.15727615356445","1.62272322177887","0.686529755592346","0.163887873291969","0.0965099930763245","-4.29085731506348","4.33809375762939","1.68805420398712","-0.547442376613617","1.58202433586121","0.801587402820587","-0.389992088079453","-1.6595721244812","-9.15552234649658","-1.48036789894104","1.5775054693222","-0.562251508235931","-0.0466167703270912","-0.276659786701202","-2.67554616928101","-2.11497282981873","3.82861185073853","0.698239147663116","1.58224964141846","-1.25207698345184","4.06644725799561","4.11371612548828","0.903604984283447","0.718562662601471","0.160342633724213","0.29897803068161","0.20789934694767","1.04210841655731","-1.03673672676086","-2.21835517883301","0.593077838420868","0.833422601222992","-0.123465932905674","-0.60361248254776","0.197871208190918","-1.12364435195923","-3.70766878128052","1.61219656467438","0.536802053451538","1.52973580360413","-0.207245603203773","-0.641904890537262","0.449377089738846","0.637096643447876","0.361601412296295","0.423002690076828","1.70809412002563","-0.724472045898438","0.39989385008812","-2.17310547828674","0.299429833889008","-0.312414288520813","-0.0969890579581261","0.44828137755394","0.144016772508621","1.65284729003906","1.99802672863007","0.319644242525101","1.45041787624359","-3.07061553001404","5.53061437606812","0.0513454675674438","0.363249748945236","0.832469463348389","0.364703148603439","0.901186645030975","-1.43540942668915","-1.71211683750153","0.263337433338165","-0.261116355657578","1.30124115943909","-1.60995137691498","-0.323175638914108","0.773948073387146","4.04626226425171","1.77579355239868","0.0664606094360352","-1.31526279449463","0.958974599838257","-0.0503395572304726","1.3063633441925"
"w2_5","0.370909929275513","0.354889929294586","0.801463723182678","0.401123046875","0.232667952775955","-0.797200322151184","-0.158427953720093","0.453906208276749","2.24882936477661","-0.867403566837311","-0.113443046808243","-0.196545377373695","1.94759058952332","-1.36369955539703","-1.86940324306488","2.80494213104248","1.47965896129608","-0.26974019408226","0.817863166332245","0.0578111447393894","0.50013679265976","0.290262013673782","1.36445045471191","0.219534203410149","-1.94545292854309","-0.274106532335281","2.37733221054077","-1.82836639881134","1.16066157817841","0.416721135377884","-0.574081659317017","-0.104882061481476","0.34343957901001","1.01778507232666","-0.681027293205261","0.136024296283722","-0.1833506077528","-0.619461953639984","1.11162340641022","0.197940543293953","-0.395925372838974","-0.113882973790169","-0.996631920337677","2.33482575416565","-1.71205127239227","1.2066125869751","-0.715689718723297","0.977994024753571","1.04171693325043","-0.0917365550994873","-0.358969926834106","-4.53386116027832","-1.70076131820679","-1.62848603725433","0.292732059955597","-3.02911424636841","-0.217515543103218","-3.07151126861572","1.63020622730255","0.860646545886993","0.959166467189789","0.021322850137949","-3.14864206314087","1.28624963760376","-1.66543304920197","0.113945573568344","0.778287351131439","0.810384511947632","0.0463582798838615","-0.636837363243103","-0.372134178876877","-0.148967012763023","0.4081110060215","-0.0505309551954269","-0.467053472995758","-2.88721466064453","-1.59418523311615","-0.890891551971436","-0.517403244972229","-3.95058393478394","-0.181294873356819","0.824668526649475","-1.17670953273773","0.664171755313873","0.724289774894714","-0.871111810207367","0.495403558015823","-0.118411131203175","-2.09723448753357","-0.655349671840668","0.148919895291328","-0.442482531070709","0.455988794565201","-0.944325387477875","-1.30508959293365","-1.17435765266418","0.537981748580933","-0.927205622196198","0.637551426887512","0.462262630462646"
"w2_6","0.0193976908922195","-0.823631227016449","-7.58032083511353","0.561042189598083","0.355980038642883","-0.744635403156281","-3.6468346118927","-0.775024473667145","-0.51309597492218","-0.580496728420258","-4.45494318008423","1.01787579059601","-1.45837414264679","1.74771249294281","-0.302451461553574","-1.22604930400848","1.1224080324173","0.15117996931076","-1.14022207260132","1.26844906806946","-0.860928654670715","1.11376714706421","-0.0791192278265953","-2.82973504066467","-0.3277607858181","0.423291027545929","0.199750557541847","-0.625223815441132","0.862280189990997","-0.463434815406799","-0.620100319385529","0.11169558018446","-4.15884256362915","-10.701831817627","-0.231458008289337","-2.04875349998474","-0.0323034040629864","-3.27491188049316","-0.914292454719543","1.73827338218689","0.249829098582268","-0.216657564043999","-0.963205635547638","1.62938487529755","1.33255743980408","0.258138865232468","-1.21565234661102","0.527867197990417","-3.14100384712219","1.35571002960205","-0.0852963477373123","0.768806397914886","-0.617456495761871","-0.718105435371399","0.47625806927681","0.96014267206192","0.319192141294479","0.383723348379135","-0.172966167330742","-0.0864646434783936","1.09826934337616","-0.0882587060332298","-0.183786973357201","-0.858388125896454","-0.0524219237267971","1.13681364059448","-2.73391819000244","-0.270649164915085","3.47773504257202","0.996684074401855","0.487095028162003","0.284134596586227","-1.17595672607422","-3.57918453216553","0.37789860367775","1.08993470668793","0.22948431968689","0.245979726314545","-0.129615515470505","-0.979930937290192","0.684877276420593","-1.27786600589752","1.75912690162659","0.86154305934906","-0.515150547027588","1.11197829246521","-4.43570852279663","-0.122771568596363","-0.638904809951782","0.0277877021580935","-1.14031577110291","1.22928488254547","-1.11970901489258","0.846829116344452","-0.414504140615463","-0.475492626428604","-3.17329359054565","-0.156603962182999","0.993578732013702","-1.44496250152588"
"w2_7","1.23277318477631","0.889784097671509","-0.166094034910202","-1.9372124671936","-0.739769577980042","0.720645427703857","1.33436369895935","-0.298195242881775","-1.57333052158356","-0.546691715717316","0.17623333632946","-0.523246705532074","-0.634960889816284","-0.394234031438828","-0.289119392633438","1.92665123939514","-0.207508236169815","0.849145174026489","-0.0585050098598003","1.93433904647827","-3.1198456287384","-1.00091648101807","0.0390445254743099","-0.347825080156326","-0.685162961483002","1.6865246295929","0.309322595596313","1.15015757083893","-0.697119951248169","-1.60579288005829","-1.2909083366394","-1.44954812526703","0.629693686962128","-0.406844943761826","-0.0857658162713051","0.246351093053818","0.500931084156036","-0.119520373642445","-0.496871590614319","-1.11511647701263","-0.202408969402313","-0.929226160049438","-1.560999751091","0.302232384681702","-0.158764556050301","-0.48292350769043","1.61742579936981","0.219073727726936","-0.231140464544296","-0.735330164432526","-0.866754233837128","-3.66019535064697","0.260079085826874","-2.70247173309326","0.905131220817566","0.101478271186352","-1.35123109817505","-0.557772874832153","-0.970635056495667","0.14272540807724","-0.142244845628738","-1.57060515880585","0.415057122707367","-1.19273686408997","1.37915849685669","-0.893310308456421","-2.24873018264771","-0.773526608943939","-5.68991661071777","0.821243762969971","0.561223208904266","-0.733570456504822","0.0792858526110649","0.737355411052704","0.256658583879471","-1.50743436813354","-1.32503199577332","0.825248837471008","0.370661377906799","-0.113014496862888","0.666261732578278","0.157662466168404","-1.51593232154846","0.0838302820920944","-0.0267527289688587","0.696703135967255","-0.579404830932617","-0.728686451911926","0.928852617740631","-0.291431456804276","0.0769068449735641","-0.496075421571732","-0.244467794895172","1.13762533664703","0.998019993305206","-0.387793719768524","-0.619860112667084","-0.43029722571373","-0.715394258499146","1.42034327983856"
"w2_8","0.795743405818939","-0.089206725358963","-1.04336810112","-0.0173380132764578","-0.584902584552765","-0.572615206241608","0.208234265446663","-0.538654029369354","-0.863302767276764","-0.825349152088165","-0.641123354434967","-0.713416993618011","-0.380183398723602","-1.45987927913666","-1.06559586524963","1.0658403635025","0.861833274364471","1.42094373703003","-0.00983497966080904","-1.00600707530975","-1.29545104503632","-0.234550431370735","0.0926563814282417","0.993829309940338","-2.21662163734436","-1.28009748458862","0.16537818312645","-0.497827261686325","-0.378187209367752","-1.77326893806458","0.70747971534729","-0.126301348209381","0.450544387102127","0.422099947929382","0.0246388521045446","1.47942709922791","-0.547349154949188","0.567561984062195","-0.188104435801506","-1.81242001056671","-1.18225562572479","2.38724446296692","-0.53279435634613","-0.579267382621765","-0.479783743619919","2.59512972831726","0.478503048419952","0.570318102836609","0.107336185872555","-0.378284424543381","-0.462248533964157","-0.227550014853477","-0.10264728218317","-0.403429061174393","0.0745347961783409","0.27206015586853","-0.284049302339554","0.444242030382156","0.82471376657486","1.48716759681702","1.2327287197113","0.514854729175568","0.729662537574768","-1.42199718952179","0.225856095552444","-0.979421317577362","-0.0396537445485592","-0.0499643795192242","0.331049263477325","-0.508119821548462","1.54742586612701","-0.561068832874298","0.482480585575104","0.809083342552185","0.114988818764687","-1.29105138778687","-1.30059325695038","-1.87634813785553","-0.0333879590034485","0.493270874023438","-2.40886473655701","0.383498162031174","0.638323664665222","0.320811003446579","-0.1431685090065","-2.53238654136658","0.330866396427155","-0.387700915336609","0.234755620360374","-0.931549906730652","-1.11056232452393","-0.0524774491786957","-3.06699180603027","0.161317571997643","0.551268994808197","-0.267736077308655","0.5402672290802","0.0762627497315407","-0.802531540393829","0.966503918170929"
"w2_9","0.147865071892738","2.02673411369324","0.0927403643727303","1.01382780075073","1.05322182178497","-0.32093146443367","1.6684398651123","1.47470796108246","2.42467427253723","-1.13718819618225","0.940177619457245","-5.19425392150879","2.22762560844421","-0.100471682846546","2.12206363677979","-2.05182933807373","1.91756367683411","0.312041044235229","0.0219363532960415","-0.59209793806076","-0.434948325157166","1.91966247558594","-0.0804111361503601","-1.10406446456909","1.5906867980957","-2.72842788696289","0.257077038288116","-6.46130990982056","1.03260552883148","-0.677915513515472","1.37380707263947","0.132650926709175","-2.2563910484314","-1.03706848621368","-0.850217401981354","1.22581112384796","3.42870926856995","2.73810601234436","7.19560527801514","5.23039150238037","3.10478234291077","-0.651459038257599","1.11060905456543","-1.07447171211243","0.0685700327157974","1.33053803443909","0.38641420006752","-0.151417717337608","1.07434439659119","0.173049122095108","0.892658531665802","2.13394832611084","-2.11930346488953","-0.455071300268173","0.839569211006165","0.0206824615597725","2.29292726516724","-1.83065104484558","2.58307075500488","0.647402882575989","1.22896528244019","-0.0417076796293259","0.315361797809601","-0.833701133728027","1.44080054759979","-0.50227427482605","-6.12637853622437","-1.4406863451004","-0.283195734024048","0.516424298286438","0.312060415744781","-2.09152603149414","-3.08388137817383","-0.104067698121071","1.67844617366791","0.160782977938652","3.01700854301453","1.77313590049744","1.05554246902466","-0.84748512506485","-0.521656453609467","0.845036327838898","0.747749984264374","-0.0542712993919849","-6.08854484558105","1.95403695106506","-1.35277628898621","0.0507678240537643","1.22715294361115","0.119714982807636","1.65822076797485","0.113651067018509","4.09373712539673","0.0132000101730227","0.375923722982407","1.05010163784027","-5.5178804397583","-3.38029170036316","-4.66875171661377","0.688974022865295"
"w2_10","1.64478945732117","0.892891764640808","0.0447259657084942","-0.248055502772331","-1.11439371109009","1.03041338920593","3.04876375198364","0.383877664804459","-2.21002888679504","-2.02452945709229","-1.26473665237427","-3.87944865226746","2.93828368186951","0.670753836631775","0.70542299747467","0.646395444869995","-0.746943056583405","0.320523202419281","0.26596474647522","-2.11558437347412","-0.985601186752319","0.598539531230927","-1.49905860424042","-0.497848480939865","0.268930047750473","-0.437838554382324","3.53538918495178","-1.8378974199295","1.33717620372772","2.41518044471741","0.0227434821426868","-1.37641143798828","-2.52519035339355","-6.83432722091675","-0.560597360134125","2.41513013839722","0.485200762748718","-0.42545810341835","1.57132565975189","-0.354934185743332","-2.35521626472473","-0.281495332717896","1.82822453975677","0.0547983236610889","-0.997834622859955","-0.387676626443863","-1.68774724006653","3.141357421875","-0.0897824168205261","0.820103764533997","-2.11517190933228","-1.16977334022522","-2.9142107963562","-4.84550094604492","-0.25135400891304","1.38987326622009","0.788333356380463","2.08538913726807","2.70637917518616","-1.05058515071869","1.05664753913879","-3.02304410934448","-0.0315220169723034","1.87538385391235","0.868262887001038","-0.0416822358965874","-0.548095345497131","0.449909448623657","0.7430699467659","-0.162454649806023","0.434670448303223","0.725344300270081","1.58280789852142","-1.39222812652588","-2.49130916595459","-0.629180073738098","0.00426800083369017","-0.747177422046661","-0.382210701704025","0.249464794993401","0.242632254958153","-0.20217265188694","0.154685229063034","0.280663251876831","0.04842609167099","-0.661653995513916","2.61710739135742","0.242791548371315","-1.72067952156067","-0.203534871339798","-5.5499906539917","0.30797865986824","1.4876297712326","0.844224512577057","-0.573886394500732","-1.49438333511353","1.77132701873779","0.101492859423161","-1.96065354347229","2.62489748001099"
"w2_11","0.164673894643784","1.25950002670288","-0.378552377223969","-1.99043440818787","-1.73341846466064","-0.769660174846649","-2.68219351768494","-4.59760808944702","0.587898254394531","0.0799710750579834","0.584188520908356","-1.82373571395874","-2.86719846725464","0.683469712734222","-2.42579913139343","-0.576095581054688","-1.56591725349426","-0.737207114696503","-0.143554165959358","-0.557267487049103","2.33071899414062","1.4051342010498","0.410216569900513","-1.08574438095093","0.770471096038818","1.15912389755249","-2.93716835975647","0.658954799175262","0.165543526411057","-1.29190993309021","0.255813211202621","-0.690817892551422","0.792446970939636","-7.47822284698486","0.897745549678802","-0.517305254936218","1.68575763702393","1.0834504365921","-0.389946907758713","0.00956120807677507","0.339905291795731","0.155782893300056","-1.89345300197601","0.82798045873642","-1.35039114952087","-0.20798422396183","-4.57393217086792","-2.58621644973755","-0.343068301677704","-1.59272563457489","-1.04289329051971","2.15857338905334","-0.277447909116745","-4.22438859939575","-0.124430023133755","0.323380649089813","-0.205428525805473","3.06784605979919","-0.405463248491287","0.780703544616699","-0.148500263690948","0.608057200908661","0.491331607103348","-0.442629843950272","0.530365228652954","-0.0828386843204498","0.0366265811026096","-0.202254295349121","-0.117239445447922","0.298092812299728","-0.60399341583252","-0.756339371204376","0.229356423020363","2.55927348136902","0.886821031570435","0.0797725319862366","0.725606977939606","0.970525920391083","0.230716869235039","0.594406962394714","-0.0568544901907444","0.414429783821106","1.50729501247406","0.537798821926117","-1.77311372756958","1.09618628025055","-0.892653703689575","0.0237973146140575","1.08719050884247","0.419147610664368","0.536335229873657","0.150330439209938","3.2644510269165","-0.471108734607697","1.84586226940155","0.811111807823181","-1.48742842674255","0.78552508354187","-1.24700152873993","-1.57285916805267"
"w2_12","0.523405253887177","1.90429627895355","0.452179044485092","2.22601842880249","1.00352466106415","2.93632411956787","-1.7037181854248","0.698764383792877","0.679638028144836","-0.149113148450851","-0.757451355457306","-0.244476228952408","-0.246535450220108","0.805796086788177","-6.48452997207642","0.53403651714325","0.339115560054779","0.871704757213593","-1.00806736946106","-1.45329797267914","1.53276646137238","-2.18960928916931","-0.285474896430969","1.21324443817139","-0.0768022984266281","0.570246458053589","0.776488959789276","0.74220484495163","0.517105221748352","0.474077463150024","-1.73964357376099","-3.08895492553711","0.488101631402969","0.339908599853516","0.793273508548737","-1.70980656147003","1.04201567173004","2.12819290161133","0.819762527942657","-5.8292384147644","0.100845858454704","-0.930875658988953","-0.59243506193161","-1.72854709625244","1.57844793796539","-1.56848084926605","-0.767623066902161","-0.311212539672852","0.00321147125214338","-0.0179151184856892","1.98612821102142","2.63028573989868","-0.451264470815659","0.332793205976486","0.343197733163834","-0.871868073940277","-1.16819000244141","0.0325064063072205","-2.95223379135132","0.143206581473351","1.06579828262329","-0.0711127072572708","-1.24521625041962","-1.08226108551025","-1.82945585250854","-1.25511431694031","1.36258482933044","-0.136560037732124","1.94607436656952","-0.017154511064291","0.363180756568909","-0.736683547496796","0.295919895172119","2.94508481025696","-0.114791385829449","-1.2256852388382","0.235452368855476","0.204741775989532","-0.793567836284637","0.522132754325867","0.434801757335663","-1.09207451343536","-0.292924821376801","0.0854855626821518","-1.96598327159882","-0.704022526741028","-1.07077705860138","-0.450348377227783","-1.48893702030182","-0.633609235286713","-1.03148055076599","-4.36619520187378","-2.12350821495056","0.190600410103798","-4.43774890899658","0.894218623638153","0.0217221882194281","0.424968302249908","-0.563780546188354","0.758569538593292"
"w2_13","-2.22756481170654","1.09514260292053","0.439899951219559","0.894560575485229","1.24058878421783","1.44711434841156","1.13690829277039","-0.179384127259254","0.539105772972107","0.681191027164459","-2.27000451087952","0.0975590273737907","0.899774849414825","0.383684903383255","0.37441873550415","-1.29998922348022","-1.44728672504425","0.140967920422554","0.181986480951309","0.497409611940384","-1.78219699859619","0.735236346721649","1.56832563877106","1.2733405828476","2.23667502403259","-0.138655468821526","-0.245286390185356","-1.08342313766479","1.4746481180191","0.981314718723297","0.110722601413727","0.159325465559959","-0.336643993854523","2.315349817276","-0.351600080728531","-2.74280834197998","1.77231431007385","0.716182708740234","-0.121599689126015","-3.8462700843811","0.0878721624612808","0.330244958400726","-0.811873555183411","0.475808143615723","-1.10209894180298","0.635345637798309","-1.10769104957581","0.105425871908665","-2.18692278862","-0.753555953502655","-0.247383713722229","1.80833041667938","0.396535724401474","-4.30320739746094","-0.153947368264198","0.895444691181183","-0.42798388004303","-0.363851368427277","0.698463678359985","-1.10922873020172","-0.396356791257858","1.08198940753937","1.64593029022217","0.427326560020447","-0.471400171518326","0.808720111846924","-0.944941759109497","-0.266844630241394","0.0849204361438751","0.156088799238205","-0.542349278926849","0.67315673828125","2.76963782310486","-1.18308806419373","0.5612753033638","-1.80475342273712","0.104968890547752","0.712158858776093","1.3753856420517","1.12134456634521","-0.924045562744141","0.987583041191101","-0.866820812225342","0.905376315116882","0.663335740566254","-0.458870232105255","3.14835143089294","0.0796613320708275","0.819484710693359","1.32618367671967","0.590665280818939","0.706826388835907","1.07830023765564","1.15396654605865","3.69273591041565","1.67628276348114","1.77694082260132","-0.295525312423706","2.90710043907166","-1.18814158439636"
"w2_14","-0.164954110980034","0.550641000270844","-1.78596472740173","-0.689081966876984","-0.87959611415863","-0.0250371135771275","1.0973653793335","-0.612904071807861","0.422465950250626","0.0575951375067234","0.826131224632263","1.49593150615692","-0.175441384315491","-0.265125423669815","0.291315317153931","0.746743083000183","-3.97897672653198","-2.31790161132812","-0.889114439487457","0.0471632108092308","-0.64619255065918","-0.542898178100586","-1.89667141437531","-2.70096921920776","-0.589083015918732","-1.59498929977417","0.127992451190948","1.22439122200012","-0.383097797632217","-4.44027900695801","0.510173678398132","-1.47991240024567","-1.0787011384964","1.07181763648987","-0.79872053861618","0.675658583641052","3.59968161582947","-1.33526945114136","1.75631153583527","0.373279273509979","-4.86290216445923","-3.15293860435486","-0.659433364868164","0.347571909427643","0.0377132557332516","-6.44233989715576","-0.90365743637085","-1.33405148983002","-3.0324375629425","0.358038783073425","0.711008250713348","0.252238512039185","0.62223619222641","-1.95941162109375","1.45494890213013","0.154522627592087","-0.840845108032227","-0.921664297580719","-1.68291437625885","0.842700719833374","1.52515709400177","0.0826381966471672","-0.583877265453339","0.508063852787018","0.994684457778931","1.08934950828552","-0.926467478275299","-0.660285651683807","-0.332773238420486","-0.598540544509888","-0.44545778632164","0.0417272225022316","0.286233454942703","0.839438855648041","1.26545143127441","-0.507087647914886","1.0269296169281","0.477910995483398","-0.252658009529114","-0.487814426422119","-0.01942528039217","-0.843997359275818","1.53564882278442","1.40842199325562","-1.62385249137878","-2.06494808197021","-1.23108518123627","0.0236307717859745","-0.069332592189312","1.39765000343323","0.619194507598877","0.638587296009064","0.808182060718536","-5.22887516021729","-0.389501333236694","-0.9178346991539","-0.518962562084198","0.2867830991745","0.655301868915558","-0.796773791313171"
"w2_15","0.4500432908535","-1.01818549633026","1.1463737487793","0.740305721759796","1.15121984481812","-0.0972562283277512","-1.16012036800385","-2.82699131965637","-2.70515370368958","-0.790894627571106","1.04637098312378","0.0460052341222763","1.56796932220459","-2.50936245918274","3.53703117370605","-3.82551193237305","0.905735492706299","-0.279675245285034","-0.0093545475974679","1.04736459255219","-3.35087323188782","1.49550521373749","1.11122369766235","1.16752409934998","0.338665992021561","-1.20197868347168","-5.06267309188843","1.04765200614929","2.80196666717529","-1.61001598834991","-1.22504019737244","1.76062309741974","-1.20658481121063","1.62143075466156","-2.34697031974792","-5.16532611846924","-0.865804016590118","0.440468281507492","0.82589316368103","2.00286221504211","3.47199249267578","-0.111719354987144","2.15733218193054","1.17843008041382","1.98419392108917","-3.76806449890137","-1.72527968883514","-0.376256257295609","1.62140583992004","-5.31343173980713","0.217592716217041","0.661537528038025","-1.37638282775879","-1.35331702232361","0.460633039474487","0.431676000356674","1.18707478046417","0.0761774554848671","0.749780714511871","-1.57584285736084","-1.72638475894928","-2.7754123210907","0.26441901922226","-1.5641565322876","1.57105779647827","0.875688016414642","-1.77281939983368","-0.716281712055206","2.35835313796997","1.83529925346375","-2.97170495986938","-2.51834869384766","2.132239818573","-0.248498201370239","1.55188572406769","2.16177940368652","-1.65094971656799","-0.489739954471588","2.05732488632202","1.2898108959198","-0.622876226902008","-3.44144010543823","-0.255221754312515","-0.523174941539764","1.71778750419617","4.29564476013184","-3.85345053672791","0.133541360497475","-3.33794784545898","1.010413646698","5.10191249847412","2.588951587677","-0.342487543821335","0.261143386363983","5.71828508377075","0.40690690279007","0.184662595391273","1.21503877639771","1.3246591091156","0.0695532560348511"
"w2_16","0.637935101985931","-5.37431573867798","-0.884984135627747","0.431557357311249","-2.034912109375","-0.19451642036438","0.818824529647827","-0.438735604286194","-1.59463679790497","-2.16832065582275","0.652915775775909","0.589701533317566","-0.498410433530807","-0.402640819549561","-0.431036233901978","1.13472890853882","-2.29414844512939","-0.147041484713554","-3.7122597694397","-1.43667018413544","-0.489349514245987","-0.437682002782822","0.308603346347809","0.635020434856415","0.0314593724906445","-1.36202788352966","-0.272178024053574","0.271231055259705","0.263109743595123","-6.65389919281006","0.878481864929199","-0.778967142105103","0.0874797776341438","0.264162361621857","-1.74856245517731","0.0468435660004616","-0.269323974847794","-0.432200282812119","0.223116025328636","0.232119262218475","-0.554526567459106","-0.375055938959122","-4.14623308181763","0.100696511566639","-0.13229937851429","0.989314258098602","-0.839867532253265","0.272467643022537","0.0770674124360085","-2.89052510261536","-1.49626159667969","-0.65773743391037","0.0469051897525787","-0.397710859775543","0.935726940631866","0.326426446437836","0.315185874700546","-0.129195272922516","0.453562140464783","0.895205199718475","0.139707833528519","0.879751920700073","0.732628345489502","-1.0967583656311","-0.398198187351227","0.262624204158783","-0.465438663959503","-4.50191164016724","0.177457869052887","-0.832935631275177","-0.457321137189865","-0.603929817676544","0.142825812101364","0.406224578619003","1.82360410690308","-0.156031757593155","-1.61363661289215","-3.22639489173889","-0.882717251777649","0.0200014561414719","-1.71808969974518","1.94707572460175","-0.721710085868835","-0.115459591150284","0.361763298511505","-0.88971871137619","0.28337761759758","-0.115874670445919","0.540388703346252","0.00964307133108377","-0.234399423003197","-1.6469761133194","-0.547909140586853","0.90644234418869","0.470341444015503","-4.38942193984985","0.47339740395546","0.459559798240662","1.30673146247864","0.163482308387756"
"w2_17","0.0409056656062603","-2.99263429641724","-0.0102432174608111","0.23997575044632","-1.27886521816254","-1.40689814090729","-0.254264950752258","-1.08803367614746","-0.759305238723755","-3.17434883117676","-3.04121875762939","-0.478312581777573","0.897868871688843","1.75400745868683","1.15553998947144","-1.55393469333649","1.63564729690552","-0.292543649673462","-1.53981530666351","1.53116500377655","3.04602384567261","-0.751269161701202","-0.0238319616764784","-1.20685791969299","2.63538146018982","1.33812165260315","-0.436153918504715","-0.323800444602966","0.493327975273132","-0.337634027004242","-1.87484931945801","-0.814448773860931","-0.218512356281281","-2.33744955062866","-0.500161826610565","-6.56905126571655","-0.546004235744476","-1.92303895950317","-0.0620527639985085","1.45375752449036","0.927809000015259","-1.38282155990601","-1.28254044055939","-0.869575440883636","-2.262286901474","1.18539595603943","1.13598597049713","2.00205945968628","-2.76098227500916","-1.6068924665451","-1.16031575202942","-0.726433992385864","0.746210813522339","-0.344149619340897","1.23367965221405","-0.172091618180275","-0.708796083927155","0.228277876973152","-0.32146754860878","-0.557024300098419","-0.256927907466888","0.714167416095734","0.345053434371948","-0.420360743999481","0.0692058503627777","-2.12126278877258","-1.98637688159943","-2.94208431243896","3.78996396064758","-0.13422928750515","0.961559772491455","-0.0295211207121611","-0.733277499675751","-3.01471900939941","-5.10112524032593","-0.263936072587967","0.412875831127167","2.92532777786255","0.643492996692657","-6.68245935440063","0.440701931715012","0.0980014130473137","-2.83062362670898","0.495475649833679","-0.236974343657494","0.46425199508667","0.397900104522705","0.179095804691315","1.56747233867645","-0.0869442075490952","-0.404073894023895","1.01808476448059","-1.17609930038452","-0.750995993614197","-0.65835702419281","2.05555748939514","-0.477569133043289","0.506441593170166","-0.0338246636092663","-2.30435013771057"
"w2_18","0.742350518703461","-0.560941576957703","-0.175045609474182","2.73384761810303","-0.807015419006348","0.26087811589241","1.44989669322968","-1.84976208209991","-1.06998538970947","0.678797364234924","-1.83030951023102","1.53376722335815","-5.80121469497681","0.152832478284836","-1.02230668067932","-0.482667624950409","-0.220160037279129","0.111225247383118","1.20929777622223","0.306808859109879","0.82066547870636","-0.779098451137543","-0.700672686100006","-2.03626012802124","-0.356045752763748","-1.15005898475647","-1.14424109458923","2.52004837989807","-0.210408002138138","0.993559181690216","0.439777433872223","-0.15357019007206","2.45813369750977","-0.884915053844452","-2.75220990180969","0.900830268859863","-1.80913138389587","1.53163731098175","0.673948049545288","1.39000046253204","-0.358381688594818","0.0561441369354725","-2.50226783752441","1.12341845035553","-0.234026551246643","0.922835409641266","-1.70777916908264","1.40292942523956","-2.31127166748047","-0.777179539203644","-0.794253587722778","-0.721985697746277","-0.273096710443497","0.137955948710442","-1.22442173957825","-0.325101494789124","-1.50076997280121","1.93345499038696","-3.30498003959656","-0.391603112220764","1.17442810535431","-0.143273204565048","1.13371419906616","0.835752725601196","1.61410343647003","-1.27592206001282","2.11455345153809","0.404727876186371","-1.34889650344849","0.312784403562546","0.401485800743103","-0.258150398731232","-0.340854793787003","0.686954498291016","-1.13635563850403","-0.134256586432457","0.412252247333527","0.457062065601349","-1.15159499645233","0.868380010128021","2.1204833984375","-1.72305607795715","0.374194264411926","-0.917573750019073","0.272700488567352","1.32218360900879","0.527337253093719","0.0808909982442856","-0.59712278842926","-1.87950527667999","-0.599697291851044","-0.678196251392365","-0.157294079661369","-2.65061521530151","0.779456675052643","-0.476122379302979","-1.66060936450958","0.208793804049492","-0.510069847106934","-4.94608068466187"
"w2_19","-1.51756262779236","-4.10822105407715","-4.81853628158569","1.80271100997925","-2.25107645988464","4.60067462921143","-0.139977246522903","-0.667039155960083","-2.50995397567749","1.85076689720154","-3.27532649040222","1.21525752544403","1.89185070991516","1.05605757236481","1.36374306678772","-6.5262246131897","0.811373710632324","-2.01020050048828","-2.0232982635498","-1.06400048732758","2.24311709403992","3.17060518264771","-2.85093927383423","-2.00855755805969","2.20472598075867","-0.382569581270218","1.53992867469788","-5.50214004516602","-0.258456975221634","-3.54221987724304","2.33313632011414","-2.58052229881287","1.01846373081207","-1.35245883464813","-1.81410586833954","-3.0845890045166","-0.203419327735901","-0.561563611030579","1.81131398677826","3.17506265640259","2.76846623420715","-3.07373905181885","0.804163813591003","2.09214949607849","1.70762145519257","-1.23041033744812","1.13245749473572","0.120555125176907","0.917899370193481","0.921572208404541","0.882355749607086","1.71639764308929","-4.8325400352478","1.39431190490723","-4.76193284988403","-1.32910704612732","2.80520033836365","0.698280155658722","5.65448188781738","0.0616860277950764","-0.253383845090866","-1.09417700767517","-0.505860686302185","-4.43560218811035","1.24970972537994","0.896495878696442","0.0154183646664023","-0.301259428262711","4.42007732391357","-0.920410513877869","-3.82569885253906","-1.90348780155182","-1.05202174186707","1.35560512542725","2.78268599510193","-0.307691603899002","0.294648855924606","-0.86859667301178","-1.14108979701996","-0.824551284313202","-2.82336831092834","-1.77208626270294","-6.53260707855225","-0.792129695415497","1.78136336803436","-1.60682952404022","-2.73610305786133","0.754888713359833","-0.786787748336792","2.56588435173035","4.88890838623047","0.999209344387054","8.45752906799316","0.925311267375946","1.03854644298553","-0.868889510631561","3.3853132724762","1.34986770153046","0.220334023237228","-1.59720027446747"
"w2_20","-0.745659410953522","-2.48244643211365","1.75788497924805","-0.314579784870148","2.07220458984375","-1.81785821914673","-0.059163723140955","0.353932917118073","-0.174678698182106","-1.05378186702728","-0.2757169008255","-0.343370825052261","-0.0460576787590981","0.119083039462566","0.950993120670319","0.746409118175507","-1.59573483467102","0.324907004833221","-3.07650470733643","-0.835594654083252","0.793950974941254","1.22850430011749","1.77520656585693","-0.219281107187271","0.0427077487111092","-0.992535412311554","0.0189517922699451","0.524966657161713","-1.04543137550354","0.794906795024872","1.85310292243958","1.94206476211548","0.355381727218628","1.06848931312561","-0.25481128692627","2.30295610427856","0.684060335159302","1.5566930770874","-0.348465085029602","-2.29544901847839","1.92579138278961","-0.00719465501606464","-2.32070207595825","0.323854267597198","-4.54836893081665","0.749146521091461","0.74187433719635","0.0348688066005707","0.917944848537445","-1.42310893535614","1.72297620773315","-2.64387440681458","0.522772133350372","-0.584725797176361","0.078899011015892","0.30517303943634","1.85813570022583","1.58287036418915","1.20365762710571","-0.289358764886856","-0.631280481815338","-0.937667608261108","-4.77525615692139","-1.18128716945648","2.03182530403137","0.945984423160553","0.327674865722656","-1.54595446586609","1.40330410003662","1.05158650875092","-0.514096558094025","-1.0637766122818","-0.812786996364594","0.0431458652019501","0.657306849956512","-1.23070561885834","0.754737913608551","-4.58922433853149","1.86376678943634","0.751223623752594","0.40831133723259","0.013280039653182","-0.719918310642242","0.18162901699543","1.12530124187469","1.32596170902252","2.2676305770874","0.175025641918182","0.40727373957634","1.3308562040329","-0.898486375808716","-0.986326575279236","-1.53050994873047","1.1230936050415","-4.32003927230835","1.11865186691284","0.729264616966248","0.476081550121307","0.446421891450882","1.21928584575653"
"w2_21","1.13189327716827","-0.452340602874756","-0.561281442642212","-0.354971617460251","1.69720423221588","-1.73408734798431","-5.52938604354858","-0.174544513225555","-0.883372247219086","0.457627862691879","1.10900008678436","-0.776487112045288","0.0994065701961517","-0.538743793964386","-3.23037099838257","-1.16795980930328","-0.687853336334229","0.901309013366699","0.731939733028412","2.05021119117737","-1.55269432067871","0.69645082950592","-0.478505820035934","-2.64284634590149","1.38018786907196","0.613615691661835","0.189871355891228","0.483964443206787","0.0567007549107075","-0.665041863918304","-1.20245182514191","0.503949642181396","-0.244901224970818","-4.25083494186401","-0.271641939878464","-1.73379218578339","-1.19450104236603","-1.13528037071228","0.633221447467804","-0.803495824337006","0.68054324388504","-0.448691338300705","-1.82350420951843","2.1162166595459","1.16057944297791","0.323183715343475","-1.4004670381546","-0.149905815720558","-0.160294085741043","1.18944823741913","0.851079225540161","-0.543376266956329","1.00731909275055","-0.276384204626083","-0.754962086677551","-1.45064222812653","1.31331872940063","0.259186774492264","0.61175149679184","-0.587271273136139","0.164367094635963","0.763394951820374","0.681071102619171","-0.190804615616798","0.803460896015167","0.290235280990601","-1.0412425994873","-0.410203069448471","-0.213757559657097","0.642872631549835","-1.23328685760498","1.7959349155426","-1.11266648769379","0.958883166313171","-0.782278597354889","0.461424112319946","0.310319274663925","-0.169956207275391","0.316613078117371","1.48200345039368","-0.399446934461594","-0.787388920783997","-2.04664516448975","-0.272548496723175","0.725684821605682","-0.500828623771667","1.74855983257294","0.129924342036247","-1.46085679531097","-2.56092834472656","0.765545129776001","-0.451614111661911","0.158210471272469","-0.0427809841930866","0.430758237838745","-0.667768180370331","-1.63561451435089","2.07471561431885","1.6463418006897","-0.310225516557693"
"w2_22","0.905293345451355","1.22557723522186","-3.50533080101013","1.82360529899597","1.38984072208405","-0.86541610956192","-0.105771340429783","0.065391443669796","-2.36540341377258","0.969219863414764","0.411727756261826","1.94930231571198","-1.26201498508453","2.48864197731018","-1.79964637756348","-9.94826889038086","2.48788189888","0.590900421142578","-0.736762404441833","1.72798001766205","-1.26092684268951","0.257899403572083","0.00948804710060358","0.777609348297119","0.751851975917816","-1.2797144651413","-1.28651010990143","-0.540878117084503","0.769742488861084","1.5155131816864","0.15988352894783","0.363359540700912","-0.778166532516479","3.04936361312866","-3.44590282440186","-1.79387104511261","1.14234292507172","-0.246003970503807","-1.53183424472809","0.348523885011673","1.15000903606415","0.441943138837814","0.947169661521912","0.337981700897217","-1.50387477874756","0.509609878063202","-2.04619288444519","0.907382786273956","0.505958139896393","3.65926122665405","-7.57659196853638","0.325095802545547","0.860992670059204","-0.407199710607529","0.717052519321442","-0.731227457523346","1.81440579891205","2.5249981880188","-0.955029189586639","-5.44846391677856","-2.33142375946045","-1.73924767971039","-0.628074884414673","-0.326536267995834","0.237389788031578","2.21859049797058","1.36392056941986","0.0401103608310223","0.609822571277618","-0.0960228070616722","1.07689368724823","0.432014763355255","0.790566384792328","-0.26747652888298","-0.0294162314385176","-1.47061026096344","-0.510688900947571","1.76315772533417","0.985848844051361","-4.15242528915405","0.159428343176842","-0.118885420262814","-0.86742091178894","-0.624538600444794","0.2567979991436","0.992406189441681","-0.379613906145096","-0.184849664568901","0.755562782287598","1.08423173427582","-10.4427165985107","0.360925406217575","-0.829050242900848","2.86904072761536","-3.34027647972107","-0.0517751276493073","-0.288535296916962","0.819008529186249","-3.76606464385986","-6.54561471939087"
"w2_23","-0.386900812387466","2.34129595756531","-0.951574802398682","0.126122161746025","1.75986576080322","-0.819694638252258","0.33252739906311","0.957204878330231","0.852076530456543","0.212138324975967","1.13863956928253","-4.06937837600708","3.46732664108276","-0.128768488764763","1.71915674209595","-0.860414683818817","0.420439779758453","-0.444192469120026","-0.532464265823364","2.14688992500305","0.529655754566193","-1.56820249557495","-0.179936960339546","-0.922731101512909","2.03746795654297","0.692409515380859","-1.00413620471954","0.471458345651627","-1.77376770973206","0.58394730091095","-0.798028826713562","1.65040302276611","0.440328806638718","-0.742487788200378","2.55530309677124","0.407075852155685","-0.606775760650635","-0.0280127879232168","-0.525528252124786","-0.0877392813563347","3.19889068603516","-0.788149654865265","-1.91213405132294","-4.18262815475464","-0.680027663707733","-1.23274123668671","-1.93333172798157","-0.808028399944305","1.65773630142212","0.038722638040781","-3.05392289161682","0.509224832057953","-0.54263573884964","0.0256580375134945","0.359865605831146","-0.404291838407516","3.36246967315674","0.771958231925964","2.96447205543518","0.369850188493729","-1.31573355197906","-0.778911054134369","-0.191760390996933","-1.65059924125671","-0.17855878174305","0.102934576570988","1.37881696224213","0.976714611053467","-3.49852752685547","-0.793769061565399","0.520424544811249","-1.64833557605743","-2.41900205612183","-0.605509400367737","-0.933946967124939","3.76975011825562","-0.614548623561859","0.00869720987975597","1.03038227558136","-0.0112597150728106","-1.66709315776825","-0.628655672073364","0.329486459493637","1.32427549362183","1.66871285438538","-2.09156370162964","0.132273018360138","0.30347803235054","-0.92051637172699","-0.886388003826141","2.66290521621704","-1.82572424411774","3.18332362174988","0.395124733448029","-0.80215972661972","-0.810533344745636","0.813150405883789","1.47168099880219","-2.44199585914612","0.498196452856064"
"w2_24","0.435370713472366","-0.221141874790192","-3.74114584922791","1.41470623016357","-0.157714411616325","-3.57554936408997","1.89995837211609","1.1497437953949","0.222539216279984","0.729684710502625","-0.184985771775246","0.14306053519249","1.20190060138702","-1.15089070796967","-0.759562730789185","-1.13958847522736","-0.14374740421772","-0.496722638607025","0.74143773317337","-0.956023156642914","-0.0932159423828125","0.08584214001894","-0.114459335803986","0.428358197212219","0.821599304676056","-0.228754580020905","-9.16306304931641","0.637397587299347","0.502888262271881","1.60965836048126","-1.34598207473755","-3.80992960929871","0.632131576538086","1.21602666378021","1.20620810985565","0.397289991378784","-0.141199812293053","0.898754596710205","-0.354011386632919","-0.29710665345192","0.424054354429245","-0.37339848279953","-0.224447995424271","1.63698875904083","1.10631859302521","0.231640234589577","0.68232536315918","0.879999041557312","-0.0807855576276779","-0.00448781810700893","1.30141663551331","-2.60485124588013","0.993373334407806","-3.81851124763489","-0.75162661075592","-1.34011435508728","-0.826308369636536","-0.914179444313049","1.27739894390106","1.09232771396637","1.15221750736237","-0.351977318525314","0.93964695930481","-0.942606925964355","-1.6088125705719","-0.811299264431","0.974198937416077","0.675428748130798","0.42983067035675","0.148234769701958","1.36865663528442","0.17071259021759","0.319932252168655","0.822088241577148","1.22398412227631","-4.95247268676758","0.765077590942383","0.0711966976523399","0.118790581822395","-5.30084085464478","-0.661025404930115","-7.16083383560181","-0.375157058238983","-3.72241711616516","-1.19349718093872","-0.391171813011169","-1.04831993579865","-0.0572780035436153","-0.0792460218071938","-1.63341176509857","3.12272024154663","0.138338819146156","1.62858629226685","-1.81819033622742","-0.135278478264809","-0.273889243602753","-0.3888800740242","0.320777893066406","-2.6295268535614","0.369489461183548"
"w2_25","-0.618755877017975","1.26576805114746","-3.07457065582275","0.355568498373032","1.55647587776184","-1.65585780143738","-0.315659880638123","-1.66911220550537","-0.460839241743088","0.798069536685944","0.976509392261505","-1.01818740367889","0.154940128326416","-0.307922691106796","-1.16727805137634","0.787199676036835","0.298309653997421","0.667994618415833","1.18484807014465","0.203818365931511","0.436122447252274","0.3450827896595","-0.0556025393307209","-1.175541639328","0.12640617787838","-0.981253743171692","0.788205206394196","1.23163378238678","0.166280820965767","0.243398532271385","-0.100406967103481","0.000479366222862154","-1.76215827465057","-1.94285023212433","-1.2804936170578","-1.24944746494293","-0.429588824510574","-1.33528637886047","-0.0853811427950859","-0.0816564783453941","-0.383678257465363","0.0732970982789993","-0.631813108921051","0.552602648735046","0.859452366828918","-0.0362701043486595","-0.242675364017487","0.54564243555069","1.14074540138245","-3.12758469581604","-1.71126580238342","-1.16402339935303","0.803934693336487","1.38602900505066","0.163407042622566","1.69627141952515","0.47811171412468","-0.270515561103821","-0.646154284477234","-3.94199132919312","-9.0335521697998","-0.437384694814682","-3.67462778091431","0.131280571222305","1.4245787858963","1.41742920875549","1.12535047531128","0.177563846111298","0.921922326087952","0.640637695789337","-2.03357458114624","-0.222320035099983","-0.0177752394229174","0.189037069678307","-0.940851151943207","-0.86181503534317","0.131804779171944","0.0606340318918228","1.31972622871399","-2.9163019657135","0.571395635604858","-1.62512421607971","-0.535737037658691","0.571057498455048","0.545184373855591","0.477585643529892","-1.39405906200409","-0.074097104370594","0.789174258708954","1.48378121852875","-0.83950936794281","1.50798726081848","0.192227870225906","0.44563564658165","-4.1945595741272","-0.450661987066269","-0.746030271053314","0.183798864483833","0.453140735626221","-5.38604640960693"
"w2_26","-3.26107168197632","1.5525928735733","-3.6469874382019","0.967751324176788","-1.32760608196259","3.52880144119263","3.29632067680359","0.0218148101121187","-3.60286974906921","0.37819042801857","1.20777642726898","-3.44188022613525","-0.843728542327881","-1.62199759483337","3.50971174240112","-3.27933979034424","1.01213014125824","-1.27077031135559","0.436520725488663","-2.18942737579346","4.29797601699829","-2.49530529975891","-0.569376707077026","-6.00152540206909","-5.65715408325195","-0.80759596824646","-3.05325150489807","-0.330224543809891","0.394689828157425","0.268059402704239","2.42088270187378","-3.55992722511292","-1.03096091747284","4.19695138931274","-0.856374144554138","-4.25958681106567","-2.55364346504211","-1.45274889469147","-7.50534629821777","-2.28189539909363","0.131805568933487","-3.06447553634644","1.83262312412262","-2.42426800727844","-2.90434408187866","1.34116876125336","1.19510078430176","1.13165688514709","0.507400572299957","1.57137882709503","-0.860827088356018","-4.83298778533936","2.11644744873047","-0.243666976690292","-1.67597711086273","3.03527975082397","4.67292165756226","2.8754358291626","0.444827169179916","-0.309312909841537","-3.06573247909546","0.427553355693817","4.77823925018311","-2.92707276344299","2.71936464309692","-1.13405179977417","-5.9264988899231","-0.258079618215561","2.00253105163574","-0.990881443023682","1.80234730243683","2.23349571228027","0.70311051607132","-3.22435808181763","-0.518865585327148","1.28148365020752","1.4719603061676","-0.13480818271637","0.288807481527328","-2.20192122459412","-2.49215054512024","-1.21280443668365","-1.81781232357025","-2.96926712989807","-2.40179443359375","-6.10303354263306","-1.49604451656342","0.260241210460663","-3.49691724777222","1.83800578117371","1.0033837556839","2.86305856704712","0.232637509703636","-2.98807239532471","3.61301183700562","2.25366687774658","2.35486793518066","1.35253012180328","1.06922447681427","-1.53374826908112"
"w2_27","-0.301623433828354","-0.251377612352371","-0.0138844754546881","-1.44236660003662","-1.52962124347687","-0.173072472214699","-3.26550912857056","-1.77615785598755","-1.50675928592682","-3.95276165008545","0.194420471787453","0.997918844223022","-1.35986030101776","-1.25205838680267","0.457924842834473","-0.417955279350281","-1.06972599029541","-0.501018762588501","-1.05741083621979","-1.41275990009308","-1.93139374256134","-0.710548520088196","-1.11402678489685","0.203118145465851","1.79867565631866","-4.2483606338501","0.378715544939041","0.112100444734097","-0.747747123241425","-1.62292921543121","0.0874786302447319","-1.45052742958069","0.964289247989655","-0.563253700733185","0.174576863646507","-0.984126389026642","1.25145220756531","-0.65154767036438","0.370425313711166","-2.40215539932251","1.97142851352692","-1.9762065410614","-1.30309557914734","0.535940110683441","0.622237741947174","-0.348242849111557","-0.670919716358185","1.19643986225128","-1.1750203371048","-3.91937804222107","-1.00290250778198","0.308492243289948","0.558090090751648","-1.77165913581848","-0.143976837396622","-0.130799666047096","0.479875564575195","1.76612651348114","0.913382947444916","-0.166115939617157","0.395341128110886","-0.355080246925354","0.196680709719658","-3.05638432502747","-1.07189249992371","0.495256841182709","0.0487708635628223","-0.200047105550766","-0.914171874523163","-0.827878057956696","0.203104913234711","0.406334340572357","-0.892890334129333","0.341185629367828","-0.475168853998184","-1.23544430732727","-0.512507081031799","-1.16240608692169","-1.97934675216675","-4.63922691345215","0.709193050861359","-1.50051736831665","0.121102347970009","0.303595900535583","-0.433188587427139","-2.81100344657898","-0.859347641468048","-0.524737358093262","-0.302721530199051","0.661174952983856","1.10411286354065","-3.04703497886658","1.45255935192108","-0.315769970417023","0.700300872325897","-0.01665910333395","-0.302132248878479","4.08725166320801","-0.638741493225098","0.228417605161667"
"w2_28","-0.367459088563919","0.470870196819305","0.621118724346161","0.015667574480176","-2.49066472053528","0.429051578044891","2.56434893608093","-1.66440343856812","-3.00189089775085","0.0994707718491554","-0.30572834610939","-0.410241693258286","0.447552859783173","0.723225891590118","0.816966116428375","0.0179364606738091","0.330984860658646","0.312025457620621","-2.458651304245","-2.13689637184143","-0.455328524112701","-0.0974895879626274","-4.14535665512085","0.103129774332047","-1.93773221969604","0.236398175358772","0.516381859779358","0.403011471033096","-0.13644640147686","-2.35916352272034","0.567983865737915","1.69688558578491","-1.01684904098511","1.49909234046936","2.18355894088745","-0.373790293931961","0.375630140304565","0.210895046591759","-0.875481605529785","0.0948319584131241","0.739273309707642","0.649721324443817","-0.879407584667206","1.76554322242737","1.95393705368042","0.107893027365208","-0.0127718886360526","-0.333701997995377","0.453037649393082","0.487014263868332","1.92703294754028","-4.89529275894165","0.771790623664856","1.5150682926178","-0.545608282089233","-0.565816104412079","0.439503103494644","0.030781764537096","6.54081726074219","-0.370754152536392","-0.273589372634888","-0.641259670257568","-0.29227089881897","-1.30137264728546","-1.65176570415497","-0.221187427639961","-0.418000459671021","-0.00112382241059095","0.310833126306534","-2.00057339668274","-0.0691838413476944","-0.584525406360626","-0.66803252696991","-0.354936182498932","1.64321136474609","0.00373419979587197","2.97118067741394","0.671379625797272","-3.33609366416931","0.122955910861492","-1.17323005199432","0.0450840890407562","0.129395306110382","-1.29478335380554","1.45318305492401","-3.88331389427185","-1.28182506561279","-0.0377225056290627","0.0705216601490974","-2.79493618011475","0.475727647542953","-1.0011043548584","1.29710531234741","-0.00100214791018516","0.464355498552322","-2.00490760803223","0.753263652324677","-1.00725138187408","0.563086450099945","-0.461944192647934"
"w2_29","-1.63199090957642","0.0746462419629097","0.516928911209106","0.475079834461212","0.0242745876312256","1.1386091709137","0.89146089553833","0.158167868852615","0.326792806386948","0.978969573974609","0.0645410716533661","0.949734091758728","1.69257259368896","0.474582701921463","1.10501801967621","0.104148715734482","0.582297384738922","-2.06526017189026","-0.155999898910522","0.086083896458149","1.59067583084106","1.28637063503265","-0.781994998455048","-0.508846282958984","0.892298460006714","0.608729898929596","0.0920229554176331","0.6471306681633","0.24798920750618","1.18760776519775","-1.64206874370575","-0.332309752702713","0.243037313222885","-0.584204912185669","-0.0379870645701885","-0.645985841751099","-0.0286399442702532","0.235934510827065","0.467844903469086","0.937157094478607","2.2096848487854","-1.08409357070923","0.373220533132553","-0.141656756401062","-1.17308521270752","-1.29904007911682","0.779708981513977","0.515478849411011","-0.0896168947219849","0.362229347229004","0.358235985040665","-0.476649284362793","-1.00390124320984","0.282042801380157","-1.38378024101257","-1.1674987077713","1.31105518341064","0.337260723114014","1.34207737445831","-1.72089695930481","-0.324107438325882","-1.20536458492279","0.452980548143387","-0.361573725938797","0.822368860244751","-0.0568904541432858","-0.247484087944031","-2.04872226715088","0.662103772163391","-1.98157513141632","-1.07090258598328","-0.889482796192169","-0.240520358085632","-0.624134719371796","0.382405459880829","1.20292222499847","2.40268540382385","0.648512661457062","0.319974094629288","-0.129815205931664","0.945840179920197","0.385366648435593","-0.955019056797028","-0.604558527469635","0.601931154727936","0.378850191831589","-0.535256505012512","0.598875939846039","-0.233430057764053","-0.0138761168345809","0.926352918148041","-0.16749906539917","1.0368400812149","-0.0776117295026779","0.0533657930791378","-0.451700955629349","-0.862190961837769","0.435545235872269","0.021133117377758","-0.405136734247208"
"w2_30","0.0486983358860016","0.480161637067795","0.250408291816711","-2.44556641578674","0.602351009845734","0.461915850639343","-4.88366556167603","0.200917258858681","1.50648045539856","0.726520419120789","1.23351097106934","-3.04350447654724","-0.185576409101486","-1.29230797290802","-4.12588548660278","-0.739422500133514","-1.17829775810242","0.0695418864488602","1.13097286224365","-0.172753244638443","0.594725489616394","-0.37509423494339","-0.347976416349411","-0.488145917654037","0.251135170459747","0.85725736618042","-5.14098358154297","0.233914256095886","-0.865159511566162","-0.0174024794250727","-0.351095378398895","0.304768294095993","-2.71687936782837","0.494228839874268","1.4273738861084","-1.50267732143402","-1.36526310443878","-0.139819502830505","-3.05934453010559","1.72571396827698","-6.81131362915039","0.198849469423294","0.465008109807968","0.477432012557983","-1.08660078048706","-1.18058943748474","-5.12248802185059","-0.327936917543411","-0.399738848209381","0.299673140048981","0.809769749641418","0.478033453226089","-0.00453457003459334","-0.689217627048492","0.268817603588104","-0.0376448519527912","-1.51426494121552","1.13189518451691","-5.47030067443848","0.0119171245023608","-0.740394055843353","-0.394499599933624","-0.386376678943634","0.702248513698578","1.7072092294693","-0.017093937844038","-0.983553051948547","-0.314458608627319","-1.94488954544067","0.219047799706459","0.913731217384338","2.05368661880493","-0.704715371131897","-0.39881443977356","-0.0357356816530228","-0.0433960370719433","-1.31882929801941","0.0873566344380379","0.796546638011932","-0.115551508963108","0.729141592979431","-0.0716609358787537","0.688340365886688","-1.79653334617615","-0.34743469953537","0.283723831176758","0.267185747623444","-0.251157373189926","-0.730433940887451","-1.8199417591095","0.207444444298744","1.04483604431152","-0.813565015792847","0.671597421169281","1.07738518714905","1.35148859024048","-1.02943062782288","-4.26432657241821","0.686910569667816","-0.46595698595047"
"w2_31","0.323832929134369","0.0758996829390526","-1.63515913486481","2.03474712371826","-1.1305478811264","0.0512534752488136","2.33708453178406","-3.47976469993591","-0.170940548181534","-2.20160508155823","-1.91804945468903","0.252629429101944","-5.0167498588562","-2.57695770263672","1.88695597648621","0.592755198478699","-2.25345158576965","-0.239742487668991","-0.206225574016571","0.253831923007965","-0.819636702537537","-0.33802717924118","0.111539863049984","-1.44955992698669","0.143494561314583","-0.774578154087067","-2.24399375915527","-3.3538978099823","-1.36072075366974","-0.372400015592575","-0.0598305128514767","-2.39423227310181","0.159126728773117","1.98999309539795","-0.671286344528198","0.222971826791763","-0.479199141263962","0.281072705984116","1.56756937503815","0.541996359825134","-5.86873245239258","0.410709232091904","0.879053950309753","-1.12347006797791","-0.748002290725708","-3.24515438079834","5.20862913131714","0.0699414610862732","-4.79489898681641","2.08662819862366","0.257745414972305","-0.0753612965345383","-2.605788230896","-3.03369188308716","-0.990891098976135","-1.47954559326172","0.78593897819519","-3.39334559440613","1.47022747993469","1.26903033256531","-0.295822978019714","-0.00306223542429507","-0.606342375278473","-0.270863175392151","-5.18445587158203","1.12689054012299","-6.90194082260132","-0.124066978693008","0.169485718011856","-0.0274412296712399","-0.00328511116094887","-0.243029057979584","-1.58938109874725","-0.60466194152832","0.152468368411064","-2.37408757209778","0.977418422698975","2.81413459777832","-1.83912491798401","0.141802728176117","0.265788495540619","-3.93107485771179","-1.5662430524826","-4.05048847198486","-1.36205542087555","0.0106563651934266","-1.71101880073547","-0.344653189182281","0.158784925937653","-0.396648794412613","-4.70784330368042","-0.140063643455505","-0.600322723388672","0.227106377482414","0.42047330737114","-1.39524376392365","1.07432341575623","0.575493991374969","0.240499779582024","-1.421311378479"
"w2_32","-1.79880332946777","-0.792400121688843","-1.36625194549561","1.54590117931366","-1.27943325042725","2.79125618934631","1.9481406211853","0.268035680055618","-2.40742373466492","-0.527382612228394","-0.627249836921692","2.2518527507782","4.07327032089233","1.0513801574707","2.95183610916138","-0.939709365367889","-0.884351909160614","-4.67380380630493","1.65223205089569","-1.2416729927063","2.79623675346375","-1.68759667873383","1.86088049411774","-7.59149265289307","2.57392835617065","-0.89589786529541","0.748441934585571","2.44666767120361","-2.94160604476929","1.79197204113007","-0.28055277466774","-1.16881799697876","0.780598104000092","-1.06485164165497","-0.50330513715744","-2.36628103256226","-0.834501266479492","-0.938088297843933","5.13247203826904","3.70826363563538","4.09075736999512","-3.1661810874939","0.925989925861359","2.77273941040039","2.3928120136261","-7.22865390777588","1.59712493419647","1.56021201610565","0.49811452627182","1.3228954076767","1.07959473133087","-1.10735487937927","-2.78671526908875","0.0887448713183403","0.143837660551071","-3.13253808021545","-0.138504445552826","1.71854865550995","3.80914521217346","0.653256416320801","-0.985429525375366","-2.35864901542664","2.08367466926575","-1.50909531116486","2.19983863830566","-3.15314126014709","2.71744632720947","-1.01793098449707","-2.09077048301697","-4.14711236953735","1.06897461414337","-2.70579814910889","-0.500446915626526","-1.69001412391663","0.697480618953705","2.52614808082581","0.887562036514282","2.84563207626343","1.05352437496185","0.0660165697336197","1.68175959587097","0.6182541847229","2.25042366981506","-2.14141750335693","1.64162838459015","-0.814376592636108","-1.55694222450256","1.12518262863159","-1.37337398529053","3.96746397018433","2.08193063735962","0.0677889287471771","3.04611301422119","-3.18115663528442","0.0183741748332977","2.47943496704102","-3.07603359222412","1.34058701992035","-1.48652935028076","-2.11714506149292"
"w2_33","-0.814552009105682","1.75672698020935","-0.408762395381927","1.36753845214844","0.346481889486313","-1.60123550891876","0.0630200505256653","0.719090759754181","-4.55424118041992","1.15472590923309","-1.06637537479401","2.09971642494202","-1.63101899623871","1.42494058609009","-2.35385084152222","1.6220897436142","0.0674310028553009","1.20042657852173","0.195056796073914","0.377235054969788","0.339200437068939","2.44893431663513","0.00872063916176558","-1.40819764137268","0.493825316429138","0.390058398246765","-5.82289838790894","-1.45853292942047","1.09193360805511","1.24605596065521","-0.107154548168182","0.654293060302734","-4.7117600440979","2.69098711013794","-2.5029091835022","0.256554514169693","-0.42896580696106","-3.41234159469604","-2.32647204399109","-1.64668476581573","-0.26801860332489","1.27975606918335","1.05079185962677","-0.974244892597198","0.760235905647278","0.420582830905914","-2.65523791313171","0.292432814836502","0.173995137214661","2.78866958618164","-2.03715395927429","1.67310988903046","-0.731994271278381","-0.366056680679321","1.45124018192291","-1.04296314716339","-0.47968852519989","0.771049499511719","-0.438891857862473","1.6033456325531","-1.30840623378754","1.27702534198761","-0.0392281003296375","0.243182837963104","0.687178611755371","0.158453598618507","0.929815113544464","-0.198358967900276","0.499559551477432","0.307214587926865","-0.40895402431488","1.04049670696259","1.0870281457901","0.982705354690552","-7.25209712982178","-0.9272341132164","-0.148630648851395","0.868368625640869","0.39687904715538","0.919901967048645","0.721808731555939","-6.423424243927","0.324256151914597","0.890757918357849","0.692351579666138","0.209869906306267","-0.524985134601593","-0.165995225310326","-0.654662668704987","-0.167637914419174","-2.18398642539978","0.809279203414917","-1.04615473747253","-0.626226544380188","-3.44352316856384","0.390930086374283","0.392506003379822","1.25142955780029","-5.23644304275513","2.54061150550842"
"w2_34","-0.419448912143707","-0.0821786597371101","1.12577641010284","0.488119214773178","-0.276523232460022","-0.627077996730804","1.20132672786713","0.456013113260269","0.911136627197266","-0.789131224155426","4.84200620651245","-2.34521245956421","-0.557828962802887","-1.3304203748703","-1.95141685009003","-3.18846344947815","-2.37762665748596","-0.683972597122192","0.675055027008057","-2.29600644111633","1.05810654163361","-0.780043005943298","0.741096496582031","1.04910147190094","-0.739256203174591","0.609016001224518","0.288999289274216","0.176929011940956","-3.78045153617859","3.55099296569824","4.11069250106812","-0.636750340461731","-1.38890933990479","3.37960743904114","-3.01649260520935","-4.42073774337769","-0.6807901263237","-3.32501435279846","1.73478603363037","-0.941314280033112","0.545269191265106","-1.40050458908081","-7.25710916519165","1.44255697727203","0.264706909656525","0.258848816156387","0.601557016372681","-2.64833927154541","0.845227181911469","-3.1613757610321","0.704176783561707","1.96658062934875","1.48607563972473","-0.608756303787231","0.191859692335129","1.01923561096191","4.6821026802063","1.96506595611572","0.506410658359528","-0.0681303068995476","1.52373158931732","-1.71324479579926","0.670426905155182","0.751858055591583","0.459262877702713","1.1681934595108","-0.454779326915741","0.244606375694275","-1.78021013736725","-0.286333560943604","-3.92998623847961","0.160364791750908","1.17037665843964","-8.15410804748535","-0.23091658949852","1.81004905700684","-1.0575407743454","-2.30485320091248","0.209201037883759","2.98600792884827","-0.0385264419019222","1.5723032951355","0.256017476320267","-0.82127320766449","2.4837167263031","-1.90108227729797","-0.398143440485001","0.0822127982974052","-2.3389744758606","0.244964137673378","2.12303400039673","0.691147446632385","1.67696619033813","0.10996825248003","-0.395823866128922","1.08681273460388","3.86447095870972","2.43709850311279","0.693954646587372","-0.516726732254028"
"w2_35","-0.629127323627472","0.59680712223053","0.651184022426605","0.532655239105225","0.00068878079764545","0.0252757482230663","0.588042199611664","0.074618011713028","-0.389565229415894","1.3576180934906","-0.249113544821739","0.949713349342346","1.59314525127411","0.488491028547287","1.09854459762573","0.136251300573349","-0.296755105257034","-1.8810670375824","-1.05106127262115","-0.0843417942523956","1.47386026382446","1.15349864959717","-0.740620136260986","-0.612372994422913","0.809223771095276","0.203394308686256","0.163287684321404","0.663207113742828","0.537657976150513","0.574272274971008","-0.944198727607727","-0.304229825735092","0.200068548321724","-0.1370460242033","-0.0404898971319199","-0.635083019733429","0.547377586364746","0.093047209084034","0.0130635928362608","0.913631081581116","2.01787066459656","-0.96757560968399","0.43045449256897","0.431153416633606","-0.343371540307999","-1.22167301177979","0.751209616661072","0.617430865764618","-0.0604457221925259","0.351445466279984","-0.511263847351074","-0.428770422935486","-0.735063672065735","0.532633185386658","-1.45935904979706","-1.150759100914","0.278977125883102","0.642321050167084","1.31100511550903","-1.28403890132904","0.0412354432046413","-1.16638278961182","0.4679154753685","-0.458321094512939","0.755157828330994","-0.321423262357712","-0.0484793484210968","-2.65941023826599","0.233185201883316","-1.80996632575989","-1.06000602245331","-0.87118798494339","-0.279597878456116","-1.13776135444641","1.26695454120636","1.2299177646637","3.06644105911255","0.681925892829895","0.318911492824554","-0.0373508110642433","1.08960223197937","0.359840840101242","-0.712414562702179","-0.50257009267807","0.612801611423492","0.582467675209045","-0.538581430912018","0.711343944072723","0.141084864735603","0.907703816890717","0.878710806369781","-0.0583723597228527","0.96414840221405","0.0508177578449249","-0.118871703743935","-1.46075963973999","-0.841889262199402","0.320873200893402","-0.162411078810692","-0.234697923064232"
"w2_36","1.51173400878906","-0.121712103486061","-0.22318671643734","1.10538959503174","-1.47997534275055","-1.87886333465576","2.92126512527466","-1.83809816837311","0.322812348604202","-1.44057404994965","0.433663874864578","1.68051075935364","0.44183948636055","-1.73185896873474","1.25892078876495","-3.71082067489624","0.647277116775513","-0.0540102459490299","1.39972901344299","0.612913608551025","-0.996723771095276","-0.297708332538605","-3.25680613517761","0.126797422766685","1.43511784076691","-0.125883966684341","-0.134411334991455","0.965934932231903","-0.0909303054213524","-0.642198383808136","-1.0315009355545","1.91214597225189","-2.26763129234314","0.853900551795959","0.064105711877346","-3.02666735649109","1.53129935264587","0.392538249492645","1.09606266021729","0.56596577167511","-0.182118758559227","-0.245119631290436","-1.55600309371948","1.2817577123642","-1.34717345237732","-0.0686544924974442","0.00419945549219847","-0.0801014378666878","-0.421046108007431","3.16475248336792","1.04744946956635","-1.65925538539886","0.874194622039795","0.853750765323639","-0.739036560058594","0.31395959854126","-0.737295985221863","1.73778080940247","0.947738349437714","0.759759068489075","-0.966223657131195","-0.447985410690308","0.167379751801491","0.124371737241745","0.619180083274841","2.74799990653992","-1.37701439857483","-0.479017168283463","-0.782220244407654","1.32255434989929","-1.00318503379822","0.592376351356506","0.717081725597382","-0.260524272918701","-0.331744998693466","0.808667778968811","-0.212277829647064","-1.36069202423096","0.766478836536407","0.511373519897461","-0.914645493030548","0.123662106692791","2.05265974998474","0.855456531047821","-0.0314288809895515","0.218292310833931","3.66043305397034","-0.0855018794536591","-0.760266602039337","-0.147948399186134","-0.701379656791687","-1.03103756904602","-0.715136885643005","-0.300611644983292","1.06571698188782","-0.831624686717987","-0.772235870361328","-5.51348066329956","0.638939440250397","0.623361647129059"
"w2_37","-1.88693690299988","-1.47873616218567","-0.00373598071746528","0.621861398220062","0.866690576076508","4.18690156936646","1.3264012336731","1.65738809108734","-2.13851046562195","-1.09608936309814","-1.93832862377167","-4.12428998947144","0.46099790930748","-1.77189016342163","-1.19316577911377","-1.15351748466492","-0.883627951145172","-0.786057353019714","-2.3840000629425","-1.90194642543793","2.44648003578186","-0.203834161162376","-1.98084533214569","1.20254218578339","-0.756991922855377","-0.325440526008606","0.564834356307983","-2.00543594360352","-0.378073751926422","2.2665638923645","-0.495074391365051","2.29751372337341","0.776053607463837","-0.0318936854600906","-2.29121923446655","3.71196055412292","-0.904946684837341","-0.297101348638535","0.344689875841141","1.69799506664276","3.7270348072052","-1.25803184509277","0.497543126344681","-0.440169960260391","-1.30197584629059","-0.0117438929155469","-0.437932163476944","-0.431440979242325","0.75838840007782","-1.07137811183929","0.471404522657394","-1.45349991321564","-1.66860473155975","-0.7358358502388","-3.12897133827209","-0.667737722396851","2.37804245948792","-0.258756369352341","-0.265874236822128","0.530620992183685","-1.43174862861633","-1.86483764648438","-0.913160622119904","-0.916033327579498","0.92498642206192","0.482184588909149","-3.40602493286133","-3.48487305641174","0.612168431282043","-2.37412643432617","-1.67073976993561","1.57409310340881","0.790400922298431","0.47202455997467","0.168589428067207","-0.510424315929413","2.83610033988953","-0.521390974521637","-1.64894509315491","-0.671925663948059","1.61033749580383","-1.33000338077545","0.357104867696762","0.710181057453156","-1.61183977127075","-1.58865475654602","-2.12825918197632","0.391864895820618","-1.87138402462006","2.23738813400269","-0.592276334762573","-4.33403444290161","0.203558430075645","-0.327929139137268","0.843905389308929","1.01280868053436","1.31567168235779","-0.218581199645996","0.63338166475296","0.957203269004822"
"w2_38","0.130773454904556","-1.68691146373749","-0.0709941908717155","0.28491222858429","-0.454956382513046","-0.315996497869492","0.57324892282486","-0.362472265958786","-0.550981342792511","-3.10593938827515","-3.11736464500427","0.366171330213547","0.48201921582222","-1.39105725288391","-0.0813431143760681","-1.01979207992554","1.75768494606018","-0.343492805957794","-0.00422584405168891","-0.145002946257591","-3.54936981201172","-0.389588505029678","0.483907729387283","0.137763440608978","-0.142603129148483","0.0318811573088169","0.243004754185677","-0.167083293199539","-1.75592029094696","-4.35986948013306","-1.41523241996765","1.00562036037445","0.0935636162757874","-3.84325480461121","-3.53416919708252","-1.30610752105713","0.07695372402668","-0.257577955722809","0.827140510082245","-0.166798457503319","-0.178486093878746","-0.74772447347641","0.826327443122864","0.360305517911911","-0.646937847137451","0.13101564347744","0.39823243021965","0.50648307800293","0.147777944803238","-1.78540575504303","-0.183710977435112","1.21874368190765","-0.334226816892624","0.828665733337402","-2.76389098167419","0.988196969032288","0.302205860614777","0.474988520145416","-0.0849368274211884","-0.692361116409302","-0.479553520679474","-0.852636098861694","-0.377406716346741","0.257209539413452","1.00316536426544","0.686436355113983","0.27585157752037","-0.937929093837738","-0.0089437160640955","-0.125749558210373","0.567689895629883","1.22708177566528","-0.994119942188263","-2.11907052993774","0.524576723575592","-0.46517214179039","-0.728041470050812","-0.668304562568665","-5.66885042190552","-1.73842835426331","-2.17038035392761","0.573519289493561","1.11101067066193","-0.105040907859802","-0.0786531269550323","-1.48883485794067","0.0819637477397919","-0.242260709404945","-2.62781953811646","0.312874257564545","-0.243983924388885","-4.93323040008545","0.205520838499069","1.7638521194458","-0.182549849152565","-3.68487429618835","0.245992124080658","0.297223836183548","-1.15260422229767","-5.41986560821533"
"w2_39","-0.544520199298859","-0.828846275806427","-1.81994462013245","0.840333521366119","-3.34233331680298","-2.48778772354126","-3.2029504776001","1.54754316806793","1.12951457500458","0.243028938770294","1.62901043891907","1.93560266494751","1.4447363615036","0.181444332003593","1.50212776660919","-0.598310530185699","2.116947889328","0.139759331941605","0.108643256127834","1.23434484004974","0.241119027137756","-1.39467930793762","-0.315044641494751","0.708498656749725","1.23324656486511","1.30468487739563","-4.25982427597046","0.362016141414642","1.32476449012756","-1.63601410388947","1.05169439315796","-4.9035177230835","0.767758905887604","-0.0320136286318302","0.9819575548172","-0.87226927280426","-0.139095738530159","-1.19815921783447","-0.589177846908569","-0.718374133110046","3.01636338233948","0.356219708919525","-0.407933980226517","-1.02103865146637","-0.680611789226532","1.31430065631866","0.720053195953369","-1.91801881790161","0.00164208980277181","3.68353295326233","0.605096101760864","-1.71180307865143","-1.28974151611328","-0.944186508655548","0.289396226406097","1.88477265834808","0.0212189871817827","3.80375051498413","2.04587626457214","0.787849366664886","2.14082193374634","-1.32990539073944","0.619196951389313","0.452509462833405","1.07054889202118","0.716214776039124","2.28756189346313","-0.219534128904343","-0.0318898744881153","-0.298117309808731","-0.546267747879028","-0.732601642608643","-1.61888456344604","-1.42119932174683","-1.59691298007965","3.49121260643005","-0.588910758495331","0.90198427438736","-1.2303512096405","-2.45386219024658","0.135096460580826","-2.50614404678345","-1.5624794960022","-2.66204714775085","0.818084418773651","1.03573787212372","3.82987761497498","0.127291291952133","-0.349185109138489","-1.00142788887024","1.82323789596558","-3.42584419250488","2.82446575164795","1.95837724208832","-4.58185958862305","0.219306364655495","-0.626446843147278","-0.457749307155609","1.13651013374329","0.986074090003967"
"w2_40","0.122919052839279","0.312320441007614","1.348428606987","-1.1991822719574","0.59896844625473","1.05641674995422","-1.77235901355743","-0.809778869152069","-0.744795560836792","1.58865964412689","0.336700290441513","-1.72794902324677","-1.65837562084198","-0.542482137680054","-2.02531838417053","-1.23220276832581","-0.297124326229095","-0.547304809093475","1.00511014461517","1.0967173576355","0.427591502666473","-0.159455433487892","0.442323178052902","-0.97658759355545","1.22246718406677","-0.426934063434601","-3.41578507423401","0.762875139713287","-0.748079657554626","0.0273966211825609","0.0802829638123512","0.42916265130043","-1.86321556568146","-0.7931267619133","-2.05907416343689","-0.253329038619995","-0.0156254880130291","-1.20322465896606","0.24196295440197","1.09764492511749","2.62565350532532","0.444027006626129","0.508926808834076","-4.60823822021484","-1.03406226634979","0.209688097238541","1.62071585655212","-1.50214195251465","3.69353246688843","-1.44975686073303","0.167265444993973","-0.140579864382744","-0.71662837266922","-0.122051596641541","-0.450148224830627","-0.333101451396942","-0.0700162351131439","-0.505443513393402","1.38864195346832","-0.605729103088379","0.522515058517456","1.12516486644745","0.169813200831413","-0.369695246219635","1.02675104141235","0.630610644817352","-0.751800239086151","0.118006102740765","-1.12628066539764","0.383243650197983","-0.587432026863098","1.18078100681305","0.863035440444946","0.657037019729614","0.0789144709706306","0.0456456765532494","-0.99564790725708","0.738613307476044","2.07911205291748","0.0441634878516197","0.0981133952736855","-2.46594309806824","0.395705848932266","-1.48825800418854","0.126718521118164","1.78668391704559","-3.64000678062439","-0.34292659163475","-0.937080800533295","-2.48613524436951","-0.851419687271118","0.53412526845932","0.00902845151722431","0.750556766986847","2.72269797325134","-0.283058792352676","-0.961878657341003","-2.6932258605957","0.000342255196301267","-1.25678265094757"
"w2_41","-0.70068085193634","0.394293308258057","0.518405556678772","0.410917431116104","0.898339867591858","-0.438480526208878","0.681832432746887","0.573528110980988","-1.06485438346863","0.248123303055763","-0.542040109634399","0.424767106771469","1.31260788440704","1.18416404724121","0.821420609951019","0.206571757793427","0.362737327814102","-1.69682681560516","-0.114252962172031","-0.742197275161743","1.51829254627228","0.306685030460358","-0.064253605902195","-2.06267404556274","0.58537882566452","-0.184045508503914","0.0259807966649532","-0.861424326896667","-0.758509576320648","0.386870175600052","-1.01670777797699","-1.33923161029816","-0.327274709939957","-1.41258478164673","0.335860669612885","-0.0674841850996017","0.382498174905777","0.682954370975494","0.426017642021179","0.631913900375366","1.69852662086487","-1.49234652519226","0.0655369535088539","0.0783898383378983","0.0104132145643234","-1.08832180500031","1.19806754589081","0.827537894248962","-0.996837735176086","-0.739463329315186","-1.15127050876617","0.557925224304199","-0.857471883296967","1.29114258289337","-1.76412677764893","-0.961659967899323","1.11409890651703","1.51658749580383","1.08984935283661","-0.306983053684235","0.0975257009267807","-1.49635720252991","0.159921944141388","-0.80754280090332","0.699192643165588","-0.245400205254555","-0.244621828198433","-1.89148390293121","0.572954535484314","-1.53073525428772","-1.68171727657318","-0.304684460163116","-1.25810050964355","-0.642409443855286","1.58851897716522","1.05518281459808","2.60906386375427","-1.00991880893707","-1.28139245510101","-0.377478301525116","0.728905975818634","-0.93832540512085","-1.55245661735535","-0.0452514179050922","0.578759014606476","-0.873921930789948","-0.308989495038986","0.306734979152679","-0.524587213993073","0.874437093734741","0.741859912872314","0.485712081193924","0.577225923538208","0.534690737724304","-0.309761345386505","-1.53939974308014","0.639010369777679","0.153576299548149","0.275089234113693","-0.0616935528814793"
"w2_42","-1.3702290058136","-2.78002214431763","1.36643576622009","-0.159181997179985","0.199189200997353","-3.20180583000183","-3.7201681137085","-3.54439997673035","-0.705722510814667","0.464883893728256","1.35445857048035","1.50201761722565","0.316132724285126","-0.61909419298172","-0.298639118671417","-0.331008464097977","-1.21581482887268","-5.25797700881958","0.995246529579163","0.12893271446228","0.743464231491089","-0.662354111671448","-0.222086474299431","-8.48680686950684","1.05917859077454","0.739535629749298","1.19187653064728","0.185347750782967","-2.35611391067505","1.64416801929474","-0.0460077524185181","-5.79789209365845","0.897079706192017","-2.2086193561554","0.592606663703918","0.022869523614645","1.02220737934113","-0.713673532009125","0.155784592032433","1.67928063869476","2.41528010368347","2.02284717559814","0.398108273744583","-2.83806610107422","-2.78433871269226","0.00696305418387055","0.709513902664185","0.669810652732849","-1.14124286174774","-5.29541110992432","-1.07187616825104","-1.39242947101593","0.715147912502289","-4.02339696884155","0.315367192029953","-7.04412746429443","-1.0887565612793","-0.576573312282562","-2.13474893569946","-0.346372753381729","-0.188311070203781","-0.61381459236145","-0.541017174720764","-1.97841382026672","1.41987860202789","1.058837890625","0.265165150165558","0.311942458152771","-0.346965283155441","0.406961679458618","-1.3711564540863","0.286900579929352","-3.17730498313904","0.255439966917038","2.02144455909729","2.28876948356628","-0.714532434940338","-0.0763969644904137","-0.482711404561996","1.06792056560516","-1.18803226947784","0.647095084190369","-0.971967041492462","-2.33620548248291","-3.45850467681885","0.523143768310547","-4.60366535186768","-0.37385505437851","-1.40118777751923","1.22706055641174","0.305922657251358","-0.24783781170845","0.675090670585632","-2.3622510433197","-2.25955724716187","-0.0674794167280197","-1.47150778770447","0.54932051897049","-0.765826642513275","-0.26075491309166"
"w2_43","2.23336958885193","-0.691743016242981","0.256757885217667","1.0754873752594","-3.47382879257202","-5.49007987976074","1.67714381217957","-2.31080961227417","0.430927574634552","-0.281128138303757","3.2108097076416","4.34801054000854","3.20695185661316","1.36863124370575","2.10944437980652","0.618477821350098","1.66061472892761","0.230682104825974","2.19099068641663","-1.37893497943878","0.952680289745331","3.82603168487549","-0.515368282794952","-0.00992121454328299","1.90870380401611","-1.08125138282776","-0.245380282402039","2.7896134853363","-0.254991203546524","1.23520648479462","-1.94336688518524","1.61302971839905","5.13794898986816","-1.85518515110016","-1.85568141937256","-0.995295524597168","0.0471683815121651","0.0463067851960659","0.106641829013824","-2.73519730567932","-0.137896686792374","0.325274646282196","-1.99450075626373","1.60211515426636","-0.743560969829559","1.06308579444885","2.60132884979248","-1.29656457901001","-0.503516614437103","-2.25489783287048","-0.30340388417244","0.0022106789983809","0.467640072107315","-2.85773086547852","0.751964330673218","-0.510938584804535","3.43560600280762","1.56283748149872","-0.789367854595184","-1.55505502223969","-1.04975163936615","-1.28589284420013","2.00388598442078","0.979931592941284","3.69768643379211","-0.555908560752869","3.90358638763428","0.882608592510223","0.650308132171631","0.82362288236618","0.0020617360714823","-1.05167257785797","2.10201644897461","1.88078224658966","5.74730634689331","2.38896489143372","4.5789361000061","-0.198002561926842","0.0401329658925533","1.62378227710724","-1.32562100887299","-5.07092666625977","0.216017305850983","0.149644017219543","0.299505531787872","-1.64266288280487","0.515542805194855","0.315838843584061","-1.91158878803253","-0.102130241692066","1.66305994987488","-1.5328973531723","1.8542754650116","-2.03511738777161","-3.40369081497192","-0.453411757946014","-2.31173801422119","1.04948055744171","3.21806168556213","1.42675125598907"
"w2_44","-1.57550191879272","-0.716544210910797","-2.53640055656433","0.362461090087891","0.06821259111166","-1.30299627780914","-0.817788422107697","-1.11416256427765","-0.0352786853909492","-1.39866328239441","0.289706349372864","-1.26506328582764","0.746415495872498","-0.0582903735339642","0.616722106933594","0.592943906784058","0.962420284748077","0.0337698720395565","0.555563449859619","-2.5316207408905","0.95860356092453","-1.37954580783844","2.21392107009888","1.2555183172226","-0.870447397232056","-1.93728792667389","-1.52559554576874","0.509615361690521","1.52103447914124","0.619120717048645","0.186751395463943","-0.490899354219437","-2.05180215835571","0.863226175308228","-0.158842459321022","0.247026309370995","1.67691767215729","-0.0320682115852833","-0.6185702085495","-0.532901883125305","-1.9760617017746","0.821631908416748","-1.38239908218384","0.0239600129425526","0.0113551644608378","-0.831194460391998","-0.696895599365234","0.75826621055603","1.55437684059143","1.0419545173645","-3.48990917205811","1.95357322692871","-1.89391708374023","0.392175763845444","0.667875647544861","-0.257169902324677","-0.463731199502945","-0.100834116339684","5.86385488510132","1.80587530136108","1.29032135009766","0.120466820895672","0.427561908960342","0.0210898444056511","0.326962739229202","-0.901437222957611","0.636387884616852","0.441689729690552","-1.69668924808502","-1.02055418491364","-0.617391467094421","0.640733957290649","0.342374682426453","-1.70420670509338","0.977834582328796","-0.714681327342987","0.366692692041397","-0.109303519129753","0.786286473274231","0.301974236965179","0.697305083274841","-0.0608695819973946","-1.4059636592865","1.68295359611511","0.712861478328705","-0.781806588172913","1.61050534248352","0.179397448897362","1.11764621734619","-0.489425659179688","-0.75742644071579","-0.177013963460922","0.688976883888245","-0.415303289890289","2.29753828048706","1.61873364448547","1.15076971054077","0.0252227522432804","0.919900715351105","-0.347367763519287"
"w2_45","-0.0706553086638451","-2.53758025169373","0.919943690299988","0.75741845369339","0.118982225656509","-2.00766468048096","-0.502400815486908","-6.26039838790894","-0.581945657730103","2.13838720321655","-3.45217347145081","-0.229722559452057","1.36560392379761","1.8991926908493","1.14158546924591","-4.96089220046997","0.198036044836044","-1.45469009876251","-1.80783116817474","-1.41084313392639","1.57481598854065","-0.883494973182678","-4.55864906311035","-0.648036420345306","-0.0378739535808563","-2.03347206115723","0.39785099029541","2.53584861755371","-2.23685336112976","-2.24958872795105","0.500187039375305","1.01987910270691","-0.722898364067078","0.242364555597305","-2.19290971755981","-1.79053068161011","-0.195685207843781","-5.02066993713379","1.53540015220642","2.62955284118652","0.304990172386169","-1.10853457450867","0.267193257808685","1.9350665807724","2.03380513191223","0.968418657779694","0.132642477750778","1.62444174289703","0.127529487013817","-0.742667019367218","-3.21743512153625","1.32366359233856","0.154501557350159","1.20107114315033","-1.72880792617798","0.328717857599258","-1.18484652042389","0.910960674285889","1.94772362709045","0.0928965657949448","-0.297628194093704","0.0328911133110523","1.23446893692017","0.493988662958145","1.1876118183136","0.392320275306702","0.187362089753151","-5.05954122543335","1.27145779132843","-0.35077178478241","2.27971696853638","1.49838495254517","0.763684153556824","-0.954916656017303","0.67963695526123","0.827701926231384","0.46779876947403","-0.688806533813477","-1.09449565410614","-0.697988986968994","-1.17661595344543","-0.290420770645142","-5.57948970794678","-0.217065513134003","0.829428851604462","0.127357736229897","-1.60331475734711","-0.0188080929219723","-0.584545254707336","-1.10440480709076","-0.633803427219391","-0.34131184220314","0.671183466911316","-0.682506024837494","1.24290835857391","-2.93435049057007","0.362141072750092","0.3619065284729","0.318272978067398","-4.15332317352295"
"w2_46","-0.695586740970612","-1.45493710041046","2.0324969291687","0.349907785654068","-0.633066415786743","2.13224244117737","0.661064863204956","1.19066560268402","1.17609131336212","2.21031188964844","-0.025186950340867","-1.95844864845276","1.74086391925812","0.978291451931","-2.3931188583374","1.0736597776413","-2.26056170463562","-0.474318504333496","-0.134665012359619","-0.398105412721634","0.253555923700333","1.43451547622681","2.71108770370483","1.465047955513","-0.0497644729912281","3.17844009399414","2.37987279891968","-1.75763309001923","3.68225741386414","-0.0152280861511827","-0.218812525272369","3.28355574607849","2.08124589920044","-1.22416305541992","-2.21290683746338","0.0287171397358179","1.41060066223145","-0.179700195789337","6.24622297286987","0.526993691921234","-0.764643788337708","-0.226191863417625","-0.126199275255203","-0.897172033786774","1.66124248504639","-0.0445255674421787","0.362749367952347","-0.109367392957211","0.804080188274384","-0.964025318622589","1.38345432281494","-0.546578705310822","0.185195058584213","1.26480758190155","1.0190691947937","-2.34098291397095","-0.655411422252655","0.179855495691299","0.642323434352875","-0.400654196739197","2.34220576286316","2.04594016075134","1.10396099090576","1.50334644317627","-5.49465417861938","0.00486392248421907","0.803436040878296","0.26503598690033","3.13864493370056","-0.580653429031372","3.0275239944458","1.26313102245331","1.21135759353638","-0.0461379699409008","-1.46240055561066","-0.130472645163536","-0.244610190391541","-2.09409761428833","2.98233819007874","0.0126954978331923","1.53434228897095","-5.33152723312378","-3.65927505493164","-0.341356158256531","1.09382605552673","2.51650285720825","-1.3258638381958","-0.118460156023502","-2.613694190979","1.12041747570038","0.320495247840881","-0.638553738594055","0.944672584533691","-2.04913091659546","0.562042057514191","0.629213809967041","1.70378160476685","1.443927526474","1.09756851196289","-2.56897974014282"
"w2_47","0.000537691114004701","1.40058302879333","0.775607228279114","1.1556556224823","-0.0892154797911644","0.625345468521118","0.00226588966324925","1.4100147485733","0.553122520446777","2.73037648200989","-0.342897236347198","-1.42432308197021","-2.51961874961853","-0.419509261846542","1.9384617805481","0.0885656252503395","-0.832385540008545","0.405695974826813","0.877306282520294","0.365666598081589","2.32615351676941","1.10144007205963","1.79476869106293","0.335677742958069","1.07618844509125","3.50719308853149","0.293969362974167","-0.179000645875931","2.67345333099365","1.98058748245239","0.130725637078285","1.01209342479706","0.00385134969837964","-0.82445627450943","1.44260597229004","-3.60652327537537","0.707224726676941","0.0707273185253143","0.00344566651619971","1.11683166027069","0.633522570133209","-1.41819298267365","0.938943386077881","0.0356471538543701","0.185487195849419","-0.888706505298615","1.98909401893616","-0.447156131267548","-0.178408905863762","0.195713371038437","1.07679104804993","1.39820671081543","-1.77453625202179","-1.70958817005157","-0.500315427780151","-0.969714224338531","-0.107009597122669","-1.0231636762619","-1.50061345100403","0.760841608047485","-1.32662546634674","0.234680727124214","-1.04790437221527","-2.18839597702026","-4.03477239608765","-0.344678223133087","0.618845045566559","-0.0640887767076492","-0.519965350627899","0.379738569259644","0.113700799643993","-2.38283729553223","-1.0916246175766","-0.271488696336746","-0.781887650489807","-1.15860855579376","0.267230212688446","2.61181235313416","1.85702216625214","0.76838630437851","3.01708745956421","-0.944889605045319","0.68245667219162","1.67663848400116","-0.533789873123169","1.30066084861755","0.565581858158112","-0.109487481415272","1.20188164710999","1.95522356033325","-0.012364637106657","0.473323822021484","-1.47744011878967","-0.0118641424924135","-0.669382691383362","1.31896305084229","-5.31243324279785","0.0579009503126144","0.356880784034729","0.517702698707581"
"w2_48","0.126833841204643","-1.4191620349884","-0.0820101127028465","-1.07785332202911","-0.900808036327362","-0.0424203313887119","-1.40100467205048","-4.12694120407104","0.830727398395538","-3.5160698890686","-0.642836511135101","0.850596904754639","-0.741274058818817","1.09535813331604","-0.465826869010925","-0.405871897935867","1.09679770469666","0.820084393024445","-6.11674499511719","-3.20333337783813","0.227977499365807","-0.57322633266449","0.76604300737381","0.51095724105835","-0.461583226919174","1.32229971885681","0.369666665792465","0.615682661533356","-0.343608260154724","-1.75181496143341","-1.19863140583038","-0.82000595331192","0.396960496902466","1.0496039390564","-0.0402013882994652","0.0429669581353664","-0.0733959302306175","-0.911256313323975","0.316010653972626","-0.526865780353546","-0.267325967550278","-0.0187568627297878","-0.443686157464981","-0.77701199054718","-0.77417927980423","-0.184900358319283","0.495370626449585","-0.158120378851891","0.19260036945343","-0.627016365528107","-1.778244972229","-4.81895685195923","-0.322608262300491","-0.778463780879974","-4.58932304382324","-0.783851563930511","1.42955982685089","1.02629518508911","-0.798778057098389","0.564148902893066","-0.580849289894104","0.0385038182139397","0.42629399895668","-0.574767231941223","-2.27838468551636","-1.23645186424255","1.10980045795441","-1.61250936985016","-1.40483641624451","-0.254180938005447","-2.2882981300354","-1.07128620147705","0.168196737766266","-1.2362242937088","-0.662308037281036","-0.786450386047363","-1.10018444061279","-3.72897386550903","-1.57402360439301","-0.726580798625946","-3.74263000488281","1.24673974514008","-0.51145076751709","1.37039148807526","-0.160878241062164","0.869349837303162","-0.140998661518097","-0.635949492454529","0.183605387806892","0.39057245850563","0.015316054224968","0.097814716398716","0.110234618186951","0.432884752750397","1.57679617404938","-1.32802057266235","0.439419001340866","0.782740354537964","-1.1881251335144","-1.20280754566193"
"w2_49","-2.28192496299744","-2.92712235450745","0.374943614006042","1.88571166992188","-3.32553243637085","1.48786008358002","2.9608781337738","0.300911545753479","-2.42543721199036","1.87776398658752","-2.66026616096497","5.38080167770386","1.58308613300323","-0.208183169364929","3.14214658737183","6.04973697662354","4.23273468017578","0.373536676168442","0.572896718978882","-1.18179154396057","-0.747227907180786","-1.55572807788849","-8.11949157714844","-0.532074987888336","2.02040886878967","0.465692907571793","-0.241631045937538","2.61216044425964","1.72273623943329","-0.544231355190277","-0.394450306892395","-0.0789669305086136","0.0613209381699562","-2.73742461204529","-0.194591954350471","1.17786467075348","-2.58600974082947","2.34095168113708","-0.516537368297577","3.01498174667358","2.50925612449646","-4.83954334259033","1.63446152210236","-1.36788105964661","-0.495547086000443","0.303884148597717","1.94015538692474","3.37744545936584","-1.21901667118073","-1.23229897022247","-4.37865924835205","-0.633219420909882","0.868596196174622","0.770887017250061","-0.869617700576782","-0.47294893860817","-0.0422003120183945","2.11809778213501","3.75782895088196","-0.583271265029907","-1.38947725296021","0.884078919887543","-0.320420175790787","1.0575624704361","2.16950106620789","0.73198664188385","-0.30031943321228","0.534055113792419","-1.44073557853699","-0.678635597229004","1.35874259471893","-4.13926982879639","2.79593706130981","-1.0662956237793","0.569396674633026","2.26581454277039","0.355184853076935","0.128933697938919","0.283551454544067","0.930818915367126","-0.292097598314285","-2.20013761520386","-0.283558249473572","-3.20790648460388","1.33195245265961","-1.2882913351059","-1.48968112468719","0.996778607368469","-10.0249710083008","1.35358893871307","-1.29704427719116","-0.188325330615044","-0.612176239490509","1.52801167964935","-1.45596957206726","-1.32563924789429","-4.21981811523438","1.1222335100174","0.222227916121483","-1.85229182243347"
