"dummy","w2_1","w2_2","w2_3","w2_4","w2_5","w2_6","w2_7","w2_8","w2_9","w2_10","w2_11","w2_12","w2_13","w2_14","w2_15","w2_16","w2_17","w2_18","w2_19","w2_20","w2_21","w2_22","w2_23","w2_24","w2_25","w2_26","w2_27","w2_28","w2_29","w2_30","w2_31","w2_32","w2_33","w2_34","w2_35","w2_36","w2_37","w2_38","w2_39","w2_40","w2_41","w2_42","w2_43","w2_44","w2_45","w2_46","w2_47","w2_48","w2_49","w2_50","w2_51","w2_52","w2_53","w2_54","w2_55","w2_56","w2_57","w2_58","w2_59","w2_60","w2_61","w2_62","w2_63","w2_64","w2_65","w2_66","w2_67","w2_68","w2_69","w2_70","w2_71","w2_72","w2_73","w2_74","w2_75","w2_76","w2_77","w2_78","w2_79","w2_80","w2_81","w2_82","w2_83","w2_84","w2_85","w2_86","w2_87","w2_88","w2_89","w2_90","w2_91","w2_92","w2_93","w2_94","w2_95","w2_96","w2_97","w2_98","w2_99","w2_100","w2_101","w2_102","w2_103","w2_104","w2_105","w2_106","w2_107","w2_108","w2_109","w2_110","w2_111","w2_112","w2_113","w2_114","w2_115","w2_116","w2_117","w2_118","w2_119","w2_120","w2_121","w2_122","w2_123","w2_124","w2_125","w2_126","w2_127","w2_128","w2_129","w2_130","w2_131","w2_132","w2_133","w2_134","w2_135","w2_136","w2_137","w2_138","w2_139","w2_140","w2_141","w2_142","w2_143","w2_144","w2_145","w2_146","w2_147","w2_148","w2_149","w2_150","w2_151","w2_152","w2_153","w2_154","w2_155","w2_156","w2_157","w2_158","w2_159","w2_160","w2_161","w2_162","w2_163","w2_164","w2_165","w2_166","w2_167","w2_168","w2_169","w2_170","w2_171","w2_172","w2_173","w2_174","w2_175","w2_176","w2_177","w2_178","w2_179","w2_180","w2_181","w2_182","w2_183","w2_184","w2_185","w2_186","w2_187","w2_188","w2_189","w2_190","w2_191","w2_192","w2_193","w2_194","w2_195","w2_196","w2_197","w2_198","w2_199","w2_200"
"w1_1","0.156649067997932","-0.0724551826715469","0.0224760472774506","-0.0421078391373158","0.0274603329598904","0.0333918556571007","0.00870021432638168","-0.00208744872361422","0.0881156846880913","-0.0266814921051264","-0.035159807652235","-0.0639684200286865","0.0450559183955193","-0.000173320120666176","-0.0772622376680374","-0.0238681584596634","-0.00993041135370731","0.0202242601662874","-0.00131900061387569","0.0551062747836113","0.0628348737955093","0.0250043757259846","0.132288709282875","0.00946108810603619","-0.112094037234783","-0.0136330407112837","0.112330324947834","-0.020392058417201","-0.272903740406036","-0.106008559465408","0.0163039211183786","0.189380005002022","0.00477219512686133","-0.00512905512005091","0.250460118055344","0.0163504704833031","0.0931914523243904","-0.0298962853848934","0.0171426497399807","0.0799750983715057","0.122785359621048","0.055785808712244","-0.114242546260357","0.00648616487160325","0.115946516394615","0.0178068112581968","-0.0181871205568314","0.00147518876474351","-0.0211144462227821","-0.0452737808227539","-0.0693932697176933","-0.11254970729351","-0.00572948902845383","-0.0627954229712486","0.0075611206702888","0.0161112118512392","0.00670942384749651","-0.00615485478192568","0.0484315678477287","0.174576058983803","0.317006170749664","-0.0683995485305786","0.166684553027153","0.0208616368472576","-0.04256771504879","0.00206874380819499","0.0445867329835892","0.0737722367048264","-0.0137989660724998","0.0241114590317011","0.102553129196167","-0.0858651995658875","0.0469402782618999","-0.170240685343742","0.0981672182679176","0.00279955635778606","0.0167724508792162","0.189166441559792","0.0167154856026173","-0.0606800578534603","0.0347007289528847","0.115637898445129","-0.0998415872454643","-0.0374684855341911","-0.139645934104919","-0.0128082875162363","-0.0472710989415646","-0.0371603220701218","-0.037497166544199","0.000381600897526368","0.119159765541553","-0.0686638727784157","-0.0227991323918104","-0.0187002345919609","0.0750618353486061","-0.00197841436602175","-0.0525993257761002","-0.0372941456735134","-0.0163758657872677","-0.0623717717826366","0.0868519842624664","0.0380360409617424","0.127152293920517","-0.0455609858036041","0.0132456356659532","-0.0100061595439911","-0.0283765364438295","0.0532519556581974","-0.0806136801838875","-0.150858297944069","-0.0851282998919487","-0.0625500380992889","-0.010418064892292","0.0344469025731087","-0.0344706475734711","-0.0829767137765884","0.293339222669601","0.0190278813242912","0.0335133038461208","-0.00638262601569295","0.0346064381301403","0.032457310706377","-0.00376419420354068","0.111316822469234","-0.048297081142664","-0.0364311449229717","0.0466699227690697","0.0325257144868374","0.0878462418913841","0.0535080209374428","0.113584756851196","0.0401752330362797","0.000714339024852961","0.0847259759902954","6.17641198914498e-05","-0.129839092493057","0.0937744826078415","-0.00927099771797657","0.00785841699689627","0.0989201441407204","-0.0813998654484749","-0.00385238043963909","0.0153260454535484","0.0216442961245775","-0.107366599142551","-0.132260337471962","0.161130681633949","-0.0551568418741226","-0.0838837251067162","-0.0285349525511265","0.0390100032091141","0.0594006069004536","-0.0319169871509075","-0.0193446464836597","0.00506301922723651","-0.171710953116417","0.0759976282715797","0.0665466636419296","-0.0101817874237895","-0.0416566506028175","-0.118724033236504","0.0667833462357521","-0.0320377498865128","-0.0487589575350285","0.0239874348044395","-0.0898765996098518","-0.0157982744276524","0.0803166627883911","0.196616321802139","-0.032035268843174","-0.000714435474947095","-0.0880033224821091","0.00667806761339307","-0.00107197964098305","0.00183102185837924","0.0245210025459528","0.0929784327745438","0.0486735254526138","0.0442460365593433","0.0178145226091146","0.0878309980034828","0.290949165821075","-0.0967611372470856","0.0357500053942204","-0.00673617841675878","-0.00469286227598786","-0.39672002196312","-0.0347931236028671","0.030102364718914","-0.104139432311058","-0.0282241757959127","-0.0730754286050797","0.0192711967974901","-0.0237332116812468","-0.100660294294357","0.0476187244057655","-0.0405971556901932","0.0549522377550602","0.091026745736599","0.0753320381045341"
"w1_2","-1.00281870365143","1.06170010566711","1.1612251996994","0.596574783325195","-0.538327932357788","0.76970249414444","-0.699274897575378","0.368603229522705","-0.872243225574493","-1.64160060882568","1.40741384029388","0.55555123090744","-0.360801726579666","0.28593921661377","-0.339596599340439","-1.14604139328003","-1.18825399875641","-0.431847631931305","0.415085762739182","-0.0469328090548515","0.60779082775116","-0.207392781972885","0.274188548326492","-0.204581752419472","-0.134534806013107","1.5078182220459","1.73321127891541","-1.5141282081604","-0.183761119842529","0.375973701477051","0.0318002626299858","0.992998480796814","-1.29574084281921","-1.48500323295593","1.10893881320953","-0.71738988161087","-0.828678607940674","-1.65153908729553","0.657188177108765","0.191747143864632","-1.07894837856293","3.19588923454285","-1.21525478363037","0.663101732730865","-0.978899359703064","0.972955703735352","1.65545749664307","-1.66929888725281","2.39490032196045","-0.116597637534142","0.389850080013275","0.464159935712814","0.118868857622147","1.48217368125916","0.634771227836609","1.53598701953888","-1.23650670051575","0.0730195268988609","0.724061846733093","1.63287556171417","-0.337023019790649","2.69711017608643","1.31916129589081","-0.366034954786301","-0.155763030052185","-1.35965716838837","1.95391571521759","1.87558436393738","-0.330086529254913","-0.12311951816082","-0.876770496368408","0.371210128068924","-0.247915387153625","-2.07795071601868","0.924719870090485","1.22389721870422","-2.94452571868896","1.0453417301178","2.17083835601807","-1.17950618267059","0.5928955078125","-0.0913829430937767","0.487852662801743","1.29122531414032","-0.241707280278206","-0.0558258183300495","0.17791086435318","0.503959536552429","-0.445463329553604","0.936847984790802","0.145718276500702","0.66564804315567","2.15113639831543","1.16760683059692","0.436278998851776","0.0197050310671329","-0.674763202667236","0.369202613830566","-1.56060314178467","-1.91951906681061","0.46622559428215","-0.0642735660076141","-0.516501307487488","1.23593974113464","-1.67733800411224","1.31220281124115","0.399941712617874","-1.2311943769455","-0.515866339206696","-0.105148054659367","0.489728897809982","-0.0613860487937927","-0.718663036823273","-0.278669834136963","0.493022531270981","0.200615212321281","-0.0512001700699329","-1.22386121749878","0.513220965862274","0.328597903251648","-0.861991703510284","-1.68751537799835","0.657437562942505","-0.436585515737534","-1.2119117975235","-0.160510927438736","-2.64346551895142","-0.747067272663116","0.328492701053619","1.14334344863892","-0.629897892475128","0.256754666566849","1.22876787185669","-1.03920638561249","-0.457727253437042","-2.52083516120911","0.066011056303978","2.06964254379272","0.510400831699371","-1.07703053951263","-0.0935943052172661","0.271389156579971","-1.29365622997284","0.727638185024261","-1.03887534141541","0.535186290740967","0.571146786212921","1.7241278886795","0.597995400428772","0.290744096040726","-1.96307826042175","-0.337161302566528","0.260434150695801","-0.0808610022068024","1.52881813049316","-1.12466490268707","2.09956693649292","0.476661324501038","1.72956824302673","-0.71883636713028","-2.85552525520325","0.823424816131592","0.673113942146301","-0.0774331465363503","-0.603730738162994","0.210204139351845","2.50390481948853","-0.635662913322449","0.178194344043732","-0.94554603099823","0.112247437238693","-0.158152997493744","1.34702813625336","0.711369454860687","-0.614462673664093","-0.444287061691284","0.047466941177845","-0.610926806926727","0.570343196392059","-0.842888653278351","0.367811679840088","-0.457303434610367","0.235612943768501","0.0740010291337967","2.37631320953369","1.84486389160156","-0.318362474441528","0.746707320213318","0.761771678924561","0.858514964580536","0.851759076118469","-0.160790830850601","-0.218944400548935","-0.800707578659058","0.221874833106995","0.182127088308334","0.727800786495209","1.2673442363739","0.466475576162338","-3.6047945022583"
"w1_3","0.653695583343506","-1.06776571273804","0.838375926017761","-3.64593815803528","0.896311819553375","-1.72686767578125","-0.672279059886932","0.437623202800751","-0.0416499711573124","0.625380337238312","1.02319836616516","-0.655862748622894","-1.40539920330048","-1.47716629505157","-0.587945282459259","0.0928603857755661","-1.80528342723846","1.37824320793152","0.778065919876099","0.0034991605207324","-0.29952147603035","-1.37540626525879","-1.15012991428375","-0.428530514240265","-1.13522148132324","-0.000631125178188086","0.520655035972595","-0.921645939350128","-2.42156076431274","-0.0708469450473785","1.1629490852356","0.00605653459206223","-0.014965858310461","0.494315803050995","0.882446765899658","-1.39729571342468","0.488577127456665","-0.0287267100065947","0.731665432453156","2.41818904876709","0.137004032731056","1.02718889713287","0.326383858919144","1.33055353164673","-0.563298523426056","0.172930270433426","-1.501629114151","-0.41745463013649","0.84702605009079","-0.533609926700592","-3.61175847053528","-0.407717555761337","0.363081455230713","-0.48307928442955","0.83037942647934","0.172944098711014","1.04140377044678","-1.30960857868195","-1.3104681968689","1.23985540866852","0.610079646110535","-0.502796947956085","1.02054858207703","-1.4064747095108","1.94579756259918","-0.525841295719147","-0.14953576028347","-0.605491042137146","1.84330368041992","0.02371646463871","0.352432429790497","1.39277315139771","0.812512516975403","0.157861337065697","0.24186746776104","-0.103436030447483","-1.14637863636017","-1.18660283088684","0.51176244020462","-1.26026475429535","1.34544241428375","1.37896013259888","0.309994339942932","0.126302093267441","1.72837543487549","0.913008332252502","-0.439831912517548","-3.36421775817871","1.55027067661285","-1.32213151454926","1.85493612289429","-2.59437870979309","1.21760106086731","-0.182829052209854","2.75251340866089","0.738701164722443","0.226847350597382","-1.15841627120972","-0.382489681243896","-0.388541251420975","-0.225162461400032","1.43466460704803","1.552530169487","1.37173199653625","2.30358552932739","-0.494753807783127","-1.93513882160187","-1.74231815338135","-1.05952727794647","0.299431502819061","2.57184028625488","-1.31740272045135","-1.80743384361267","-1.91123640537262","-0.910344123840332","2.53103160858154","-0.395402282476425","0.110852465033531","-0.989159464836121","-1.77075910568237","1.14088690280914","0.31192073225975","0.413483887910843","1.0135178565979","0.837989211082458","0.235560208559036","-1.67594766616821","-2.58087801933289","-1.71470427513123","1.20016252994537","-0.259375184774399","1.22909951210022","3.03194165229797","1.19848716259003","-1.01496624946594","-0.193264037370682","-1.01015198230743","-1.50774300098419","0.249583870172501","-1.81115293502808","0.93022608757019","0.437332957983017","0.765199959278107","-1.50494778156281","1.79093086719513","0.3523328602314","-0.104506753385067","-1.70806777477264","1.51431751251221","0.544522166252136","0.271260797977448","-2.19494915008545","0.0163831692188978","0.883660972118378","-0.553424715995789","0.755394399166107","-0.454459130764008","-0.133386239409447","-0.679034829139709","0.314924389123917","0.893326997756958","1.57857310771942","-0.442269951105118","-0.152440175414085","0.231227934360504","0.223210990428925","0.171665817499161","3.24195122718811","1.29872930049896","0.0978639721870422","-1.69953560829163","1.92553281784058","0.683554351329803","-0.489237815141678","-0.89075118303299","0.434139400720596","0.496769607067108","-0.925782382488251","-0.49743589758873","-2.68812799453735","2.22084760665894","0.272855848073959","1.43041908740997","-0.00412270659580827","-0.968418180942535","0.786641359329224","-0.110091738402843","-0.0898668617010117","-0.712445437908173","-1.88732242584229","-1.14252042770386","0.524986982345581","0.407328456640244","-1.68090343475342","-1.37496292591095","0.999818801879883","-1.84799349308014","-1.11883068084717","-1.72739028930664","0.667279481887817"
"w1_4","-0.0417790152132511","-0.85936975479126","0.437767893075943","0.725013911724091","0.736281156539917","-0.701404333114624","-1.01048839092255","-1.14048087596893","-0.450012654066086","0.181677475571632","1.49491751194","1.18454396724701","0.593022882938385","2.22362422943115","1.1183979511261","-2.48308610916138","0.780080556869507","0.792494475841522","1.1446795463562","-0.211763694882393","-1.41829609870911","1.23807609081268","1.44144248962402","-0.790934860706329","0.950466692447662","0.388345032930374","-1.41790080070496","-0.805993556976318","-0.352122008800507","0.963499009609222","0.762080311775208","2.66105031967163","1.24341952800751","0.131869226694107","0.948354780673981","0.122039884328842","-0.270047068595886","-0.873682916164398","0.636042535305023","0.0612982623279095","-1.62167513370514","0.113246932625771","0.223420336842537","0.29118424654007","-2.79592752456665","-0.00401550158858299","5.32690143585205","-2.40714192390442","0.513704299926758","1.91879570484161","-0.832570552825928","0.830967783927917","-3.06975984573364","0.0848869010806084","0.0153233204036951","0.0423272699117661","-0.317891627550125","-1.12970411777496","-0.0496981330215931","0.967910528182983","0.165479555726051","-3.03207635879517","-0.437460869550705","-0.745336830615997","0.679376125335693","1.48143768310547","1.53482639789581","1.2182195186615","-0.588827610015869","-0.168191656470299","0.515421628952026","-0.162435948848724","1.72587144374847","2.04601049423218","1.019615650177","0.743973135948181","0.202403172850609","1.02903258800507","-2.73612523078918","-1.73737859725952","-1.10075700283051","1.95402681827545","0.439664721488953","1.04911375045776","1.29369914531708","-0.346220910549164","0.908103287220001","-0.0491251312196255","1.8883718252182","2.81548595428467","-0.777201533317566","2.10339951515198","0.204198867082596","0.782957136631012","-0.366322845220566","1.39108657836914","-1.45604050159454","1.51978588104248","-1.035688996315","-2.02562427520752","-0.342708349227905","0.581877946853638","0.00299918837845325","0.122333943843842","0.636021375656128","0.749684572219849","-0.662779748439789","-0.483823895454407","-2.83543276786804","-0.292143195867538","0.525207698345184","-0.154581621289253","-0.516920804977417","-0.628453135490417","-2.70495176315308","-1.21469271183014","0.650649607181549","0.845910310745239","2.06749296188354","-0.0107530225068331","-1.51861476898193","-0.0975246578454971","-0.36852490901947","0.554370224475861","-0.367746084928513","1.85383605957031","-0.989795506000519","1.02216172218323","-0.10698701441288","1.02516567707062","0.366352826356888","0.582583904266357","3.39246153831482","0.0955806821584702","-0.0567828379571438","1.16603446006775","0.0488970130681992","0.160599634051323","2.10350203514099","0.78989189863205","1.15625","-1.97663998603821","-1.06466674804688","1.85943138599396","0.601671695709229","3.24534130096436","3.95432806015015","1.23245894908905","0.429971665143967","-1.37599337100983","1.17513000965118","-0.209937736392021","-1.51863634586334","1.35738170146942","4.02765035629272","-0.135742589831352","0.80123382806778","0.385526478290558","-0.743747413158417","0.421541303396225","-3.10382103919983","-0.055585689842701","1.12655818462372","-0.503620862960815","0.0395151823759079","0.955641448497772","-0.528365790843964","0.32781183719635","1.49138474464417","1.18968629837036","0.0125468205660582","0.599593222141266","-0.177731826901436","0.230646267533302","0.253922343254089","0.642903745174408","0.299005806446075","-0.14911425113678","0.138736292719841","-0.851020276546478","-1.44904816150665","-1.80389249324799","-0.775037586688995","0.898080945014954","2.10014939308167","0.510384559631348","0.591719567775726","0.29145422577858","0.414294600486755","-1.73960161209106","3.81063580513","1.1183830499649","1.91648590564728","-0.947551369667053","1.55083620548248","0.050217043608427","2.0255389213562","1.11227250099182","1.02224409580231","-0.352939963340759"
"w1_5","-0.0215608440339565","-0.0235011838376522","-0.0966187566518784","-0.020897077396512","-0.0328217595815659","-0.0162497628480196","0.0397192053496838","-0.0707321763038635","0.00825824961066246","0.0482441782951355","-0.03136071190238","-0.0448066256940365","-0.0211324524134398","0.0521019846200943","-0.0709370523691177","-0.0113162640482187","-0.25975176692009","-0.11049247533083","0.0417509488761425","-0.0371318012475967","-0.0699258670210838","-0.021696288138628","-0.048681229352951","-0.0145425293594599","0.10912100225687","-0.0551333725452423","-0.0867892727255821","0.0227555781602859","0.00991534534841776","0.00574360135942698","0.0464997217059135","-0.0620179511606693","0.058273259550333","-0.0387278757989407","0.108173631131649","-0.0687128379940987","0.0688890293240547","0.135411649942398","-0.0265732426196337","-0.148810714483261","0.148993477225304","-0.0132592543959618","-0.0465684533119202","-0.0239311195909977","-0.0152120310813189","0.049171008169651","-0.0717874020338058","0.0603039301931858","-0.0511406473815441","0.0451538041234016","0.106658436357975","-0.0182126313447952","0.0283034350723028","-4.5251872506924e-05","-0.0187948103994131","-0.0668857544660568","0.0367350652813911","0.0845241025090218","-0.0949489325284958","-0.027805982157588","0.109640531241894","0.0438905917108059","-0.0149580240249634","0.0475717671215534","0.00485018035396934","-0.0901117697358131","0.0191513318568468","0.0947790518403053","0.0251633878797293","-0.0404510982334614","-0.0210614092648029","-0.157598778605461","0.0508212484419346","-0.0568446889519691","-0.0549991801381111","0.191248208284378","0.163525491952896","0.0722999349236488","0.0112678576260805","-0.00884150993078947","0.0439509861171246","0.0623862743377686","0.0203991755843163","-0.121166795492172","0.00852718856185675","-0.0602084770798683","0.124453738331795","0.0679692775011063","-0.0245490986853838","-0.0479554049670696","0.015417069196701","0.151053890585899","-0.0304155051708221","0.0312836989760399","-0.0918546915054321","-0.0145804220810533","-0.0896022319793701","0.0609374903142452","0.166046023368835","0.103885486721992","0.0309900343418121","0.00130997342057526","-0.0587871223688126","0.0282813906669617","-0.0508528985083103","-0.0306092351675034","-0.0814546644687653","-0.0149034755304456","0.0956646278500557","-0.00977456755936146","-0.024281146004796","-0.118966817855835","-0.0616626292467117","0.113870538771152","0.00332488911226392","0.0976455062627792","-0.543485462665558","-0.0846904367208481","0.0861154943704605","0.0871495828032494","0.0357737578451633","0.0153930811211467","0.0151795530691743","-0.0181712843477726","-0.141071751713753","-0.00374649185687304","-0.116189725697041","0.0302778091281652","0.0257117133587599","-0.0219599511474371","-0.174386218190193","0.00978554505854845","-0.0338917225599289","0.0922919511795044","-0.0249472819268703","-0.08531104773283","-0.0561727993190289","0.0773564949631691","-0.101712666451931","-0.0263861510902643","-0.255174398422241","0.106756374239922","-0.277659326791763","-0.059122696518898","-0.0141344349831343","-0.0195487886667252","0.0382991433143616","0.154286280274391","-0.035714752972126","-0.0168928410857916","-0.0494775474071503","-0.0752518475055695","-0.00228778598830104","0.120164349675179","0.00612991396337748","-0.103821747004986","-0.074129119515419","-0.0178268570452929","0.143951401114464","0.0583436712622643","-0.0278569348156452","-0.0177391041070223","-0.0385286286473274","0.0507479757070541","0.0902464985847473","0.0614793114364147","-0.0363951809704304","-0.0261958464980125","0.0215142648667097","0.0344203971326351","0.0212909802794456","0.0464626848697662","0.0606648325920105","-0.0807089656591415","0.00776694947853684","-0.0676323398947716","-0.0473334304988384","0.0614094361662865","-0.282862484455109","0.0797155648469925","0.031558133661747","0.00583308050408959","-0.0100968591868877","-0.0547311753034592","0.0523803681135178","-0.107089452445507","-0.102157697081566","0.00278229033574462","0.0675413459539413","0.0490998364984989","-0.0351376906037331","0.00475243851542473","-0.101188451051712","0.0762341693043709","0.144082695245743","-0.014145378023386","0.0332548953592777","0.0259232595562935","-0.0164031572639942","0.365206032991409"
"w1_6","0.0569898076355457","-0.615096747875214","0.99168062210083","-0.820934593677521","-1.65724062919617","0.41986158490181","-1.18911385536194","-1.08990752696991","1.07232391834259","0.257533878087997","0.462933629751205","0.692557394504547","0.905199289321899","1.22198271751404","0.304935395717621","0.806635439395905","1.09983551502228","-0.311968475580215","-3.43217039108276","-0.719973266124725","-2.17216515541077","0.676129579544067","-0.143360942602158","-1.13133656978607","-0.157197296619415","0.369865536689758","0.151926204562187","-0.25291046500206","1.59457862377167","-0.136291041970253","-1.13862371444702","1.74442541599274","-0.198410108685493","1.19329273700714","0.069834478199482","0.467671424150467","0.85022109746933","-0.324916392564774","-0.383318871259689","0.754604518413544","0.27899107336998","-0.989971935749054","-0.853363335132599","-1.67956149578094","1.67902600765228","-1.32381165027618","-1.02474081516266","0.392184793949127","-3.68243503570557","0.837500751018524","2.30698847770691","0.200283408164978","0.6071617603302","1.04943335056305","1.21833777427673","1.0229229927063","0.184141471982002","0.301838159561157","-0.655185878276825","1.43594443798065","0.559816300868988","0.451090157032013","1.39035165309906","-0.538628697395325","-1.03062987327576","-0.169008955359459","0.62146008014679","-0.291248142719269","-0.692697823047638","-2.91449379920959","0.984893918037415","-1.88549470901489","0.858030676841736","0.271170377731323","-1.73552739620209","1.85924541950226","-1.08893024921417","-3.75507378578186","0.522613108158112","0.28838786482811","-1.16074347496033","0.721217811107635","-2.99491357803345","-1.17962825298309","1.13997709751129","1.55511856079102","0.349710762500763","1.66114926338196","-0.455619066953659","0.779056906700134","0.458397507667542","-1.34816944599152","0.417391240596771","-2.10162234306335","-3.16343927383423","-0.49590852856636","0.548062562942505","-1.65865683555603","-0.309267580509186","-0.518059492111206","0.457127928733826","0.0651930198073387","0.47800225019455","-0.59063047170639","0.842074513435364","-0.247612029314041","0.204426407814026","-1.03426969051361","-0.716899573802948","-0.589261651039124","-1.06520164012909","-0.851737499237061","-0.0850714445114136","0.11411327123642","1.75067901611328","-0.92955070734024","-0.0693593323230743","-1.20854926109314","0.760911583900452","-0.508818209171295","-0.00639372318983078","0.708069860935211","1.01945602893829","-1.15179181098938","-1.1885724067688","-0.454858273267746","0.384649753570557","-0.182407706975937","-0.812905669212341","0.0517044216394424","-1.74153423309326","0.358167052268982","-2.15136623382568","-0.361704379320145","0.957993149757385","0.218899309635162","1.25020122528076","1.13410699367523","-2.18289971351624","-0.171330094337463","0.701970636844635","0.041215505450964","0.57834380865097","1.04180073738098","-0.684700429439545","-1.61526048183441","0.955465734004974","1.8876143693924","-1.40074574947357","1.43246364593506","-1.16587734222412","-0.545488119125366","-0.724960088729858","-0.881288230419159","0.325853705406189","0.399592190980911","2.28543400764465","-0.682937145233154","-0.392441928386688","0.984664797782898","-0.0191305428743362","-1.09958732128143","-0.147903591394424","-0.814483761787415","0.799632966518402","1.09958386421204","-1.94830787181854","-3.49016427993774","2.22336983680725","1.40658438205719","0.259526818990707","1.91465163230896","0.111249342560768","-0.586852014064789","-1.04726552963257","1.68363797664642","0.135703563690186","-0.780754446983337","1.44467520713806","-1.97156620025635","-1.87320184707642","1.9876081943512","-2.41435933113098","-0.937452971935272","0.241084530949593","0.523282170295715","0.261959373950958","-1.23558032512665","-0.724359333515167","-0.0321807228028774","-0.346976161003113","-0.758287131786346","1.66422617435455","0.357524424791336","-1.54678022861481","0.610175669193268","0.845054924488068","-0.562675058841705","1.62307000160217","-0.285856068134308"
"w1_7","-0.469626635313034","0.0637037679553032","-0.20348496735096","0.302095025777817","-0.0639786794781685","0.282240808010101","0.80854743719101","0.183996468782425","-0.0498564206063747","1.95903778076172","2.23561382293701","0.260051429271698","-0.821333467960358","0.689529776573181","0.83695262670517","0.368598818778992","0.716558337211609","1.43945074081421","1.31177496910095","2.52737855911255","1.65658283233643","0.471893399953842","-0.443918913602829","1.58248734474182","-0.110454343259335","1.76898419857025","-0.00966012012213469","0.770649373531342","0.671222746372223","-0.0422750674188137","0.477855443954468","1.95271408557892","-0.954441130161285","1.37998175621033","1.09771859645844","0.770435512065887","-1.02067768573761","1.4161456823349","-0.478363662958145","-1.17971086502075","0.376397132873535","0.194516435265541","0.513173043727875","-0.374508410692215","1.42357063293457","0.590112805366516","0.581922650337219","0.110595896840096","1.26522183418274","0.575936019420624","-1.74286615848541","0.105892598628998","-0.1065888479352","1.04173970222473","-0.402272880077362","0.814686059951782","0.357366770505905","-0.883738458156586","-1.21244359016418","2.10386943817139","1.05934929847717","-0.535588622093201","0.467652052640915","-0.989502012729645","1.09412658214569","0.480579882860184","0.672868430614471","0.0572685785591602","-0.369794487953186","0.813286662101746","-0.925502717494965","1.21157586574554","-0.22468464076519","1.83250403404236","1.94659411907196","0.247283354401588","-0.0409171469509602","-1.49469697475433","-0.676468670368195","0.778848588466644","1.08934473991394","1.63884389400482","-1.00710201263428","-0.325805872678757","-0.056044016033411","-1.27358019351959","1.59511244297028","1.74060344696045","0.850959062576294","1.14042437076569","1.1212215423584","0.521447122097015","2.43264842033386","1.76800799369812","0.806575059890747","2.53717064857483","0.0250829644501209","1.5351630449295","0.0615763142704964","0.437131643295288","4.56257057189941","-0.506549775600433","1.40750813484192","-0.485357969999313","0.428485870361328","1.93733835220337","-2.10479021072388","0.123322635889053","1.06818032264709","0.622490763664246","1.3425999879837","1.94266605377197","0.454086929559708","-0.168273821473122","0.77531635761261","-0.25682869553566","0.319332361221313","-0.258685022592545","-0.271195113658905","1.70586264133453","2.03934788703918","-1.38828766345978","0.375814199447632","0.42547595500946","1.41544210910797","2.31167030334473","0.234755381941795","1.62172985076904","-0.388033598661423","0.713026702404022","0.653836190700531","0.030779205262661","1.65136301517487","-0.245034068822861","-0.589726090431213","0.746120810508728","-0.00487269088625908","0.166490897536278","0.508926212787628","2.49278831481934","0.393845617771149","-0.206390097737312","-0.700711846351624","-0.723259031772614","-0.798630833625793","1.98946559429169","1.58035695552826","1.27278518676758","1.92256128787994","-0.491806834936142","2.12206411361694","0.0572087988257408","0.0674510598182678","1.54088723659515","1.91834533214569","-0.240159720182419","-0.347418397665024","-0.0211459062993526","-0.0272230133414268","-0.325358927249908","-1.10339963436127","0.20875446498394","0.890534996986389","1.08769273757935","-0.577232718467712","0.467484205961227","1.3443089723587","0.566098570823669","0.564338564872742","-1.27139461040497","-2.24397540092468","0.606471300125122","-1.16537165641785","0.387017130851746","-0.142483755946159","-0.348033219575882","-0.376205205917358","-1.32154679298401","0.632550537586212","1.13398706912994","1.39738404750824","0.940838992595673","0.364073395729065","0.0157677885144949","1.3524249792099","-0.385307282209396","0.429664969444275","1.40266036987305","-0.656566381454468","0.361028373241425","1.06491482257843","-0.281685680150986","-0.772686362266541","0.229704305529594","1.97687184810638","0.203392997384071","2.54604601860046","0.367278397083282","-0.472841411828995","1.12329709529877"
"w1_8","0.347184419631958","-1.64547610282898","-1.41491866111755","0.0544959418475628","-3.05600833892822","0.249200895428658","-0.112135551869869","-0.994170129299164","-4.8895411491394","-3.14931416511536","-1.28621554374695","0.773535549640656","-0.994442641735077","0.356432795524597","0.646689653396606","1.00218272209167","-1.02178347110748","0.16451433300972","-0.965765058994293","0.54251229763031","-1.21942126750946","1.89144027233124","-0.733309984207153","-4.34321403503418","2.22798013687134","1.20834195613861","0.312527239322662","-2.95582556724548","0.423508852720261","0.400607317686081","-0.81671553850174","2.05910134315491","0.352304577827454","1.29345762729645","1.0013986825943","0.0577072240412235","0.00849433615803719","1.661128282547","-0.292215794324875","-1.29574584960938","-1.54139316082001","1.15618753433228","-2.1417224407196","0.385078459978104","1.92553651332855","0.250312894582748","-0.493365943431854","2.01883864402771","3.06668591499329","0.272045314311981","1.36247134208679","0.558378338813782","-3.15135622024536","-0.610682189464569","1.3162317276001","2.25733184814453","-2.07438063621521","0.211205720901489","0.387600094079971","1.55432951450348","0.177680969238281","1.11323022842407","-0.256248295307159","0.497031897306442","0.63828980922699","0.84924453496933","0.899959623813629","-0.169870004057884","0.590850234031677","-1.87057983875275","0.422943741083145","-0.346534103155136","0.252775758504868","0.138842299580574","0.0246141422539949","0.416294872760773","-1.71831846237183","0.852316796779633","-2.97053265571594","-0.182210564613342","-0.735463917255402","0.625714004039764","0.213830307126045","0.89553838968277","0.14619117975235","-0.0138093912974","1.60499632358551","-0.722846746444702","0.97031182050705","0.206417948007584","-2.71497178077698","-0.145057708024979","-0.177545040845871","2.36418914794922","0.616200029850006","-0.113756835460663","0.525723874568939","-1.46373379230499","0.342440545558929","-1.69936847686768","1.01223683357239","0.240117147564888","1.92219579219818","-2.82989621162415","1.50170385837555","1.25037920475006","-0.759269297122955","-0.0659861788153648","1.5894558429718","-0.896729946136475","-0.251656979322433","-1.64325439929962","1.97735822200775","0.28787162899971","0.859671235084534","-0.00353890843689442","-0.386998623609543","0.531121969223022","1.30083417892456","-0.521384537220001","1.45766365528107","-0.429066270589828","0.542956352233887","0.144072040915489","-0.716234624385834","-0.287134647369385","-3.00955128669739","1.03861367702484","0.28538715839386","-1.69327187538147","-2.41697883605957","0.0376749895513058","-1.65761518478394","-1.49703097343445","3.69506096839905","0.186562567949295","-0.0215197782963514","1.34120965003967","0.10400602966547","0.620179295539856","0.0717352777719498","0.202157601714134","0.00229424680583179","0.690268337726593","-0.258469104766846","-0.660639822483063","0.425893872976303","0.773081123828888","-0.75107479095459","0.633920192718506","-1.28497123718262","0.689506947994232","1.45211565494537","-2.19328904151917","0.742941975593567","0.145932510495186","-1.49304699897766","0.250959992408752","-2.99581336975098","-0.103955708444118","0.303916454315186","-0.328208655118942","0.2724968791008","-0.424444884061813","-0.725040256977081","1.89638805389404","1.39447402954102","0.873120903968811","0.411362022161484","2.03268957138062","0.638605177402496","-1.74213743209839","1.43153429031372","1.97501695156097","-2.16793298721313","0.804465770721436","0.200990244746208","-0.745601773262024","-0.0428738705813885","0.149950265884399","-2.62349486351013","1.39235067367554","-0.612700760364532","1.6738532781601","2.3689923286438","1.52903175354004","-0.895582914352417","0.499527901411057","-0.956305205821991","-0.904524624347687","-0.719809591770172","0.980111420154572","0.180144667625427","0.168600052595139","-1.23735225200653","-0.964470386505127","2.96880674362183","0.0439040288329124","0.130395993590355","-3.62568855285645"
"w1_9","-3.66076898574829","-0.876661419868469","-0.559666693210602","-1.13506519794464","-0.302003353834152","0.124215878546238","-0.618187725543976","0.788101971149445","0.60779881477356","1.22530043125153","1.29081249237061","0.570020079612732","1.07635843753815","-0.0369528420269489","-0.302122622728348","1.22418415546417","0.309745311737061","-0.0235526692122221","-1.62664866447449","-0.273273706436157","0.636325240135193","0.402733892202377","-0.869416654109955","-0.116131313145161","0.911144495010376","-1.14725399017334","2.00021457672119","0.231740191578865","-1.43268775939941","0.516801834106445","-2.16389584541321","0.329836457967758","-1.08112120628357","0.132596984505653","0.352673768997192","-1.55154073238373","0.313929885625839","0.343474328517914","0.0271067712455988","0.429755300283432","0.306485146284103","-1.59656953811646","-0.348221659660339","-1.12427496910095","0.695428550243378","-0.0787806287407875","-1.75179624557495","1.91508972644806","-0.474990457296371","0.254764258861542","-2.36059165000916","0.547198951244354","0.744169056415558","0.774241387844086","1.05662071704865","1.17056739330292","1.56540381908417","-3.50467491149902","-0.420650601387024","-2.20103335380554","-1.67756044864655","0.0873497575521469","-1.75623154640198","-0.197392120957375","-3.87730526924133","-0.828282952308655","-1.40630221366882","-3.17097330093384","-1.30763328075409","-0.097934864461422","-1.02433383464813","-0.422396928071976","-0.626887619495392","0.0597403086721897","-1.95845627784729","1.08428955078125","-0.045399334281683","-3.57486653327942","1.16601085662842","1.00953459739685","-3.79613065719604","-2.47325539588928","-1.56470632553101","-1.86592161655426","0.169649690389633","-0.450162947177887","0.978886842727661","-0.553415536880493","-0.0626096278429031","-3.24288082122803","0.482852607965469","-1.13723421096802","2.18312668800354","-0.889644205570221","-3.50216460227966","-1.36379790306091","-0.734118580818176","-0.717366218566895","0.184114396572113","-0.495502471923828","2.02756071090698","-0.108283884823322","1.34935855865479","2.29543685913086","0.978207528591156","-0.647060692310333","0.0404474809765816","-3.39203190803528","1.05809211730957","-1.16916859149933","-1.6237610578537","0.243966430425644","0.950504541397095","-0.203042298555374","-0.0908444449305534","-0.912894129753113","-0.228799641132355","-0.951429903507233","-1.25063979625702","0.00102408707607538","1.87017095088959","-4.28333950042725","0.76286244392395","-0.257865726947784","-0.414297968149185","-1.37133300304413","-0.0268856268376112","-1.01712906360626","-0.181795105338097","0.00920812040567398","0.964939594268799","0.780361115932465","0.203172519803047","-2.31684565544128","0.0998922064900398","1.48342525959015","0.285247951745987","1.59408223628998","-3.69071793556213","1.6045788526535","0.0401796996593475","0.146334692835808","-5.12816953659058","-0.759404063224792","-1.7069445848465","-2.18699622154236","0.869429647922516","0.942434132099152","-0.153010040521622","1.45474290847778","2.11586236953735","1.25047945976257","0.101350881159306","-2.09870266914368","-1.79354250431061","-0.192301705479622","1.10203588008881","-1.51521849632263","1.34832715988159","0.476398974657059","0.205108597874641","0.470491915941238","-0.367919772863388","1.58673799037933","-2.19785737991333","0.349940776824951","-1.76448142528534","-3.23099565505981","0.588029801845551","0.277391850948334","-1.79010426998138","-3.0550172328949","0.211067065596581","-1.83791732788086","-0.496101498603821","-0.170009046792984","-0.683742463588715","0.418872982263565","-1.15100014209747","0.27971950173378","-2.02346348762512","-0.0407528877258301","-4.94364595413208","-1.34565663337708","-3.2051055431366","-0.0299865249544382","-0.874034285545349","-0.344949871301651","-1.31546354293823","1.12785661220551","-1.56557404994965","-2.09674978256226","-2.71090292930603","1.26786017417908","0.25030255317688","1.69975519180298","0.039079062640667","0.493130594491959","0.704896211624146","-0.216617077589035"
"w1_10","1.40462732315063","-1.38607537746429","3.7575352191925","1.09187281131744","-1.11258971691132","2.09783339500427","-0.512777864933014","-1.88055431842804","1.29447734355927","-0.702595472335815","-0.329381823539734","0.0113027393817902","1.55551564693451","-0.0782363340258598","0.973143458366394","1.15128779411316","2.64129233360291","-0.821423947811127","-1.19034326076508","0.175417795777321","-0.940328121185303","-0.1254543364048","0.411724895238876","0.599075853824615","-0.82132625579834","1.07556462287903","0.59133106470108","-0.701105177402496","-0.327303826808929","-0.416951924562454","0.532444477081299","0.254762023687363","-2.39584994316101","1.2214572429657","0.767749071121216","1.28451693058014","0.16771487891674","0.413244813680649","1.31726562976837","-0.613639891147614","0.0794707685709","2.43653249740601","0.844600856304169","1.18896293640137","0.14202119410038","-0.0569203905761242","0.990581393241882","0.996731519699097","-1.07362186908722","-0.194913223385811","0.371752500534058","0.987444519996643","0.519494652748108","3.48315262794495","-2.59980797767639","0.614185929298401","-1.4763845205307","-2.66494703292847","-0.383190512657166","-0.182454496622086","0.658002436161041","1.78707838058472","0.532842636108398","-3.25320434570312","-0.139874562621117","-0.522363901138306","2.30208683013916","1.06670248508453","-0.135647848248482","-0.645088791847229","0.890540659427643","4.36009836196899","-0.619819283485413","-0.797617971897125","5.52466583251953","1.13601791858673","-1.49730694293976","-1.36926460266113","1.38583064079285","1.35133016109467","-0.117769636213779","1.1298702955246","-2.1136679649353","0.350244015455246","0.242087721824646","-0.565040767192841","1.27182960510254","-0.571419596672058","0.483388125896454","1.46674275398254","0.321246683597565","0.256199330091476","2.02176880836487","0.75389701128006","1.73386871814728","3.85094523429871","0.372738301753998","0.63678902387619","0.730442821979523","-0.957813024520874","2.75510549545288","-0.592161357402802","1.85752391815186","1.12878429889679","-0.885497570037842","4.76480007171631","0.0419647358357906","-0.64449542760849","1.36424005031586","0.509953498840332","0.0520215816795826","0.181494742631912","-0.485355764627457","-0.349346935749054","0.712264776229858","0.557864427566528","0.134451821446419","-0.674240350723267","0.505130767822266","2.15666437149048","1.44775032997131","-1.68168866634369","0.411568999290466","0.33745750784874","-1.26585054397583","0.652116775512695","-0.957412540912628","1.34472501277924","-0.984841644763947","2.00281763076782","2.12894606590271","-0.192840859293938","0.281699895858765","-0.872538983821869","-1.10630702972412","-1.15780389308929","0.0346335470676422","0.869797646999359","0.754124581813812","-0.937002003192902","0.378909468650818","1.20150554180145","-0.751049339771271","0.481921434402466","1.1915682554245","1.28968167304993","1.09798741340637","2.7696168422699","-1.22104549407959","-0.527113318443298","0.180565536022186","-0.909063041210175","1.00456380844116","6.14349412918091","1.78110778331757","0.9397913813591","3.52595400810242","0.142557069659233","1.59543681144714","-0.848210275173187","-0.582306623458862","1.90213263034821","2.85743594169617","-0.872806668281555","-0.594184458255768","1.47756230831146","0.434744656085968","-0.756147146224976","1.72176647186279","-0.800702750682831","-0.0401652678847313","1.14141380786896","0.231618672609329","0.114836946129799","0.851342856884003","-1.0808812379837","-2.5945029258728","0.67468136548996","-1.92569100856781","-0.55507230758667","-1.04577374458313","0.193197414278984","-0.0288871824741364","-0.274767905473709","2.30255317687988","2.11578989028931","-0.0227113123983145","1.17988860607147","0.712852120399475","0.608233273029327","0.680670738220215","1.016606092453","-0.691065430641174","-0.873036086559296","1.79217791557312","0.278140693902969","1.53851616382599","1.64195883274078","-0.0277381502091885","1.27405536174774"
"w1_11","1.2213408946991","-0.27491757273674","1.23229873180389","-1.38099694252014","-1.59940624237061","1.36256945133209","-1.29429352283478","-1.72110402584076","2.0551974773407","2.89202833175659","0.943338215351105","1.28386473655701","0.856343388557434","0.540976405143738","2.52954459190369","-0.229146301746368","0.753645777702332","1.69427371025085","0.329060733318329","1.77245593070984","1.50680482387543","-0.0353267937898636","0.246282517910004","1.1560674905777","0.93798691034317","2.34559297561646","1.12136542797089","-0.999295115470886","-0.112036369740963","-1.71755301952362","0.0221910029649734","0.44058495759964","1.7323944568634","1.00777614116669","1.44514572620392","0.312897711992264","2.21135878562927","1.30817580223083","1.33039546012878","2.81154441833496","2.37336087226868","-0.303613215684891","1.51712214946747","-1.90114367008209","2.94357132911682","2.07150411605835","2.88408303260803","1.22211408615112","-4.40710926055908","0.280390352010727","2.26989960670471","4.69261455535889","1.29236912727356","1.8408088684082","1.58509624004364","0.949702143669128","-0.607085406780243","2.06457233428955","0.339992046356201","5.15241718292236","1.95304012298584","-0.0423887446522713","2.75756621360779","2.3280622959137","0.688649892807007","1.46295392513275","2.2058310508728","3.33040475845337","-1.41228532791138","-2.46707320213318","0.94158798456192","0.909368455410004","-0.835023999214172","3.42882537841797","1.16690993309021","3.79590439796448","-1.87949311733246","0.665204644203186","0.386262118816376","-1.0874707698822","-0.859712481498718","-0.0235840175300837","-1.0828537940979","-0.71472692489624","4.76453590393066","1.75567197799683","4.3446798324585","-1.1654599905014","2.04977512359619","1.21639013290405","0.816897571086884","-0.301747500896454","0.465145200490952","1.1803457736969","-0.192533165216446","1.81902801990509","-0.34302830696106","0.0666463598608971","0.0842727795243263","1.26849853992462","2.22894382476807","2.06971740722656","0.877693593502045","-0.426538586616516","2.09086155891418","2.34201836585999","0.723191857337952","-0.000512654951307923","0.347141206264496","0.495849132537842","0.0468505434691906","0.168679520487785","2.21748876571655","0.403346180915833","3.83532452583313","-2.03422975540161","1.13010442256927","-2.08543682098389","3.46544575691223","-0.394949287176132","1.89994990825653","-0.450390070676804","-0.180521979928017","0.777050614356995","0.264619886875153","0.135614335536957","-0.811152338981628","0.765051662921906","-1.17376744747162","1.21526682376862","-0.321129202842712","0.783271729946136","1.89555013179779","0.482771962881088","1.34945178031921","1.8616943359375","1.39705669879913","1.97583043575287","0.494017153978348","0.784363031387329","3.34682512283325","-0.368062883615494","-0.341863721609116","1.54225623607635","0.637672364711761","0.73678320646286","-0.130873173475266","4.3513331413269","0.398473471403122","0.310736805200577","-0.352659702301025","-2.34818959236145","0.462909132242203","0.96926087141037","2.72226977348328","1.36253249645233","2.07741737365723","-0.472577661275864","-0.338806331157684","-0.848596394062042","1.86242437362671","0.21653850376606","1.53561675548553","0.553921520709991","0.167029947042465","5.23297786712646","1.54051768779755","-1.37887728214264","3.55895948410034","1.76380336284637","-0.121314249932766","1.01136291027069","3.83003282546997","2.65635943412781","-0.886805891990662","4.36584615707397","2.28270649909973","-0.613722801208496","3.68211984634399","0.268823653459549","-0.370107680559158","1.11786794662476","-0.0765446424484253","2.08495283126831","4.17921161651611","-0.754818558692932","1.0398588180542","0.97686368227005","1.44361877441406","-1.26624011993408","1.66513025760651","-0.412047207355499","0.575513780117035","0.803608477115631","0.888164937496185","2.450927734375","0.963921248912811","0.87196958065033","3.83157563209534","1.56793129444122"
"w1_12","0.052856020629406","-0.0518965348601341","0.0461084917187691","0.0408254936337471","-0.0347296036779881","0.109015673398972","-0.0436907708644867","-0.0119501417502761","0.0966231748461723","0.0125461723655462","0.0348455011844635","-0.0179852973669767","-0.132511243224144","-0.030525928363204","0.028209013864398","3.71189089491963e-05","-0.0835493206977844","-0.0584072358906269","-0.0648558139801025","0.0156934466212988","-0.0298837218433619","-0.0242834016680717","0.111690320074558","0.0295697506517172","0.0512070842087269","-0.10572312772274","-0.0929383933544159","0.0155650340020657","-0.0197030249983072","-0.00970155745744705","0.000870437768753618","0.0596818029880524","0.035588663071394","0.0628454983234406","0.0969356372952461","0.0349776074290276","0.0127833858132362","0.00606882898136973","-0.0666105374693871","0.0297809056937695","-0.0166813042014837","-0.0190670397132635","0.0386138446629047","0.0370686426758766","0.0431198216974735","-0.124142989516258","-0.00698327086865902","0.110308051109314","0.0257459655404091","-0.0142502188682556","-0.0361725017428398","-0.00658378656953573","-0.0203568376600742","0.0266466047614813","-0.0277822650969028","0.103249438107014","0.00654228171333671","0.0381964407861233","-0.101470977067947","-0.155162394046783","0.160154566168785","-0.0204478520900011","0.181118041276932","-0.0143488869071007","0.037061545997858","0.00821203552186489","0.0675885900855064","-0.107969142496586","0.020414013415575","-0.017840314656496","-0.021566953510046","-0.0323497205972672","-0.103609092533588","0.208673015236855","0.0455260276794434","-0.0118183037266135","0.151545435190201","0.00439455918967724","0.165697395801544","0.14921647310257","-0.0160278510302305","-0.116665713489056","0.0435287356376648","0.124646551907063","-0.129491746425629","-0.0332744605839252","-0.0853719636797905","-0.0134196309372783","-0.0235788784921169","-0.136070594191551","-0.00888189859688282","-0.0935899913311005","-0.0516033284366131","0.0332532860338688","-0.0717428028583527","-0.0836458057165146","-0.036773107945919","-0.00367732183076441","0.00856316555291414","0.0512309931218624","-0.0331219062209129","0.0125941252335906","-0.0840693414211273","0.0312025845050812","-0.0314836911857128","0.120322227478027","-0.0261641219258308","-0.0104761188849807","0.00659551657736301","0.0764898657798767","-0.136904329061508","-0.080962710082531","0.000647457723971456","0.0624120309948921","0.0763507038354874","0.0346912145614624","-0.39120551943779","-0.050548791885376","-0.00705822510644794","-0.0852939710021019","-0.131480798125267","-0.106288880109787","0.0116884000599384","-0.217268720269203","0.0512490980327129","0.0459269434213638","0.177941143512726","-0.102911360561848","0.0358237475156784","-0.042852345854044","-0.236040830612183","0.0194452200084925","0.130457982420921","0.0344751849770546","-0.0173176918178797","0.0462312065064907","-0.138228118419647","0.0144996624439955","0.0227909497916698","0.00965580902993679","0.24463053047657","-0.168952077627182","0.0301267206668854","-0.0303699318319559","-0.0305851381272078","-0.00222097523510456","0.130729556083679","-0.017314275726676","-0.0134155210107565","-0.109760284423828","-0.0475739240646362","0.125150874257088","0.0250996872782707","-0.100510962307453","-0.0161050371825695","-0.0570022091269493","-0.0460532903671265","0.0120907723903656","-0.0559185333549976","0.0607020556926727","-0.0695820078253746","0.178517237305641","0.0921439677476883","-0.106753274798393","-0.0510336235165596","0.0474766232073307","0.0612934529781342","0.0744315907359123","0.094311460852623","-0.0187843833118677","-0.0571118146181107","-0.130736440420151","-0.0753943473100662","0.0411377400159836","-0.0281883478164673","0.0321042947471142","0.0115857888013124","0.122705198824406","0.0414338894188404","-0.0863845720887184","-0.0633789598941803","0.0765839368104935","-0.00272862147539854","-0.038938969373703","0.0886029750108719","0.0321622118353844","0.086521789431572","0.0902695879340172","-0.0675441175699234","0.0273273158818483","-0.0476655028760433","0.0246786084026098","-0.0282893776893616","-0.0780559703707695","-0.0850395336747169","0.0194777175784111","-0.0639842674136162","0.03348408639431","0.0585853643715382","-0.451047241687775"
"w1_13","0.0394396036863327","0.0335359759628773","0.031294908374548","-0.00418434850871563","0.0263411812484264","-0.0933302193880081","0.0226826760917902","-0.0178089775145054","-0.0699888467788696","-0.0641011148691177","-0.0931716114282608","-0.0105632059276104","-0.0214887838810682","0.0201510153710842","-0.075806699693203","0.00490401778370142","-0.00205829693004489","0.0646140202879906","0.0777078345417976","-0.0122832544147968","0.0607328228652477","0.0411729961633682","0.0818451941013336","0.0432481244206429","-0.0697303116321564","0.00676152389496565","0.0716612860560417","0.0339944399893284","-0.212832123041153","-0.00141133484430611","0.0196371432393789","0.0593115724623203","-0.0054155751131475","-0.0868773907423019","-0.364015370607376","0.0394075326621532","-0.030745230615139","0.0556929633021355","-0.0558679848909378","0.0391124822199345","-0.0291666015982628","0.0860632881522179","0.0019924771040678","0.0590832531452179","-0.0177534446120262","0.030443262308836","0.0177919659763575","-0.0840681865811348","-0.0450701154768467","0.000836781109683216","-0.17918686568737","0.0429776012897491","0.0100519862025976","-0.119258016347885","0.0358659364283085","-0.0482941195368767","-0.0124566555023193","-0.00572761800140142","0.0254410672932863","0.0579090341925621","-0.0293902605772018","0.0353892929852009","0.038494773209095","-0.0107133584097028","-0.0105869174003601","-0.0791060924530029","-0.0101612769067287","0.0574968755245209","-0.0903884321451187","-0.0639627128839493","0.0263482425361872","-0.0523224510252476","0.0171310473233461","-0.070836678147316","0.0385020859539509","-0.252926260232925","0.00890464521944523","0.013816436752677","-0.060538399964571","-0.0636579692363739","0.0266992263495922","-0.0570990927517414","-0.0743023529648781","-0.0094373757019639","0.00048221240285784","-0.0634534657001495","-0.0259174183011055","0.0248514842242002","-0.0788192972540855","0.0131495939567685","0.0107061536982656","-0.0306766778230667","-0.000263963069301099","-0.0295882914215326","-0.131048038601875","0.0591599456965923","0.04090341553092","0.0335826650261879","0.0176055897027254","-0.0828841254115105","-0.0116702942177653","-0.114035978913307","0.169806435704231","-0.0613723956048489","0.0319613888859749","-0.033880278468132","-0.0400313548743725","0.0732166171073914","0.00974053051322699","-0.077325776219368","-0.0245233438909054","-0.00535173341631889","0.0215811785310507","0.00795724894851446","0.167452231049538","-0.0503642596304417","-0.549137592315674","0.00606017466634512","-0.150290757417679","0.0418115295469761","-0.00399775290861726","-0.00559488078579307","0.0268641822040081","0.0416636914014816","-0.0542621463537216","-0.0830161795020103","0.0096729276701808","0.102561302483082","-0.0261815711855888","-0.0447397567331791","0.0586685203015804","0.0636479705572128","-0.00505751045420766","0.042866125702858","0.00719461310654879","-0.0130213983356953","0.34965655207634","-0.0423592813313007","0.00988943502306938","0.0493603460490704","0.0397091768682003","0.102520696818829","-0.0102682877331972","0.0843047127127647","-0.0599132962524891","-0.0656957700848579","-0.0219407323747873","-0.00422876421362162","-0.047654751688242","0.0825299099087715","0.0809938535094261","0.0179115235805511","-0.102864243090153","0.00614509824663401","0.110818862915039","-0.158924788236618","0.0313235819339752","0.048039086163044","-0.00839163456112146","-0.11588478833437","0.00425208872184157","-0.0667950212955475","0.0158014614135027","-0.106792658567429","0.0314013622701168","-0.134496420621872","-0.0148959839716554","-0.0263591725379229","0.128841802477837","-0.129334971308708","0.0760510712862015","-0.0125802122056484","-0.0298546869307756","-0.0292684994637966","-0.0628617033362389","0.0591072253882885","0.0564634390175343","0.0211421027779579","0.0959835052490234","-0.0680069327354431","0.0656548365950584","0.0374968163669109","-0.0696870982646942","0.0372754372656345","-0.0719756633043289","0.0375477410852909","-0.496985733509064","0.0171592887490988","-0.0456263348460197","0.0226111728698015","0.04959736764431","-0.00221532466821373","-0.0159370489418507","0.0178306922316551","0.0505488477647305","0.0308643933385611","0.0674118101596832","0.0329525582492352","0.0661535263061523","-0.0969900637865067"
"w1_14","-0.68780642747879","-0.210377484560013","0.68744945526123","0.70178610086441","0.679264068603516","0.604613244533539","0.499274581670761","-0.813020706176758","-0.321210771799088","-0.967361807823181","0.768531084060669","1.03015625476837","1.23007917404175","0.574825346469879","1.4455531835556","1.14191448688507","-0.35206812620163","0.177111759781837","-0.426476538181305","-0.366463750600815","1.19976150989532","0.494069844484329","-0.303808867931366","0.337593734264374","0.491692841053009","3.17147588729858","0.367246717214584","0.704460382461548","0.371804058551788","-0.641961574554443","0.764992952346802","2.04023337364197","-0.659772217273712","3.14408779144287","1.0134813785553","1.68441522121429","0.715357661247253","0.92568963766098","1.01018869876862","-0.237395271658897","0.764941573143005","2.72793459892273","1.53608417510986","-0.138732522726059","0.795086979866028","-0.290466696023941","1.90928792953491","1.23785579204559","0.378512650728226","-1.00234496593475","3.48739266395569","0.40055188536644","-0.00581819470971823","1.68424475193024","-1.62155497074127","0.924262404441833","0.0816210135817528","1.14575445652008","0.092315100133419","0.323770016431808","1.39778661727905","3.1064305305481","1.20882034301758","-1.58725440502167","0.26474317908287","0.523782193660736","2.40492367744446","2.32918739318848","-1.1123194694519","0.102597095072269","1.37607872486115","4.86838579177856","-0.0335742644965649","0.482902735471725","4.51533603668213","1.44670963287354","0.724315822124481","0.935770869255066","0.989279687404633","1.58124458789825","2.08971333503723","0.849001467227936","0.434882611036301","0.622367024421692","-0.729846775531769","1.65128254890442","1.13589560985565","0.222884595394135","1.23174393177032","1.05631923675537","0.139220714569092","-0.137137562036514","-0.518389105796814","2.20654249191284","4.57545137405396","3.08267903327942","-0.968486845493317","-0.124560318887234","-0.574805796146393","0.619081318378448","3.78681969642639","0.590708613395691","0.853258609771729","0.298195570707321","-0.532123386859894","5.57097101211548","-0.266327530145645","0.822761118412018","0.944603800773621","-0.153675049543381","0.0148999635130167","-1.27490842342377","0.0487690232694149","-0.81587952375412","1.14627540111542","2.18086099624634","0.0694883912801743","-0.969397127628326","0.0733727142214775","3.10428833961487","0.16146382689476","-0.343588918447495","-1.16509711742401","0.308233618736267","0.678236722946167","0.469764590263367","0.402349859476089","0.526077091693878","-0.161647200584412","0.0511349514126778","1.63314139842987","0.484504640102386","2.03489017486572","0.0301187466830015","-0.149172708392143","-0.273807734251022","0.561769902706146","0.167808428406715","0.262290745973587","0.765156209468842","0.67986923456192","0.0453511662781239","-0.162457272410393","0.17956480383873","0.8227499127388","0.940963268280029","-0.201540619134903","2.31105422973633","1.18220317363739","1.85080194473267","0.0763303712010384","1.02666831016541","1.94627070426941","6.78765964508057","1.00838077068329","-0.0869397222995758","0.819770097732544","-0.301744431257248","0.150870576500893","-0.365646660327911","1.35809540748596","1.86435914039612","2.09053301811218","-1.31664872169495","-0.89521324634552","1.890944480896","1.20458042621613","-1.49165761470795","1.7553985118866","1.11472320556641","-0.082694835960865","0.815937757492065","1.66777217388153","0.0872792825102806","-0.728200197219849","1.44425177574158","1.35727870464325","1.60044693946838","0.654585182666779","-0.0233428906649351","0.816202163696289","1.39499175548553","1.19630551338196","0.0546654276549816","2.2388288974762","1.10459005832672","1.3716037273407","-1.96934902667999","1.13184213638306","0.450211077928543","2.93678379058838","2.4355845451355","0.882386326789856","0.529410243034363","3.57176542282104","0.768405079841614","1.1029942035675","0.300286740064621","0.845334231853485","2.63365197181702"
"w1_15","-0.423049211502075","0.409159123897552","0.0198756065219641","2.13507795333862","0.0593404695391655","0.29148605465889","0.873360216617584","-0.236771389842033","0.0550040863454342","0.720590472221375","0.692065834999084","0.454907864332199","-1.53147625923157","0.407648235559464","1.84961068630219","-0.13751794397831","0.38840115070343","1.30870711803436","0.65682178735733","0.737976551055908","1.46282291412354","0.625127851963043","-0.69702810049057","1.20730769634247","0.113767385482788","-0.424396097660065","0.284560084342957","0.610150218009949","0.435680866241455","0.0296734310686588","1.45892012119293","1.68805003166199","0.352176815271378","1.04927504062653","0.889046370983124","0.896025121212006","-1.17157924175262","0.832137763500214","-0.588621616363525","-1.40014672279358","-0.258838474750519","-0.812836766242981","-0.456524223089218","-1.08075177669525","0.399574041366577","0.662551820278168","0.783542096614838","-0.504218280315399","1.77229058742523","0.36546915769577","-0.903092265129089","0.172360673546791","-0.464842706918716","0.973575949668884","-0.505923211574554","0.35711008310318","-0.478774905204773","0.125238835811615","0.10102353990078","1.68543410301208","0.277886539697647","-0.892673432826996","-0.288410842418671","-0.671264052391052","1.14541840553284","-0.3013836145401","1.56535768508911","-0.0773729383945465","0.431262642145157","0.803834438323975","-0.535158216953278","1.02618253231049","-0.0141786923632026","-0.2119210511446","0.880452752113342","-0.95026433467865","-1.2347549200058","-1.38889145851135","-0.965112924575806","1.14150750637054","-0.0257556550204754","3.20987772941589","-0.288470059633255","0.304061949253082","-0.643468677997589","0.18291562795639","-0.361909031867981","0.664415061473846","0.275530815124512","0.547126770019531","0.910393536090851","1.18997573852539","1.64322316646576","-0.145024016499519","0.666290163993835","1.44330084323883","-0.0332959070801735","1.08175241947174","0.573723018169403","0.663107335567474","1.96916377544403","-0.978520691394806","0.0371350012719631","-0.0446303151547909","0.318217754364014","1.1513489484787","-2.14242839813232","0.749818861484528","0.545546233654022","0.219887003302574","0.714609086513519","1.24282968044281","-0.252545833587646","-0.341353833675385","1.3816796541214","-1.39639043807983","0.28007847070694","0.214112237095833","-0.769264400005341","0.191474482417107","1.03996086120605","-0.315270781517029","0.365382820367813","-0.680427014827728","1.55280387401581","0.975527048110962","-0.357427924871445","0.86075347661972","-0.238224014639854","0.628046333789825","0.0218734554946423","-0.535911023616791","1.23190712928772","-1.07694053649902","0.184663280844688","0.455121576786041","-0.549338161945343","-0.998756766319275","1.19059228897095","1.67096960544586","-0.0366876311600208","0.209664657711983","1.77116858959198","0.298378437757492","-0.813340425491333","2.09388780593872","2.13440799713135","1.11185932159424","1.63567101955414","-0.562384903430939","1.78088474273682","0.150543168187141","-0.78448361158371","-0.0348047986626625","2.04323220252991","-0.740197718143463","-0.753608345985413","0.0701429024338722","-0.350271552801132","0.0430316925048828","-2.23588371276855","-0.238688692450523","0.596983015537262","1.05538499355316","-0.920432150363922","-0.814322948455811","2.20280575752258","0.744203627109528","-0.674282193183899","-1.17307364940643","-0.889676630496979","0.481207996606827","-0.429542690515518","1.01026570796967","0.308389514684677","-0.784511029720306","-0.703920841217041","-1.84673714637756","0.122576683759689","2.02902960777283","1.38860726356506","0.012062793597579","0.253278583288193","0.45825269818306","0.654368579387665","-1.000452876091","0.665810525417328","1.29950952529907","-0.57682603597641","0.509359538555145","0.778824508190155","-1.2292732000351","0.815989434719086","0.149587139487267","1.6711905002594","0.0964861661195755","1.51695561408997","-0.384490728378296","-1.1161515712738","1.17004811763763"
"w1_16","0.626184940338135","0.24595433473587","-0.229951545596123","-3.26300811767578","-1.9595193862915","-0.161398068070412","-0.648461043834686","-0.12757109105587","-0.0292082037776709","-3.26969289779663","0.031579103320837","1.3358006477356","-0.11077893525362","-1.77910315990448","-0.796149611473083","-0.464420735836029","-0.0356020778417587","0.383892923593521","0.369456559419632","-1.31970274448395","-1.64414036273956","-1.50552248954773","0.217259600758553","0.0294250715523958","-0.557252168655396","-0.0443515926599503","0.190773516893387","-0.97216784954071","-0.109944865107536","-0.502906441688538","-0.369722008705139","-3.30850505828857","-0.778668284416199","0.613769948482513","-0.100692167878151","-1.07441008090973","-0.13188710808754","-0.487628966569901","0.135897740721703","0.246283560991287","-0.089229054749012","0.287477076053619","0.227153584361076","0.0602976158261299","-0.24628908932209","-2.02815198898315","-0.242206007242203","0.487300008535385","-0.821176707744598","-1.32626605033875","0.324209004640579","-0.915570735931396","0.251696139574051","0.680678427219391","-0.0360328033566475","-0.195657193660736","0.802560150623322","-0.604534149169922","1.01012122631073","-0.481455653905869","-0.571131587028503","-0.766255915164948","0.450670599937439","-0.381373584270477","0.329821884632111","0.196771159768105","-1.0343542098999","0.305205136537552","-0.788363397121429","0.0295959115028381","0.63881129026413","1.21709549427032","0.445090651512146","0.084148958325386","-0.885972797870636","-0.913134694099426","-0.39576730132103","-1.14596283435822","-0.42376434803009","0.466977000236511","0.962759852409363","0.141944363713264","-0.0471669770777225","-0.465024411678314","1.12390267848969","-1.6666122674942","-0.588892757892609","-1.57451868057251","0.800161361694336","-1.50772845745087","-0.457630038261414","-0.906486570835114","-0.0247971620410681","-1.08960115909576","-0.0547654442489147","-0.141750797629356","0.521176397800446","0.776610314846039","-0.35864993929863","-0.573501110076904","-7.93846082687378","0.653761327266693","0.326218008995056","0.756705939769745","0.155941307544708","-2.62959146499634","-0.0384399145841599","0.00901533011347055","1.39366853237152","0.454932898283005","0.750582456588745","-0.638611078262329","-0.604459702968597","-0.634167373180389","-1.36954045295715","1.03732907772064","-0.212441235780716","-0.288488239049911","0.115891471505165","-0.54456889629364","-0.115568071603775","0.641095101833344","-0.200301706790924","-0.333608239889145","-2.1152925491333","-3.06691908836365","-1.40726864337921","-0.0353666245937347","-1.2342472076416","0.165414050221443","0.160010561347008","0.333923518657684","-2.04467368125916","0.793118059635162","-0.121241517364979","0.408525168895721","-0.0412178225815296","-0.446742355823517","0.319165617227554","-2.25157451629639","-0.402669787406921","0.297952860593796","-2.04227375984192","0.814924001693726","0.970117211341858","1.40711939334869","-0.132328152656555","-0.962115287780762","-0.220909118652344","0.433305770158768","-1.70693004131317","-0.930361926555634","0.658062875270844","0.329347610473633","-2.13160300254822","0.311681628227234","0.904197931289673","-0.341430872678757","-0.119731262326241","0.158599212765694","-0.133937239646912","-0.0821192339062691","0.105595707893372","-2.8717029094696","-0.75396603345871","-2.26582026481628","-1.34993755817413","0.667422235012054","-0.171152636408806","-0.498887270689011","-2.12946939468384","0.522880017757416","-1.77151083946228","0.917876422405243","-0.611248791217804","-0.968912720680237","0.563994824886322","-1.30057597160339","1.69040107727051","-2.01979923248291","-1.03989577293396","-1.84221875667572","-0.31595054268837","-0.504050374031067","-0.447987049818039","-0.838388204574585","0.545641422271729","-1.5129109621048","0.420652478933334","-2.52931189537048","0.577006995677948","0.301549285650253","-0.248027712106705","0.395931363105774","0.0660680457949638","-0.567293107509613","0.130519703030586","1.09298694133759","0.293376445770264","0.767447710037231"
"w1_17","-0.903683185577393","-1.10773479938507","-1.51147544384003","-3.4495964050293","-1.37877881526947","0.259050697088242","-0.484939873218536","0.34416189789772","0.189345687627792","0.417368412017822","0.728556931018829","0.62986171245575","-2.38046002388","-3.61710000038147","-1.43601024150848","0.439478009939194","-0.194879144430161","0.881313562393188","0.328214704990387","0.205070286989212","0.0306556113064289","-0.462424844503403","-0.358819931745529","-0.156207010149956","0.101609423756599","-5.03317356109619","0.592054903507233","0.373251438140869","-1.54145121574402","0.241622030735016","-3.5743134021759","-3.02216863632202","-0.546133995056152","-1.17326211929321","-1.59198665618896","-3.04127788543701","-0.491755604743958","0.189583301544189","-4.505051612854","-0.564747393131256","-0.924996733665466","-1.96349716186523","-0.595561504364014","-0.268670469522476","-0.64332526922226","-5.57231998443604","-3.82344460487366","0.370893537998199","0.758314311504364","-0.0461806803941727","-2.65336894989014","0.0523679368197918","-1.43196630477905","-1.06824719905853","0.530535161495209","0.553901433944702","0.944048881530762","-1.94095087051392","0.0681181401014328","-1.02363061904907","-3.25283408164978","-1.42806589603424","-0.698493719100952","0.132520094513893","-1.60716915130615","0.314777344465256","-2.22740626335144","-4.70402097702026","-0.890863239765167","-0.517186939716339","-0.518401563167572","-0.625491499900818","-0.0837197974324226","-0.829901218414307","-2.66650795936584","-0.646126627922058","-0.546239614486694","-0.83955854177475","0.330165505409241","0.136122643947601","-1.91580855846405","-5.97307062149048","-0.992706477642059","-0.91858959197998","0.355337589979172","-2.86999368667603","-0.290436834096909","-0.481702506542206","0.217485845088959","-1.94957411289215","-0.417563378810883","-3.92408633232117","0.794336080551147","-2.28078150749207","-0.66611659526825","-5.4055552482605","-0.638140857219696","-0.254885882139206","-0.0210623927414417","-2.08475685119629","-0.728360176086426","0.359668493270874","0.719138026237488","0.57308554649353","0.0502672232687473","-1.84896779060364","-0.195667341351509","-1.91482985019684","-0.182470411062241","-0.768060564994812","-0.190836355090141","-0.769981563091278","-0.0546888113021851","-0.0363958962261677","-2.4208390712738","-0.0397137440741062","-0.42817085981369","-0.444515466690063","-0.687006831169128","-0.363735169172287","0.352045059204102","-1.93580627441406","-0.127057209610939","-0.374989807605743","-0.949309408664703","-1.11307072639465","-0.708039939403534","-1.39931690692902","-1.78453576564789","-0.0689070820808411","0.16140516102314","0.896438717842102","-2.77749824523926","-0.311832427978516","-0.044325664639473","-0.448274165391922","-0.647182762622833","1.10949015617371","-3.95876455307007","-4.65275716781616","-0.805909216403961","0.7442547082901","-0.78402715921402","-0.260059386491776","-0.0292853470891714","-4.49341630935669","-4.01682090759277","-0.183734893798828","0.354902267456055","-0.125849828124046","0.897716164588928","-0.564276814460754","-1.68148875236511","-1.43055641651154","-4.56439590454102","-0.823084950447083","0.238631188869476","-1.84805107116699","0.118838466703892","-1.55473041534424","0.0113505236804485","0.345471739768982","-2.4035758972168","-1.75473070144653","-0.566628038883209","0.504570245742798","-2.28351354598999","-0.892506122589111","-0.576145887374878","-0.288817584514618","-1.46894037723541","-0.76115870475769","-0.358937799930573","-0.238183870911598","-0.646251618862152","0.279597759246826","-0.650103271007538","-0.120556697249413","-1.76397967338562","-0.955935657024384","-1.632967710495","-1.38155341148376","-1.28439497947693","-1.71113657951355","-2.32354259490967","-0.73674064874649","-1.72216522693634","-4.42560911178589","-2.6841459274292","-1.07531833648682","-3.49539947509766","-4.64628124237061","-4.03903388977051","0.130156233906746","-0.824150800704956","0.86386114358902","-1.45208382606506","-0.606624126434326","-0.635809421539307","-0.148595109581947"
"w1_18","-0.145477592945099","-1.73267114162445","-1.29160618782043","0.261822074651718","-0.869513034820557","0.639185011386871","0.429811179637909","-0.703365385532379","-4.93185520172119","-2.22393250465393","-2.29001784324646","1.04407632350922","-0.415600687265396","0.184851631522179","0.169847518205643","1.2013384103775","-0.129813224077225","0.435622692108154","-0.357692122459412","0.265875488519669","-1.44293212890625","1.84171199798584","-1.44392442703247","-2.07221269607544","1.88378405570984","0.812339782714844","1.21740758419037","-1.71292924880981","0.743462264537811","-0.188385277986526","0.0602266862988472","2.13691186904907","0.746574819087982","1.6855480670929","0.996993362903595","0.162694245576859","-0.633545279502869","1.54411149024963","0.479674786329269","-0.839814126491547","-1.647869348526","1.23820209503174","-3.09323191642761","-0.177958130836487","1.6595116853714","0.212676420807838","-0.10583208501339","1.54497063159943","2.60018444061279","-0.234696120023727","0.691199004650116","-0.161552563309669","-1.82066369056702","0.15988752245903","0.727084755897522","1.29273390769958","-2.19227886199951","-1.2049103975296","0.636552929878235","1.10884058475494","0.506352603435516","0.957427263259888","-0.0397686548531055","0.484252691268921","0.609527885913849","0.565319895744324","1.07863652706146","-0.561118006706238","0.0970012098550797","-1.18851339817047","0.47208571434021","0.478480368852615","0.105763897299767","0.213545247912407","0.793373227119446","0.834800064563751","-1.3628842830658","1.22270584106445","-0.379262804985046","0.2656409740448","0.67101925611496","0.828040659427643","1.05139815807343","1.3729875087738","0.375258028507233","-0.0661069825291634","1.42339789867401","-0.321185380220413","0.842092394828796","-0.128834068775177","-1.72775828838348","0.414684176445007","0.13912570476532","1.51311862468719","-0.197168737649918","0.356152892112732","1.11610758304596","-0.992977261543274","0.99446427822113","-1.08065330982208","0.676407039165497","0.697765350341797","0.696906447410583","-1.48448085784912","1.13903224468231","1.19684100151062","-1.82734048366547","0.106584988534451","1.41326296329498","-1.03950548171997","-0.837664663791656","-1.18661904335022","1.15257477760315","0.763538002967834","0.991091787815094","0.805138945579529","-0.0293392427265644","-0.0337876006960869","0.75732684135437","-0.751105427742004","0.63086074590683","-0.368564456701279","0.330254018306732","-0.50916063785553","-0.74860680103302","0.207020685076714","-2.17591333389282","2.07391834259033","0.450813770294189","-0.744968593120575","-1.68936467170715","0.325203835964203","-0.000468597107101232","-0.753059029579163","1.61982786655426","-0.157801046967506","0.135665103793144","0.536734342575073","0.154440626502037","1.37663197517395","-1.31180226802826","0.734480381011963","0.293088763952255","-0.326574832201004","-0.51806104183197","0.171448886394501","1.52622652053833","1.65516245365143","-1.31154274940491","0.486632078886032","-1.56396424770355","2.49970674514771","1.31158983707428","-1.35397386550903","1.06941437721252","0.505229413509369","-0.748607635498047","1.03491163253784","-1.6956307888031","-0.607364475727081","1.02094674110413","-0.432549118995667","0.836150348186493","-0.228541865944862","-1.53184020519257","1.38340556621552","1.15310645103455","0.724103808403015","0.446918964385986","0.839089214801788","0.278133571147919","-2.17979645729065","1.53350591659546","1.38668394088745","-1.57738161087036","-0.10002376884222","-0.261290401220322","-0.550906658172607","0.357822358608246","-0.264153927564621","-3.49894165992737","0.991178691387177","-0.663599252700806","1.50267887115479","1.93250286579132","2.98401737213135","0.157705992460251","0.356256604194641","0.160890191793442","-1.83786416053772","0.317890971899033","0.643078804016113","0.511747598648071","-0.190717086195946","-1.17601895332336","-1.28503501415253","1.27897155284882","-0.368433833122253","-0.735608637332916","-0.289723008871078"
"w1_19","-0.0717055648565292","0.00114229531027377","-0.0511473715305328","-0.0593217425048351","-0.0224920008331537","0.00593468500301242","0.0708251371979713","-0.0425051264464855","0.0262506734579802","0.0417292267084122","0.0529144331812859","-0.037368044257164","0.047049630433321","0.0253880638629198","-0.0400632880628109","0.0476014539599419","-0.117312207818031","-0.0280726607888937","-0.0153392134234309","0.0418348349630833","-0.192961975932121","-0.0265349540859461","-0.0882842689752579","-0.017640745267272","0.140887647867203","0.0170448888093233","-0.0669279396533966","0.0320851914584637","0.0537067726254463","-0.00877802073955536","0.0355130098760128","-0.0343703478574753","0.0310570932924747","-0.0754595771431923","0.226171433925629","0.0165040642023087","0.159081757068634","0.0608262978494167","0.104142241179943","-0.01139419618994","-0.00309088104404509","-0.00778135331347585","-0.0177964642643929","-0.0209877490997314","-0.0491119213402271","0.0779685750603676","-0.103899672627449","-0.0276575684547424","0.0737190842628479","0.109411276876926","0.114617235958576","-0.0423902571201324","0.0559516027569771","0.0218153670430183","-0.0100927203893661","-0.00865657534450293","0.00433030538260937","0.0226008556783199","-0.0273857042193413","-0.00372512359172106","0.0621059164404869","0.075765497982502","-0.0649453997612","0.0233958829194307","0.00896338559687138","-0.096203625202179","0.0245231278240681","0.194280162453651","0.0634521543979645","-0.0479869693517685","-0.00145540107041597","-0.0475124977529049","0.0583154037594795","-0.0393449999392033","-0.0967386513948441","0.245012283325195","0.000760948052629828","-0.0257694404572248","0.00137093639932573","-0.00530220381915569","0.0998124480247498","0.067882165312767","0.0634768307209015","-0.10333988070488","0.0469399467110634","-0.0448371805250645","0.207459986209869","0.110377311706543","0.0350481197237968","-0.0145442672073841","0.00832153670489788","0.0900130644440651","0.018038596957922","-0.0515943169593811","0.0326326079666615","0.00256557599641383","-0.00855533499270678","-0.00138255557976663","0.115207619965076","0.215227067470551","-0.00663052685558796","0.0346502736210823","-0.073087640106678","0.0589821822941303","-0.043812919408083","-0.0395791903138161","-0.051635317504406","0.000999864307232201","0.0656051263213158","-0.133003309369087","-0.0226895641535521","-0.0708166062831879","-0.0647754594683647","0.115648925304413","-0.0344986915588379","0.0403829850256443","1.1839188337326","-0.0395831242203712","0.0969396755099297","0.105406239628792","0.175355270504951","0.00313997454941273","-0.0116360541433096","0.0808651223778725","-0.0860557779669762","0.0341485366225243","-0.0835690647363663","0.00238923612050712","0.0439314097166061","0.0587833672761917","-0.0234603211283684","-0.00197305739857256","-0.0247048418968916","-0.0234569683670998","0.0229291338473558","-0.0435247644782066","-0.073710173368454","0.0575407966971397","0.000294248457066715","-0.0484175346791744","-0.0529705062508583","0.0753456056118011","-0.0709316059947014","-0.0703540220856667","0.0269566178321838","0.0646290257573128","-0.0233815740793943","0.0935743525624275","0.0126567808911204","0.00721188634634018","-0.0439391769468784","-0.054431177675724","-0.0620550327003002","0.0985336825251579","-0.153393462300301","0.00862811226397753","-0.0503152348101139","-0.0222251266241074","0.0613148957490921","0.0516561642289162","-0.0520861595869064","0.0323999151587486","0.00630013318732381","0.104008592665195","0.0247594155371189","0.0241845287382603","-0.0439646504819393","-0.0645498484373093","0.00590256368741393","0.108249723911285","-0.0953359082341194","0.127388298511505","0.0262913350015879","-0.0558746755123138","0.0469965711236","-0.036399569362402","0.00613636430352926","0.0553882420063019","-0.293135911226273","0.0753956288099289","0.03623441234231","-0.103023461997509","0.0856830477714539","0.00336218671873212","0.00237479293718934","-0.0899991169571877","0.0430389679968357","-0.0218163095414639","-0.0177399329841137","-0.0242241956293583","-0.111739605665207","0.00992404390126467","-0.00497051421552896","0.0830356702208519","-0.00281839934177697","-0.0540894828736782","-0.0410977341234684","0.0318713709712029","-0.0393587686121464","0.181886062026024"
"w1_20","-0.106424324214458","1.3091789484024","0.268411248922348","0.47196239233017","0.47447207570076","0.165204271674156","-1.22298157215118","0.162556871771812","-3.46208715438843","1.0458322763443","0.83198481798172","0.910425782203674","-2.49948382377625","-0.414097547531128","-0.247611880302429","-0.330263018608093","-2.14023852348328","-0.19230891764164","-0.251041442155838","0.419234335422516","-0.679471731185913","0.709230303764343","-0.816097438335419","0.157928600907326","-0.710170149803162","1.22560155391693","2.01621127128601","0.599389672279358","-0.808719635009766","0.698974013328552","0.837584733963013","0.904377222061157","-0.263351172208786","-2.75147151947021","0.777152895927429","-1.37720060348511","-2.89189076423645","-2.07891201972961","0.744608283042908","0.271711468696594","-1.51090669631958","2.94042038917542","0.75374698638916","1.16391217708588","-1.38468909263611","0.643798291683197","0.85277271270752","-1.43342924118042","0.931852698326111","-0.532124936580658","-0.514202058315277","-0.160596072673798","1.26178812980652","0.885559558868408","0.676450431346893","1.16830003261566","-0.597698092460632","-3.50353169441223","0.582370102405548","0.636115789413452","-0.406876176595688","2.77378988265991","0.783733665943146","0.49031463265419","-0.493565022945404","-0.441966652870178","1.13126230239868","0.566900908946991","0.668138384819031","-1.19720041751862","-0.954432666301727","-0.639976143836975","0.694065153598785","-0.958500146865845","-0.00660191662609577","0.0359814874827862","-2.4989869594574","0.339428663253784","3.34306383132935","-1.46830487251282","0.655450701713562","-0.583048522472382","0.246642529964447","0.910423159599304","0.368996024131775","-1.0970801115036","-1.85556137561798","-0.314752668142319","-0.937142848968506","0.396551489830017","0.748694181442261","-0.838298320770264","3.49066996574402","0.798688948154449","0.0642852336168289","-0.789485037326813","-0.419191628694534","0.123969443142414","-1.45758211612701","-3.86824345588684","0.482193648815155","0.5684934258461","-1.9806205034256","1.72781014442444","-1.48982119560242","1.31803691387177","1.17181324958801","-2.00291442871094","-0.636757493019104","0.35613676905632","-0.233746021986008","0.856794238090515","-0.83234977722168","0.127059906721115","0.887011528015137","-0.797211706638336","-0.402686476707458","-0.66325169801712","0.794546484947205","0.19505512714386","-2.5055627822876","-3.52433776855469","-0.502816438674927","-1.38486540317535","-1.66400909423828","-0.582490921020508","-0.344626396894455","-1.33079290390015","-0.298953652381897","-0.634220778942108","0.694321930408478","0.967831432819366","0.204887911677361","-1.49092423915863","1.24225318431854","-3.78879880905151","0.0695250481367111","2.34175753593445","0.0979984402656555","-2.06005644798279","-1.21547865867615","0.705676972866058","-1.04906404018402","0.0123774399980903","-0.225283145904541","-1.17545831203461","-0.00934035424143076","1.36206305027008","0.58320826292038","0.0725964978337288","-1.02472376823425","0.54591953754425","-0.520313858985901","-0.791691660881042","0.982248663902283","-1.92607891559601","2.14190077781677","-0.937771201133728","2.68678784370422","1.25278258323669","-0.0565417818725109","0.516905128955841","0.596840679645538","0.253996670246124","-2.21787810325623","-1.56243753433228","1.7027153968811","0.0621545873582363","0.295591115951538","-2.29788565635681","-2.49046182632446","0.0951980203390121","0.440194249153137","0.0734759643673897","-0.570011615753174","0.0647005438804626","-1.61485040187836","0.272921860218048","0.388939321041107","-1.04571747779846","-0.164125680923462","-0.426921606063843","0.0247853621840477","-0.777796804904938","2.05271887779236","2.15196943283081","-0.4210284948349","0.0937737300992012","0.8222815990448","0.929282426834106","-1.32810127735138","0.700239419937134","-1.69845366477966","0.153986439108849","-0.485269695520401","0.33091139793396","0.0885532647371292","0.522169411182404","1.26257133483887","-2.86359310150146"
"w1_21","0.601580619812012","0.808670222759247","1.69419288635254","0.436457514762878","-0.563962042331696","3.85965704917908","-1.33917009830475","-1.45573103427887","2.83453583717346","0.590309143066406","2.82598090171814","1.4859447479248","0.772855639457703","1.7636593580246","2.79881620407104","0.72742772102356","4.7356915473938","-0.0550675764679909","1.80766630172729","0.238500878214836","-2.61147785186768","-0.79894345998764","-1.84032094478607","-1.80085980892181","0.485775768756866","2.26453495025635","1.72117125988007","-0.0478189289569855","0.0582418628036976","-0.407610595226288","-0.733727037906647","-0.388621002435684","-1.22973072528839","1.57091903686523","0.683109223842621","1.03753101825714","0.851551234722137","2.15326881408691","-0.350567162036896","1.17841112613678","0.0345062613487244","0.0649464726448059","2.75835466384888","0.930342733860016","3.19225525856018","2.26778531074524","0.0776228830218315","1.32222270965576","1.58499562740326","-0.721130967140198","1.69904482364655","2.30537939071655","-0.650238394737244","1.25313174724579","0.60623961687088","3.92669248580933","1.0554975271225","2.11423182487488","-1.09075462818146","3.67140531539917","0.363082736730576","-0.0774625539779663","-0.526231169700623","-0.919186115264893","-0.0569059774279594","4.85009717941284","2.3841724395752","1.34931671619415","-1.36950421333313","-1.82851350307465","0.429592818021774","2.13123202323914","0.442998439073563","1.35885214805603","1.28827321529388","1.05898141860962","1.6326117515564","-0.58045357465744","-0.475714027881622","-0.32664555311203","-0.175506249070168","0.000560050888452679","-1.09869813919067","0.104229532182217","4.17574167251587","1.67602670192719","3.89637517929077","-1.90489387512207","0.128343001008034","1.31188702583313","-0.459559619426727","2.79816603660583","0.113714292645454","4.66254854202271","2.04274654388428","1.1771092414856","1.85054349899292","0.963957846164703","-0.380169242620468","0.624938488006592","1.86401462554932","-0.0283362064510584","4.12146615982056","-0.236892238259315","-0.171983808279037","0.772277176380157","0.00143895600922406","0.900963723659515","0.728319466114044","-0.78119957447052","-0.963593721389771","-2.77181172370911","3.83133745193481","-2.26101350784302","0.994467735290527","1.58971619606018","0.196867927908897","-1.13351130485535","2.83005738258362","0.887616336345673","0.969864964485168","0.29962083697319","-0.0601244419813156","-0.563996315002441","1.70404529571533","-0.70272570848465","-0.675479769706726","1.52595996856689","0.110791057348251","0.891965568065643","1.11392664909363","1.29969143867493","0.790075123310089","0.349370867013931","0.214760139584541","1.10037207603455","1.66463947296143","-0.0417292676866055","2.10599613189697","-0.33881151676178","2.45547986030579","-0.291264593601227","0.388107627630234","3.31060552597046","3.03159809112549","-0.0401042141020298","1.2513415813446","1.29482185840607","0.702267289161682","0.564600586891174","-0.884271204471588","-1.12580394744873","0.906858503818512","1.23788630962372","1.79253256320953","1.74812364578247","0.731282651424408","-0.888284981250763","1.99509954452515","0.969506859779358","2.02650165557861","0.765925168991089","0.781383633613586","-2.13092803955078","-1.65212309360504","2.75097250938416","1.65682911872864","-1.12916505336761","4.8468918800354","4.31924962997437","-1.27559232711792","0.867931365966797","0.410968959331512","1.9677460193634","1.19773709774017","-0.358579367399216","-1.20981276035309","-0.16460332274437","2.60350561141968","0.112979404628277","-0.505761861801147","1.54989874362946","-1.18805229663849","1.8063155412674","4.74511671066284","0.321972578763962","1.24192976951599","1.02345037460327","1.07403934001923","-1.38908207416534","0.793224334716797","2.52798819541931","1.27371621131897","1.08621847629547","1.08304476737976","-0.36782243847847","5.67881393432617","1.05948257446289","7.30708694458008","-0.725274443626404"
"w1_22","-2.0408787727356","1.08406686782837","-0.11400743573904","0.174587592482567","-0.220544919371605","1.28107607364655","-1.09447848796844","-0.987454831600189","-0.816274225711823","1.51101350784302","0.396932691335678","0.369728058576584","0.243758141994476","0.136617556214333","0.12718303501606","-0.595722436904907","0.288389444351196","-0.670770227909088","-0.0445409454405308","0.671848893165588","-0.344416499137878","-0.467263609170914","-0.394968718290329","1.13766121864319","-0.316680669784546","0.192953392863274","-0.129850253462791","1.79239726066589","0.647190928459167","0.901805281639099","-0.115540616214275","1.74360394477844","-1.49100494384766","0.930279016494751","0.440881490707397","-2.22459745407104","0.624114811420441","-1.24980413913727","0.0346865952014923","-1.31282269954681","-1.03749752044678","1.55551910400391","1.33475041389465","1.23642385005951","-0.217739745974541","-0.659668445587158","-1.11752152442932","0.780416786670685","0.378454297780991","0.726781964302063","-0.689847111701965","0.255600839853287","1.12439870834351","0.773562073707581","0.578861117362976","0.252886980772018","-0.473773688077927","-5.01041269302368","1.52319610118866","1.9845769405365","-0.836607754230499","0.994861721992493","-0.681386113166809","-0.12955379486084","-0.852175235748291","0.444427400827408","1.68133687973022","-1.42992973327637","0.67743992805481","-0.863245487213135","2.79745054244995","1.28733777999878","0.622026443481445","0.469177454710007","1.20752322673798","-0.0330816879868507","-2.05547428131104","-1.10396206378937","1.85411095619202","0.990891873836517","1.77124655246735","0.910033822059631","0.756206512451172","0.367056339979172","2.04509687423706","-1.38611948490143","-1.37034332752228","-0.786702752113342","0.207951635122299","0.717170476913452","1.41612243652344","-1.30276167392731","2.05194234848022","-1.36445724964142","0.0395655483007431","-1.60534393787384","-0.963869452476501","0.993431150913239","0.358874976634979","-2.68402934074402","1.58529794216156","1.04787087440491","-0.175390213727951","0.481664568185806","0.81293648481369","1.65378832817078","-0.0130042238160968","-2.39893436431885","0.958889305591583","1.19951713085175","0.576454162597656","-1.04996883869171","-2.20144939422607","-0.289355963468552","-0.885639131069183","1.1402051448822","-0.211148366332054","-0.927565515041351","0.957133591175079","0.458648204803467","0.349886536598206","-3.36854910850525","0.376357287168503","-0.846311509609222","-2.13167977333069","-0.0470542274415493","-0.273521810770035","0.422898650169373","-1.2676956653595","0.83170747756958","0.861887276172638","0.244751781225204","-0.295535862445831","0.000751801766455173","0.0544392578303814","-1.91823196411133","0.165357857942581","0.998435974121094","-1.44248259067535","-3.7949526309967","2.05365037918091","0.162193790078163","-1.07084310054779","-0.081142783164978","1.87621164321899","0.0221016258001328","0.969368040561676","1.31903290748596","0.684293866157532","1.06731998920441","-0.415671080350876","0.136545389890671","-2.13834190368652","1.86152231693268","-0.588187336921692","0.232440114021301","1.36081635951996","0.0444933697581291","0.829210340976715","0.163141548633575","0.943564593791962","0.970017373561859","0.135526552796364","-0.355075925588608","-2.69034028053284","-1.3933037519455","-0.162860840559006","0.619008719921112","0.0910967439413071","-1.30224204063416","-2.87064743041992","1.03420829772949","-0.141946971416473","1.20410621166229","-0.360540211200714","0.128720194101334","-0.986457049846649","-1.17878222465515","1.21982097625732","0.211402282118797","-0.732261061668396","-1.59661912918091","0.0863850712776184","-1.91941380500793","0.661849737167358","0.670975625514984","0.458160758018494","-0.661847412586212","-0.750402271747589","-0.515522480010986","-0.0761914700269699","0.728971540927887","-0.393590301275253","-1.10208773612976","0.664999663829803","0.862414836883545","1.10222959518433","1.15687358379364","0.826963603496552","-0.228624626994133"
"w1_23","2.86472845077515","1.09446048736572","-2.40377116203308","0.776512742042542","-1.36286413669586","0.143734633922577","-3.28577208518982","-1.00124621391296","-0.962871909141541","1.12138044834137","-0.91738349199295","0.0724843740463257","1.54108595848083","2.27385640144348","1.67735517024994","-0.893671452999115","0.62521493434906","0.547742128372192","3.74651861190796","-0.463951259851456","0.35920986533165","2.25451946258545","1.02803790569305","-0.548769950866699","-0.57453840970993","3.9294285774231","-0.0231839437037706","-1.69581031799316","-0.413533508777618","0.550225436687469","0.509305238723755","3.45564746856689","2.77209162712097","0.759802043437958","0.108058795332909","0.331360220909119","-1.16573512554169","-0.0585980005562305","0.187602743506432","-1.23343515396118","-0.79490715265274","0.855096995830536","0.493840098381042","1.09741389751434","-0.973577320575714","2.9037561416626","1.43516302108765","-1.15882873535156","-1.97948336601257","0.0847260430455208","0.155979961156845","-1.94347536563873","1.01514911651611","2.08307671546936","-0.902550458908081","-1.41902565956116","-1.56683921813965","1.66203272342682","-0.847432434558868","0.890443980693817","0.856116473674774","1.99115550518036","0.254984021186829","-0.696373999118805","1.31154727935791","0.512126803398132","1.62973260879517","-0.13915641605854","1.00629949569702","0.439809828996658","1.69764709472656","3.16317296028137","0.184769243001938","1.2603325843811","0.971494078636169","1.19555580615997","0.619648218154907","0.608256578445435","0.199376791715622","-1.17610931396484","1.59711098670959","0.349153697490692","0.636827945709229","1.79182398319244","1.8255078792572","-0.0720653757452965","2.50128030776978","-0.913252174854279","2.84532260894775","0.105897828936577","0.785173654556274","1.59026968479156","1.3935672044754","1.33224666118622","0.77217048406601","1.89124190807343","-1.19300663471222","-0.947258770465851","-1.09748840332031","-0.107044391334057","3.81364226341248","-0.75536584854126","0.362137973308563","2.32248401641846","0.824432015419006","0.156283214688301","0.439924538135529","-0.96907114982605","-2.36405968666077","1.42657625675201","0.857107102870941","1.39055776596069","-0.810900449752808","-0.770628392696381","0.298817813396454","1.82419800758362","0.455503344535828","-1.31653106212616","0.36662232875824","-0.837871134281158","-0.514121949672699","1.73917925357819","-0.0482556782662868","-1.09478604793549","-0.922155022621155","1.75847697257996","-1.07889127731323","-0.475272953510284","2.25228357315063","-1.70669651031494","0.582450807094574","-0.309296846389771","-0.0185712110251188","-0.714003443717957","-0.0193501487374306","-0.325290024280548","0.20841158926487","-0.586566090583801","1.25216090679169","-0.434881180524826","0.188405469059944","0.304594129323959","-0.742750287055969","0.178564414381981","0.128563180565834","0.48851266503334","1.43332648277283","1.44599950313568","-0.580833554267883","0.252261370420456","-0.375459641218185","2.52127528190613","-0.348160982131958","1.08759582042694","1.51415252685547","-1.29168975353241","1.22895336151123","0.0718414038419724","1.76603102684021","0.149138629436493","2.28993201255798","-0.934115469455719","1.30952656269073","0.281870424747467","0.727306723594666","1.27250933647156","2.12755393981934","-0.513641178607941","1.1240268945694","-0.757848858833313","-0.798233449459076","-0.281048566102982","1.74108505249023","-1.11130774021149","-2.1834979057312","0.00438718963414431","-0.110456921160221","0.394620984792709","2.95835447311401","-0.222371324896812","1.76684308052063","0.77439272403717","2.42661952972412","2.45767211914062","-0.154520228505135","0.140125170350075","0.768974423408508","-0.27036440372467","0.725771367549896","-2.07488799095154","0.252069145441055","3.64256429672241","-0.0710857734084129","-1.0598908662796","0.391924977302551","2.48252558708191","0.781876444816589","1.17395305633545","-0.860098421573639","1.25532698631287"
"w1_24","-0.0795899927616119","0.0976269543170929","0.0291806180030107","0.0508366227149963","-0.0231506526470184","-0.0811528041958809","0.0477558486163616","-0.0489743873476982","0.00262965844012797","0.0945198386907578","-0.0350333601236343","0.0621994137763977","-0.0266805421561003","0.0455072186887264","-0.00232164352200925","0.020096717402339","-0.0952485203742981","0.037694163620472","0.0115251764655113","-0.0706303343176842","-0.15622578561306","0.0355154499411583","-0.00529697583988309","-0.0182994417846203","0.0948155149817467","-0.0170173402875662","-0.0699503123760223","0.069915272295475","-0.1555045992136","0.0352278985083103","0.00970023684203625","-0.0389673821628094","0.0336813442409039","-0.0455983132123947","0.0229715388268232","0.0275118481367826","-0.184127256274223","0.104165107011795","-0.000781697453930974","0.0212909299880266","-0.103027522563934","0.0279910825192928","0.154429018497467","0.0554375313222408","-0.0637156143784523","-0.041910395026207","-0.0916188061237335","-0.0758661553263664","0.0724632740020752","0.0645730495452881","0.0476207584142685","0.0190463960170746","0.0769399404525757","-0.0196838174015284","-0.0103801973164082","-0.00521970959380269","0.0119410865008831","0.140149340033531","0.0176448728889227","-0.0986550897359848","-0.11644434183836","0.112355910241604","-0.058046467602253","0.0340224280953407","0.124886535108089","-0.106448009610176","-0.00376877724193037","0.0860834121704102","-0.0131821949034929","-0.0670596435666084","-0.101454339921474","-0.0245412979274988","0.0453101098537445","-0.0392635799944401","-0.105734527111053","0.00196100492030382","0.191191509366035","-0.159986957907677","-0.0253142323344946","-0.110199213027954","0.08744827657938","-0.107702255249023","0.0926354750990868","-0.00595050444826484","0.0494232773780823","-0.0215795617550611","0.117945581674576","0.118520803749561","-0.116885602474213","-0.00941946543753147","-0.0936552882194519","0.111619308590889","-0.0597513392567635","0.00934209302067757","-0.192041531205177","0.0465099699795246","0.068765215575695","0.0929605960845947","0.215965643525124","0.128023028373718","-0.155625686049461","-0.0474779456853867","-0.0288377813994884","0.000780758447945118","0.0476262010633945","-0.0262695699930191","0.0420267917215824","0.0166640281677246","0.0390146635472775","0.0693333894014359","0.0822152495384216","0.0124081466346979","0.0512829162180424","0.039632074534893","0.0201235134154558","0.15502618253231","-0.694848120212555","-0.0415286272764206","0.0307980719953775","0.0409523025155067","0.126413896679878","-0.107555262744427","0.0221700742840767","-0.0275507923215628","-0.113207273185253","0.0336081944406033","-0.0703046917915344","0.0518524199724197","-0.0637791752815247","-0.0649849474430084","-0.12075275182724","-0.0194427575916052","0.0579519271850586","0.00265292776748538","-0.00350321573205292","0.0460908152163029","-0.0947659537196159","0.00085512432269752","-0.0222652517259121","-0.0601897276937962","0.138939917087555","0.117565259337425","0.0303407739847898","-0.067271888256073","0.0526486933231354","0.0861957371234894","-0.0411654785275459","0.135647937655449","0.0566895306110382","0.00242567504756153","-0.0816066712141037","-0.0942833051085472","-0.0845024660229683","0.0754791647195816","0.0713935419917107","0.172429829835892","-0.0704033821821213","-0.0370411612093449","0.0839611813426018","0.0232743043452501","-0.0547843612730503","-0.0765535160899162","-0.032376904040575","0.0360991805791855","0.0665237829089165","-0.0575661472976208","0.00377054326236248","-0.152233779430389","0.0340164601802826","0.0176401250064373","0.10680166631937","0.134005963802338","-0.00072939955862239","-0.0412975177168846","-0.0567793659865856","-0.0323565676808357","-0.0604141093790531","0.0237882323563099","-0.0294199846684933","-0.178660362958908","-0.0303566921502352","-0.130348801612854","0.0721481069922447","-0.0217119194567204","-0.0606405362486839","-0.0729471743106842","-0.693105757236481","-0.00672209449112415","-0.0708359181880951","-0.0436813905835152","0.00146097666583955","0.066508561372757","0.0618861541152","0.0583437383174896","0.106561943888664","-0.0337825864553452","0.0320862978696823","-0.132858216762543","-0.0425380282104015","-0.44310188293457"
