"dummy","w4_1","w4_2","w4_3","w4_4","w4_5","w4_6","w4_7","w4_8","w4_9","w4_10","w4_11","w4_12","w4_13","w4_14","w4_15","w4_16","w4_17","w4_18","w4_19","w4_20","w4_21","w4_22","w4_23","w4_24","w4_25","w4_26","w4_27","w4_28","w4_29","w4_30","w4_31","w4_32","w4_33","w4_34","w4_35"
"w3_1","-0.230186477303505","0.66075199842453","0.315282464027405","-0.0529028214514256","0.210487484931946","-1.05730330944061","-0.380154609680176","-0.77523797750473","0.254780352115631","0.247702166438103","0.153730750083923","0.00658938847482204","0.441880583763123","-0.555172085762024","0.00439305184409022","-0.111576035618782","0.100553564727306","0.0796355754137039","-0.373900413513184","-0.30684232711792","-1.42025089263916","0.338286131620407","-0.115959636867046","0.253483593463898","-0.267254263162613","0.0215351711958647","-0.127212390303612","0.259902209043503","0.03504503890872","-0.111091822385788","0.0770874992012978","-1.36896622180939","0.0832766816020012","-0.0302915032953024","0.0629776269197464"
"w3_2","1.03658008575439","0.187487721443176","0.112261243164539","0.139880865812302","-1.1403694152832","-0.158030688762665","-0.104753665626049","0.995675086975098","0.636477470397949","-2.20379257202148","0.268437534570694","-0.441687703132629","0.216638714075089","-0.0844402015209198","0.426540583372116","0.248776614665985","-1.34542512893677","0.639379918575287","0.239472016692162","-0.133132815361023","-1.87313592433929","-2.90081143379211","0.313618510961533","-0.0457131266593933","0.382772028446198","0.524231553077698","-1.65591681003571","-0.592320621013641","-0.381074398756027","0.206236228346825","0.0170244723558426","-1.29129922389984","0.949354767799377","-0.329778641462326","0.882017254829407"
"w3_3","2.40636038780212","-0.15244734287262","-0.87108451128006","-1.69802904129028","0.0960663259029388","-0.716889977455139","-3.97818517684937","1.90416145324707","1.59273076057434","0.218634814023972","-0.0131296757608652","-0.301649987697601","1.326500415802","0.973958432674408","-4.86632633209229","-0.805739104747772","0.0342460982501507","-1.26039445400238","-0.651612877845764","0.389225631952286","-2.6234393119812","-0.00772582925856113","-0.546064853668213","-0.847144067287445","-5.2685923576355","-3.82933950424194","-3.78572845458984","-7.1559476852417","-0.0331717655062675","-2.33489799499512","0.582217872142792","-0.787310302257538","-0.619818449020386","-0.1733288615942","0.866105794906616"
"w3_4","-0.626785337924957","-0.968799412250519","-0.16570271551609","-1.59822690486908","0.0103635927662253","-2.6224205493927","-2.75337529182434","-0.367644786834717","0.281685769557953","0.170340776443481","0.0184647478163242","-4.01737833023071","0.343132197856903","0.310805320739746","-3.06583428382874","-7.9619288444519","-1.14527440071106","-4.0171365737915","-1.12343275547028","-1.07103335857391","0.846679091453552","-3.92177581787109","-0.0797880813479424","-0.267959773540497","-1.80544316768646","-2.94436430931091","1.45894420146942","-3.73504590988159","0.897761464118958","-0.446258991956711","-0.864147841930389","-5.67996644973755","1.20150780677795","0.0339297503232956","-0.642814457416534"
"w3_5","0.602537035942078","-0.0230149552226067","0.369459956884384","0.269200295209885","-0.0558179318904877","-0.0638597384095192","0.331893295049667","0.292532294988632","0.417825520038605","-0.688341438770294","0.0667411461472511","0.29165306687355","-0.548820555210114","-0.0755350664258003","0.4385666847229","0.560414135456085","0.118135385215282","0.232294246554375","0.220645502209663","0.47341924905777","0.0919834971427917","-6.60913228988647","-0.0972333773970604","-0.260956019163132","0.886880874633789","0.45102533698082","0.309676378965378","-0.37540739774704","-0.010542250238359","-0.0694709196686745","-0.215160459280014","0.717535495758057","0.131462439894676","0.198085695505142","-0.0136150475591421"
"w3_6","-5.52453088760376","-0.0599722266197205","-1.85930943489075","0.323511064052582","-0.987333238124847","0.0448695234954357","-1.94301795959473","-0.128021165728569","-0.133552938699722","-0.555687963962555","0.0392356887459755","-0.197652161121368","0.00259070936590433","-1.03146123886108","-0.313116192817688","-0.211979255080223","-1.34787034988403","-0.0531417764723301","-0.434885203838348","-1.2441486120224","0.0176951661705971","-0.305889844894409","-0.315120875835419","0.164015844464302","0.101422153413296","-0.465484321117401","-2.83151316642761","-0.114134170114994","0.108851082623005","-0.0178024582564831","-1.95273900032043","-0.901180505752563","0.215705916285515","-0.197068452835083","0.109177395701408"
"w3_7","-0.210083097219467","0.291912376880646","-0.384039551019669","0.201195001602173","-0.224461957812309","-1.74143850803375","0.0657886862754822","-0.256134539842606","-2.71256852149963","-1.4817019701004","-0.242968052625656","-1.48411297798157","-1.76997363567352","-0.674358546733856","-3.26636695861816","-0.623627543449402","-1.2399640083313","-1.82026743888855","0.213116511702538","-1.37273001670837","-2.80468678474426","0.242948785424232","-0.966937243938446","-0.328631788492203","-0.794069766998291","0.43648761510849","-1.49579322338104","-2.00778388977051","-0.784535944461823","-0.619015395641327","0.691910088062286","-0.407064199447632","-1.46451234817505","-0.163826003670692","0.428537607192993"
"w3_8","0.741593360900879","-0.373921394348145","0.0564576648175716","0.792469382286072","0.521707355976105","-2.44687724113464","0.372793972492218","2.44332599639893","-3.43228673934937","-2.49270486831665","-0.109230257570744","-0.451475352048874","-0.146296203136444","0.45345813035965","1.29246318340302","-0.388228803873062","-0.394064247608185","2.27787351608276","0.275350481271744","0.275839984416962","0.397550195455551","-0.262280136346817","-0.660721480846405","-0.123778216540813","1.26024174690247","0.66858434677124","-1.07483434677124","1.57985877990723","-0.408878684043884","0.513600826263428","-0.366033166646957","0.80410361289978","0.758753418922424","-0.816877961158752","-0.701110243797302"
"w3_9","1.09230816364288","0.224619686603546","-0.0823984146118164","-0.274864494800568","-0.119355455040932","-0.540018379688263","0.584779679775238","-0.0940214619040489","-2.12177085876465","1.16358959674835","0.366464257240295","0.425757944583893","0.42371192574501","-0.406974375247955","-1.08759868144989","-0.791889011859894","-0.213854521512985","-0.0553472712635994","0.223963737487793","0.987283885478973","-0.624018490314484","0.989398300647736","0.480932950973511","0.0144076775759459","-1.08838284015656","0.605242729187012","0.677628219127655","-0.37810343503952","0.226048499345779","-0.220119014382362","-0.496070861816406","0.109496966004372","0.409159988164902","0.0516263693571091","0.350501656532288"
"w3_10","-1.02113521099091","-0.279207736253738","-0.168285146355629","-0.376237213611603","-2.74108743667603","-0.879576206207275","-0.079987570643425","-0.260330855846405","0.159859001636505","0.468182235956192","-0.0644171684980392","-0.151276126503944","-0.0780684947967529","-0.28281158208847","-0.431403875350952","0.125669240951538","1.75320160388947","-0.184754893183708","0.0414951145648956","0.0985733568668365","-0.0346984751522541","-0.347291260957718","-0.525202751159668","-0.0480829998850822","-0.384285122156143","-0.901891231536865","-0.269621670246124","-5.42176723480225","-0.0212627910077572","-0.0634095221757889","-0.110972233116627","-0.457545965909958","0.163975760340691","-1.60789966583252","-2.94816851615906"
"w3_11","-0.252842992544174","-0.345852553844452","-0.103911817073822","-0.0411853715777397","-1.2967426776886","-0.574296772480011","0.00274513033218682","-0.426253706216812","-1.00979721546173","-0.666760563850403","0.146140679717064","0.00806132610887289","0.35007455945015","-0.00556685356423259","-0.341465562582016","-0.360894411802292","-0.164504051208496","-0.410435050725937","-0.145049855113029","-0.0869086310267448","-0.468368619680405","-0.315296083688736","0.00464851595461369","0.0505173467099667","-0.212689206004143","-0.233989030122757","-0.0553032830357552","-6.37522983551025","0.0296485517174006","0.123567312955856","0.109366692602634","-1.17868733406067","0.102181680500507","-0.185616374015808","-0.85187691450119"
"w3_12","1.47860515117645","-2.09061741828918","3.07930374145508","-10.0143013000488","-0.168419852852821","0.600314319133759","-0.0699056833982468","0.170822530984879","2.65255737304688","3.39637184143066","-6.29445266723633","-4.66676235198975","-1.51801407337189","0.300263345241547","-2.4072961807251","-0.345811367034912","-0.952980697154999","0.907539486885071","-0.872835218906403","-3.60763025283813","2.41800260543823","3.04673528671265","-0.55038583278656","-7.45744180679321","0.748865962028503","-2.00163531303406","-0.51065319776535","-0.634415090084076","-0.538545846939087","-0.323345959186554","0.721228659152985","-2.08622121810913","-1.33788275718689","0.1641845703125","0.12401220947504"
"w3_13","-0.324519604444504","-0.713344871997833","-0.785695970058441","0.609276592731476","0.371739119291306","-0.901143193244934","0.533414602279663","-2.46249938011169","-0.334302544593811","-0.370181679725647","-0.249752342700958","-8.71845149993896","-0.793306291103363","-0.971838772296906","-1.74745404720306","-0.18998509645462","-0.843498468399048","-0.108240686357021","-0.804096698760986","-1.08994269371033","0.0842137932777405","0.0297386329621077","-3.2424578666687","-0.0918895900249481","-0.374407351016998","0.55998158454895","-0.483688682317734","1.29981684684753","-3.13403391838074","-0.0419063381850719","-0.114452369511127","0.00677095772698522","0.27397421002388","0.324621707201004","0.495098978281021"
"w3_14","0.332381278276443","-0.158121556043625","0.218781054019928","0.227370515465736","-0.163667276501656","-0.051404882222414","0.410545617341995","0.36629131436348","0.503433704376221","-4.63173389434814","-0.0806676670908928","0.462409973144531","-0.0925772115588188","0.11788471788168","0.464180469512939","0.198395177721977","-0.299401074647903","0.127120316028595","-0.0286285132169724","-0.0177302099764347","0.627261996269226","-6.4404559135437","-0.13165482878685","-0.0141894407570362","0.247011840343475","0.804719030857086","-1.38847482204437","0.725698471069336","0.422706574201584","-0.209847047924995","0.283320665359497","-0.721057772636414","-0.285356402397156","0.0780158042907715","0.0215162541717291"
"w3_15","-1.11584365367889","-0.156425565481186","-1.14739048480988","-0.767796695232391","-0.302473127841949","-1.62267875671387","-0.936513602733612","-0.0293224323540926","-1.10298144817352","-0.650807499885559","-0.330938994884491","-8.40497589111328","-0.363310754299164","-1.66110336780548","-1.53570067882538","0.133881792426109","-0.370400369167328","-0.773495733737946","0.285293936729431","0.0128736207261682","-0.601266801357269","0.224604770541191","-0.853754341602325","0.0417729616165161","-1.13436055183411","-0.494350701570511","-0.642381966114044","-1.97080659866333","0.71324223279953","0.182372227311134","-1.31248080730438","-0.158858507871628","0.00607483042404056","-0.34185379743576","-0.750667572021484"
"w3_16","-3.79986500740051","-0.956956624984741","1.14075529575348","-1.05423891544342","-0.243023425340652","-0.0488817729055882","0.600003838539124","1.39333987236023","0.509896397590637","0.382707506418228","0.103379234671593","0.887203335762024","-0.158029526472092","0.493515938520432","-0.546230673789978","-1.42606401443481","1.12270557880402","-0.707091748714447","1.63877761363983","0.410048753023148","-0.516648709774017","2.24786806106567","0.42938044667244","-0.0556814670562744","0.495912283658981","-1.33354699611664","1.82927060127258","-0.0762306675314903","0.549715936183929","0.271330982446671","0.156011134386063","0.767979919910431","3.1592390537262","-0.024250078946352","-0.00677289441227913"
"w3_17","0.275335133075714","-0.222440615296364","-0.0766272768378258","-0.518391668796539","0.333819985389709","0.359008133411407","-0.868973851203918","-1.1634019613266","1.68703401088715","0.599977672100067","0.00929292198270559","0.00404252437874675","-0.138686403632164","1.11367344856262","0.177913457155228","-1.23335659503937","-0.377029478549957","-0.546294629573822","0.418284803628922","-0.203487068414688","-0.496150732040405","0.22649011015892","0.632624089717865","-0.746079623699188","-1.18705630302429","1.04448044300079","-1.51852190494537","0.508288562297821","-0.0819235593080521","-0.428342938423157","0.24033060669899","-0.809853672981262","-0.1688062697649","-0.146360456943512","-0.319735258817673"
"w3_18","0.202247053384781","0.145875379443169","0.0387008599936962","0.483696430921555","0.262374579906464","0.244810312986374","-0.823845267295837","0.0639725252985954","-0.0895658805966377","-0.235456421971321","0.261173844337463","0.13595487177372","0.218113973736763","0.681554198265076","-0.375000417232513","-0.394931554794312","0.228967532515526","-0.165562123060226","0.291081994771957","-0.0788366869091988","-0.166040614247322","-0.275454819202423","0.338246464729309","0.196962952613831","-0.0847011283040047","-0.966133177280426","-1.22375392913818","-0.137870416045189","0.11420002579689","0.36181166768074","0.27210059762001","0.0735764130949974","0.164268210530281","0.158262461423874","0.225974157452583"
"w3_19","0.343419790267944","0.0914802178740501","-0.132650718092918","-0.106541380286217","0.323224276304245","0.610379159450531","0.537500977516174","0.936909317970276","-0.762702345848083","0.0359839349985123","0.0990589931607246","0.130106300115585","-0.0685033202171326","0.508035361766815","0.420521199703217","0.393211245536804","-0.600279569625854","0.63740873336792","0.0812492296099663","-0.320231825113297","-1.61186826229095","0.751179337501526","0.00674962578341365","0.174370378255844","0.761633217334747","0.311264455318451","-2.58002710342407","0.439919531345367","-0.0479010678827763","-0.11492320895195","-0.15386201441288","-0.796725928783417","-0.642463326454163","0.313395828008652","0.744660079479218"
"w3_20","0.241983860731125","0.0589979812502861","0.34025651216507","0.780001580715179","-0.371593445539474","-0.0760203525424004","0.474893450737","0.138354554772377","0.191782996058464","-4.03911972045898","-0.420775234699249","-0.112181894481182","0.105793289840221","-0.345901846885681","0.331483840942383","0.723401963710785","-0.978576481342316","-0.0225884355604649","0.32907634973526","0.28033983707428","0.534648895263672","-2.76572251319885","-0.344674348831177","-0.108710460364819","0.298882842063904","-0.0613065622746944","0.293463528156281","-1.70529317855835","0.41681233048439","0.0338279604911804","-0.26933953166008","-0.557472348213196","-0.165265798568726","-0.207561641931534","0.339762777090073"
"w3_21","0.660746395587921","-8.37490844726562","-1.59078133106232","-0.0321219451725483","-1.06377518177032","-2.79954934120178","-0.41240781545639","-0.209489747881889","-0.0593294948339462","-2.47366237640381","-0.0844066292047501","-0.0706337168812752","0.0428152456879616","-0.246050477027893","-1.32164967060089","-0.0841977298259735","-1.55313050746918","-0.187272995710373","0.00195196887943894","0.0231982972472906","-0.208242207765579","0.116191044449806","-2.53317666053772","-0.0400789491832256","-1.30802357196808","-1.45444273948669","-1.84951865673065","-1.22565937042236","-0.0836825147271156","-0.144842252135277","-0.363830655813217","-0.75223433971405","-1.66552627086639","-1.17998945713043","-1.59443318843842"
"w3_22","-0.330147922039032","0.136455282568932","-4.02852964401245","-1.98761057853699","-0.714444279670715","-1.25142300128937","0.125320613384247","-0.288194298744202","0.066700279712677","-0.12508425116539","0.17325647175312","-0.0359845347702503","0.506262600421906","0.26127877831459","0.148746713995934","-0.0805510357022285","-0.287438333034515","-0.529621362686157","0.0671172067523003","-0.311744838953018","-2.18859314918518","0.244344606995583","-0.427703708410263","0.198933377861977","-0.305830299854279","-1.96411859989166","0.590936124324799","-0.978702127933502","-0.381915807723999","-0.179119765758514","-0.198851585388184","-0.424902111291885","0.0251341573894024","0.164764508605003","-0.997801065444946"
"w3_23","0.846594750881195","0.362885236740112","0.788110136985779","-0.469530165195465","0.459761679172516","0.887940049171448","0.896214544773102","-0.235661774873734","0.940149426460266","0.479260683059692","0.147592544555664","-0.0937674790620804","0.724230349063873","-0.44615712761879","0.460952162742615","-0.496786773204803","-0.13712078332901","0.705247700214386","-0.544484257698059","0.171376869082451","0.228680476546288","0.225357696413994","0.682228326797485","0.456772446632385","-0.764641523361206","1.23734736442566","1.32218360900879","0.754914581775665","0.193634256720543","0.44315505027771","-0.0436000265181065","1.17021369934082","-0.288615167140961","-0.0252737887203693","0.0555099248886108"
"w3_24","-0.233848944306374","-0.144310116767883","-0.176178887486458","-1.18422520160675","-0.795044720172882","-1.52359616756439","-0.250135093927383","-0.599692702293396","-1.0313606262207","0.677510142326355","0.143919453024864","-0.130412831902504","-0.0689480006694794","0.119228571653366","-0.174357235431671","0.375832855701447","-0.250459879636765","-1.04872190952301","0.453449338674545","-0.0912563651800156","-2.63735389709473","0.118153788149357","0.0186977833509445","0.287251502275467","-0.593024015426636","-0.816856563091278","0.574967205524445","-1.94897365570068","-0.116824299097061","0.389149904251099","-0.120383195579052","-0.0395411811769009","0.144531458616257","-0.101858332753181","0.0892677456140518"
"w3_25","2.1785364151001","-1.33339405059814","-0.925493896007538","-0.637607395648956","-0.119919121265411","0.893589973449707","2.2658326625824","-0.922525703907013","-0.440130591392517","1.47647988796234","-0.43818187713623","-3.26558589935303","-0.149026557803154","0.842500984668732","0.283819198608398","-1.10811972618103","0.498099207878113","0.807258069515228","-1.24706411361694","-0.779927253723145","2.18936657905579","4.18960094451904","-0.743211567401886","-0.172372356057167","0.307567983865738","-0.570713400840759","-2.23964691162109","-5.49305534362793","-1.38861775398254","-0.769381999969482","-0.124318033456802","-3.34763169288635","-4.71723461151123","0.028846962377429","-0.301376670598984"
"w3_26","0.165066882967949","-0.288579732179642","0.0392767414450645","0.268102139234543","0.427929222583771","0.633054554462433","-0.141405209898949","0.460301846265793","-1.18322920799255","-7.42664432525635","0.0132023394107819","0.00606456352397799","-0.0939757600426674","0.0235247928649187","0.326606959104538","0.300695449113846","-0.225280672311783","0.384285062551498","0.0364857092499733","-0.224603697657585","0.307543516159058","-0.992872416973114","0.46947193145752","-0.0358358845114708","-0.0268431603908539","0.40985980629921","0.462601661682129","-0.622094511985779","-0.0195929389446974","-0.102092184126377","0.0362489074468613","0.0158039927482605","-0.294865787029266","0.0181041955947876","-0.563330769538879"
"w3_27","-0.500596106052399","0.392869234085083","-0.228240787982941","-1.39841735363007","-0.612526416778564","-0.556596696376801","-0.829440414905548","-1.15980339050293","-1.20761299133301","0.0188244637101889","0.173948958516121","0.0756302252411842","0.550285756587982","-0.769832074642181","-2.26569581031799","-0.215709909796715","-0.17738188803196","-0.768559396266937","0.302114218473434","0.753153443336487","0.52480274438858","0.320711642503738","-0.246680334210396","0.0295264106243849","-0.832549631595612","-0.5484978556633","-0.868088960647583","-1.63272893428802","0.03020847029984","0.273586392402649","0.181332781910896","0.0508726537227631","-0.449372202157974","-0.349666327238083","-0.194061607122421"
"w3_28","-1.42888391017914","-0.068792998790741","-0.636906325817108","-0.392629116773605","-0.482589840888977","-0.47174546122551","-0.452945441007614","-0.519212365150452","-0.622904062271118","-0.292193293571472","0.20499986410141","0.0415768399834633","-0.443966418504715","-0.251391470432281","-0.227131202816963","-0.295350223779678","0.303638964891434","-0.897408306598663","0.301892042160034","0.153604447841644","-0.873057782649994","0.0714198723435402","-0.3109090924263","0.747860848903656","-0.756981611251831","-1.54516875743866","0.0687625631690025","-0.473277688026428","-0.215360522270203","-0.167429238557816","0.580157577991486","-5.14391708374023","-3.01310300827026","0.319571048021317","0.798731684684753"
"w3_29","-3.74573540687561","-0.625911235809326","0.12004990875721","0.825809180736542","-0.256388455629349","-0.578934848308563","0.858124792575836","0.647672235965729","-5.41776323318481","-0.262437075376511","-0.33893758058548","0.874195158481598","-0.438847929239273","0.239851132035255","1.13374578952789","-0.268316060304642","-2.45644950866699","-0.0415992215275764","-0.336987406015396","1.01867735385895","1.02962160110474","0.449461132287979","0.786077976226807","-0.25456228852272","0.666561782360077","1.28796207904816","1.8415230512619","1.63849472999573","0.238590270280838","-0.52728545665741","-0.280436903238297","0.280681371688843","1.91332602500916","-0.751668334007263","0.367461681365967"
"w3_30","-3.99557685852051","-0.507713913917542","-0.118198484182358","0.00594526482746005","-0.184603035449982","-0.587786614894867","0.34941765666008","0.557282984256744","2.32187461853027","0.600046813488007","0.0430968701839447","0.087263323366642","0.183920010924339","0.294914901256561","0.516807496547699","-0.059761181473732","-9.4195671081543","0.327503055334091","-0.0625253245234489","-0.213032588362694","0.316450983285904","0.262214660644531","-0.0335250720381737","-0.0647751018404961","0.605810761451721","0.48061266541481","1.56597280502319","0.0411490239202976","0.125271841883659","0.0893061310052872","0.645910143852234","1.38057661056519","-2.72879910469055","0.452583879232407","-1.69336020946503"
"w3_31","-2.53895688056946","0.152525201439857","0.120607756078243","0.20122517645359","0.0619208328425884","0.25649693608284","-0.732647001743317","0.205071941018105","0.156318753957748","-0.0967423096299171","0.220068126916885","-0.1272242218256","0.145889490842819","0.106209799647331","0.193258598446846","0.117413640022278","-1.01267611980438","0.0908275097608566","-0.475638180971146","0.103679344058037","0.347274303436279","0.20838075876236","0.418846845626831","-0.162621423602104","0.0683285370469093","0.145974591374397","0.38196924328804","0.507353067398071","0.116752244532108","-0.137879759073257","0.139781385660172","-0.0290611796081066","-1.25310456752777","0.161637336015701","-0.18691848218441"
"w3_32","0.0486685298383236","-0.152287349104881","0.0708172023296356","0.256024181842804","-0.0828138887882233","0.267465591430664","0.571663975715637","0.711395800113678","-0.522920906543732","-0.690815448760986","-0.127245083451271","0.289747893810272","-0.0299445893615484","-0.299455493688583","0.902484238147736","-0.0546514764428139","0.547000348567963","0.384339869022369","0.0823404416441917","0.0777165666222572","0.720463335514069","-4.14281558990479","0.277519762516022","-0.000935694493819028","-0.0848162472248077","0.535193860530853","0.67948454618454","0.913482487201691","-0.141855105757713","0.403734147548676","0.0135677671059966","-1.7316859960556","0.711798369884491","-0.0297553651034832","0.209005266427994"
"w3_33","-5.60430479049683","0.0551035776734352","-1.54102146625519","-1.03578436374664","0.233533009886742","-1.48420286178589","-0.858055830001831","-2.33537459373474","-0.870430111885071","-2.90143275260925","-1.19028174877167","-10.2067823410034","-1.76034510135651","-0.0393484272062778","-1.06612956523895","-0.931353449821472","0.0324026271700859","-0.933011472225189","-0.077340379357338","-2.34844756126404","-2.21780467033386","1.07535398006439","-0.169423848390579","-0.604023337364197","-1.07487404346466","0.526887774467468","-0.988602161407471","-3.95984935760498","-0.792056202888489","-0.541569709777832","0.0565851740539074","-0.427534699440002","0.0995768457651138","0.316158413887024","-0.114481784403324"
"w3_34","0.0219930987805128","0.829746782779694","0.293501228094101","1.56609404087067","0.318877577781677","2.42571496963501","2.4821834564209","2.0220901966095","1.55211710929871","0.949099600315094","0.881690621376038","1.01122605800629","-0.163190260529518","-0.291562110185623","1.63164126873016","0.962615311145782","0.210667505860329","1.82065379619598","-0.54866236448288","-0.143466278910637","0.700166702270508","0.941010177135468","0.41886767745018","-0.0717092975974083","1.50757539272308","3.04097199440002","-1.14218246936798","4.0402946472168","0.0189540050923824","0.295626193284988","0.175386294722557","2.42269849777222","1.86836862564087","-0.111956618726254","0.0703299790620804"
"w3_35","2.18069243431091","0.529089570045471","-0.221209228038788","1.02783155441284","0.544644296169281","-1.85282492637634","0.195787191390991","0.123865187168121","0.192930489778519","-0.269734740257263","-0.902733385562897","0.43341338634491","-0.44854861497879","-0.484639406204224","0.754902422428131","-0.150094732642174","-1.05211663246155","0.845036864280701","-0.110027134418488","0.380590915679932","-2.70385432243347","0.822193026542664","-0.244101509451866","0.178982242941856","0.615206778049469","0.902043759822845","-4.9915566444397","1.33303225040436","-0.111026555299759","0.129473477602005","0.220387741923332","-0.227065414190292","-0.36600250005722","-0.290277868509293","0.678583025932312"
"w3_36","2.27719378471375","-0.480200886726379","-0.00234850333072245","0.733087718486786","0.989100992679596","-3.94190073013306","0.884277164936066","0.548119783401489","-0.559154212474823","-0.833904266357422","0.483428180217743","-0.158015012741089","-0.0889331698417664","0.743582189083099","-0.114386178553104","0.112850226461887","-0.0688696652650833","1.12522780895233","-0.29387840628624","0.220890566706657","-1.33441174030304","-0.384720832109451","-0.708083510398865","0.138067319989204","0.964790105819702","0.238986805081367","-1.32854092121124","1.50874316692352","0.0126490825787187","-0.283198267221451","-0.130283802747726","-4.25491380691528","0.299049735069275","-0.39838895201683","0.73730593919754"
"w3_37","0.598111689090729","0.0828262716531754","0.0488037392497063","-0.368944883346558","-0.0200360808521509","-0.582611858844757","0.156167075037956","0.112669244408607","-0.355367630720139","-0.126220762729645","-0.139818385243416","-0.143969178199768","0.106738388538361","0.0985022857785225","-0.953948140144348","0.201243281364441","-0.309246897697449","0.149573728442192","0.124926581978798","-0.214149460196495","-0.104600466787815","0.0610855259001255","-0.827614545822144","0.100793287158012","-0.648140847682953","-1.00729179382324","-0.566966652870178","-2.34774422645569","-0.574637770652771","0.131455481052399","0.0536481328308582","-0.241830796003342","-0.282392859458923","-0.316084623336792","-0.816610872745514"
"w3_38","-3.69916200637817","-0.821212589740753","-0.35317325592041","-1.28509068489075","-1.88270342350006","-3.04542827606201","-0.336169451475143","-0.501719057559967","-2.37124180793762","0.205789551138878","0.165265157818794","-0.333499073982239","0.578759253025055","-0.085171602666378","0.0595111139118671","1.45980536937714","0.0346252806484699","0.0165487863123417","-0.972023248672485","0.0875056907534599","-3.43295311927795","0.313824892044067","0.338193029165268","0.408720225095749","-0.441729128360748","0.0103097837418318","-1.97005307674408","-1.49187338352203","0.00525084510445595","-0.60280179977417","0.43386897444725","-0.111911199986935","0.122210040688515","-0.163607090711594","0.94458943605423"
"w3_39","0.945935785770416","0.581349074840546","0.0146762020885944","-0.465802013874054","-0.620392203330994","-1.56937849521637","-0.477528184652328","-0.686120688915253","-5.44754981994629","0.0666428357362747","0.0713368430733681","0.630592584609985","-0.366057455539703","-1.08805012702942","0.00338381109759212","-1.21172094345093","0.331649839878082","-0.177016422152519","0.552360951900482","-0.123141013085842","-0.0538582615554333","1.351970911026","0.177048772573471","-0.290790945291519","-0.211994379758835","0.0560205057263374","-0.481229484081268","-0.551480054855347","0.65203994512558","0.0416485853493214","0.10030110925436","0.407534629106522","-6.4994854927063","-0.539734423160553","0.696923851966858"
"w3_40","-4.59064102172852","0.641421973705292","-3.82271361351013","-4.57969665527344","-1.0503249168396","0.829871594905853","-0.852755069732666","-0.118500202894211","-0.399510324001312","0.747835278511047","-0.199234500527382","-0.971307158470154","0.0547061897814274","-2.41472363471985","-1.03027498722076","-5.35094928741455","-1.58835923671722","-2.15184164047241","-1.39779829978943","-0.536907196044922","-2.04994440078735","-1.56166553497314","-1.187375664711","-0.708860278129578","-0.928502023220062","-12.2067699432373","-3.09581995010376","-9.95497226715088","1.14007985591888","-0.0113069349899888","-0.526635646820068","-7.29454755783081","-3.18429780006409","0.45111209154129","-0.0288608726114035"
"w3_41","1.38491344451904","0.0949883982539177","-0.558637678623199","-6.3022027015686","-0.202635422348976","-0.984440922737122","5.2668719291687","4.81938695907593","0.105771154165268","-0.30774974822998","-11.3540573120117","-9.92333602905273","-0.529743194580078","-0.0372912287712097","-3.55395483970642","-10.7070980072021","0.116317689418793","-6.40926647186279","-0.0429634191095829","-10.2963819503784","-4.51430606842041","3.74686408042908","-0.363282382488251","-10.9521760940552","2.42681765556335","1.05306088924408","-5.04866313934326","-3.90990591049194","-5.82538938522339","-0.141110241413116","0.290950328111649","-0.961343765258789","1.1125180721283","-0.232312694191933","0.0278568584471941"
"w3_42","1.27640044689178","0.257195264101028","0.669340074062347","0.0253938417881727","0.0820185244083405","0.29851245880127","1.55724930763245","0.996934115886688","1.64200758934021","1.74327516555786","0.726122915744781","0.952630758285522","-0.198732703924179","0.919070422649384","0.56840842962265","0.29744216799736","0.69927316904068","0.396569132804871","-0.634511411190033","-0.184939533472061","-0.00668877083808184","1.74922299385071","0.217485174536705","0.0698725581169128","0.560765087604523","0.514150142669678","0.763810276985168","0.542774260044098","0.258753567934036","0.0129840867593884","0.160259947180748","1.35119593143463","1.37757885456085","0.0976210385560989","0.0248452071100473"
"w3_43","1.79820275306702","-0.334700524806976","0.16004766523838","0.0454739332199097","0.960038781166077","1.58184933662415","0.578017055988312","0.275995224714279","-2.15715789794922","0.711883068084717","-0.161050602793694","0.26983180642128","0.802580595016479","-0.269134312868118","0.493863970041275","0.705091536045074","0.676655173301697","0.659620642662048","-0.360932976007462","-0.0887452661991119","0.929508090019226","-0.328390836715698","-0.545388102531433","-0.19634997844696","0.934327661991119","0.0525655932724476","1.46536433696747","2.38479995727539","0.295926302671432","-0.315701961517334","-0.532474637031555","3.18737149238586","-1.17045402526855","0.607406318187714","0.299005717039108"
"w3_44","-0.983523011207581","-0.281361758708954","0.312392681837082","-0.540741145610809","-0.0989400446414948","-0.0402571298182011","-0.671662867069244","-0.542200982570648","0.440151363611221","-1.13729333877563","0.0708693489432335","-0.491456210613251","-0.341337561607361","0.311950325965881","-0.403344243764877","0.529105544090271","-0.0386420078575611","-0.500859618186951","0.162699997425079","0.094360463321209","0.272118806838989","-0.634468674659729","-0.253684848546982","0.0644850805401802","-0.869218647480011","0.0500246062874794","-0.267305552959442","-0.155503779649734","0.570276379585266","0.158789247274399","0.386029720306396","-0.209307953715324","-1.7237035036087","0.103766784071922","-0.325185239315033"
"w3_45","0.597136914730072","0.146231696009636","0.567316114902496","1.02937817573547","0.398856312036514","1.17828941345215","1.068772315979","0.56136167049408","-2.25399708747864","0.280533701181412","0.131865009665489","0.396025657653809","0.0863695293664932","0.0300682708621025","0.36724454164505","-0.157235577702522","-0.00104802020359784","0.676257431507111","-0.988062500953674","0.0994415432214737","-0.262556552886963","0.314791768789291","0.068983219563961","0.330700814723969","0.407888919115067","0.786837041378021","1.09200847148895","-0.1883524954319","-0.00419915746897459","0.139089152216911","-0.205195859074593","0.915193974971771","0.816886425018311","-0.493446290493011","0.554957985877991"
"w3_46","0.340704709291458","0.140170842409134","0.0860754325985909","0.284400194883347","-0.268966048955917","0.3475681245327","-0.716017961502075","-1.73258173465729","-0.101824380457401","-0.0962929129600525","-0.0802566111087799","-0.144072026014328","-0.0228886678814888","0.0324274264276028","-0.132230341434479","0.43038022518158","-0.10099183768034","-0.494249254465103","0.171632170677185","-0.0211189463734627","0.320151031017303","-0.516015470027924","0.0186417084187269","-0.166882693767548","-0.124006599187851","0.698448240756989","0.196842595934868","0.0476984046399593","-0.388439923524857","0.31184184551239","0.0860777497291565","0.545092344284058","0.430577665567398","0.0820866450667381","0.554506599903107"
"w3_47","0.743449211120605","-1.02190232276917","-1.1509405374527","-2.27385067939758","-0.181693121790886","-0.742705583572388","0.0764884650707245","0.176498278975487","-3.65628528594971","0.334270179271698","-0.301663964986801","-3.77822780609131","0.312433362007141","-0.0849370732903481","0.196802511811256","-0.450038313865662","-0.288429021835327","-0.248030066490173","-0.400182634592056","-0.132650226354599","-0.710625946521759","-1.45355319976807","0.548514544963837","-0.553330600261688","-2.3102490901947","-0.487938225269318","-2.04725480079651","-0.989974439144135","-0.0129137188196182","0.352987676858902","0.133996486663818","0.125705689191818","0.82280308008194","-0.236873343586922","-0.7423295378685"
"w3_48","-1.11517727375031","-0.484934866428375","-0.868129968643188","-1.15541911125183","-0.153517350554466","-1.08629584312439","-1.15019738674164","-1.80578374862671","-0.131226643919945","-0.00747876754030585","-0.256490588188171","-1.13252341747284","-0.19784127175808","0.25940528512001","-0.723874747753143","-0.302100986242294","0.0197911541908979","0.431907624006271","-0.0365889705717564","0.0914433524012566","-0.23219121992588","-1.63105952739716","0.102979943156242","-0.229901537299156","0.224022552371025","-1.69579172134399","0.324045032262802","-0.564782381057739","-0.15450444817543","0.19110406935215","-0.033394280821085","0.0658940896391869","0.448976904153824","0.123388983309269","0.179691210389137"
"w3_49","-0.229371279478073","-0.062383059412241","-1.18389749526978","0.509965896606445","-0.723384380340576","0.79518985748291","-0.223043382167816","-0.323905259370804","-0.324180960655212","-0.0921261683106422","0.421969711780548","-0.39212292432785","-1.48566842079163","-0.0805758163332939","0.50710529088974","0.0640092194080353","0.837512016296387","0.259509235620499","-0.139503672719002","-0.772297561168671","0.26140221953392","-4.01083135604858","0.601853013038635","0.655326843261719","-0.209435150027275","0.238250941038132","1.4331374168396","-1.43551981449127","-0.199501112103462","0.326891958713531","-0.396420568227768","-0.355201005935669","0.491364270448685","-0.00582214631140232","0.351820677518845"
"w3_50","-2.29893755912781","-0.482266902923584","0.0542752034962177","-0.250331550836563","-0.69292539358139","-1.34582102298737","-0.207271248102188","-0.185307011008263","-0.0846983790397644","-1.21126174926758","0.048469066619873","-0.15521451830864","0.260367333889008","-0.0135278208181262","-1.05348932743073","-0.156523153185844","1.46999275684357","-0.0375598147511482","-0.244645997881889","0.12229523062706","1.12059247493744","-1.83544635772705","-0.483959436416626","0.0547340959310532","-0.505668580532074","-0.763021349906921","-0.825240671634674","-3.19334149360657","0.127485185861588","-0.137387305498123","-0.542012572288513","-0.846229135990143","-1.52787172794342","-0.276325315237045","-2.89119839668274"
"w3_51","-9.77517890930176","-0.513875961303711","-0.282171994447708","-1.81019961833954","-4.83903169631958","-2.22864985466003","-2.55039644241333","-0.278737932443619","0.884086728096008","-0.563643991947174","1.07182860374451","0.416623920202255","0.634037911891937","-0.384459882974625","-2.25387001037598","0.0371193774044514","0.126127183437347","-2.93154668807983","0.33636748790741","-0.350254327058792","0.638557851314545","0.98869651556015","-1.84647572040558","-0.717515647411346","-0.605910062789917","-2.83984351158142","-2.7992148399353","-3.66972661018372","0.833999931812286","-0.152768895030022","0.771326959133148","-1.2407021522522","1.96854066848755","0.102494426071644","0.0139329805970192"
"w3_52","0.922619044780731","-0.158816203474998","-0.332217663526535","0.580770552158356","0.540966153144836","0.259523749351501","0.271509289741516","0.39909616112709","1.73156416416168","-1.5798282623291","-0.666227161884308","0.335008978843689","-0.380711287260056","0.401820778846741","-0.471831828355789","-0.251303791999817","-3.67912769317627","0.00982120539993048","0.824175000190735","0.81151008605957","0.745598614215851","3.46989417076111","0.147412911057472","-0.745783448219299","0.738763034343719","-0.277433812618256","1.1186203956604","1.3067399263382","-0.28150001168251","0.365313977003098","-0.22534254193306","-1.07806348800659","-2.656733751297","-0.0467467270791531","0.122513934969902"
"w3_53","-0.198586419224739","-0.0366951301693916","-0.151518777012825","0.140116795897484","0.788138031959534","0.288002371788025","1.10080015659332","0.599129915237427","-0.336048990488052","-1.61202466487885","0.193695813417435","-0.276143014431","-0.00431431224569678","-0.0516079589724541","-0.213132694363594","0.710156738758087","0.371124625205994","0.525994956493378","0.303497552871704","0.415531098842621","0.300734341144562","-0.97112762928009","-0.0205695964396","0.34094575047493","0.117882363498211","-0.225750744342804","-1.97163701057434","-0.105710290372372","0.00189779163338244","-0.337564051151276","-0.102501593530178","1.73164224624634","0.821490526199341","0.587746441364288","0.0615581087768078"
"w3_54","0.863030433654785","-0.424296677112579","-0.309168636798859","-0.00537845771759748","0.446023017168045","-0.00227634818293154","-1.40126276016235","0.906531572341919","0.288675576448441","-0.408053517341614","0.220038637518883","-1.04676592350006","-0.2769435942173","0.414156824350357","1.01433193683624","-0.108053229749203","0.18941804766655","0.012699106708169","-0.10390780121088","0.164819583296776","0.192492142319679","-7.90861463546753","0.0299929771572351","0.284623742103577","-2.48255658149719","1.30868577957153","-0.540014386177063","0.779107809066772","0.535573124885559","0.419650495052338","0.140170633792877","0.30169689655304","-0.7014040350914","-0.555497467517853","-0.245844811201096"
"w3_55","1.5368058681488","0.212961405515671","0.366796582937241","0.28775817155838","-0.274897545576096","-0.0764560699462891","0.192648455500603","-0.0600292049348354","-0.0994455218315125","0.181033328175545","0.256156742572784","-0.0150494603440166","0.193203270435333","0.00404641032218933","0.426454663276672","-0.498168408870697","0.60270094871521","0.219938233494759","0.275037527084351","0.0818123146891594","1.17194032669067","-0.129891365766525","-0.015179518610239","-0.114450469613075","0.550198316574097","-0.423741519451141","-0.436243832111359","-0.512714028358459","0.0729200839996338","0.116698741912842","0.0766394138336182","-0.983514308929443","-2.06970071792603","-0.0834936276078224","0.412217199802399"
"w3_56","0.257653623819351","0.278522729873657","-0.0703917220234871","-0.665890395641327","0.384997189044952","0.569077849388123","0.653121769428253","0.206036046147346","-0.969822108745575","0.564290523529053","0.0181380864232779","0.0860291495919228","0.547140300273895","0.464445918798447","0.382067918777466","-0.260433912277222","0.718582391738892","0.37843519449234","0.072864718735218","-0.178991287946701","1.32148969173431","-0.473957687616348","0.18055471777916","-0.507594764232635","0.00614221254363656","0.110694013535976","-2.02995252609253","0.353506535291672","0.149534374475479","0.797168135643005","-0.287456393241882","0.887076854705811","0.168392062187195","-0.178098917007446","0.272375077009201"
"w3_57","-2.0497829914093","-0.0192283652722836","-1.63258004188538","-0.757037580013275","0.446845024824142","-0.848391711711884","-2.00112748146057","0.129758358001709","-0.600086510181427","-0.385305196046829","-0.400607377290726","0.054013330489397","-0.270924687385559","-0.268521994352341","0.139609813690186","-0.016122680157423","-0.481713205575943","-0.897360742092133","-1.00488197803497","-0.120960064232349","-0.586135923862457","0.0494018085300922","-0.114820867776871","-0.391037255525589","-1.482102394104","-1.0624748468399","-2.90128779411316","-0.348310619592667","-0.725195229053497","-0.439151108264923","0.0923086032271385","-0.679789185523987","-0.16966150701046","-0.699996769428253","-0.390503406524658"
"w3_58","-0.294568538665771","0.344164073467255","0.0895604118704796","-0.272454440593719","0.0881411731243134","-0.546330451965332","-1.49685144424438","-2.72473573684692","-0.0265220981091261","-0.6425661444664","-0.275882542133331","-2.11162233352661","-0.00369807309471071","-0.199661329388618","-0.000978302210569382","-0.531219661235809","0.18283799290657","-0.565267384052277","-0.0142027996480465","-0.436264753341675","-1.66724479198456","-2.44897222518921","0.328919261693954","0.0463117174804211","-1.39934551715851","-1.35172069072723","-0.385501176118851","-1.78439462184906","-0.148904368281364","0.181072324514389","0.0406252183020115","-0.295867204666138","-1.08098173141479","0.229541376233101","0.0436254777014256"
"w3_59","0.108646012842655","-0.229765981435776","0.167236655950546","-0.834196209907532","0.132148176431656","-0.624376595020294","-1.57657396793365","-0.134581670165062","0.127829775214195","0.854877173900604","-1.73814392089844","-8.79296207427979","-0.0283864513039589","-0.186372101306915","-0.748266756534576","-0.961136996746063","-0.146721288561821","-0.53904801607132","-0.138366118073463","-1.74652409553528","-1.78612518310547","-0.223677560687065","0.0745629444718361","-0.661703586578369","0.792799413204193","-2.68392443656921","-2.06011843681335","0.338932424783707","-0.926760196685791","-0.126591131091118","-0.0102973114699125","0.0280259139835835","-0.607489705085754","0.146267086267471","-0.101900577545166"
"w3_60","-1.50114643573761","0.131859958171844","0.082433395087719","0.0103948041796684","0.321707606315613","0.084278404712677","-0.342896372079849","-0.533013164997101","-1.2009072303772","-0.0775163844227791","0.138713151216507","-0.221764519810677","0.174376636743546","0.0875117257237434","-0.0994725003838539","-0.351269364356995","-0.0489493533968925","-0.0139267677441239","0.22505721449852","0.253939002752304","0.103690132498741","-0.285314649343491","0.180333584547043","0.00403638649731874","-0.357040494680405","-1.7247759103775","-0.050342109054327","-0.165403708815575","-0.0943032652139664","-0.318863183259964","-0.165451258420944","-0.137675136327744","-1.40350008010864","0.296492546796799","0.297268360853195"
"w3_61","-1.14434933662415","0.395744144916534","-0.240747109055519","-0.230360299348831","-0.643745124340057","-2.27741551399231","-0.595826625823975","-0.606835782527924","0.173485711216927","0.420851707458496","0.297521710395813","-0.0804313942790031","0.399611115455627","-1.45133888721466","-0.469392985105515","0.246901452541351","0.723135590553284","-0.59256249666214","0.235381513834","-0.0640894398093224","-1.33963632583618","0.287718027830124","0.167910933494568","0.425722867250443","-0.385921686887741","-0.502841889858246","-0.282148629426956","-1.46324408054352","0.192932590842247","-0.101211242377758","0.423560917377472","-1.25853884220123","0.961033344268799","0.190894722938538","-0.736770808696747"
"w3_62","-0.0641242191195488","0.259074479341507","-0.0672821030020714","0.287549018859863","0.656791925430298","0.462921410799026","0.178474768996239","0.180971786379814","0.305655092000961","-0.0166381783783436","0.171323508024216","-0.00812535174190998","-0.373234421014786","0.135520100593567","0.199487805366516","0.170180335640907","-0.708401739597321","-0.088192529976368","-0.16044457256794","0.134226724505424","-0.102034717798233","0.0217777714133263","-0.0630188062787056","0.317741215229034","-0.217445567250252","0.219063460826874","0.440370351076126","0.412164479494095","0.0892082303762436","0.479158729314804","-0.0966498330235481","-0.093556709587574","-0.863315105438232","0.168244197964668","-0.0425014272332191"
"w3_63","0.3895004093647","0.200179874897003","-0.584822237491608","-0.0238157641142607","-0.135833039879799","-1.64358699321747","0.410503923892975","0.271551191806793","-1.22606992721558","0.0897374004125595","0.0739065930247307","-0.0156593192368746","0.0426890850067139","-0.747984766960144","0.034077774733305","0.0329657942056656","-0.641322195529938","0.724571645259857","-0.162070602178574","-0.245497450232506","-3.64537620544434","-0.0570485107600689","-0.0582377277314663","0.0871844813227654","0.615700900554657","-2.66979265213013","-1.52550482749939","-4.36432504653931","0.381129086017609","-0.520708620548248","0.0458342060446739","-0.459814667701721","0.374191403388977","-0.0847871229052544","-0.578318417072296"
"w3_64","-0.50556617975235","-0.0324695594608784","-1.1033399105072","-0.0785123035311699","-0.508333921432495","-0.530947208404541","0.199972033500671","-0.544225871562958","-0.0237349327653646","0.304107964038849","-0.11201948672533","0.193080991506577","0.0782513543963432","0.0985463410615921","-0.409428328275681","-0.00215509021654725","-1.15066981315613","-0.217415690422058","0.177017569541931","-0.307971179485321","-1.42730605602264","-0.230161011219025","-0.367507219314575","0.152846097946167","-0.484998852014542","-0.129922211170197","-1.19980931282043","-2.48897123336792","-0.374634742736816","0.0329220369458199","0.165076240897179","-0.403398156166077","-0.772191882133484","0.139569461345673","-0.393376410007477"
"w3_65","0.319526046514511","-0.395417779684067","-0.765725016593933","-2.07994842529297","-0.373655378818512","-0.271462589502335","-5.69020318984985","-0.6461021900177","-2.15320754051208","-0.544963538646698","0.332273721694946","-2.31359624862671","-0.936986565589905","-0.738078415393829","-4.11055707931519","0.865297317504883","-0.981303095817566","-1.14393389225006","0.189361393451691","-0.297056674957275","1.07473874092102","-0.711454272270203","-0.712061405181885","-0.332963496446609","-0.526160418987274","-6.48585224151611","-4.07374143600464","-1.89732074737549","-0.80098032951355","0.32097515463829","0.320169240236282","-1.12267565727234","0.0988167300820351","0.160075977444649","-0.971949696540833"
"w3_66","0.191135749220848","0.330586075782776","0.366908252239227","-0.101655274629593","0.0518103949725628","-0.228821396827698","-0.654590487480164","-0.53104954957962","0.431686460971832","0.368302971124649","0.0390790849924088","0.0962702929973602","0.00740159070119262","-0.11347308754921","-0.196909621357918","-0.0688531845808029","0.0713266879320145","-0.373489111661911","0.103265807032585","-0.120105668902397","-2.6193687915802","0.0609708726406097","-0.57967221736908","-0.430342823266983","-0.501994609832764","-0.474682748317719","-0.632229447364807","0.0466584078967571","-0.0877854228019714","0.110005989670753","-0.349379599094391","-2.73804831504822","0.8722904920578","-0.254045307636261","0.442115396261215"
"w3_67","1.78043651580811","-0.0385890081524849","-0.556855440139771","0.20547142624855","0.00646713608875871","0.255326509475708","-0.832152664661407","-0.425515234470367","-3.29812026023865","-0.00163994845934212","0.268168538808823","-0.172757297754288","0.259434759616852","-0.201737642288208","0.380426615476608","0.180688306689262","0.307388186454773","-0.670447528362274","0.507927715778351","-0.372770845890045","-1.56274437904358","-0.195859730243683","0.174342259764671","0.319919615983963","0.468236446380615","-1.6480393409729","0.620816886425018","0.0655710622668266","0.282724350690842","-0.0217862036079168","-0.44909280538559","0.187114492058754","-2.3036994934082","0.158474206924438","-0.362458854913712"
"w3_68","-0.96263062953949","-0.630114257335663","-0.134684532880783","0.243904531002045","0.080107219517231","0.326503276824951","-0.130121111869812","0.276572495698929","-1.97061276435852","0.0424342416226864","0.519611775875092","0.713047385215759","0.107764758169651","0.132060915231705","-0.405662149190903","0.224928557872772","-0.767293095588684","0.378409713506699","-0.0984603986144066","0.2272769510746","-0.0512029714882374","0.0631005167961121","-0.151242688298225","-0.231400802731514","-0.225091800093651","-0.23721469938755","-0.0519592128694057","-0.0407299287617207","-0.00747415935620666","0.0450497381389141","-0.043766725808382","0.49793952703476","0.202230781316757","-0.138718754053116","-0.444912016391754"
"w3_69","0.968252897262573","-0.200594574213028","-0.326754570007324","-0.0583426542580128","-0.759703755378723","-0.512555241584778","-0.937203228473663","-0.179958522319794","0.501375615596771","0.0794396251440048","-0.119647540152073","0.0195487905293703","-0.201400920748711","0.306762278079987","-0.0784332677721977","-0.450839996337891","0.380675345659256","-1.12260901927948","0.3201704621315","0.276392579078674","1.00605499744415","-0.0509397126734257","-0.127205863595009","-0.455663025379181","-0.649406552314758","1.21821451187134","-0.683716714382172","-1.69833707809448","-0.0353500843048096","0.562878131866455","-0.267403364181519","-0.0696484670042992","-0.713703215122223","0.497814565896988","-0.0709711760282516"
"w3_70","-0.122902475297451","0.115312322974205","0.538277924060822","0.214742511510849","0.349395126104355","0.208873853087425","-0.0482333935797215","0.2800512611866","-0.231697857379913","-0.123007625341415","0.453062027692795","-0.0708124190568924","0.348684281110764","0.321165174245834","0.0177873875945807","0.309832006692886","0.246506303548813","0.384551137685776","0.0179476458579302","0.364554405212402","0.404010951519012","-0.124430023133755","0.0566404201090336","0.374010860919952","0.411455780267715","-0.215543702244759","0.148698166012764","0.104740902781487","0.115912884473801","-0.155966773629189","0.167079448699951","0.254187345504761","0.615923166275024","-0.114822097122669","-0.277713596820831"
"w3_71","0.238576114177704","0.00530895125120878","0.12120570987463","0.254461854696274","-0.323081225156784","-1.12637531757355","0.131240949034691","-0.195187136530876","-0.641797304153442","0.72360223531723","0.0938756018877029","-0.204400047659874","-0.286386370658875","0.127986520528793","0.266989797353745","-0.167419910430908","-0.23067931830883","0.306725293397903","0.202252432703972","0.0121882865205407","0.830673038959503","0.456086844205856","0.159025639295578","-0.0267190132290125","0.0828393176198006","0.665128290653229","0.0564023107290268","0.531290769577026","0.00226277625188231","0.143452808260918","-0.152071729302406","-1.79248797893524","0.351624667644501","0.169048994779587","0.48556923866272"
"w3_72","-0.833180367946625","0.336349278688431","0.0389107204973698","-0.114356026053429","-0.228058353066444","0.217428267002106","0.0347502678632736","0.578234016895294","-0.803661644458771","0.241409137845039","0.303552716970444","-0.00150579586625099","-0.512040853500366","0.227071031928062","0.473271459341049","0.155916512012482","-0.329756885766983","0.342118978500366","0.0427144840359688","0.123724058270454","0.357107609510422","-0.534637451171875","-0.0763532966375351","0.265494674444199","0.217510357499123","0.891032874584198","-0.42122283577919","0.129924088716507","0.333865612745285","0.0479312390089035","0.095564492046833","-0.377997279167175","-0.121895812451839","0.196501508355141","0.0250266082584858"
"w3_73","0.151366859674454","0.0115690035745502","-0.210067182779312","0.358190804719925","0.0419153906404972","0.57380485534668","0.36122927069664","-0.00439048372209072","0.239397332072258","-0.903870701789856","-0.329371213912964","-0.265129655599594","-0.0793567597866058","0.215601235628128","-0.140744626522064","-0.0404988266527653","-0.295587509870529","0.958990156650543","-0.422048717737198","-0.231825560331345","-0.0713929235935211","-3.59707069396973","0.0538490042090416","-0.0766973420977592","-1.35809099674225","0.678508222103119","-3.38409900665283","0.29322612285614","-0.431846737861633","0.455893963575363","-0.432250022888184","-0.250374972820282","-0.173673838376999","-0.00588266924023628","-0.33360767364502"
"w3_74","-1.16170835494995","0.166613727807999","0.170587688684464","-0.0783313736319542","-0.623328745365143","0.584473967552185","0.103600881993771","0.712422132492065","-0.719548881053925","-0.311236172914505","-0.159861475229263","0.0588041394948959","0.156996667385101","-0.135706886649132","0.473852783441544","0.229023009538651","0.137460798025131","0.242151290178299","0.461059272289276","0.540768325328827","-4.47620916366577","-0.0186518710106611","0.0414687991142273","-0.312520116567612","0.421875715255737","-0.131564900279045","-2.47077202796936","0.7564896941185","-0.194492921233177","0.201150074601173","0.395381718873978","-1.3743531703949","-0.758237719535828","-0.00182037532795221","0.0504438951611519"
"w3_75","-0.648533284664154","-0.0047854851000011","-0.342103153467178","-0.627602279186249","-0.104909241199493","-0.446852684020996","-2.38196873664856","0.0129123432561755","-0.215822145342827","0.0326347015798092","-0.12161623686552","-0.177904903888702","0.0107285138219595","-0.144868418574333","0.209583565592766","-0.954372942447662","-0.292534202337265","-1.58799374103546","0.275392234325409","-0.0780981928110123","-0.690006673336029","-0.0960662513971329","-0.463969767093658","-0.0588252022862434","-1.92443656921387","-0.702592611312866","-0.547762274742126","-0.390086233615875","-0.318178355693817","0.215572744607925","-0.125865131616592","-0.380831271409988","-1.07670164108276","-0.0784787312150002","0.109022788703442"
"w3_76","0.0629645809531212","-0.422682970762253","-2.76139426231384","-1.95641267299652","-0.159710332751274","-1.8628021478653","0.902257740497589","-2.57145404815674","1.00907027721405","-2.50515580177307","-2.40685868263245","-0.290712207555771","-1.4156299829483","-1.16854929924011","-1.89711260795593","-0.681428611278534","-0.939386904239655","-1.69429969787598","0.572328984737396","-1.53219830989838","-3.28146409988403","1.56875896453857","-0.352178812026978","-1.35158622264862","-2.02505207061768","-0.0282598976045847","-2.20775961875916","-2.84890103340149","-0.17395082116127","-1.01244592666626","-0.836500763893127","-3.52763724327087","-2.78987240791321","-0.067673072218895","0.273140639066696"
"w3_77","-0.233721628785133","-8.521559715271","-6.41858530044556","-8.95760440826416","-8.98696994781494","5.31076097488403","1.59341418743134","2.29773569107056","-0.816317498683929","3.61076951026917","-11.8621864318848","-9.76714134216309","-13.9565296173096","-9.81854724884033","-7.21660614013672","-12.2842645645142","2.29445362091064","-9.73547840118408","-11.2920322418213","-11.5107755661011","3.50047945976257","-0.424132019281387","-7.52390193939209","-12.0818424224854","3.63688588142395","8.60481071472168","1.44436979293823","-4.86921501159668","-9.25572109222412","-12.8595628738403","-10.0906324386597","-1.16907000541687","0.128748565912247","-8.89438343048096","-8.51120662689209"
"w3_78","0.730204939842224","-0.299698293209076","-0.10022047162056","-0.0109750228002667","0.396935820579529","0.309649229049683","0.0840627998113632","0.216775640845299","0.275657296180725","-2.15062689781189","0.0834160000085831","0.127157524228096","0.108243219554424","-0.0830462202429771","-0.314092665910721","-0.33487594127655","-4.07065153121948","0.20304436981678","-0.0524693019688129","0.242531135678291","-0.91561096906662","-0.525018870830536","-0.0262019690126181","0.0258864909410477","0.142722889780998","0.139596953988075","-0.277178883552551","-0.0692361891269684","0.194389015436172","-0.052386574447155","0.0906143486499786","0.457673758268356","-1.78643238544464","0.339209049940109","0.170671939849854"
"w3_79","0.408535301685333","0.332903951406479","-0.485924988985062","0.032489936798811","-0.610225200653076","-0.183291390538216","-0.485551416873932","-0.454676061868668","-0.0843623727560043","2.01931500434875","-0.043068140745163","0.0427288115024567","0.444872856140137","-0.274113595485687","-0.166052430868149","-0.117117114365101","1.51645457744598","-0.396167635917664","-0.229473173618317","-0.342742919921875","-0.656966626644135","-0.676158726215363","-0.117197163403034","-0.080511249601841","0.133932217955589","-0.357355833053589","-0.922892570495605","-2.47746276855469","0.0632484257221222","0.107497312128544","0.514220535755157","1.6958155632019","-0.193596184253693","-0.0946455746889114","-2.34044313430786"
"w3_80","0.048768475651741","-0.487761855125427","0.176326498389244","-0.0699304342269897","-0.51795095205307","0.620527684688568","0.251678824424744","0.400993585586548","-3.49146556854248","-2.0787718296051","-0.00611998420208693","0.123235546052456","-0.0124286711215973","0.149387687444687","0.419412761926651","0.343559205532074","-9.90635681152344","0.375591099262238","0.149165526032448","-0.281589597463608","-0.0518612377345562","-0.45464500784874","0.189199298620224","-0.0527750998735428","0.32535308599472","0.561084926128387","0.502434372901917","-0.991657257080078","-0.0521903932094574","-0.0654834806919098","-0.349931687116623","0.519790887832642","-2.81221127510071","0.16823698580265","-0.710845172405243"
"w3_81","-1.31126427650452","-0.0681042969226837","-0.727658927440643","-0.633669495582581","-2.40336108207703","-0.492964327335358","-0.164906606078148","0.0133720422163606","-0.0159642491489649","-0.713055193424225","0.0156858619302511","-0.0483241640031338","0.0292532537132502","-0.191225752234459","-0.127188548445702","0.20118322968483","-0.667689859867096","-0.136447951197624","-0.22711917757988","0.0948448032140732","-0.731840431690216","-0.0966719314455986","-0.0388939753174782","0.137202993035316","-0.132728561758995","-0.377242237329483","-1.02469420433044","-0.650070309638977","0.054137647151947","0.0606180094182491","-0.114153258502483","-0.0741833969950676","-0.101990424096584","-0.0209459513425827","-3.8142511844635"
"w3_82","-3.05926203727722","-0.0719806253910065","0.491283446550369","-0.793937802314758","-0.343898832798004","-0.467812746763229","-4.59987783432007","-0.605675399303436","0.122887276113033","0.353789925575256","-0.284188389778137","-0.675089538097382","-0.357958555221558","0.0607866905629635","-9.49455833435059","0.155397579073906","-0.0261435974389315","-1.55029225349426","0.514825701713562","-0.141103029251099","-0.59354555606842","0.588604331016541","-0.251789480447769","0.0460397154092789","-2.4106605052948","-0.624707996845245","-0.830915808677673","-0.0281706135720015","0.110022559762001","-0.358268707990646","-0.121734201908112","-0.704475164413452","-1.00637722015381","0.0417948700487614","0.209917172789574"
"w3_83","-0.648813426494598","0.679567098617554","-0.172739997506142","-0.708675622940063","0.189871922135353","-0.440524607896805","0.138504594564438","-0.657937109470367","0.512084662914276","-0.410860925912857","-0.0561851374804974","0.881136536598206","-0.192487761378288","-0.237892314791679","0.257513552904129","0.704388618469238","1.47138166427612","-0.686001777648926","0.157934352755547","-0.400315701961517","0.161449134349823","1.27268266677856","0.107410289347172","0.281725734472275","-0.340636759996414","0.70267391204834","0.511725127696991","0.563700616359711","-0.143120974302292","-0.140438660979271","-0.20674940943718","0.429764240980148","-0.588231265544891","0.084373727440834","0.756613910198212"
"w3_84","-3.65503406524658","0.114332921802998","0.0971845611929893","0.242606163024902","0.244417414069176","0.688863515853882","0.0910572111606598","-0.287332564592361","0.368639916181564","-0.0882253870368004","-0.183768555521965","-0.373264968395233","-0.132655173540115","-0.288201868534088","0.58155757188797","0.288170784711838","-0.165723443031311","0.630175530910492","-0.174100428819656","0.0131466649472713","0.333546280860901","-4.93197870254517","0.10334687680006","-0.450318455696106","0.109170727431774","0.673743546009064","1.58466017246246","1.15161681175232","-0.0207617431879044","0.62026184797287","-0.0577886998653412","-1.48908340930939","-0.831148207187653","0.137102127075195","-0.30221363902092"
"w3_85","0.249916985630989","0.172877088189125","-0.538273096084595","-1.28578317165375","-0.638108909130096","-0.861597239971161","-1.75140273571014","-1.30876100063324","0.434274256229401","0.272125244140625","-0.00183708500117064","-0.855697572231293","0.286815136671066","0.0521025918424129","-0.889107823371887","-0.0659390389919281","0.19584333896637","-1.63523018360138","0.643956124782562","0.253958195447922","0.525450348854065","3.91157960891724","0.0460115894675255","-0.437767863273621","-0.930897772312164","-1.03307235240936","0.871606111526489","-5.12734985351562","0.436844229698181","0.378297418355942","-0.300336003303528","1.05087792873383","-1.72454643249512","-0.169897422194481","-0.317496448755264"
"w3_86","-0.388792842626572","-0.716035962104797","-0.58470755815506","0.448960721492767","-0.215617626905441","-0.548248052597046","0.288717448711395","0.0829912349581718","-0.149303793907166","-0.605150043964386","0.0807980820536613","0.0790360346436501","-0.451017111539841","0.126060128211975","0.167541146278381","0.0216829665005207","-3.3765504360199","0.212465405464172","0.0364270098507404","0.294187992811203","-0.585188150405884","-0.899820625782013","-0.0197299364954233","-0.310512512922287","0.204075872898102","0.979592084884644","0.178793892264366","0.333252996206284","-0.448050767183304","0.0521282181143761","-0.372443109750748","-1.48149919509888","-0.721380531787872","-0.296795219182968","-0.241904124617577"
"w3_87","0.730026543140411","0.0933318585157394","0.317178905010223","0.693328320980072","0.804372906684875","0.85039621591568","1.23047971725464","0.645918011665344","-0.293283462524414","0.129885271191597","-0.0778082981705666","0.747578859329224","0.777718245983124","-0.374435484409332","0.646421730518341","0.245751932263374","1.52799952030182","1.01341319084167","-0.126560047268867","-0.310635805130005","-1.96886575222015","-3.54114246368408","0.855203032493591","0.0394074209034443","0.810011446475983","2.03578686714172","1.6299889087677","0.278964936733246","-0.577138841152191","0.12765796482563","-0.241136997938156","0.30788254737854","1.24899065494537","0.0191505644470453","0.646067976951599"
"w3_88","1.74983823299408","-8.44946384429932","-6.0495982170105","-9.2506685256958","-9.05756855010986","5.80239009857178","10.7724504470825","10.1114730834961","4.97268676757812","6.32515573501587","-11.6339550018311","-9.80906677246094","-12.8428382873535","-9.85850715637207","-7.13809633255005","-11.2885627746582","6.77737426757812","-9.75516796112061","-10.9773206710815","-10.7722139358521","3.38486266136169","5.73316526412964","-7.78306198120117","-11.6374416351318","8.79551219940186","8.86428928375244","1.18847942352295","-5.01780700683594","-9.17705726623535","-12.7987833023071","-10.2717161178589","3.48416543006897","2.55529189109802","-9.18725776672363","-8.66031169891357"
"w3_89","-0.257182747125626","-0.0715816840529442","0.66932600736618","-0.335487395524979","-0.37048277258873","-5.20817899703979","1.03579640388489","0.52830970287323","-0.473185271024704","0.130419731140137","0.295812338590622","0.344196766614914","-0.140488311648369","0.240620791912079","0.235587179660797","1.075852394104","0.642550110816956","0.432904958724976","-0.18559530377388","0.559187769889832","-7.30630493164062","0.718413174152374","0.378098458051682","-0.0265720281749964","0.835914075374603","0.297687023878098","0.686483383178711","-0.567224562168121","-0.0846061185002327","-0.636103332042694","0.0889707431197166","0.614639401435852","0.544649600982666","0.167523220181465","-0.374742239713669"
"w3_90","-0.378958195447922","-0.230325952172279","-0.815881490707397","0.205812498927116","0.728359460830688","-0.510749936103821","-0.399768799543381","-0.87277215719223","-0.9714435338974","-0.0694167241454124","-0.0784992799162865","-0.116428822278976","0.08452507853508","0.00647148955613375","-0.979086995124817","-0.12520894408226","-0.458573848009109","-0.522205352783203","-0.0330163016915321","0.0453839376568794","-1.11526560783386","-0.154152005910873","-0.536584138870239","-0.151217564940453","-0.185643255710602","-1.6713171005249","0.363985151052475","-3.99557566642761","-0.675394952297211","-0.0312614180147648","0.118068613111973","0.234124273061752","0.00173787318635732","-0.427490293979645","-1.39338684082031"
"w3_91","-2.59161710739136","0.724503576755524","-0.345704853534698","-0.828350007534027","-0.928691387176514","-1.74116730690002","-1.01450037956238","-1.92107439041138","-1.91163492202759","0.53840571641922","-1.39859318733215","-8.54776763916016","-1.72265148162842","-2.0232560634613","-0.146799355745316","-0.27142146229744","0.242086946964264","-1.30682694911957","-0.225244417786598","-1.26489508152008","0.0080365864560008","-0.47592356801033","-0.39271754026413","-0.379865705966949","0.00125349010340869","-1.70712745189667","-0.526656627655029","-2.10678839683533","-0.750092744827271","-0.553403973579407","-0.452712595462799","-3.36566734313965","-2.29612350463867","-0.28703698515892","-1.35869765281677"
"w3_92","0.12312513589859","0.0317029729485512","-0.440760105848312","-0.00843730103224516","0.609124362468719","0.0171178616583347","0.370265781879425","0.401399880647659","0.53459095954895","0.744193434715271","-0.126362487673759","0.0356141217052937","-0.0104866605252028","0.0113211115822196","0.374763488769531","0.300800055265427","-0.969566822052002","0.574228882789612","0.155073657631874","-0.255953162908554","0.981436371803284","-1.84322583675385","0.107863754034042","0.364528685808182","-0.369302868843079","0.451451539993286","0.917992889881134","0.194346085190773","-0.179635465145111","-0.226118221879005","-0.126724436879158","-1.09507858753204","-1.08484518527985","0.0609735399484634","0.454325407743454"
"w3_93","1.55113887786865","-1.05328869819641","0.375327885150909","0.338497221469879","0.131863579154015","0.102649711072445","-1.11239445209503","0.077174574136734","0.214142918586731","-1.38820779323578","-0.0338718555867672","0.329696714878082","0.792968988418579","-0.242584273219109","-0.288880556821823","-0.898425281047821","-0.45772448182106","-0.869420349597931","-0.352205574512482","-0.519378244876862","-0.119903273880482","0.781682312488556","-1.44185769557953","0.160991787910461","0.188155993819237","-0.712670981884003","-1.00995600223541","-1.94394516944885","-1.6128568649292","-0.0593700148165226","0.0383440367877483","0.664950013160706","-2.03176259994507","-0.498310208320618","-0.0448275282979012"
"w3_94","-1.5066100358963","-0.117268182337284","0.0406127013266087","-0.341557860374451","-0.0204065535217524","0.124926701188087","-0.488505452871323","-0.13739238679409","0.0719660222530365","0.374150007963181","0.013206684961915","-0.00510468520224094","-0.0551706813275814","-0.117717668414116","0.0617133155465126","0.070748396217823","-0.0900518000125885","-0.462282717227936","0.497372955083847","0.405267477035522","-2.09716439247131","0.0989955067634583","0.146056711673737","-0.0501213483512402","-0.469825834035873","0.293314248323441","-3.80348300933838","0.372076511383057","-0.0720446333289146","-0.17865514755249","0.0920394957065582","-0.124165825545788","-0.171638429164886","-0.192461401224136","0.23014734685421"
"w3_95","-1.83595550060272","-0.271062105894089","-0.359104752540588","-2.09042930603027","-8.03633213043213","-0.381908595561981","0.84376472234726","-0.500312268733978","0.473470032215118","-1.01291477680206","-0.428811758756638","-0.0620812699198723","-1.10854601860046","-6.09665775299072","-0.0348981432616711","-0.0441095307469368","-5.69532299041748","0.0835714116692543","-1.84548795223236","-5.83184337615967","0.238846004009247","-0.483588576316833","-0.232183307409286","0.415650725364685","-0.889059722423553","-8.96621799468994","-4.94160032272339","-10.842095375061","-0.659012258052826","-0.311878979206085","-1.08106124401093","-3.89346146583557","0.326454907655716","-1.27739906311035","-0.997960865497589"
"w3_96","-5.32459878921509","-0.220834702253342","0.238948196172714","0.244108334183693","-0.0191873926669359","-0.952983796596527","0.529005527496338","0.515765070915222","-6.6182804107666","0.57702249288559","0.164501622319221","0.492419391870499","0.0726529657840729","0.335108518600464","0.406404823064804","0.217826172709465","0.903458952903748","0.139836266636848","0.288787931203842","-0.27704256772995","0.524567663669586","0.0551422089338303","-0.273773044347763","-0.118572026491165","0.698321104049683","0.345281511545181","0.532252430915833","-0.507728457450867","-0.121220514178276","0.102954626083374","-0.222730815410614","-0.137932166457176","0.402730286121368","0.164210170507431","-0.338646739721298"
"w3_97","0.451610773801804","0.29190993309021","0.0908370539546013","0.158669903874397","0.418949753046036","0.491239935159683","-1.17996454238892","-0.353034794330597","-0.194582968950272","-0.750781953334808","0.0850811675190926","-0.504872620105743","0.28356346487999","0.122055649757385","0.0348823145031929","-0.730126082897186","0.410757780075073","0.00910524465143681","-0.271419435739517","-0.386283367872238","0.459265232086182","-0.412548959255219","-0.029023040086031","0.263781249523163","-0.221776962280273","-0.555007755756378","-0.85202568769455","0.393240541219711","0.678885281085968","-0.130695551633835","0.124022014439106","-0.314994931221008","-0.045990064740181","0.500418186187744","0.291573107242584"
"w3_98","0.569084346294403","0.688951969146729","0.385697275400162","-0.496954828500748","0.599415481090546","-0.351781040430069","-4.66143751144409","-2.96927547454834","-0.0448683649301529","-2.3806357383728","-1.62995433807373","-4.74651432037354","-1.02429485321045","0.0344951115548611","-3.03970837593079","-0.623200654983521","-0.793040990829468","-0.670022904872894","-0.57315993309021","-0.302933365106583","-2.17761921882629","2.01516389846802","-0.622141897678375","-0.342576265335083","-5.95316791534424","-1.5232298374176","2.01621460914612","-0.160151451826096","-0.42844569683075","-0.0834114030003548","-0.960114300251007","-5.78244209289551","-0.0367968827486038","-0.052476741373539","0.114325240254402"
"w3_99","0.898723840713501","0.068437859416008","0.0255899168550968","-0.523903727531433","-1.3984899520874","-0.349722445011139","0.251770585775375","-0.217824473977089","0.14671365916729","-0.425752192735672","-0.147605612874031","0.166853100061417","-0.258310467004776","-0.832405090332031","-0.268353581428528","0.360845118761063","-0.051394909620285","0.0657550841569901","0.96541154384613","-0.329382747411728","0.137030065059662","0.183497741818428","-0.18425589799881","0.131647601723671","0.707891643047333","-0.240853607654572","-0.664219498634338","-0.544040620326996","-0.561754763126373","-0.887244701385498","-0.290034621953964","0.588309645652771","1.34175074100494","-0.000600351369939744","0.561800718307495"
"w3_100","-8.43109321594238","-0.284543097019196","0.38570436835289","0.345376223325729","0.603523075580597","0.655244112014771","0.542374193668365","0.573647320270538","2.0054759979248","-0.29495108127594","-0.438199788331985","1.5924299955368","-0.30871507525444","-0.13256599009037","0.58696323633194","0.443869948387146","-2.48930239677429","-0.427732706069946","-0.693862020969391","0.0755515247583389","-0.0213930085301399","0.972917795181274","0.343018651008606","-0.260310143232346","-0.00497870473191142","0.975511133670807","-0.0217619128525257","0.4412642121315","-0.36459818482399","-0.030888807028532","-0.0643151625990868","-6.78840112686157","-5.92821168899536","0.0559735968708992","-1.02471494674683"
