"dummy","n1_1","n1_2","n1_3","n1_4","n1_5","n1_6","n1_7","n1_8","n1_9","n1_10","n1_11","n1_12","n1_13","n1_14","n1_15","n1_16","n1_17","n1_18","n1_19","n1_20","n1_21","n1_22","n1_23","n1_24","n1_25","n1_26","n1_27","n1_28","n1_29","n1_30","n1_31","n1_32","n1_33","n1_34","n1_35","n1_36","n1_37","n1_38","n1_39","n1_40","n1_41","n1_42","n1_43","n1_44","n1_45","n1_46","n1_47","n1_48","n1_49","n1_50","n1_51","n1_52","n1_53","n1_54","n1_55","n1_56","n1_57","n1_58","n1_59","n1_60","n1_61","n1_62","n1_63","n1_64","n1_65","n1_66","n1_67","n1_68","n1_69","n1_70","n1_71","n1_72","n1_73","n1_74","n1_75","n1_76","n1_77","n1_78","n1_79","n1_80","n1_81","n1_82","n1_83","n1_84","n1_85","n1_86","n1_87","n1_88","n1_89","n1_90","n1_91","n1_92","n1_93","n1_94","n1_95","n1_96","n1_97","n1_98","n1_99","n1_100","n1_101","n1_102","n1_103","n1_104","n1_105","n1_106","n1_107","n1_108","n1_109","n1_110","n1_111","n1_112","n1_113","n1_114","n1_115","n1_116","n1_117","n1_118","n1_119","n1_120","n1_121","n1_122","n1_123","n1_124","n1_125","n1_126","n1_127","n1_128","n1_129","n1_130","n1_131","n1_132","n1_133","n1_134","n1_135","n1_136","n1_137","n1_138","n1_139","n1_140","n1_141","n1_142","n1_143","n1_144","n1_145","n1_146","n1_147","n1_148","n1_149","n1_150","n1_151","n1_152","n1_153","n1_154","n1_155","n1_156","n1_157","n1_158","n1_159","n1_160","n1_161","n1_162","n1_163","n1_164","n1_165","n1_166","n1_167","n1_168","n1_169","n1_170","n1_171","n1_172","n1_173","n1_174","n1_175","n1_176","n1_177","n1_178","n1_179","n1_180","n1_181","n1_182","n1_183","n1_184","n1_185","n1_186","n1_187","n1_188","n1_189","n1_190","n1_191","n1_192","n1_193","n1_194","n1_195","n1_196","n1_197","n1_198","n1_199","n1_200","n1_201","n1_202","n1_203","n1_204","n1_205","n1_206","n1_207","n1_208","n1_209","n1_210","n1_211","n1_212","n1_213","n1_214","n1_215","n1_216","n1_217","n1_218","n1_219","n1_220","n1_221","n1_222","n1_223","n1_224","n1_225","n1_226","n1_227","n1_228","n1_229","n1_230","n1_231","n1_232","n1_233","n1_234","n1_235","n1_236","n1_237","n1_238","n1_239","n1_240","n1_241","n1_242","n1_243","n1_244","n1_245","n1_246","n1_247","n1_248","n1_249","n1_250","n1_251","n1_252","n1_253","n1_254","n1_255","n1_256","n1_257","n1_258","n1_259","n1_260","n1_261","n1_262","n1_263","n1_264","n1_265","n1_266","n1_267","n1_268","n1_269","n1_270","n1_271","n1_272","n1_273","n1_274","n1_275","n1_276","n1_277","n1_278","n1_279","n1_280","n1_281","n1_282","n1_283","n1_284","n1_285","n1_286","n1_287","n1_288","n1_289","n1_290","n1_291","n1_292","n1_293","n1_294","n1_295","n1_296","n1_297","n1_298","n1_299","n1_300"
"lon","-0.72175008058548","-0.565934240818024","0.814192891120911","0.0410171151161194","-0.906063854694366","1.31002581119537","-0.387999504804611","-0.893848299980164","1.63149106502533","1.73321747779846","1.05069899559021","-0.0282855313271284","-0.884287297725677","-0.312881022691727","0.0823415592312813","0.168891161680222","0.447353303432465","-0.0940557569265366","0.477954149246216","0.766270577907562","0.592320442199707","-0.0129248555749655","-0.472834169864655","0.207063436508179","-0.150320291519165","-0.329855442047119","0.140686377882957","-0.0897119715809822","-0.594792783260345","0.422290533781052","0.18503911793232","-1.15039753913879","-0.179379627108574","1.60810112953186","0.139982134103775","-0.141662120819092","0.849431931972504","-0.274652481079102","-0.144073441624641","-0.135153844952583","-1.02573311328888","-1.26063919067383","-0.0545153841376305","-0.0493104830384254","1.3141655921936","1.09530901908875","1.30859792232513","-0.937985599040985","-0.457583248615265","0.129654467105865","1.29179704189301","0.119778901338577","-0.190115600824356","0.148804664611816","0.0824726298451424","-0.513167977333069","-0.570050239562988","0.117027267813683","-0.101689346134663","1.17054069042206","-0.12417283654213","-0.121151685714722","1.15367686748505","0.844716310501099","0.843722879886627","0.00697154924273491","-0.912191569805145","-0.661286234855652","0.379429757595062","-1.21782243251801","0.758090853691101","-0.233740344643593","-0.200320333242416","0.248638927936554","-0.0132882539182901","0.0436065271496773","0.0463192202150822","-1.02251851558685","0.0668754503130913","0.315392524003983","-0.254792243242264","-0.0294496491551399","0.222034007310867","-0.637169420719147","0.443237960338593","1.10339689254761","1.59405386447906","1.53657281398773","0.197642549872398","-0.0905366763472557","-0.0234997477382421","-0.176586985588074","-0.0617635063827038","0.3611079454422","0.0573669821023941","-0.159721374511719","0.905936598777771","-0.588801681995392","1.49464654922485","0.415536135435104","1.73576509952545","0.136889815330505","0.202546760439873","0.0968373119831085","-0.0710829943418503","-0.514683961868286","-0.0856124460697174","-0.200013875961304","0.840834259986877","-0.230035647749901","-0.200352847576141","0.44852489233017","0.272409170866013","-0.496217012405396","0.0208131857216358","0.157192796468735","-0.291548162698746","1.45017468929291","0.12937094271183","-0.0741718262434006","-0.384861379861832","-0.888822674751282","-0.718729197978973","0.203667551279068","-0.276398688554764","-1.90872168540955","-0.00153192435391247","-0.715156674385071","-0.116916179656982","-0.0366870537400246","-0.290202885866165","0.151768490672112","0.768872737884521","-1.50381672382355","0.270633846521378","0.111765913665295","0.976839482784271","-0.210930913686752","0.150373980402946","0.0195695105940104","0.332577854394913","-0.126374796032906","1.26723492145538","-0.257346153259277","0.649757623672485","0.282172173261642","0.0756566002964973","0.101877957582474","-0.0482955686748028","-0.453049391508102","-0.448130071163177","1.63804578781128","0.829192340373993","-0.128447011113167","-0.140465825796127","-0.0733067244291306","-0.0383353158831596","-0.0694712772965431","-0.113534539937973","-0.0363271720707417","0.0689856335520744","-0.37112021446228","0.692149758338928","0.241836100816727","-1.07192540168762","-1.06455159187317","0.368273109197617","-0.220508322119713","-0.0871949195861816","0.121907614171505","1.13636922836304","-1.00777852535248","-0.122310645878315","0.487349718809128","-0.121360458433628","-0.787241995334625","-0.583259701728821","0.0511453039944172","0.796018421649933","2.04489469528198","-0.459142535924911","1.95595681667328","0.107425287365913","-0.380107909440994","1.00551176071167","-0.121537998318672","0.430708408355713","-0.595621228218079","0.675862371921539","-0.157699689269066","-0.0763220563530922","0.0210155230015516","-0.00972686149179935","-0.175799801945686","0.164770066738129","0.766128361225128","0.222141698002815","-0.421846657991409","-0.461143344640732","0.134767189621925","0.0509085394442081","0.906125128269196","0.0299639366567135","0.0981850549578667","0.0820133164525032","0.281346261501312","1.19395422935486","0.67619377374649","0.184045627713203","-0.219264015555382","-0.030285406857729","-0.0903175175189972","-0.0882601737976074","-0.296954065561295","1.38145661354065","0.723582625389099","0.42364826798439","-0.0380214937031269","0.0621590875089169","-0.173415213823318","-0.206868693232536","0.214029774069786","0.794899582862854","1.22246694564819","0.737411558628082","-0.000237764994380996","-0.198357626795769","-0.128409922122955","0.00281727663241327","-0.29437455534935","-0.521657228469849","-0.00827191956341267","-0.130701586604118","0.907685220241547","0.228905752301216","0.0290128327906132","0.368531167507172","0.662186980247498","0.082488164305687","0.0850483626127243","-0.190331906080246","-0.0479415692389011","-0.0829977542161942","-0.0240446459501982","-1.43173253536224","0.00367520051077008","0.142731115221977","-0.523338615894318","-1.45621716976166","-0.092693991959095","-0.153373330831528","0.393279224634171","-0.0528927221894264","-0.0463504493236542","0.113896414637566","-0.39003786444664","0.141002207994461","-0.0717473402619362","-0.175458028912544","-0.323958486318588","1.78927838802338","0.153896152973175","-0.232810944318771","0.157809183001518","-0.0581292435526848","0.057562243193388","-0.0469449572265148","-0.0102457599714398","0.135477319359779","0.996155858039856","-0.191092178225517","-0.0689289197325706","-0.158231019973755","0.258350968360901","0.445068120956421","-1.0697979927063","-0.0286263432353735","0.187282904982567","-0.160135269165039","-0.141117140650749","0.0832513719797134","-0.315436959266663","-0.0197407957166433","-0.471837133169174","0.0840242728590965","-0.0485567525029182","-0.280554950237274","-0.107016041874886","1.52081227302551","0.309546560049057","0.011918418109417","0.0507751256227493","-0.0207060128450394","-0.75041002035141","-0.314884632825851","-0.522830605506897","0.34672549366951","0.333415806293488","1.1425895690918","0.14884752035141"
"lat","0.165122970938683","-0.685419380664825","-0.456666976213455","0.147057175636292","0.111916549503803","0.057511780411005","-0.211983844637871","-0.266209274530411","0.254596769809723","1.10562634468079","0.273235023021698","0.240170821547508","-0.666536152362823","-0.801198422908783","0.0812313482165337","-0.179823964834213","-0.772050023078918","0.126704588532448","-0.158136904239655","-0.328004837036133","-0.525296807289124","-0.588394165039062","-0.163136661052704","-0.884040951728821","-0.139988645911217","0.27683699131012","-0.349988490343094","0.0783870965242386","0.90732204914093","0.210724219679832","-0.0920069441199303","0.178421705961227","-0.640096545219421","-0.919374227523804","0.0381494574248791","1.20577716827393","0.085029125213623","-0.346651822328568","-0.00915362872183323","0.352783262729645","-0.129009917378426","-0.280735313892365","0.141840994358063","-0.204956740140915","-0.0781795606017113","-0.361547946929932","-0.000428148021455854","-0.333292365074158","-0.22769396007061","-0.342004686594009","-0.569005906581879","0.0792830809950829","0.301192104816437","-1.00562739372253","0.799667000770569","-0.29588857293129","-0.601594626903534","-0.521879017353058","0.995354652404785","-0.45525848865509","-0.364531099796295","-0.101172722876072","-0.743654787540436","-0.441929280757904","-0.473087191581726","-0.436560839414597","0.207336887717247","1.03965771198273","-0.285254895687103","0.602801918983459","0.491310268640518","-0.512024700641632","0.0127294976264238","0.0640969127416611","-0.071879468858242","0.133823215961456","-0.0408377274870872","0.817371606826782","-0.651595652103424","0.407564967870712","0.389193385839462","0.173261031508446","-0.0860896557569504","-0.831537902355194","0.233402296900749","0.263426125049591","0.392506420612335","0.490304619073868","0.257055461406708","-0.45360478758812","-0.591937124729156","-0.165138766169548","-0.425080090761185","0.0203834809362888","-1.65947353839874","-0.228417277336121","-0.055150430649519","0.477963477373123","-0.296486020088196","-0.604388117790222","0.465152829885483","0.21455329656601","-1.19359648227692","-0.281041026115417","0.371244072914124","0.506590306758881","0.121945209801197","-0.619884669780731","0.0270671248435974","-0.199427574872971","-1.33122444152832","0.329917758703232","0.0682632625102997","-0.843205213546753","-0.28173303604126","-0.322246432304382","0.198005512356758","-0.678308844566345","-0.267204791307449","0.111590631306171","0.436122864484787","-0.747985124588013","0.522984445095062","-0.495737105607986","0.560079216957092","-1.75415408611298","0.436771243810654","0.204632952809334","-0.605376183986664","0.236689269542694","0.189036697149277","-0.147972017526627","-0.490283846855164","0.668894350528717","0.0981764867901802","-0.240001410245895","0.667746961116791","-0.102414943277836","-0.787977576255798","0.521647572517395","-0.404911607503891","0.205631509423256","-0.528005480766296","-0.857498109340668","-0.0449412427842617","-0.0543759614229202","-0.415247440338135","-0.481839239597321","-1.62108063697815","-0.632380902767181","-0.515122711658478","0.487959802150726","-0.430716812610626","-0.428062230348587","0.220076456665993","-0.559494376182556","0.214456588029861","-0.152991577982903","0.0818879976868629","-0.36376366019249","0.4651820063591","0.351898580789566","-0.583748698234558","-0.816214203834534","-0.0521556437015533","-0.151532039046288","-1.00841045379639","0.169331356883049","-0.256821632385254","-0.37902957201004","-0.852238416671753","0.46202489733696","0.0167049039155245","-2.32096004486084","-0.402723103761673","-0.0110164238139987","-0.209052965044975","-0.112578026950359","0.659956037998199","-0.00168122397735715","0.530699014663696","0.594335436820984","0.114009313285351","-0.309952229261398","-1.1339818239212","0.046821590512991","0.447387307882309","-0.0291303619742393","0.254386067390442","0.389917075634003","-0.56689727306366","0.202604740858078","-0.10294046998024","0.196357801556587","0.614166736602783","-0.44963663816452","0.809453845024109","-0.360926777124405","0.100842610001564","-0.559046804904938","0.169078201055527","0.141424402594566","-0.303695142269135","-0.511375904083252","0.223574429750443","0.220450192689896","-0.368969529867172","-0.85293585062027","0.0101984422653913","0.303068608045578","-0.066491037607193","-0.144211038947105","-0.391773551702499","-0.0952791124582291","-2.48838877677917","0.0579255856573582","0.158424541354179","0.613269031047821","-0.0379952043294907","-0.589941203594208","0.0769632533192635","-0.354181706905365","-0.411910265684128","-0.689281582832336","0.0140010565519333","0.523287177085876","0.813102960586548","0.422265887260437","-0.677400529384613","1.24222302436829","0.495004028081894","-0.633789479732513","-0.309313505887985","0.877624094486237","-0.997197866439819","0.219918102025986","-0.31115734577179","0.271582514047623","0.142178624868393","0.525637149810791","-0.644971489906311","0.129058420658112","0.48504051566124","-0.511882126331329","-0.928898572921753","0.403712719678879","0.078252449631691","0.195948511362076","0.306596517562866","0.291197627782822","0.0360966697335243","0.159670472145081","-0.27098348736763","0.0587627738714218","-0.962254643440247","-0.377786427736282","-0.710165798664093","-0.294413268566132","-0.617746770381927","0.150339812040329","-0.0877432748675346","0.412714898586273","-1.12297332286835","0.40296345949173","0.338052093982697","0.0334823131561279","0.290743142366409","-0.156710833311081","0.338175147771835","-0.313731878995895","0.214244663715363","0.0758609548211098","0.0386514216661453","-0.347682654857635","-1.08247184753418","1.18481135368347","-0.0752836465835571","0.123134434223175","-0.387841403484344","-0.271035850048065","0.443284451961517","0.269354462623596","-0.00757784908637404","0.512700736522675","-0.738812446594238","-0.521814346313477","-0.15696619451046","-0.277553409337997","-0.106320954859257","0.331536620855331","-0.0171709861606359","0.214841797947884","-0.254690378904343","0.757825613021851","0.00894577614963055","-0.935924351215363","-0.33128297328949","0.0863960534334183","-0.276567876338959","-0.623514890670776"
"temperature_mean","-0.0963687375187874","0.477636277675629","1.28090560436249","0.230969086289406","0.677374303340912","-0.136448696255684","-0.0704305171966553","-0.363299310207367","0.409539401531219","0.111130557954311","0.234602406620979","0.358199208974838","0.867107570171356","0.816148102283478","0.359683066606522","0.922569751739502","0.955879926681519","0.429284155368805","2.88994359970093","-0.457870006561279","0.0711294114589691","-0.221998155117035","0.417402297258377","1.25772631168365","0.634584724903107","-0.688942134380341","-0.323260754346848","0.851696610450745","1.49038326740265","-0.138662442564964","0.146147146821022","0.442849904298782","2.14753794670105","0.190135419368744","0.173634544014931","0.948741018772125","0.742053687572479","-0.0115136578679085","0.873107314109802","0.291642397642136","0.460611790418625","0.194148257374763","0.382172644138336","0.0108491852879524","-0.126410633325577","-0.149983376264572","-0.0956169068813324","0.897246241569519","0.794818222522736","-0.35307851433754","0.348293215036392","-0.458641231060028","-0.815851092338562","1.05404007434845","-0.568868696689606","0.950796842575073","0.30730140209198","0.0579041056334972","0.574365437030792","0.407623052597046","0.0184174031019211","0.93574184179306","0.307763606309891","0.0165377818048","0.19419652223587","1.4731537103653","-0.0178872887045145","-0.117006339132786","1.090780377388","-0.230755507946014","0.535289645195007","0.67675644159317","-0.341895401477814","-0.855578660964966","0.00692774262279272","0.345197230577469","0.0682173371315002","0.089176669716835","-0.672044515609741","0.143995061516762","-0.475312799215317","1.00630664825439","0.101281777024269","-0.514267027378082","-0.479883253574371","0.0595365352928638","0.199963599443436","0.129661113023758","-0.628518581390381","0.0073598031885922","-0.139072805643082","0.66892546415329","-0.596048474311829","-0.0367809422314167","0.876775324344635","0.236871629953384","1.66567993164062","-0.335887283086777","0.393948465585709","1.33606493473053","0.582536995410919","-0.666974127292633","1.81315112113953","0.524429261684418","-0.218269854784012","2.91528749465942","0.421278357505798","0.875616610050201","0.850195348262787","-0.569189488887787","1.41368663311005","-0.0261049196124077","0.827103912830353","-0.0475497283041477","0.0411507599055767","0.205832377076149","-0.332132190465927","0.118077278137207","-0.111445546150208","0.235108494758606","-0.273716807365417","0.96466064453125","0.0569312311708927","-0.30835697054863","0.398820370435715","1.44958806037903","1.31758749485016","-0.240332707762718","0.884616732597351","-0.296367466449738","0.4694002866745","-0.215543866157532","1.76485085487366","-0.386221140623093","-0.00302519625984132","0.659693002700806","-0.951754927635193","0.0501493811607361","-0.470420688390732","0.693638443946838","0.097434788942337","0.675201237201691","0.166798338294029","-0.071085162460804","1.03082978725433","0.927726864814758","0.0914358571171761","1.92425978183746","-0.27632737159729","0.427626341581345","0.727985560894012","0.338190615177155","-0.0135316085070372","-0.151192858815193","0.799537360668182","0.0120220361277461","0.599199175834656","1.07779085636139","-0.824478328227997","0.944941937923431","-0.570207834243774","0.305866807699203","-0.288189500570297","0.792366623878479","0.670021295547485","0.323991537094116","0.74544495344162","0.831955015659332","0.990730226039886","0.259382516145706","1.53565180301666","-0.171389758586884","-0.0360601432621479","3.4789457321167","0.74032986164093","0.367119371891022","1.03063797950745","0.170438885688782","-0.266458004713058","0.392987340688705","-0.118951022624969","0.423378318548203","-0.546574831008911","0.437987864017487","1.37866151332855","0.0975816994905472","-0.202801585197449","0.542363941669464","-0.115739017724991","0.375334441661835","0.360438019037247","-0.49834668636322","0.10815840959549","-0.237935394048691","-0.431989103555679","0.400367558002472","0.353540480136871","0.862214803695679","-0.0493824705481529","-0.28451856970787","0.423454284667969","-1.00428104400635","-0.0597722195088863","0.0635466203093529","0.383939504623413","0.646396040916443","-0.0723038464784622","1.16549718379974","0.0408646687865257","0.770835816860199","-0.44991135597229","0.474730581045151","-0.0722300782799721","-0.195695996284485","1.02092051506042","0.405538946390152","2.25082683563232","-0.604217767715454","-0.0575548447668552","0.930878758430481","-0.724675714969635","0.256519496440887","0.334817588329315","-0.257672846317291","0.0366172082722187","0.866998374462128","0.120001465082169","-0.0277299638837576","-0.280030071735382","0.514888107776642","-0.268016278743744","-0.282668262720108","1.13221478462219","-0.702280402183533","-1.10808730125427","1.1270124912262","-0.313404411077499","-1.10655915737152","0.319501340389252","0.00313315051607788","1.20075178146362","0.380852967500687","0.136279731988907","-0.179277345538139","1.10713744163513","-0.178520008921623","0.0418049916625023","-0.205218300223351","-0.409934639930725","-0.626193404197693","0.39939358830452","-0.743748843669891","0.952416777610779","0.175286754965782","0.903334200382233","0.754247605800629","-0.238045275211334","1.23277378082275","-0.0869238004088402","-0.988599836826324","-0.219269543886185","1.29914689064026","-0.357162654399872","0.403053432703018","-0.82878178358078","0.171582892537117","1.35862290859222","0.426900595426559","0.0333703234791756","-0.302073091268539","-0.10567432641983","0.336503267288208","-0.42360445857048","0.451359540224075","0.276833564043045","-0.265116363763809","-0.444327712059021","0.552626311779022","0.866292715072632","0.608809173107147","0.347764730453491","0.0209132619202137","0.103895552456379","0.653165698051453","0.651064872741699","-0.291707158088684","1.09152865409851","0.502064883708954","-0.0707040652632713","-0.668708086013794","0.368178725242615","-0.378242820501328","0.0211335420608521","0.439245760440826","-0.739120423793793","0.934165060520172","3.12302851676941","0.111764557659626","-0.0861370712518692","0.631706833839417"
"precipitation_mean","-0.651088118553162","0.290383100509644","0.912540256977081","-0.0864038318395615","0.711111783981323","0.887663185596466","0.188719108700752","-1.01202845573425","0.682789981365204","0.490762442350388","1.5008317232132","-0.0145979169756174","0.96517288684845","0.00201787240803242","0.00747029948979616","0.127171844244003","0.754369556903839","-0.0309691186994314","0.140168592333794","1.02514910697937","1.02920937538147","0.980035006999969","1.12789177894592","0.582155466079712","0.446457713842392","1.96182143688202","0.718254506587982","-0.00873664952814579","0.202861338853836","2.10578894615173","-0.386854141950607","0.555530607700348","0.0207647290080786","0.663774251937866","-0.0521836280822754","0.175233200192451","0.501795589923859","-0.187519252300262","0.83753365278244","1.12590932846069","0.610414147377014","0.125165015459061","-0.104227975010872","0.754436790943146","1.02845406532288","1.15911865234375","0.764429211616516","0.846006393432617","0.721714377403259","1.01376295089722","0.850631535053253","-1.13317549228668","1.44378161430359","0.67175155878067","-0.248751983046532","1.1570942401886","0.866683185100555","0.399349302053452","0.4981749355793","1.18780887126923","0.928325235843658","0.801107883453369","1.24557089805603","0.990430057048798","1.15292155742645","0.634236395359039","-0.612182021141052","-0.20146133005619","0.765404462814331","-0.930154621601105","-0.878531992435455","1.54060661792755","1.38615155220032","-1.0441027879715","0.66020792722702","0.152789190411568","0.23634660243988","-0.67060786485672","0.751554250717163","1.08462607860565","-0.849301695823669","0.323379725217819","-0.18032343685627","1.82559967041016","-0.954824388027191","1.06213438510895","0.928000271320343","0.988296031951904","-0.71516615152359","0.981816053390503","0.571942090988159","1.06615877151489","0.887827455997467","2.24575805664062","0.906163036823273","1.08762943744659","-0.0438495427370071","-0.884280323982239","0.615939855575562","0.477847188711166","0.817882418632507","-1.26103270053864","-0.0421623028814793","1.81299102306366","2.12937307357788","-0.421688079833984","0.25471356511116","0.6172896027565","0.918422758579254","-0.863336265087128","0.00270082149654627","2.20957565307617","0.957229137420654","0.629160344600677","0.964598178863525","0.0709035992622375","0.331043988466263","0.862996935844421","0.769252240657806","0.612600445747375","-0.772481322288513","0.649557530879974","-0.800610363483429","0.507150173187256","0.162127360701561","0.290082037448883","-0.314346015453339","-0.871747195720673","0.709521412849426","-1.01759028434753","-0.147079914808273","0.058225441724062","-0.00997680798172951","-0.666312456130981","1.05178213119507","1.28868126869202","-0.331708252429962","1.3751472234726","-0.0451240837574005","-0.227379605174065","0.850532174110413","-0.0792602598667145","1.23829054832458","-0.164141148328781","0.646133124828339","0.386195570230484","0.79753178358078","0.0301504302769899","-0.0381914488971233","-0.0139665668830276","1.16425895690918","0.901154518127441","1.12743425369263","0.858125030994415","-0.779545545578003","0.404541522264481","0.229531168937683","-0.403294146060944","-1.08647871017456","0.697392463684082","-0.789299786090851","0.683127343654633","1.53520607948303","1.09412455558777","0.6449214220047","0.761674761772156","-0.72147798538208","-0.538464605808258","-0.361544013023376","0.0694304630160332","0.0990527644753456","-0.568350791931152","0.454942941665649","0.431542903184891","-0.676928818225861","0.882270872592926","-0.501076698303223","-0.137988328933716","1.63934195041656","0.241426348686218","-0.390486568212509","0.773939788341522","-1.04370772838593","1.4068546295166","-1.41960608959198","1.22982919216156","-0.713635146617889","1.22862315177917","0.378060877323151","-0.0434282757341862","0.719813704490662","-0.781406760215759","-0.0316184051334858","1.59190201759338","1.73102176189423","0.297566771507263","2.20412540435791","-1.01903879642487","-0.934932231903076","0.585941910743713","-0.0851389989256859","-0.781443297863007","0.75644439458847","-0.0310355182737112","0.283285707235336","1.31643807888031","1.057208776474","0.762054800987244","-0.325029909610748","0.897629916667938","-0.0010177600197494","1.23448467254639","0.793158292770386","1.57322812080383","-0.0981834530830383","1.13295078277588","-0.0759485810995102","1.70045721530914","0.507148325443268","0.249376311898232","0.483046978712082","1.48403644561768","0.610817074775696","0.991185903549194","1.21241295337677","-0.35860213637352","1.91887497901917","1.52924156188965","0.0406487137079239","0.445573747158051","0.104861930012703","0.291884213685989","0.715023458003998","1.29982817173004","0.0714028999209404","0.211402848362923","0.308638215065002","-0.779960572719574","-0.0915350317955017","-0.128230020403862","0.45215055346489","0.276477247476578","-1.01092827320099","0.518665015697479","0.708380401134491","-0.762158155441284","-0.0679958984255791","0.637338161468506","-0.787605106830597","-0.918607294559479","-0.0408319011330605","-0.994376718997955","1.03677845001221","0.0117656895890832","0.585295975208282","1.17301082611084","-0.95279848575592","-0.414825052022934","0.901964604854584","-1.19416952133179","0.692865133285522","0.811310648918152","0.403868794441223","0.0826320126652718","0.787233948707581","0.0407615713775158","0.747660160064697","0.088031493127346","-0.841216802597046","0.854261636734009","0.910073935985565","-0.0115598542615771","1.86336016654968","1.14051222801208","-0.290119677782059","-0.229376405477524","1.40096843242645","0.9534592628479","0.746976315975189","0.96104770898819","0.0868415012955666","0.609499633312225","0.278529524803162","-0.0744146108627319","1.16342401504517","1.12189495563507","0.307121843099594","0.812560498714447","0.937917530536652","-0.669497907161713","0.627234041690826","-0.861630082130432","1.52148199081421","0.0222091898322105","-0.913801491260529","0.226703852415085","0.679041028022766","-0.220553040504456","0.959599018096924","0.998753547668457"
"radiation_mean","0.162247508764267","-0.897509872913361","0.47898343205452","0.0457609929144382","0.453340381383896","0.0732414647936821","0.24229808151722","-0.158995628356934","0.206482097506523","0.763578057289124","-0.0469166301190853","-0.0265727490186691","1.62380456924438","0.532094180583954","0.163351759314537","-0.166834026575089","1.41875159740448","-0.082944817841053","-0.363784611225128","-0.215772688388824","-0.0210261233150959","-0.068804606795311","0.139891430735588","0.0543570816516876","-0.287574589252472","0.534712910652161","0.271623194217682","-0.00550445728003979","-0.238861978054047","1.3827520608902","0.533210933208466","0.199908927083015","0.0150546431541443","0.0232391078025103","0.193165317177773","0.404065787792206","0.473077923059464","0.352220892906189","-0.648209154605865","0.044010303914547","0.251824498176575","0.286114901304245","-0.0014030933380127","0.480828374624252","-0.0749544948339462","-0.380458563566208","0.360584318637848","0.667141497135162","0.910045623779297","-0.448519945144653","1.02256298065186","-0.0684547275304794","0.602884352207184","1.2184966802597","-0.529611051082611","0.348375499248505","0.0290071573108435","0.586245894432068","0.13340100646019","0.35061040520668","-0.252212971448898","-0.902462065219879","1.20062828063965","-0.325819224119186","0.208093464374542","-0.399337381124496","0.00517269829288125","-0.219604179263115","-0.496108561754227","0.0351862981915474","-0.162425696849823","0.413105607032776","0.527781784534454","-0.100610353052616","0.933879017829895","-0.0438136532902718","0.652380645275116","-0.0463841743767262","0.591345548629761","0.480391383171082","-0.371661096811295","0.290189564228058","0.317063212394714","0.153474867343903","-0.135338202118874","-0.21629610657692","0.126298487186432","0.490906953811646","-0.0598511211574078","0.0727102532982826","-0.249491915106773","0.115120083093643","-0.0777623206377029","-0.170472085475922","0.526464641094208","-0.457957327365875","0.159350126981735","-0.0509806461632252","0.247345209121704","0.0202087424695492","-0.0739647373557091","-0.141105428338051","0.013856640085578","0.946068942546844","0.343916177749634","-0.284258663654327","-0.162534385919571","0.490841388702393","0.0734939873218536","0.257871329784393","0.294172644615173","0.58008885383606","-0.177669912576675","1.04223740100861","-0.0981811806559563","0.090666651725769","0.489569395780563","0.148312866687775","0.745895504951477","0.0911535769701004","-0.365915954113007","1.78744387626648","-0.091043584048748","0.181186765432358","-0.525162518024445","0.119165696203709","0.37652462720871","0.178874284029007","1.34107482433319","0.0760334730148315","0.0779711008071899","-0.0307519380003214","-0.0209834352135658","-0.168144971132278","-0.80085563659668","-0.239720791578293","-0.755700707435608","-0.123160809278488","0.10649199038744","0.205680415034294","-0.521783351898193","0.526703417301178","-0.0113065559417009","-0.0159187354147434","-0.434820830821991","-0.320833951234818","0.504400014877319","0.136239841580391","-0.0358524769544601","-0.198258593678474","0.466372817754745","-0.00652217585593462","-0.207093194127083","0.541710078716278","0.352636367082596","0.891206204891205","0.127855509519577","-0.283854365348816","0.0435682199895382","0.577200889587402","-0.403363943099976","-0.227148741483688","-0.534563839435577","1.37070620059967","0.601116895675659","0.271797657012939","0.349218606948853","-0.150330320000648","-0.0656842589378357","0.850451588630676","-0.207477569580078","-0.848630845546722","0.689747214317322","0.546293318271637","0.0249885767698288","-0.0149608375504613","-1.00547337532043","0.274881631135941","0.636903941631317","0.319698631763458","0.0593366324901581","0.149729162454605","0.0634007677435875","0.299239426851273","-0.507805168628693","-0.15912090241909","-0.0766679793596268","0.148881614208221","0.979223430156708","0.0596926957368851","-0.097518116235733","0.0712939724326134","0.0783660933375359","0.368859499692917","0.901257038116455","-0.0438867844641209","0.153535962104797","-0.692621946334839","-0.181764155626297","0.83158951997757","-0.01370560657233","-0.116954572498798","-0.581809818744659","0.453012406826019","-0.302508890628815","-0.0922588706016541","-0.257164984941483","0.0907799005508423","0.427896618843079","-0.0772652924060822","0.0887182280421257","0.0468587279319763","-0.425793796777725","0.0343175008893013","-0.433784335851669","-0.199341729283333","0.225386083126068","0.650653541088104","0.876921474933624","0.347638309001923","0.666001200675964","0.151868402957916","-0.406039625406265","-0.459818243980408","0.105446085333824","0.303035110235214","-0.028135497123003","0.0774472132325172","0.660486876964569","0.269423842430115","0.317838490009308","-0.201434388756752","0.0747076570987701","1.53223979473114","0.428506433963776","0.681455969810486","1.29213309288025","-0.665903687477112","0.118920870125294","0.0691917613148689","-0.377595275640488","0.389394104480743","0.172594010829926","-0.143496781587601","0.912308156490326","0.0846664682030678","0.0801681652665138","0.682146787643433","-0.100333370268345","-0.132137432694435","0.104666873812675","0.0248310230672359","-0.365899235010147","0.0498822703957558","1.5155930519104","0.399335265159607","0.177121013402939","-0.138838350772858","0.178901046514511","-0.264912515878677","-0.16838601231575","-1.11465668678284","0.456027239561081","-0.391692936420441","0.702451705932617","-0.0254464093595743","-0.725055158138275","0.559325218200684","0.226714879274368","-0.463769137859344","0.477057576179504","-0.0885241627693176","0.779899001121521","0.105218641459942","0.286197543144226","0.123585358262062","0.515795648097992","0.0106140691787004","0.206043183803558","0.488999754190445","0.0667818561196327","0.900774836540222","-0.104999147355556","0.126378178596497","1.07481110095978","-0.201482608914375","-0.00102700968272984","-0.260814130306244","0.243687108159065","-0.308994263410568","-0.0296463966369629","0.290420144796371","-0.204358622431755","-0.089154452085495","0.239776805043221","0.443421334028244","-0.748052358627319","0.196010068058968","-0.0820714086294174","0.111107155680656"
"soil_type","-0.0856016650795937","0.50004118680954","-0.243108928203583","-0.182184681296349","0.0610824897885323","-0.0653546154499054","-0.0197448395192623","0.45811328291893","0.196508541703224","-0.52819150686264","0.606399297714233","0.198483183979988","-0.106503501534462","-0.174695625901222","0.101364254951477","1.74810826778412","-0.043840616941452","0.12746424973011","0.0383017398416996","-0.281967908143997","-0.402273774147034","-0.199134334921837","-0.209091976284981","-0.286901384592056","-0.202833771705627","-0.128391966223717","-0.128341764211655","-0.132195502519608","0.40402814745903","0.557469844818115","-0.222792685031891","0.313199520111084","0.253575176000595","-0.0814091712236404","-0.0273428615182638","0.256523370742798","0.171961188316345","-0.874343037605286","-0.520348846912384","-0.160653904080391","0.243580728769302","0.22010338306427","0.202870860695839","0.120033383369446","-0.142612650990486","0.139508783817291","-0.397978395223618","-0.308148056268692","-0.112870171666145","0.0125804552808404","-0.274609744548798","0.0777659192681313","0.139081344008446","-0.251170575618744","-0.566376328468323","-0.651326477527618","0.181503161787987","-0.265028983354568","-0.0252701584249735","0.00232911901548505","0.2787906229496","-0.61009681224823","0.659890174865723","-0.200251311063766","0.243288367986679","-0.307589620351791","0.155374780297279","-0.666877210140228","-0.432802885770798","-0.10574908554554","-0.965919196605682","-0.840703785419464","-0.27212131023407","0.202162697911263","-0.0576681233942509","0.220433473587036","-0.00521364295855165","-0.123410627245903","0.250545889139175","0.33312663435936","-0.172726482152939","0.474089860916138","-0.150538951158524","-1.21160197257996","-0.109167478978634","0.197069466114044","-0.164771050214767","-0.409671932458878","-0.0583331659436226","-0.213631346821785","-0.119199313223362","-0.401023089885712","0.112006053328514","0.555077850818634","-0.050495557487011","-0.313437253236771","-0.416895478963852","-0.403503328561783","-0.300567209720612","-0.248427107930183","0.42188948392868","0.55943888425827","0.147057056427002","-0.567348718643188","0.167567998170853","-0.0168169494718313","0.283473074436188","0.0901069864630699","-0.423206686973572","0.137918770313263","-0.0202570259571075","0.428376704454422","-0.397650331258774","-0.362860649824142","-0.185644909739494","-0.239932388067245","0.234450042247772","0.489758282899857","-0.295264601707458","-0.114115841686726","-0.015576409175992","0.140969172120094","-0.470000565052032","-0.124317787587643","0.0565136037766933","0.0279911421239376","-0.0983151569962502","-0.487047255039215","-0.176284655928612","-0.214515671133995","-0.0630217790603638","-0.14735946059227","-0.290822923183441","0.313428908586502","-0.0218682028353214","-0.452767848968506","-0.256618648767471","-0.467924773693085","-0.0928593724966049","0.0302653573453426","0.658525228500366","-0.11631240695715","0.428234070539474","-0.646284639835358","-0.237311512231827","-0.103078775107861","-0.310720771551132","-0.00627363286912441","-0.0475839637219906","0.47972372174263","-0.622408032417297","0.0606420077383518","0.557015955448151","0.468320459127426","0.572685420513153","0.141485616564751","0.397759467363358","0.410024046897888","0.279385656118393","-0.367327451705933","-0.744302988052368","0.251746356487274","0.393135249614716","-0.569590628147125","0.194989562034607","0.265356212854385","-0.259008854627609","-0.206592008471489","-0.186322927474976","-0.354742854833603","-0.116858519613743","0.0185187477618456","0.0553684048354626","0.326708376407623","0.091064065694809","-0.203867956995964","0.143252030014992","-0.0874590873718262","0.0637566074728966","0.938019514083862","-0.315122306346893","0.0945180058479309","0.44481486082077","-0.734670341014862","0.194198757410049","0.0447721853852272","-0.241351068019867","-0.175817459821701","0.349738210439682","-0.183755666017532","-0.0031531834974885","0.118969097733498","-0.0346114300191402","0.195642858743668","-0.262434482574463","-0.21440601348877","0.377015858888626","0.163406327366829","0.15582437813282","0.117850959300995","-0.0870346799492836","0.378091216087341","-0.155785530805588","-0.20184962451458","0.0179241914302111","0.49559822678566","0.213132679462433","-0.107712715864182","-0.22834900021553","-0.480657130479813","-0.0600846409797668","-0.15962028503418","0.0683601647615433","-0.112322375178337","0.280662089586258","-0.205836206674576","-0.859964609146118","-0.689342081546783","0.241410106420517","-0.428779751062393","0.394244819879532","0.221188306808472","-0.421415418386459","0.371576428413391","-0.529722273349762","-0.286624640226364","0.302022635936737","-0.0853562280535698","-0.0614475086331367","0.125916048884392","-0.910240650177002","-0.0854040682315826","-0.478088349103928","-0.215619221329689","0.090572714805603","-0.201023623347282","0.333136022090912","-0.0575301311910152","0.0454406626522541","-0.00979492347687483","-0.198215588927269","-0.146833941340446","-0.326013177633286","-0.0927163287997246","0.0781464427709579","-0.326133131980896","-0.0262085255235434","-0.794251561164856","0.313451111316681","0.316802531480789","0.065692201256752","0.432576388120651","-0.522283673286438","-0.0233052335679531","-0.190530344843864","-0.483618319034576","0.0169991105794907","-0.0139175923541188","-0.00322623155079782","0.800620138645172","-0.200678467750549","-0.422773957252502","-0.204895332455635","0.0671315938234329","0.280130922794342","0.104382902383804","-0.546306371688843","-0.0621523782610893","0.0438424646854401","0.413540244102478","0.147282645106316","0.271739900112152","-0.113790795207024","-0.335124850273132","-0.133337050676346","-0.437865793704987","0.0465871207416058","-0.242713779211044","-0.223330602049828","0.304793298244476","0.763271927833557","-0.116812892258167","0.11934369802475","0.0077258930541575","0.485864996910095","-0.229696333408356","-0.444388031959534","-9.64318751357496e-05","-0.200548440217972","0.223988845944405","-0.312040060758591","0.150595083832741","0.353448987007141","-0.00756570557132363","0.0212891958653927","-0.184461832046509","-0.110710106790066","-0.182224422693253","0.0723156780004501","-0.025014940649271"
"LSU","0.27036464214325","0.334814667701721","0.198850512504578","-1.38972270488739","0.451287239789963","-0.164611384272575","0.953271508216858","-0.2132258862257","0.320385366678238","-0.185193598270416","0.0313783437013626","-1.05499815940857","0.570882380008698","0.468447327613831","-1.11806392669678","-0.0820115879178047","-0.246451199054718","-1.1608099937439","0.847312390804291","-0.24111695587635","0.437640994787216","-0.502200901508331","-0.128512918949127","0.232448607683182","0.830416917800903","-0.319363862276077","-1.03948664665222","-1.24909043312073","0.682646214962006","0.643351495265961","-1.24796545505524","0.168823078274727","-0.318572759628296","-0.570791125297546","-1.13265442848206","0.643712341785431","1.15033757686615","0.764334201812744","-0.0226611346006393","0.574832856655121","0.0714402496814728","-0.691006422042847","-0.949345529079437","1.05756103992462","-0.279773205518723","-0.337902933359146","0.0154760051518679","0.7090163230896","0.976443827152252","-0.517693161964417","-0.356783509254456","0.101804457604885","-0.748309314250946","-0.446002602577209","-0.311303436756134","0.434883683919907","-0.249183267354965","1.13389492034912","0.954846918582916","0.266254246234894","-0.462865948677063","0.100773938000202","0.0650833249092102","1.08283388614655","0.949309349060059","0.00416200188919902","0.402852773666382","0.156375855207443","0.357492506504059","0.138828098773956","-0.866800904273987","0.670338928699493","0.599208831787109","0.123886093497276","0.994694590568542","-1.17131495475769","1.07455122470856","0.351160645484924","-1.15573680400848","0.870333254337311","0.0886165201663971","-0.820318877696991","-1.14527535438538","0.252737134695053","0.195184141397476","-0.360179752111435","0.0396401807665825","-0.0218004956841469","0.072564072906971","-0.729474544525146","-0.56140148639679","-0.0794766545295715","-1.46771383285522","0.417824655771255","0.268107265233994","-0.0608663484454155","-0.27906796336174","0.0298547130078077","0.465141415596008","0.436435639858246","-0.100327052175999","-0.188583329319954","-0.238635838031769","-1.44399738311768","0.741937816143036","-0.334460973739624","-1.02523374557495","-0.15371572971344","0.214777678251266","0.177715137600899","-0.507701456546783","0.602428674697876","-0.0142045672982931","0.640143394470215","0.837080419063568","1.1022572517395","-1.15997040271759","0.474454402923584","-1.17018842697144","1.08038330078125","0.225523829460144","0.412174165248871","0.167859420180321","-0.736365437507629","0.820387780666351","-0.34421318769455","0.691446840763092","0.157109707593918","-0.39809051156044","0.255432635545731","0.764773547649384","-1.5252400636673","0.96829217672348","0.445755064487457","-0.1123998016119","0.50697785615921","0.20629246532917","0.111207202076912","-0.972095251083374","0.600625455379486","0.491447985172272","1.00540065765381","0.0421367175877094","0.452608615159988","1.09767687320709","1.34839653968811","-1.00045025348663","-0.347515434026718","0.643889367580414","0.729750275611877","-0.0461134538054466","-0.12456938624382","0.501682817935944","0.823590338230133","0.232315629720688","1.05100977420807","-0.94567883014679","0.532676935195923","-0.026076776906848","-0.138014703989029","0.268052041530609","0.126485377550125","0.164432495832443","0.279623061418533","0.324125111103058","-0.116400808095932","0.640670418739319","0.407161355018616","0.63488644361496","-1.19665265083313","1.44191062450409","0.200910612940788","1.15188193321228","0.736481428146362","0.647287130355835","-0.0422794036567211","0.2228894084692","-1.26449549198151","0.617688715457916","-0.253514230251312","0.320078283548355","-0.311481505632401","0.140084058046341","0.397464424371719","-0.4699627161026","0.409318387508392","0.320596128702164","0.291281193494797","0.826233685016632","0.777549803256989","-0.0852580368518829","0.32850643992424","-1.23031175136566","0.83112758398056","0.323222279548645","1.1604620218277","0.623269081115723","0.0595399960875511","0.179518446326256","0.812252581119537","-1.00884163379669","0.117402821779251","-0.311875343322754","1.11006700992584","-0.878963232040405","-0.272567957639694","-0.216434955596924","0.915396153926849","-1.2793345451355","-0.213582739233971","-1.43259704113007","-0.0601399540901184","-0.591662526130676","-1.90351021289825","-0.18556010723114","1.11220026016235","-0.923164308071136","0.194015681743622","1.03957223892212","0.104566246271133","-1.01373720169067","0.698888778686523","0.498446375131607","-0.17419308423996","0.489460617303848","0.615066409111023","0.355210244655609","1.04134035110474","0.877625226974487","0.70503693819046","-0.641498386859894","-0.817432940006256","0.0393117740750313","0.584238409996033","-1.15973734855652","1.07130753993988","0.574598610401154","-0.0291200019419193","-1.16239786148071","0.611202359199524","0.0228124521672726","1.14993059635162","0.157963559031487","-0.725379168987274","0.438508629798889","0.228586047887802","-1.32366263866425","0.662786304950714","0.43602266907692","0.10245555639267","-1.10130703449249","0.0320227481424809","-0.0139339733868837","-1.19487023353577","-0.117627635598183","0.227350980043411","0.276687830686569","0.764404833316803","-0.747029960155487","-0.441022098064423","-0.406921148300171","-0.223199546337128","0.549974322319031","-0.969321012496948","-0.72761744260788","-1.2597199678421","-0.0268053188920021","-1.06316697597504","0.332507848739624","-0.33056178689003","0.891370713710785","-1.00540828704834","0.691146433353424","0.581039369106293","0.790680050849915","0.170107543468475","0.606334865093231","1.08676671981812","0.154753461480141","0.281832277774811","-0.825948417186737","0.880192875862122","-1.44435906410217","0.63310045003891","-0.100128546357155","-0.451441913843155","0.505770921707153","0.390892833471298","-0.0252042710781097","0.0652932599186897","0.932180166244507","0.334952414035797","-0.197822272777557","0.431074410676956","-0.0454858876764774","-0.724851489067078","0.152912572026253","-1.32354176044464","0.268619418144226","-0.143776506185532"
