"dummy","n4_1","n4_2","n4_3","n4_4","n4_5","n4_6","n4_7","n4_8","n4_9","n4_10","n4_11","n4_12","n4_13","n4_14","n4_15","n4_16","n4_17","n4_18","n4_19","n4_20","n4_21","n4_22","n4_23","n4_24","n4_25","n4_26","n4_27","n4_28","n4_29","n4_30","n4_31","n4_32","n4_33","n4_34","n4_35"
"n3_1","-0.530114948749542","0.47992479801178","-0.530221879482269","-0.402333229780197","0.569690346717834","0.317769825458527","-0.461242496967316","-0.339642494916916","0.248707190155983","-0.515599608421326","0.295098721981049","-0.45304611325264","0.28206929564476","0.229013502597809","-0.366014331579208","0.375619918107986","-0.360397160053253","-0.531341850757599","-0.526881694793701","-0.534958481788635","0.464248061180115","0.472466439008713","-0.550570368766785","-0.345561146736145","0.298111766576767","0.401619911193848","-0.356066673994064","0.291805028915405","0.147630587220192","-0.467181265354156","0.495560139417648","-0.529324233531952","0.47978538274765","0.220281779766083","0.0836112946271896"
"n3_2","0.241638094186783","-0.10119603574276","0.271695345640182","0.302392482757568","-0.262193471193314","-0.261935651302338","0.300871193408966","0.732616364955902","-0.357350468635559","-0.00236479076556861","-0.0189812704920769","-0.049026221036911","-0.266793638467789","-0.168856680393219","0.148828223347664","-0.104022622108459","0.0929562970995903","-0.100500635802746","0.359993010759354","0.18002051115036","-0.26225870847702","-0.1612209379673","0.181500598788261","0.431714773178101","-0.177645906805992","-0.308930724859238","-0.107000656425953","0.173264920711517","-0.3176529109478","0.377555698156357","-0.0518160685896873","0.209496259689331","-0.0785364434123039","-0.273707121610641","-0.242831885814667"
"n3_3","0.606395900249481","-0.74073451757431","0.443817377090454","0.652183473110199","-0.441362261772156","-0.324715793132782","0.358672142028809","0.462680459022522","-0.617706298828125","0.768328726291656","-0.474759936332703","0.561679422855377","-0.427320122718811","-0.427400767803192","0.504412293434143","-0.625139355659485","0.678463518619537","0.115428082644939","0.426660358905792","0.952892303466797","-0.605026423931122","-0.360976696014404","0.489959746599197","0.284043937921524","-0.344466716051102","-0.500496864318848","0.525153338909149","-0.821535229682922","-0.420741379261017","0.539395213127136","-0.40637931227684","0.497356861829758","-0.650932848453522","-0.385046362876892","-0.43533843755722"
"n3_4","0.336011856794357","-0.100179634988308","0.392604291439056","0.411278247833252","-0.308140188455582","-0.0422614030539989","0.112347587943077","0.876059472560883","-0.206702902913094","0.0563841909170151","-0.0496757552027702","-0.108575202524662","-0.0598289892077446","-0.392377972602844","0.175286710262299","-0.412242591381073","0.066214956343174","0.401851058006287","0.174501910805702","0.0194693971425295","-0.117862991988659","-0.262432277202606","0.309870660305023","0.270722657442093","-0.161692067980766","-0.120537497103214","-0.0315092019736767","0.28710812330246","-0.0478119403123856","0.279478341341019","-0.408198714256287","0.329570323228836","-0.201341211795807","-0.149345323443413","-0.375767081975937"
"n3_5","0.256669193506241","-0.42184042930603","0.0423732735216618","0.318891197443008","-0.523177981376648","-0.362757861614227","0.560579597949982","0.283063948154449","-0.323724240064621","0.122675828635693","-0.463250696659088","0.592695295810699","-0.401671797037125","-0.626871824264526","0.310297906398773","-0.482929110527039","0.561188578605652","0.24970343708992","0.137394040822983","0.329933226108551","-0.3493412733078","-0.175094023346901","0.603243887424469","0.185114279389381","-0.263250201940536","-0.193532645702362","0.361716210842133","-0.323735415935516","-0.502782642841339","0.0470074564218521","-0.585030674934387","0.331586122512817","-0.245936438441277","-0.194813683629036","-0.134487345814705"
"n3_6","0.246258825063705","-0.345714867115021","-0.330238878726959","-0.555478036403656","-0.319302797317505","-0.292010813951492","0.375790268182755","-0.0184027813374996","-0.12965889275074","0.147734791040421","-0.400747537612915","0.626288533210754","0.170328795909882","-0.455403327941895","0.181411296129227","-0.397655755281448","0.72457492351532","0.196031734347343","-0.24272820353508","0.570707976818085","-0.264747947454453","-0.138181790709496","0.067677915096283","-0.185732826590538","-0.16503232717514","-0.127825975418091","0.516507387161255","-0.313525944948196","-0.297667592763901","-0.331468611955643","-0.409062027931213","0.25346839427948","-0.356893420219421","-0.398247867822647","-0.0488277040421963"
"n3_7","0.318060398101807","0.0196556001901627","0.137781277298927","0.289462924003601","-0.0797917172312737","-0.45149239897728","0.266442060470581","-0.0332523472607136","-0.298327326774597","0.725828528404236","-0.305032730102539","-0.368614822626114","-0.257709920406342","-0.225636050105095","0.165719702839851","-0.123130835592747","-2.39983892440796","-1.74830675125122","0.389925420284271","1.10190212726593","-0.168201118707657","-0.167250886559486","0.00165189441759139","0.105419881641865","-0.359678953886032","-0.320483446121216","0.0523628145456314","-1.26418268680573","-0.363236367702484","0.140974059700966","-0.228335008025169","0.244156256318092","-0.191698357462883","-0.494426995515823","-0.130606979131699"
"n3_8","0.430882662534714","-0.317770689725876","0.282798439264297","0.259702980518341","-0.331185311079025","-0.463883548974991","0.479564130306244","0.498134851455688","-0.322033494710922","0.186861664056778","-0.542441546916962","0.196263879537582","-0.480919748544693","-0.485149502754211","0.227260679006577","-0.189686104655266","0.405745059251785","0.520163238048553","0.394788861274719","0.296454876661301","-0.267005413770676","-0.309695661067963","0.355067163705826","0.404924392700195","-0.246449843049049","-0.253916710615158","0.096640519797802","-0.314299672842026","-0.25931242108345","0.492377907037735","-0.357302725315094","0.37971043586731","-0.483629792928696","-0.0974411144852638","-0.194896817207336"
"n3_9","1.25360977649689","-0.178198099136353","0.232135221362114","0.0727433711290359","-1.04812204837799","-1.362025141716","0.854242861270905","0.30576479434967","-1.03439283370972","-0.185225412249565","-0.636272490024567","-2.23307037353516","-0.90362948179245","-0.784762382507324","1.70553541183472","-0.874296367168427","-2.84452438354492","-2.72424125671387","-1.35693085193634","-1.01280570030212","-0.429776906967163","-0.772077202796936","0.936817646026611","0.363837391138077","-0.39764004945755","-0.453299760818481","-2.39117312431335","-0.384413629770279","-0.739576280117035","-0.13675756752491","-0.892288386821747","1.46517598628998","-1.45717203617096","-1.27072298526764","-0.504928469657898"
"n3_10","0.378589421510696","-0.0257174968719482","0.387164056301117","0.332222521305084","-0.183124855160713","-0.401806235313416","0.395957857370377","0.00694660795852542","-0.055930782109499","0.160060316324234","-0.350829362869263","-0.199127614498138","-0.229128167033195","-0.238804921507835","0.391284883022308","-0.398794382810593","-0.504030287265778","-0.653676509857178","-0.163446739315987","0.144212648272514","-0.063845694065094","-0.0664069801568985","0.269813686609268","0.400042086839676","-0.124572649598122","-0.256935626268387","-0.170064777135849","-0.282495349645615","-0.220320731401443","0.0451140031218529","-0.11646169424057","0.404072672128677","-0.435037553310394","-0.232403337955475","-0.370822101831436"
"n3_11","-0.838733851909637","0.429147779941559","-0.378811985254288","-0.751955151557922","0.459329813718796","0.650561451911926","-0.841147303581238","-0.456772446632385","0.69874507188797","-0.443176478147507","0.506776809692383","-0.752371549606323","0.767645955085754","0.550000905990601","-0.950185120105743","0.735768258571625","-0.519489109516144","-0.305674374103546","-0.49255907535553","-0.540597856044769","0.480087757110596","0.81083744764328","-0.540977299213409","-0.567360401153564","0.528858542442322","0.565135300159454","-0.498164981603622","0.735592126846313","0.704181849956512","-0.576360642910004","0.521844506263733","-0.82935631275177","0.676445841789246","0.850338757038116","0.659293293952942"
"n3_12","0.342242568731308","-0.474915474653244","0.311643064022064","0.45869368314743","-0.293705344200134","-0.436391085386276","0.271290332078934","0.224527895450592","-0.376942962408066","0.578757405281067","-0.356164783239365","0.65537166595459","-0.351850897073746","-0.480927348136902","0.265691369771957","-0.30896919965744","0.681678950786591","0.146978408098221","0.529265522956848","0.715573847293854","-0.149557486176491","-0.364352703094482","0.171880081295967","0.120286054909229","-0.440621674060822","-0.350180089473724","0.506069004535675","-0.476804405450821","-0.41061732172966","0.396530270576477","-0.479033976793289","0.378722369670868","-0.405392915010452","-0.469567894935608","-0.387420654296875"
"n3_13","0.341217994689941","-0.518685042858124","0.296661019325256","0.111418642103672","-0.370390921831131","-0.292471677064896","0.615455269813538","0.158112302422523","-0.381218731403351","0.481485188007355","-0.269023925065994","0.76534241437912","-0.572278141975403","-0.440110743045807","0.492199391126633","-0.240446329116821","0.192241862416267","0.2755087018013","0.405122429132462","0.510184228420258","-0.496122747659683","-0.439504593610764","0.600283443927765","0.112012274563313","-0.340590417385101","-0.608791470527649","0.646064698696136","-0.324009537696838","-0.414822489023209","0.0770148932933807","-0.341913998126984","0.164026364684105","-0.249968037009239","-0.490898162126541","-0.596681892871857"
"n3_14","0.571707546710968","-0.491088807582855","-0.0298858974128962","-0.154141023755074","-0.762306451797485","-0.532412230968475","0.523551166057587","0.0483634434640408","-0.374421536922455","-0.473966240882874","-0.195158496499062","-0.221518829464912","-0.178355664014816","-0.680057406425476","0.938742816448212","-0.392108142375946","-0.0509652197360992","-0.52445912361145","-0.49291917681694","0.0420394614338875","-0.311003476381302","-0.437444269657135","0.603265404701233","0.118441469967365","-0.16738249361515","-0.565260946750641","0.111554555594921","0.179412320256233","-0.53587681055069","-0.281108915805817","-0.426419109106064","0.773975431919098","-0.831977248191833","-0.948711574077606","-0.230974763631821"
"n3_15","-0.273880273103714","0.228897571563721","-0.441396802663803","-0.535231649875641","0.47560441493988","0.547689378261566","-0.252426713705063","-0.197902023792267","0.465129256248474","-0.440599888563156","0.309920698404312","-0.509618401527405","0.560858547687531","0.407051384449005","-0.194644525647163","0.374197989702225","-0.19242899119854","-0.39375251531601","-0.335344702005386","-0.829313814640045","0.412513941526413","0.53428715467453","-0.324687868356705","-0.416098773479462","0.318304568529129","0.387661010026932","-0.368497043848038","0.436074674129486","0.374898850917816","-0.358770340681076","0.405477285385132","-0.506756663322449","0.220965623855591","0.472469538450241","0.326160401105881"
"n3_16","0.43926152586937","-0.521298229694366","0.477178364992142","0.270057737827301","-0.548253834247589","-0.360121756792068","0.460558235645294","0.353224337100983","-0.532940566539764","0.324864685535431","-0.234237805008888","0.383023262023926","-0.53551197052002","-0.554092824459076","0.466353565454483","-0.250139176845551","0.299030035734177","0.52310174703598","0.675604939460754","0.810715198516846","-0.305152028799057","-0.500039577484131","0.381861597299576","0.468840956687927","-0.354710757732391","-0.287104725837708","0.415120452642441","-0.511059761047363","-0.191181614995003","0.540992379188538","-0.257930368185043","0.268799930810928","-0.493742376565933","-0.122682221233845","-0.286248803138733"
"n3_17","0.333157807588577","-0.448511779308319","0.328426420688629","0.309724003076553","-0.296442091464996","-0.302913457155228","0.5244300365448","0.0726597830653191","-0.522115528583527","0.489237844944","-0.469720602035522","0.468922674655914","-0.289136976003647","-0.59701806306839","0.59261167049408","-0.368405640125275","0.486704915761948","0.349865019321442","0.223505899310112","0.00345161044970155","-0.374600797891617","-0.514411866664886","0.229637965559959","0.416354089975357","-0.232231020927429","-0.319992572069168","0.186176717281342","-0.131168499588966","-0.413073092699051","0.39236906170845","-0.476521968841553","0.251362174749374","-0.412353336811066","-0.414696395397186","-0.597693681716919"
"n3_18","-0.376510173082352","0.181406170129776","-0.215834483504295","-0.141775861382484","0.443061858415604","0.310803115367889","-0.148962944746017","-0.21780326962471","0.378537893295288","-0.532607555389404","0.249231949448586","-0.554752469062805","0.460199445486069","0.503432214260101","-0.491258561611176","0.317198038101196","-0.555107772350311","-0.154541656374931","-0.445779293775558","-0.658122658729553","0.336525321006775","0.166018411517143","-0.206275463104248","-0.227708637714386","0.191274955868721","0.41317144036293","-0.355787307024002","0.466687649488449","0.484820693731308","-0.0566314645111561","0.19357867538929","-0.251507490873337","0.366062104701996","0.397290676832199","0.363071173429489"
"n3_19","-0.415692687034607","0.194602072238922","-0.395937949419022","-0.34267795085907","0.34039494395256","0.363092392683029","-0.439368307590485","-0.246178522706032","0.33698171377182","-0.432930827140808","0.409876734018326","-0.738630533218384","0.172363877296448","0.407458305358887","-0.320587426424026","0.429676234722137","-0.694331228733063","-0.339485496282578","-0.42216432094574","-0.547078907489777","0.157695099711418","0.112832173705101","-0.224027410149574","-0.339964896440506","0.417183756828308","0.42652815580368","-0.578621208667755","0.584786593914032","0.16816420853138","-0.287277430295944","0.168775960803032","-0.535473644733429","0.109937287867069","0.219191044569016","0.145334213972092"
"n3_20","0.334520250558853","-0.381877213716507","0.00342463096603751","0.21948653459549","-0.308307081460953","-0.285878509283066","0.473691254854202","0.149403527379036","-0.318199127912521","0.102059215307236","-0.251409709453583","0.454187870025635","-0.322948664426804","-0.526099920272827","0.404277414083481","-0.245387062430382","0.536662697792053","0.227271839976311","0.0286710970103741","0.260363578796387","-0.304256677627563","-0.255184561014175","0.565995812416077","0.165882676839828","-0.419872760772705","-0.482758820056915","0.113112807273865","-0.256028205156326","-0.641986310482025","-0.131040692329407","-0.507201313972473","0.493206709623337","-0.352415651082993","-0.473385691642761","-0.321991801261902"
"n3_21","0.156475737690926","-0.487243860960007","0.561697781085968","0.333147436380386","-0.524097263813019","-0.267541944980621","0.275434762239456","0.440950155258179","-0.231085613369942","0.397416442632675","-0.445879608392715","0.236974149942398","-0.59711354970932","-0.483151197433472","0.198120936751366","-0.400578558444977","0.387307524681091","0.337207198143005","0.18626306951046","0.324219316244125","-0.461710333824158","-0.345563530921936","0.422623306512833","0.480517536401749","-0.472647279500961","-0.496325016021729","0.124916061758995","-0.203383088111877","-0.439548194408417","0.506682753562927","-0.427201837301254","0.220796719193459","-0.267546445131302","-0.406445622444153","-0.254063487052917"
"n3_22","0.243199467658997","-0.476682633161545","0.50392085313797","0.390061557292938","-0.40713107585907","-0.213552743196487","0.421229332685471","0.121639266610146","-0.448785066604614","0.648158729076385","-0.672590017318726","0.650222539901733","-0.539990186691284","-0.691556036472321","0.271265983581543","-0.525797486305237","0.465772986412048","0.41323184967041","0.35526904463768","0.799421846866608","-0.59376186132431","-0.587698340415955","0.297768086194992","0.548167407512665","-0.592472672462463","-0.640017986297607","1.01283526420593","-0.863840579986572","-0.370066046714783","0.381585299968719","-0.290016531944275","0.376180499792099","-0.401634395122528","-0.573039829730988","-0.328924298286438"
"n3_23","0.252734661102295","-0.357213079929352","0.642585575580597","0.840085566043854","-0.288358151912689","-0.33154708147049","0.602257549762726","0.249721318483353","-0.605240523815155","0.746862947940826","-0.63788104057312","0.700057744979858","-0.686776578426361","-0.608334362506866","0.112131878733635","-0.532084465026855","0.204675421118736","0.502752542495728","0.510924458503723","0.942649722099304","-0.479887247085571","-0.487298160791397","0.302026271820068","0.649952948093414","-0.316658645868301","-0.530280649662018","0.944258272647858","-0.797905385494232","-0.232049807906151","0.71630996465683","-0.407734274864197","0.373234957456589","-0.210248067975044","-0.383498758077621","-0.243234261870384"
"n3_24","0.145513653755188","-0.536341071128845","0.440091341733932","0.302026152610779","-0.496491134166718","-0.3326635658741","0.234738975763321","0.132752731442451","-0.426330506801605","0.0784091651439667","-0.526166915893555","-0.0596823059022427","-0.56911838054657","-0.20479042828083","0.350230932235718","-0.500129282474518","-0.357602149248123","-0.336486876010895","0.101044200360775","0.431701064109802","-0.192335978150368","-0.264275699853897","0.450669765472412","0.541414022445679","-0.221376553177834","-0.251409202814102","0.209099858999252","-0.266485214233398","-0.464347541332245","0.502821683883667","-0.228905439376831","0.278376400470734","-0.335590273141861","-0.215277194976807","-0.465200364589691"
"n3_25","0.0481346547603607","-0.138820439577103","-0.602335393428802","-0.789339542388916","-0.659475684165955","-0.33648693561554","0.201943695545197","-0.205222353339195","0.119996570050716","-0.240979105234146","-0.451987206935883","0.856199860572815","0.415755420923233","-0.639621257781982","0.544148027896881","-0.274206638336182","0.600596725940704","-0.048023734241724","-0.268012642860413","0.752273261547089","-0.00942156091332436","-0.194067299365997","-0.037968635559082","-0.431113719940186","-0.260265022516251","-0.297877341508865","0.79143089056015","-0.0970139130949974","-0.433322012424469","-0.857442200183868","-0.400369465351105","0.413713485002518","-0.295334160327911","-0.251915633678436","-0.0557282008230686"
"n3_26","0.349733650684357","-0.491029411554337","0.592392861843109","0.41466411948204","-0.484780639410019","-0.612342476844788","0.636057436466217","0.251226633787155","-0.405907392501831","0.358182728290558","-0.394423604011536","0.552668333053589","-0.290219575166702","-0.628257989883423","0.513742685317993","-0.526112020015717","0.284068375825882","0.449535399675369","0.523960649967194","0.256583601236343","-0.17022280395031","-0.575606763362885","0.412302434444427","0.606298089027405","-0.4356509745121","-0.541608095169067","0.538857519626617","-0.410209387540817","-0.564145743846893","0.490141630172729","-0.418678939342499","0.464136898517609","-0.493479996919632","-0.540532410144806","-0.227712363004684"
"n3_27","-0.518427729606628","0.157142981886864","0.266183346509933","0.592258512973785","0.353447437286377","0.278432160615921","-0.390207290649414","-0.0909981280565262","0.520592033863068","1.26363050937653","0.480243444442749","-0.92724472284317","0.172341823577881","0.374770700931549","-0.601669609546661","0.516903758049011","-3.52378416061401","-2.73727440834045","0.780861854553223","1.23043489456177","0.231729820370674","0.237464159727097","-0.275945842266083","0.00141052261460572","0.117850512266159","0.388576567173004","0.176022812724113","-1.45490396022797","0.428847789764404","0.606236755847931","0.471800148487091","-0.551251947879791","0.402000963687897","0.446316093206406","0.128438428044319"
"n3_28","0.362340748310089","-0.413680166006088","0.276470392942429","0.541926145553589","-0.224568605422974","-0.120902858674526","0.439924210309982","0.235033974051476","-0.461536884307861","0.634024500846863","-0.459247767925262","0.560322165489197","-0.624647915363312","-0.475128799676895","0.139379769563675","-0.471402823925018","0.420099139213562","0.412734508514404","0.307857841253281","0.755715250968933","-0.592039704322815","-0.35135406255722","0.610714614391327","0.302561044692993","-0.590788304805756","-0.296009629964828","0.818596303462982","-0.554692924022675","-0.422304779291153","0.46097257733345","-0.422508925199509","0.372873574495316","-0.273664891719818","-0.476255506277084","-0.586729466915131"
"n3_29","0.588724493980408","-0.221367806196213","0.387618273496628","0.518344402313232","-0.583760023117065","-0.347683489322662","0.605164885520935","0.529178261756897","-0.416306763887405","0.387010753154755","-0.267605990171432","0.167012900114059","-0.560992956161499","-0.332356423139572","0.410943210124969","-0.484069496393204","0.287030875682831","0.663251101970673","0.305313259363174","0.100269839167595","-0.306505262851715","-0.403788655996323","0.38466489315033","0.397473931312561","-0.385094821453094","-0.473948389291763","0.097000740468502","-0.17807038128376","-0.299517810344696","0.304049730300903","-0.202160105109215","0.284565359354019","-0.501251935958862","-0.506517291069031","-0.427291393280029"
"n3_30","0.572249054908752","-0.488269627094269","0.437587708234787","0.272001385688782","-0.235486596822739","-0.60093742609024","0.262200564146042","0.863563537597656","-0.219469577074051","0.295634001493454","-0.285136938095093","0.268937587738037","-0.400134533643723","-0.502659678459167","0.549342691898346","-0.624075174331665","0.534447729587555","0.62719851732254","0.526958525180817","0.392725318670273","-0.265614897012711","-0.29788276553154","0.423045009374619","0.377487748861313","-0.37236100435257","-0.289315849542618","0.174753308296204","-0.0251369681209326","-0.520721435546875","0.681612968444824","-0.400448352098465","0.745733618736267","-0.473896265029907","-0.611383318901062","-0.666534781455994"
"n3_31","0.462391465902328","-0.526871263980865","0.662802159786224","0.299404323101044","-0.757606625556946","-0.653287589550018","0.68906307220459","0.366790980100632","-0.525270164012909","0.418210744857788","-0.66839337348938","1.0076493024826","-0.463944375514984","-0.498402148485184","0.46872678399086","-0.671628534793854","0.575425863265991","0.645559191703796","0.629976391792297","0.525945127010345","-0.505245387554169","-0.580608546733856","0.550823092460632","0.54452246427536","-0.434990406036377","-0.501805186271667","0.873987674713135","-0.909755766391754","-0.676016807556152","0.19382344186306","-0.455932527780533","0.439889311790466","-0.669512987136841","-0.371163308620453","-0.468924641609192"
"n3_32","0.292591333389282","-0.269580215215683","0.210309833288193","-0.0914135053753853","-0.609058082103729","-0.406491488218307","0.368209481239319","0.214284047484398","-0.442386299371719","-0.216146945953369","-0.421435505151749","-0.25575989484787","-0.171634703874588","-0.407386958599091","0.826437532901764","-0.33750194311142","-0.109631881117821","-0.299955725669861","-0.0562071390450001","-0.342023879289627","-0.251271575689316","-0.35828098654747","0.531311690807343","0.208012044429779","-0.293843060731888","-0.453897356987","-0.352104008197784","0.207052826881409","-0.383472293615341","0.090704470872879","-0.379526138305664","0.698954939842224","-0.398223072290421","-0.591542780399323","-0.43349415063858"
"n3_33","0.632495105266571","-0.26515257358551","0.18453024327755","0.282896816730499","-0.308672577142715","-0.360655963420868","0.15743787586689","0.818524062633514","-0.456373631954193","0.346185117959976","-0.444927543401718","0.232983350753784","-0.165219068527222","-0.340164959430695","0.427395850419998","-0.584990382194519","0.311022192239761","0.155797243118286","0.460696935653687","0.0479397363960743","-0.202059045433998","-0.262906491756439","0.453375190496445","0.359517872333527","-0.392723441123962","-0.218893796205521","-0.058121282607317","-0.253446072340012","-0.29453843832016","0.282079339027405","-0.299858450889587","0.210777699947357","-0.338708966970444","-0.381792545318604","-0.482211858034134"
"n3_34","0.16973003745079","-0.39996150135994","0.474889546632767","0.593335926532745","-0.432265728712082","-0.258923500776291","0.501217842102051","0.423183739185333","-0.514098525047302","0.586829662322998","-0.377532094717026","0.804790079593658","-0.272504597902298","-0.638188242912292","0.542402386665344","-0.517334878444672","0.313198179006577","0.527704775333405","0.334781259298325","0.765360176563263","-0.532011330127716","-0.534816741943359","0.299502462148666","0.494994699954987","-0.284268438816071","-0.529247403144836","0.797391593456268","-0.458675622940063","-0.334367573261261","0.428786337375641","-0.25669601559639","0.200750425457954","-0.298905611038208","-0.116965599358082","-0.495745420455933"
"n3_35","0.324437201023102","-0.235270783305168","0.0213355384767056","0.255095183849335","-0.153958916664124","-0.339906811714172","0.0337235704064369","0.553789079189301","-0.0952513292431831","0.00391500908881426","-0.120610468089581","0.527529776096344","-0.288832634687424","-0.165918171405792","0.112977422773838","-0.27386999130249","0.563487768173218","0.331036448478699","0.527368366718292","0.454631954431534","-0.0814919695258141","-0.136563286185265","0.359468907117844","0.295194685459137","-0.0976714789867401","-0.158649429678917","0.256160736083984","-0.146741732954979","-0.105337634682655","0.162332341074944","-0.183001205325127","0.0474642589688301","-0.198218926787376","-0.296766370534897","-0.359593540430069"
"n3_36","0.651075422763824","-0.453178554773331","-0.0234597511589527","-0.04144536703825","-0.888498067855835","-1.09658098220825","0.52662855386734","0.270355582237244","-0.598003566265106","-0.0803220793604851","-0.492950975894928","-0.49103057384491","-0.25397989153862","-0.841331243515015","1.20326054096222","-0.658711075782776","-0.909394025802612","-0.626706421375275","-0.558920443058014","-0.00260287942364812","-0.370452493429184","-0.39573723077774","0.80009651184082","-0.0882311388850212","-0.594744145870209","-0.672149538993835","-0.605132222175598","0.0749352052807808","-0.644080758094788","-0.3256014585495","-0.816533982753754","1.14970302581787","-1.16293525695801","-1.00393533706665","-0.490859419107437"
"n3_37","0.828136563301086","-0.512708425521851","0.367914170026779","0.286739349365234","-0.636843860149384","-0.875749111175537","0.868556082248688","0.662829458713531","-0.621616184711456","-0.402109026908875","-0.640613794326782","-1.1418993473053","-0.768157005310059","-0.493615597486496","1.14658308029175","-0.58661949634552","-1.08117365837097","-1.43937361240387","-0.460486888885498","-0.57165253162384","-0.63482540845871","-0.655541121959686","0.918307304382324","0.424872547388077","-0.376110881567001","-0.457535326480865","-0.85314154624939","0.0105232270434499","-0.624210774898529","0.273657143115997","-0.60407692193985","1.27047431468964","-1.18936407566071","-1.0538934469223","-0.44196629524231"
"n3_38","-0.0294190347194672","-0.168104514479637","-0.0346894934773445","-0.0196986962109804","-0.378559321165085","-0.0580991581082344","0.269308745861053","0.149714171886444","-0.374681383371353","0.247795641422272","-0.244572401046753","0.642892897129059","-0.363812685012817","-0.325235158205032","0.0121256364509463","-0.425868779420853","0.0680582448840141","-0.197355151176453","-0.104170776903629","0.55698561668396","-0.35920661687851","-0.458359271287918","0.290503978729248","0.209891647100449","-0.251323670148849","-0.204151883721352","0.554384350776672","-0.513947665691376","-0.274010747671127","0.0344188511371613","-0.290721595287323","-0.121593683958054","-0.302344918251038","-0.190322712063789","-0.207022547721863"
"n3_39","-0.0394967123866081","0.261956393718719","-0.210587948560715","-0.0971697866916656","0.0633750334382057","0.103263027966022","-0.389335215091705","-0.0742713883519173","0.273868978023529","-0.423500865697861","0.307512491941452","-0.641985893249512","0.151936620473862","0.34998095035553","-0.148657843470573","0.0854482054710388","-0.596786439418793","-0.62408983707428","-0.169402867555618","-0.612692832946777","0.3456090092659","0.350767970085144","-0.280386626720428","-0.0350192785263062","0.357440322637558","-0.00748856877908111","-0.668813228607178","0.371117740869522","0.14007967710495","-0.33056452870369","0.0902937203645706","-0.326984882354736","0.341849625110626","0.211252868175507","0.277104288339615"
"n3_40","0.387318193912506","-0.332712709903717","0.028108436614275","0.0814199522137642","-0.516099631786346","-0.507055044174194","0.428710848093033","0.0172708798199892","-0.114857718348503","0.0381276197731495","-0.30037048459053","-0.364154040813446","-0.38739275932312","-0.251194030046463","0.68436872959137","-0.268712401390076","-0.364661633968353","-0.224356949329376","-0.295907586812973","-0.303856790065765","-0.337832272052765","-0.272373914718628","0.227876201272011","0.135618463158607","-0.28867781162262","-0.241388767957687","-0.494507938623428","0.24198654294014","-0.361989051103592","0.219319418072701","-0.23575447499752","0.623928487300873","-0.60550856590271","-0.62530130147934","-0.277430593967438"
"n3_41","0.212600320577621","-0.448010683059692","0.181888714432716","0.227166771888733","-0.457624167203903","-0.399619162082672","0.366154074668884","0.652866721153259","-0.261697232723236","0.021704874932766","-0.0594245046377182","-0.237873300909996","-0.07110895216465","-0.158764511346817","0.510134994983673","-0.257988393306732","-0.224207669496536","-0.131966531276703","-0.0554068088531494","-0.235878467559814","-0.177735790610313","-0.15801927447319","0.143639072775841","0.210344597697258","-0.0942007973790169","-0.0536539703607559","0.0214277636259794","0.0965267643332481","-0.303088963031769","0.289095818996429","-0.180354908108711","0.481524020433426","-0.325371444225311","-0.373742043972015","-0.0718770697712898"
"n3_42","0.110005922615528","-0.311086714267731","0.252321630716324","0.336830168962479","-0.224560186266899","-0.505177736282349","0.338448911905289","0.0702952966094017","-0.235514774918556","0.228495657444","-0.228191345930099","0.170116454362869","-0.483230829238892","-0.556421756744385","0.402081251144409","-0.206817641854286","0.411838293075562","0.454563677310944","0.153177380561829","0.0402276702225208","-0.444541960954666","-0.348946869373322","0.506245195865631","0.279631704092026","-0.125180795788765","-0.248599022626877","0.177775323390961","-0.469381302595139","-0.547040700912476","0.255347192287445","-0.268716305494308","0.144496411085129","-0.529360055923462","-0.527146399021149","-0.510968744754791"
"n3_43","0.399848610162735","-0.411023795604706","0.250285476446152","0.409643918275833","-0.215549126267433","-0.515728652477264","0.237627223134041","0.128692239522934","-0.423822581768036","0.731745719909668","-0.184947043657303","0.772562563419342","-0.140999376773834","-0.454323172569275","0.493627071380615","-0.165298014879227","0.708822786808014","0.333744436502457","0.210084572434425","0.822030484676361","-0.145387157797813","-0.279821455478668","0.343004822731018","0.254842579364777","-0.494265556335449","-0.402577251195908","0.519652128219604","-0.739942669868469","-0.444488763809204","0.259686917066574","-0.544131219387054","0.211824730038643","-0.298979550600052","-0.123718529939651","-0.4665167927742"
"n3_44","0.199351996183395","-0.388601988554001","0.57463538646698","0.196415811777115","-0.297509133815765","-0.0919516161084175","0.420957654714584","0.344439685344696","-0.112602315843105","0.565899133682251","-0.462945699691772","0.367294788360596","-0.542204856872559","-0.136758595705032","-0.0375504791736603","-0.429564565420151","0.338073700666428","-0.135169208049774","0.386956959962845","0.395535171031952","-0.229435205459595","-0.516921937465668","0.385093539953232","0.171228259801865","-0.348050773143768","-0.433935344219208","0.642687857151031","-0.467544734477997","-0.435740768909454","0.567104756832123","-0.485923588275909","0.164916560053825","-0.131713792681694","-0.310476660728455","-0.438000530004501"
"n3_45","0.653553426265717","-0.288627743721008","0.742381453514099","0.384187787771225","-0.430994123220444","-0.269881725311279","0.27080363035202","0.376546770334244","-0.401824116706848","0.656616508960724","-0.352781176567078","0.991163790225983","-0.583024859428406","-0.308834284543991","0.424700409173965","-0.265916883945465","0.984866738319397","0.529543995857239","0.437614530324936","0.825042247772217","-0.431195646524429","-0.449211329221725","0.671816289424896","0.62113094329834","-0.223099917173386","-0.35965895652771","0.869070053100586","-0.77088475227356","-0.262007147073746","0.67286479473114","-0.505769073963165","0.333526402711868","-0.344551056623459","-0.526802003383636","-0.275184541940689"
"n3_46","-0.077758327126503","0.290094166994095","-0.0903904959559441","-0.432298421859741","0.292965739965439","0.345988988876343","-0.150688305497169","-0.0862742438912392","0.194387808442116","-0.279868125915527","0.124467901885509","-0.627249300479889","0.155380219221115","0.462743312120438","-0.129769578576088","0.310150951147079","-0.74681156873703","-0.577357590198517","-0.35340616106987","-0.487231433391571","0.372625857591629","0.204833909869194","-0.340324819087982","-0.275300145149231","0.340992957353592","0.353987693786621","-0.451704204082489","0.372624546289444","0.481881201267242","-0.358228236436844","0.331826597452164","-0.455366224050522","0.443349689245224","0.210829019546509","0.379762440919876"
"n3_47","0.584961533546448","-0.195838913321495","0.406327039003372","0.507120490074158","-0.305502980947495","-0.560199797153473","0.597159564495087","0.194707348942757","-0.460023313760757","0.525850832462311","-0.434432417154312","0.667793214321136","-0.473013758659363","-0.39667797088623","0.540631532669067","-0.394080966711044","0.545136213302612","0.292358756065369","0.657479643821716","0.74010181427002","-0.492747634649277","-0.382089674472809","0.409611850976944","0.428989082574844","-0.41817182302475","-0.578544199466705","0.843141198158264","-0.407104939222336","-0.370711833238602","0.224936500191689","-0.451432317495346","0.340745836496353","-0.459384500980377","-0.423228144645691","-0.331667184829712"
"n3_48","0.496663600206375","-0.541170656681061","0.225275829434395","0.177311420440674","-0.261320024728775","-0.528351664543152","0.63334196805954","0.288527399301529","-0.221564427018166","0.299157589673996","-0.624008893966675","0.988200783729553","-0.317587018013","-0.304074823856354","0.612476706504822","-0.289057642221451","0.839352190494537","0.264112949371338","0.320370346307755","0.886123299598694","-0.289069205522537","-0.195088937878609","0.274760454893112","0.250134617090225","-0.400473713874817","-0.428075969219208","1.03128814697266","-0.406150907278061","-0.498245060443878","0.333209037780762","-0.536908209323883","0.234420135617256","-0.419833272695541","-0.376547068357468","-0.234662741422653"
"n3_49","0.465135037899017","-0.343368649482727","0.149268448352814","-0.0199514832347631","-0.466280281543732","-0.41499125957489","0.280448347330093","0.0776344835758209","-0.396389156579971","0.182215541601181","-0.275910019874573","-0.0602294616401196","-0.0811106786131859","-0.592272281646729","0.783187210559845","-0.576328933238983","-0.0197021048516035","-0.0774087682366371","-0.0985568761825562","0.486395657062531","-0.0459269620478153","-0.381659030914307","0.188764795660973","0.0218601319938898","-0.416234612464905","-0.251878142356873","0.0517672970890999","-0.430327475070953","-0.380173087120056","-0.223873972892761","-0.430774182081223","0.659647881984711","-0.66591739654541","-0.841061234474182","-0.439691632986069"
"n3_50","0.366723239421844","-0.191265657544136","-0.536772727966309","-0.396423518657684","-0.511267602443695","-0.635635137557983","0.452838212251663","-0.163635432720184","-0.287415057420731","-0.58433598279953","-0.434708267450333","-0.298173934221268","0.199210807681084","-0.540469110012054","0.413929671049118","-0.560857117176056","-0.258988976478577","-0.321843713521957","-0.645727038383484","-0.484410792589188","-0.162719860672951","-0.0285863373428583","0.465783506631851","-0.392399936914444","-0.0514106526970863","-0.164502561092377","-0.331977248191833","0.708476722240448","-0.623144268989563","-0.37229260802269","-0.330198526382446","0.23903514444828","-0.564656496047974","-0.456045389175415","-0.432853162288666"
"n3_51","0.170897379517555","-0.188817694783211","0.232498064637184","0.131839767098427","-0.423009723424911","-0.203278407454491","0.508971512317657","0.317719906568527","-0.32412514090538","0.557495594024658","-0.583506524562836","0.908475756645203","-0.291871607303619","-0.411806374788284","0.421332597732544","-0.323373407125473","0.651673078536987","0.000823690963443369","0.251363128423691","0.965616106987","-0.55842536687851","-0.355249524116516","0.481821358203888","0.455594927072525","-0.275360345840454","-0.192437574267387","0.834688603878021","-0.793319344520569","-0.514520704746246","0.123796425759792","-0.342679470777512","0.2477957457304","-0.242321103811264","-0.0932839587330818","-0.265584737062454"
"n3_52","0.631999969482422","-0.0600037910044193","0.392403453588486","0.427488148212433","-0.35157972574234","-0.114067308604717","0.284617513418198","0.782359182834625","-0.288325101137161","0.120418258011341","-0.213681578636169","-0.149146541953087","-0.275867909193039","-0.227290108799934","0.464414656162262","-0.328782945871353","0.0627589747309685","0.247363388538361","0.557924270629883","0.0442129597067833","-0.418574333190918","-0.309600979089737","0.278436481952667","0.19497737288475","-0.365659028291702","-0.331872373819351","-0.107231788337231","0.112149968743324","-0.473201245069504","0.408383846282959","-0.126546651124954","0.596181094646454","-0.346682667732239","-0.251246899366379","-0.155101448297501"
"n3_53","-0.785194575786591","0.60280978679657","-0.438141763210297","-0.358627140522003","0.776047646999359","0.680847585201263","-0.781915783882141","-0.584726333618164","0.775074303150177","-0.415994852781296","0.499202817678452","-0.740905165672302","0.851999163627625","0.855106294155121","-0.784099876880646","0.639535963535309","-0.445603549480438","-0.122329361736774","-0.242384418845177","-0.530693829059601","0.649432599544525","0.612391531467438","-0.604846298694611","-0.473912864923477","0.693939030170441","0.619944155216217","-0.384356439113617","0.515220403671265","0.760675311088562","-0.633187711238861","0.745253145694733","-0.518025457859039","0.731342792510986","0.440000951290131","0.472594141960144"
"n3_54","0.215264245867729","0.100880183279514","0.0577327162027359","0.0340701788663864","-0.20213371515274","-0.310743153095245","0.207375705242157","-0.16079269349575","-0.0201406087726355","0.094482384622097","-0.0869340226054192","0.452362030744553","-0.0765832960605621","-0.088156633079052","0.0321168079972267","-0.171166449785233","0.597228586673737","0.634073913097382","0.267029970884323","-0.130171358585358","-0.183461740612984","0.0527561381459236","0.139228954911232","0.0436333864927292","-0.165880858898163","-0.31661182641983","0.344428688287735","-0.0367064364254475","-0.164947003126144","-0.31529101729393","-0.185404062271118","0.0559240691363811","0.0696855410933495","0.0558631122112274","0.0246065407991409"
"n3_55","0.519251763820648","-0.291711002588272","0.615801930427551","0.403780043125153","-0.550204634666443","-0.205621868371964","0.670593857765198","0.417314767837524","-0.475518584251404","0.418764591217041","-0.367871552705765","0.249303504824638","-0.55211877822876","-0.427487790584564","0.27404460310936","-0.362058699131012","0.280986189842224","0.0411507524549961","0.208622083067894","0.579722285270691","-0.600692093372345","-0.301285266876221","0.599376499652863","0.427578449249268","-0.553058862686157","-0.625789403915405","0.249189451336861","-0.678779304027557","-0.392191767692566","0.220454707741737","-0.356231421232224","0.206580981612206","-0.209469690918922","-0.0444838032126427","-0.563846230506897"
"n3_56","0.213886007666588","-0.431733280420303","0.241295352578163","0.349168807268143","-0.383908808231354","-0.274693012237549","0.170271620154381","0.419689744710922","-0.309257298707962","0.354229718446732","-0.54169374704361","0.366110742092133","-0.54524701833725","-0.276407241821289","0.114620789885521","-0.148540511727333","0.158809095621109","0.310840517282486","0.283522009849548","0.138758882880211","-0.176870331168175","-0.238830611109734","0.518142104148865","0.261269867420197","-0.532403528690338","-0.39631661772728","0.297421634197235","-0.110840350389481","-0.362302899360657","0.248788073658943","-0.394288778305054","0.226732462644577","-0.288708239793777","-0.270434021949768","-0.102537699043751"
"n3_57","-0.208712622523308","0.392543137073517","-0.442637771368027","-0.15209598839283","0.246415942907333","0.419094443321228","-0.389319121837616","-0.416372299194336","0.30804431438446","-0.258631944656372","0.493816673755646","-0.603635191917419","0.349722981452942","0.227550089359283","-0.411305159330368","0.424946457147598","-0.627069413661957","-0.129746928811073","-0.248652279376984","-0.697697401046753","0.40962952375412","0.238836109638214","-0.404559880495071","-0.330637365579605","0.301888912916183","0.193194776773453","-0.684948563575745","0.628342926502228","0.51421731710434","-0.33627638220787","0.165559515357018","-0.136238500475883","0.362676829099655","0.336502343416214","0.258940279483795"
"n3_58","0.346076846122742","-0.510166585445404","0.601378381252289","0.372062146663666","-0.510764837265015","-0.227405562996864","0.563819825649261","0.156770721077919","-0.354162275791168","0.584385395050049","-0.304842382669449","0.677820026874542","-0.228160604834557","-0.310063570737839","0.1659896671772","-0.375280141830444","0.320787161588669","0.544639527797699","0.45826044678688","0.740500628948212","-0.561760723590851","-0.357966423034668","0.361268281936646","0.578390538692474","-0.487341046333313","-0.240893423557281","0.536374390125275","-0.585897028446198","-0.477376103401184","0.628365457057953","-0.324638277292252","0.185550674796104","-0.171413198113441","-0.212901502847672","-0.561944484710693"
"n3_59","0.183597758412361","-0.174689799547195","-0.0613574683666229","0.196438327431679","-0.180244013667107","-0.354576408863068","0.0214207489043474","-0.20746260881424","-0.164777874946594","0.329021215438843","-0.115164086222649","0.127131447196007","0.0162688381969929","-0.456008017063141","0.339566826820374","-0.161152169108391","0.379706591367722","0.593983173370361","0.436964422464371","0.147023722529411","-0.19982048869133","-0.284022986888885","0.140049546957016","-0.158199086785316","-0.0628201961517334","0.00451262388378382","0.432191431522369","-0.0409154482185841","-0.232518091797829","-0.107605300843716","-0.515697956085205","0.27735447883606","-0.0711577460169792","-0.266495823860168","-0.136724844574928"
"n3_60","-0.439688742160797","0.0722477585077286","-0.474539011716843","-0.491026282310486","0.448635280132294","0.387079447507858","-0.228161454200745","-0.209315717220306","0.607634544372559","-0.355530947446823","0.163388296961784","-0.179297715425491","0.492256462574005","0.348913878202438","-0.775933802127838","0.326327711343765","-0.619953274726868","-0.374418556690216","-0.336896628141403","-0.141385212540627","0.130521655082703","0.144445404410362","-0.586519598960876","-0.493254452943802","0.159994453191757","0.214547455310822","-0.237439885735512","0.225123837590218","0.310518145561218","-0.610900521278381","0.2831130027771","-0.683141767978668","0.565898597240448","0.725691497325897","0.203149050474167"
"n3_61","0.16950535774231","-0.432597696781158","0.00554523942992091","0.313597470521927","-0.215544894337654","-0.36009219288826","0.363528549671173","0.0338420681655407","-0.468161165714264","0.392188280820847","-0.351953864097595","0.685183942317963","-0.135754600167274","-0.387957453727722","0.164798140525818","-0.205892652273178","0.4903843998909","0.652443945407867","0.310134172439575","0.368565946817398","-0.27565199136734","-0.331624686717987","0.421429693698883","-0.0657927766442299","-0.149402037262917","-0.270086705684662","0.612516224384308","-0.110998027026653","-0.35242372751236","0.22947646677494","-0.265984922647476","0.287956565618515","-0.392018914222717","-0.367867350578308","-0.170283779501915"
"n3_62","0.401811957359314","-0.570111691951752","0.490736454725266","0.504090011119843","-0.270736426115036","-0.458183735609055","0.473419696092606","0.342842161655426","-0.446917295455933","0.674892723560333","-0.404106259346008","0.81803435087204","-0.417698502540588","-0.381789833307266","0.432379126548767","-0.359205603599548","0.753785014152527","0.266771554946899","0.629530489444733","0.666305541992188","-0.495390385389328","-0.217257663607597","0.458750277757645","0.673269331455231","-0.621444821357727","-0.409564018249512","0.927826821804047","-0.590580403804779","-0.495987713336945","0.377140462398529","-0.298663944005966","0.329371243715286","-0.491347849369049","-0.296057045459747","-0.242725789546967"
"n3_63","-0.182416453957558","0.288744807243347","-0.397082477807999","-0.389832824468613","0.507680237293243","0.232566624879837","-0.357917755842209","-0.351749986410141","0.261378020048141","-0.275791078805923","0.1976617872715","-0.591642379760742","0.53476345539093","0.104529604315758","-0.351600617170334","0.0887135192751884","-0.684143126010895","-0.481108695268631","-0.237823203206062","-0.344668477773666","0.443474262952805","0.314633190631866","-0.27887424826622","-0.199412748217583","0.394412875175476","0.354864180088043","-0.502379536628723","0.441083282232285","0.143822818994522","-0.27108108997345","0.254242390394211","-0.292815506458282","0.394143670797348","0.220179438591003","0.427809864282608"
"n3_64","-0.485635757446289","0.140656933188438","-0.26004946231842","-0.351922243833542","0.470030218362808","0.384005665779114","-0.157676056027412","-0.0591083317995071","0.305885344743729","-0.426187545061111","0.405768990516663","-0.429252088069916","0.405025213956833","0.311265736818314","-0.441209971904755","0.22447358071804","-0.617857933044434","-0.393893718719482","-0.37751179933548","-0.710913062095642","0.208827331662178","0.26393648982048","-0.321337580680847","-0.236827582120895","0.31355282664299","0.117552652955055","-0.596113622188568","0.530184090137482","0.328997611999512","-0.366293281316757","0.55837345123291","-0.500480711460114","0.440057516098022","0.510873258113861","0.36378538608551"
"n3_65","-0.130399256944656","0.242919489741325","-0.413210511207581","-0.308818221092224","0.123798206448555","0.121616825461388","-0.513152360916138","-0.358574867248535","0.375262349843979","-0.47236755490303","0.362715750932693","-0.690837502479553","0.215370565652847","0.419447422027588","-0.155912280082703","0.303578853607178","-0.656408369541168","-0.416765242815018","-0.447625190019608","-0.518635094165802","0.129838183522224","0.338681012392044","-0.222945764660835","-0.462347090244293","0.337211191654205","0.361898154020309","-0.459188282489777","0.255795478820801","0.19344399869442","-0.248342797160149","0.382734447717667","-0.480622112751007","0.20891697704792","0.31600946187973","0.379022300243378"
"n3_66","0.343386590480804","-0.397978007793427","0.269744664430618","0.0432843342423439","-0.426775813102722","-0.0778194218873978","0.220096483826637","0.146912693977356","-0.354781717061996","0.136989116668701","-0.440755933523178","0.556972920894623","-0.386358737945557","-0.242855817079544","0.212367013096809","-0.467177033424377","0.512626051902771","0.586322069168091","0.113358095288277","0.41865611076355","-0.223638281226158","-0.279042631387711","0.35243746638298","0.205114960670471","-0.203522086143494","-0.432519435882568","0.630172491073608","-0.474613398313522","-0.134045109152794","0.0303427446633577","-0.265104383230209","0.354845255613327","-0.322236448526382","-0.393802434206009","-0.186256036162376"
"n3_67","0.0498477891087532","-0.397725701332092","0.148550570011139","0.297430336475372","-0.440627366304398","-0.2369235008955","0.554066300392151","0.306492298841476","-0.419426441192627","0.446294248104095","-0.585799396038055","0.55533629655838","-0.357124030590057","-0.640774786472321","0.161738738417625","-0.282904535531998","0.0131484968587756","-0.275546103715897","0.374690473079681","1.01838886737823","-0.518835365772247","-0.199529349803925","0.447415500879288","0.152945980429649","-0.286806881427765","-0.495519906282425","0.760408341884613","-0.977952063083649","-0.567604601383209","0.173048973083496","-0.291159838438034","-0.0358409434556961","-0.158524513244629","-0.265953302383423","-0.492568701505661"
"n3_68","0.325993001461029","-0.215619012713432","0.0475945323705673","0.306573420763016","-0.185317441821098","-0.2820845246315","0.298644840717316","0.321434080600739","-0.174292698502541","0.212790265679359","-0.276224732398987","0.527090489864349","-0.265474915504456","-0.313212275505066","0.452531009912491","-0.412404030561447","0.0173200257122517","0.131730332970619","0.342895835638046","0.362028568983078","-0.301001697778702","-0.276231020689011","0.470273166894913","0.0265901479870081","-0.324930846691132","-0.415782392024994","0.279425472021103","-0.525157511234283","-0.450516909360886","0.263457238674164","-0.382929861545563","0.356402814388275","-0.136025205254555","-0.0774322003126144","-0.406823635101318"
"n3_69","0.225711151957512","-0.137218669056892","0.36715641617775","0.267255246639252","-0.452341854572296","-0.323166936635971","0.161175400018692","0.474424809217453","-0.114506542682648","0.506207764148712","-0.472914397716522","0.28371849656105","-0.449805200099945","-0.0940883159637451","0.265945851802826","-0.426099479198456","0.710137486457825","0.70435494184494","0.642254054546356","0.606014311313629","-0.0204971414059401","-0.270250499248505","0.509481370449066","0.269450485706329","-0.22047470510006","-0.4559386074543","0.49578845500946","-0.455037266016006","-0.429274260997772","0.461738556623459","-0.128972634673119","0.182700872421265","-0.18663227558136","-0.230337366461754","-0.133957520127296"
"n3_70","0.0772204920649529","-0.159964755177498","-0.358852237462997","-0.316065341234207","-0.421243369579315","-0.171190649271011","-0.0153540037572384","-0.255256056785583","0.0337029509246349","0.238468572497368","-0.3387051820755","0.239463195204735","0.154606357216835","-0.34554398059845","0.194749057292938","-0.226566076278687","0.324077129364014","0.47780641913414","0.268843919038773","0.200454592704773","-0.18657474219799","-0.143314689397812","0.148657009005547","0.0493189990520477","-0.114921756088734","0.0683423727750778","0.401818633079529","-0.117749348282814","-0.255880564451218","-0.136600703001022","-0.078531414270401","0.14911362528801","-0.205492332577705","-0.287578225135803","-0.160491958260536"
"n3_71","0.272137761116028","-0.335593849420547","0.572572410106659","0.601228952407837","0.0279409531503916","-0.336860030889511","0.288326174020767","0.724930047988892","-0.289512574672699","0.159297689795494","-0.0261985305696726","-0.156551048159599","-0.161578074097633","-0.0788481682538986","0.210864365100861","-0.0789631977677345","0.239028871059418","0.342189759016037","0.223717927932739","-0.180772319436073","-0.243205830454826","-0.149458587169647","0.215341702103615","0.189322054386139","-0.392589092254639","-0.145905271172523","0.0528623759746552","0.31047260761261","-0.0546613484621048","0.592034518718719","-0.191040590405464","0.230841398239136","-0.327215701341629","-0.304727584123611","-0.319154441356659"
"n3_72","-0.256019502878189","0.026269044727087","-0.334487110376358","-0.163427725434303","0.172402694821358","0.215281963348389","-0.123116686940193","-0.195894837379456","0.00566348433494568","-0.173458278179169","0.261774748563766","-0.320967555046082","0.133948147296906","0.234514877200127","-0.344620585441589","0.163470894098282","-0.592261075973511","-0.402947396039963","-0.490607053041458","-0.579295694828033","-0.0159759875386953","0.208290964365005","-0.130603313446045","-0.200149387121201","0.314745903015137","0.0440645664930344","-0.571179807186127","0.256600797176361","0.213174164295197","-0.27720034122467","0.167258501052856","-0.162009626626968","0.276196181774139","0.182094618678093","0.290149688720703"
"n3_73","0.143523618578911","-0.123688399791718","0.173652201890945","0.373610943555832","-0.152786552906036","-0.263682514429092","0.306880831718445","0.750233888626099","-0.040677648037672","0.0867904275655746","-0.350858777761459","0.336470365524292","-0.118442416191101","-0.239751264452934","0.426517903804779","-0.0582424327731133","0.303869307041168","0.44566947221756","0.346995741128922","0.263600409030914","-0.0501832626760006","-0.375002592802048","0.20357857644558","0.166598081588745","-0.10760336369276","-0.250828117132187","0.316806524991989","-0.224728554487228","-0.213344514369965","0.516852498054504","-0.475188761949539","0.448002845048904","-0.0930131375789642","-0.0925256162881851","-0.144327253103256"
"n3_74","-0.932080686092377","0.346945196390152","-0.163739174604416","-0.36095517873764","0.842051863670349","0.994726955890656","-0.51898866891861","-0.148521602153778","0.625723779201508","0.169228419661522","0.269801288843155","0.952579855918884","0.316765338182449","0.602571964263916","-1.11895310878754","0.529544830322266","0.454287767410278","0.0629943683743477","-0.171931192278862","0.939050018787384","0.198537394404411","0.464368373155594","-0.770768940448761","-0.225456938147545","0.582998037338257","0.269336730241776","0.654479026794434","-0.232975527644157","0.442501097917557","-0.0596277862787247","0.566767334938049","-1.2207647562027","1.05681014060974","1.0905282497406","0.46997132897377"
"n3_75","-0.0308631900697947","-0.105350956320763","-0.172439783811569","0.197512969374657","-0.300445795059204","-0.192677304148674","0.122096203267574","-0.16892708837986","-0.0755728408694267","0.360045462846756","-0.238576978445053","0.481550127267838","-0.280929982662201","-0.257748544216156","-0.0404444485902786","-0.417621284723282","0.306180953979492","0.243013218045235","0.0765910595655441","0.339757442474365","0.00450304709374905","-0.018306789919734","0.189976945519447","0.125011429190636","-0.373210787773132","-0.123435743153095","0.411505430936813","-0.417014002799988","-0.122259713709354","0.111544132232666","-0.172507971525192","0.0954504534602165","0.00105850957334042","-0.223772197961807","-0.274169325828552"
"n3_76","0.464475870132446","-0.136516526341438","0.0460311323404312","-0.188678368926048","-0.444728344678879","-0.419286072254181","0.415960967540741","0.0927377417683601","-0.280174940824509","-0.218548312783241","-0.41145059466362","-0.329837203025818","-0.276603162288666","-0.427429914474487","0.706470012664795","-0.258093446493149","-0.41624453663826","-0.0318844690918922","-0.190975457429886","-0.40106737613678","-0.0322341993451118","-0.244605869054794","0.34804379940033","0.15610371530056","-0.264029175043106","-0.170009791851044","-0.397235006093979","0.162137895822525","-0.499481916427612","0.036435429006815","-0.402896851301193","0.763094365596771","-0.374804675579071","-0.435540705919266","-0.162394747138023"
"n3_77","0.428800135850906","-0.410877406597137","0.215594559907913","0.198053672909737","-0.399289131164551","-0.333215206861496","0.604314923286438","0.350379586219788","-0.426947355270386","0.45426207780838","-0.331955164670944","0.50221711397171","-0.334082841873169","-0.358022004365921","0.457421272993088","-0.597734093666077","0.312046647071838","0.104068972170353","0.135595083236694","0.96027010679245","-0.389459609985352","-0.409882426261902","0.224410951137543","0.388725578784943","-0.546608030796051","-0.435956120491028","0.467037290334702","-0.516520440578461","-0.556221902370453","0.48179966211319","-0.449450075626373","0.0687037706375122","-0.185371547937393","-0.401979357004166","-0.363573133945465"
"n3_78","-0.323924005031586","0.349676787853241","-0.0563042163848877","-0.0920806974172592","0.508459150791168","0.481188029050827","-0.413417011499405","-0.307009190320969","0.433089554309845","-0.367598563432693","0.457503288984299","-0.435687035322189","0.49054890871048","0.459005206823349","-0.370486438274384","0.524647116661072","-0.63788503408432","-0.0975183844566345","-0.275108009576797","-0.709344804286957","0.162235200405121","0.222393482923508","-0.34103524684906","-0.44443953037262","0.242884114384651","0.38918125629425","-0.752590537071228","0.565423846244812","0.470492601394653","-0.170621246099472","0.430708169937134","-0.166533619165421","0.50347775220871","0.522210836410522","0.487678438425064"
"n3_79","0.0585681237280369","0.0453353300690651","-0.264770448207855","-0.221591398119926","-0.419214010238647","-0.319171339273453","-0.0778160244226456","-0.275097638368607","-0.107448495924473","0.31261932849884","-0.2639479637146","0.685007929801941","-0.0823280364274979","-0.117310896515846","0.390502750873566","-0.0419645793735981","0.6072958111763","0.838086426258087","0.257783383131027","0.226735725998878","0.168088376522064","-0.147927239537239","-0.122294753789902","-0.344320893287659","0.140867426991463","0.151273608207703","0.448081016540527","-0.373974114656448","-0.0849471017718315","-0.0780735537409782","-0.0875070691108704","-0.0289541762322187","-0.342585861682892","-0.173244476318359","-0.105711936950684"
"n3_80","0.361258655786514","-0.0890437364578247","0.18719370663166","0.44966658949852","-0.104842081665993","-0.434508800506592","0.128551587462425","0.144929334521294","-0.150901943445206","0.0780558362603188","-0.42633593082428","-0.356168985366821","-0.352477490901947","-0.241182029247284","0.270891845226288","-0.378501504659653","-0.247006967663765","-0.1774832457304","-0.155246809124947","-0.26449328660965","-0.265671044588089","-0.160835012793541","0.33692455291748","0.366564929485321","-0.12716469168663","-0.39667797088623","-0.244871228933334","0.120168477296829","-0.334543973207474","0.307467609643936","-0.405529052019119","0.358591079711914","-0.390617996454239","-0.255205750465393","-0.361339539289474"
"n3_81","-0.461969286203384","0.350669175386429","-0.354967415332794","-0.19460429251194","0.294937819242477","0.105919048190117","-0.190924942493439","-0.21247598528862","0.295249491930008","-0.269570410251617","0.212053045630455","-0.639606058597565","0.303226172924042","0.346573531627655","-0.340314000844955","0.164965361356735","-0.684472978115082","-0.141951635479927","-0.192381337285042","-0.897616565227509","0.266396731138229","0.333228588104248","-0.360835790634155","-0.0605736523866653","0.149890720844269","0.425505638122559","-0.729159712791443","0.533215165138245","0.467953622341156","-0.193211495876312","0.200057744979858","-0.298704147338867","0.300899595022202","0.350228846073151","0.380779266357422"
"n3_82","-0.282919496297836","0.491722673177719","-0.0668114423751831","-0.434278905391693","0.351641118526459","0.455280244350433","-0.34972071647644","-0.164481163024902","0.310126721858978","-0.376113563776016","0.138208866119385","-0.749219179153442","0.484036564826965","0.247872933745384","-0.509183824062347","0.488820552825928","-0.507862269878387","-0.0412312261760235","-0.29698771238327","-0.69746208190918","0.504084527492523","0.207166507840157","-0.45102721452713","-0.147210702300072","0.331465482711792","0.488996416330338","-0.756954371929169","0.613061428070068","0.232398003339767","-0.410050481557846","0.465973883867264","-0.297980219125748","0.101854644715786","0.219591543078423","0.32019168138504"
"n3_83","0.636170268058777","-0.509931623935699","0.348888546228409","0.602060377597809","-0.53871488571167","-0.458706140518188","0.308664590120316","0.391409993171692","-0.520675957202911","0.21893036365509","-0.477803468704224","0.88938981294632","-0.324874550104141","-0.561672031879425","0.331266403198242","-0.625462412834167","0.489836305379868","0.220706135034561","0.619958937168121","0.595051467418671","-0.323509961366653","-0.594103813171387","0.40905624628067","0.362407624721527","-0.349849462509155","-0.360305726528168","0.882796883583069","-0.558106184005737","-0.376236438751221","0.424655228853226","-0.36051818728447","0.306163132190704","-0.401107460260391","-0.285558640956879","-0.297092169523239"
"n3_84","0.308229714632034","-0.157291889190674","-0.0538629703223705","-0.0529138371348381","-0.421876043081284","-0.18845409154892","0.393837511539459","0.208864346146584","-0.235733062028885","0.267651379108429","-0.41708168387413","0.555712282657623","-0.318056374788284","-0.386748731136322","0.608076393604279","-0.391933709383011","0.454978108406067","0.155265286564827","0.340653896331787","0.384616762399673","-0.248902842402458","-0.456889361143112","0.497133165597916","0.0784750282764435","-0.282797783613205","-0.468874454498291","0.699777603149414","-0.188109144568443","-0.591328144073486","-0.126924782991409","-0.278887897729874","0.429388880729675","-0.591144263744354","-0.195623457431793","-0.417539030313492"
"n3_85","-0.430969476699829","0.192392960190773","-0.209771394729614","-0.350388556718826","0.472102731466293","0.37086746096611","-0.271649360656738","-0.290909826755524","0.124850757420063","-0.511328339576721","0.379290878772736","-0.71010833978653","0.128740936517715","0.188738569617271","-0.418186724185944","0.397475004196167","-0.257721275091171","-0.257589399814606","-0.0727501139044762","-0.795574307441711","0.470139354467392","0.265287160873413","-0.567267954349518","-0.293083906173706","0.241358444094658","0.383048713207245","-0.831895053386688","0.492819488048553","0.42231285572052","-0.115204982459545","0.220245271921158","-0.56928825378418","0.502242207527161","0.450067400932312","0.400481313467026"
"n3_86","0.39630913734436","-0.356399446725845","0.269098401069641","0.0268656946718693","-0.386819541454315","-0.471858441829681","0.493605852127075","0.29966402053833","-0.508808851242065","0.291500568389893","-0.170148655772209","0.0223303735256195","-0.453470319509506","-0.269052654504776","0.198376953601837","-0.338596850633621","-0.320883870124817","-0.341224908828735","-0.11877329647541","0.38115394115448","-0.389745324850082","-0.42518612742424","0.462272077798843","0.158611252903938","-0.540481865406036","-0.472962319850922","0.16129457950592","-0.485519468784332","-0.389058798551559","0.288438111543655","-0.503797888755798","0.472219347953796","-0.366416126489639","-0.376440227031708","-0.326994061470032"
"n3_87","0.254819393157959","-0.240297257900238","0.317613154649734","0.270814210176468","-0.448380559682846","-0.519908785820007","0.409215807914734","0.269333153963089","-0.502262353897095","0.639816045761108","-0.629977345466614","0.457393825054169","-0.185266494750977","-0.471849650144577","0.372816294431686","-0.355347573757172","0.346016734838486","0.616795778274536","0.554450929164886","0.766674816608429","-0.351062834262848","-0.280641049146652","0.400998115539551","0.25633579492569","-0.398755341768265","-0.331732124090195","0.74469256401062","-0.69712895154953","-0.356598019599915","0.306072890758514","-0.647809088230133","0.566517233848572","-0.280775517225266","-0.407975643873215","-0.395395845174789"
"n3_88","0.232884213328362","-0.231789484620094","0.0357116162776947","0.133457258343697","-0.514997720718384","-0.589130580425262","0.374882936477661","0.0622692853212357","-0.303257673978806","-0.196968644857407","-0.449553489685059","-0.303766518831253","-0.364119827747345","-0.397104382514954","0.551323294639587","-0.58144474029541","-0.0576972402632236","-0.31459167599678","-0.166659906506538","-0.149210438132286","-0.219555780291557","-0.453453749418259","0.448324888944626","0.0594763979315758","-0.222655802965164","-0.306274324655533","-0.324442625045776","-0.00548936659470201","-0.581705093383789","0.0377598255872726","-0.471132963895798","0.514138400554657","-0.603447198867798","-0.652511537075043","-0.237644657492638"
"n3_89","-0.469366818666458","0.205501347780228","-0.301373541355133","-0.224267840385437","0.340642482042313","0.444946080446243","-0.519972741603851","-0.321533024311066","0.497908264398575","-0.317500054836273","0.193596407771111","-0.570285975933075","0.189169391989708","0.408431738615036","-0.168140813708305","0.273055076599121","-0.47451052069664","-0.213459715247154","-0.243095621466637","-0.719134986400604","0.233830794692039","0.388561397790909","-0.451591610908508","-0.286320775747299","0.331058025360107","0.47235906124115","-0.69521951675415","0.62871927022934","0.365072876214981","-0.379319548606873","0.372902065515518","-0.151358738541603","0.416584372520447","0.398515909910202","0.458065241575241"
"n3_90","-0.215688899159431","0.287342220544815","-0.410932391881943","-0.157106474041939","0.441432893276215","0.29512545466423","-0.280626207590103","-0.10359063744545","0.418969988822937","-0.506474494934082","0.207534581422806","-0.562207102775574","0.153241455554962","0.184072554111481","-0.445374369621277","0.417251348495483","-0.443266928195953","-0.38502910733223","-0.506542265415192","-0.405066579580307","0.173363983631134","0.331398010253906","-0.214620038866997","-0.338047116994858","0.328094303607941","0.349384009838104","-0.655969440937042","0.537560641765594","0.331426590681076","-0.401473879814148","0.226820737123489","-0.245180398225784","0.322093307971954","0.430758833885193","0.0419412702322006"
"n3_91","0.498170882463455","-0.517858266830444","-0.134998217225075","0.143080368638039","-0.647941291332245","-0.747720837593079","0.297567874193192","0.0913083478808403","-0.504483461380005","-0.273223310709","-0.498797029256821","-0.348719984292984","-0.0701393857598305","-0.478825181722641","0.896857023239136","-0.224661067128181","-0.251159340143204","-0.297946214675903","-0.0932233110070229","-0.24084497988224","-0.352786183357239","-0.516204416751862","0.327197194099426","0.0557487793266773","-0.324229806661606","-0.297630190849304","-0.126690208911896","0.079582080245018","-0.497969120740891","-0.0825224071741104","-0.415024906396866","0.843986570835114","-0.65715491771698","-0.626556813716888","-0.287151426076889"
"n3_92","0.482804328203201","-0.281964153051376","0.321349024772644","0.242221847176552","-0.429094284772873","-0.617666661739349","0.307397276163101","0.367859661579132","-0.227404311299324","0.316425323486328","-0.595179319381714","0.65358829498291","-0.13597597181797","-0.514593899250031","0.333682358264923","-0.425100207328796","0.785843133926392","0.515813648700714","0.476693779230118","0.738819897174835","-0.562480568885803","-0.412438213825226","0.491089046001434","0.25868684053421","-0.204508140683174","-0.401729136705399","0.849122524261475","-0.721391916275024","-0.533974945545197","0.399235337972641","-0.633502423763275","0.615803718566895","-0.295248031616211","-0.405172884464264","-0.309507817029953"
"n3_93","0.439391523599625","-0.253798365592957","0.351590991020203","-0.00396954268217087","-0.570640802383423","-0.81279456615448","0.221781700849533","0.140723302960396","-0.593920111656189","-0.321359127759933","-0.574210166931152","0.000178685178980231","-0.300036191940308","-0.595727264881134","0.855998396873474","-0.659076869487762","-0.361936539411545","-0.750875651836395","-0.613568305969238","0.115233182907104","-0.368066877126694","-0.393121004104614","0.53583687543869","0.515059471130371","-0.331663578748703","-0.197694659233093","-0.340304166078568","0.0537924468517303","-0.534481048583984","0.270921736955643","-0.557221174240112","0.690346479415894","-0.930086016654968","-0.567323207855225","-0.184744387865067"
"n3_94","0.297498613595963","-0.435292780399323","0.436517179012299","0.488907486200333","-0.403991401195526","-0.465071022510529","0.423160880804062","0.262824773788452","-0.482197314500809","0.586161971092224","-0.505263924598694","0.371279180049896","-0.418775349855423","-0.43049231171608","0.446896582841873","-0.292368084192276","0.276630580425262","0.536580801010132","0.245851114392281","0.476393163204193","-0.526165664196014","-0.189924418926239","0.593666195869446","0.47411248087883","-0.385167896747589","-0.37512594461441","0.307353854179382","-0.21557791531086","-0.346786469221115","0.247131839394569","-0.569571375846863","0.276514261960983","-0.493033140897751","-0.149011015892029","-0.547728359699249"
"n3_95","0.321406960487366","-0.348562300205231","0.20561358332634","-0.000551092613022774","-0.414165407419205","-0.400828301906586","0.392634838819504","0.209179580211639","-0.261674165725708","-0.224299475550652","-0.154285371303558","-0.401374787092209","-0.0485959574580193","-0.302742272615433","0.487997978925705","-0.251956135034561","-0.423446029424667","-0.00940811075270176","-0.223000302910805","-0.431796133518219","-0.207948729395866","-0.279730916023254","0.157755166292191","0.172687888145447","-0.400706738233566","-0.437525033950806","-0.108015298843384","0.00436918251216412","-0.279430150985718","0.124754048883915","-0.509642958641052","0.597582638263702","-0.530077219009399","-0.580290913581848","-0.458379060029984"
"n3_96","-0.384163379669189","0.47220453619957","-0.18374627828598","-0.186791598796844","0.203202083706856","0.281890660524368","-0.131231546401978","-0.116730079054832","0.464771807193756","-0.329666793346405","0.53808468580246","-0.672055423259735","0.335725605487823","0.318217068910599","-0.503686666488647","0.406577408313751","-0.403597712516785","-0.318142294883728","-0.0523479841649532","-0.718401968479156","0.256343185901642","0.448475420475006","-0.525792300701141","-0.390489280223846","0.214088961482048","0.291180998086929","-0.570201098918915","0.53253847360611","0.489885538816452","-0.155386567115784","0.580086708068848","-0.105382315814495","0.162253767251968","0.232045292854309","0.316260635852814"
"n3_97","0.720195889472961","-0.375126451253891","-0.116190582513809","-0.0830438733100891","-0.582890391349792","-0.737816691398621","0.47587588429451","0.271716088056564","-0.708842277526855","-0.507407903671265","-0.32577383518219","-0.61804062128067","-0.291327148675919","-0.734219253063202","1.1315803527832","-0.616639792919159","-0.946343660354614","-1.10325741767883","-0.763415813446045","-0.461042791604996","-0.374532133340836","-0.389028131961823","0.489579260349274","0.387765496969223","-0.626901030540466","-0.590409338474274","-0.789619147777557","0.266114383935928","-0.536231994628906","-0.0468718521296978","-0.580004215240479","1.07155478000641","-0.950567424297333","-1.02089703083038","-0.348625481128693"
"n3_98","0.160972222685814","-0.163040354847908","0.158110380172729","0.462446182966232","-0.0417498052120209","-0.223004430532455","0.0465906113386154","0.315661936998367","-0.376107096672058","0.00141621788498014","-0.326038032770157","-0.266500383615494","-0.295830935239792","-0.274138033390045","0.219841480255127","-0.480889052152634","-0.0233201272785664","-0.385640233755112","0.00021790515165776","-0.482223361730576","-0.506446838378906","-0.200589656829834","0.365523338317871","0.329574108123779","-0.518799543380737","-0.402484744787216","-0.432627409696579","0.272389590740204","-0.282130360603333","0.417210310697556","-0.184302642941475","0.0700596943497658","-0.0567147545516491","-0.322616130113602","-0.214639216661453"
"n3_99","0.358234733343124","-0.615092813968658","0.502571582794189","0.347950220108032","-0.528939187526703","-0.441816031932831","0.247771367430687","0.682561159133911","-0.492954611778259","0.00478017097339034","-0.526734113693237","0.0367418974637985","-0.585730075836182","-0.52287769317627","0.386026918888092","-0.352110654115677","0.00536595331504941","0.317746460437775","0.469326227903366","-0.0445039756596088","-0.305233359336853","-0.371013879776001","0.427650332450867","0.488635867834091","-0.325630962848663","-0.388819217681885","-0.130175650119781","-0.0512434169650078","-0.620345830917358","0.363970994949341","-0.546514809131622","0.392801433801651","-0.514683544635773","-0.421100825071335","-0.632820308208466"
"n3_100","0.376119315624237","-0.190005734562874","0.217273265123367","0.399933338165283","-0.658805727958679","-0.33534100651741","0.552107691764832","0.0801875293254852","-0.51713228225708","0.680053353309631","-0.508833825588226","0.780900776386261","-0.255638659000397","-0.288831561803818","0.749556422233582","-0.513102471828461","0.875524282455444","0.828021585941315","0.549222648143768","0.839822769165039","-0.388324856758118","-0.358720242977142","0.396105974912643","0.205066248774529","-0.530370533466339","-0.559692859649658","0.83084899187088","-0.430870532989502","-0.516302168369293","0.214665487408638","-0.257726639509201","0.714537262916565","-0.628226935863495","-0.517851054668427","-0.264024347066879"
