"dummy","n3_1","n3_2","n3_3","n3_4","n3_5","n3_6","n3_7","n3_8","n3_9","n3_10","n3_11","n3_12","n3_13","n3_14","n3_15","n3_16","n3_17","n3_18","n3_19","n3_20","n3_21","n3_22","n3_23","n3_24","n3_25","n3_26","n3_27","n3_28","n3_29","n3_30","n3_31","n3_32","n3_33","n3_34","n3_35","n3_36","n3_37","n3_38","n3_39","n3_40","n3_41","n3_42","n3_43","n3_44","n3_45","n3_46","n3_47","n3_48","n3_49","n3_50","n3_51","n3_52","n3_53","n3_54","n3_55","n3_56","n3_57","n3_58","n3_59","n3_60","n3_61","n3_62","n3_63","n3_64","n3_65","n3_66","n3_67","n3_68","n3_69","n3_70","n3_71","n3_72","n3_73","n3_74","n3_75","n3_76","n3_77","n3_78","n3_79","n3_80","n3_81","n3_82","n3_83","n3_84","n3_85","n3_86","n3_87","n3_88","n3_89","n3_90","n3_91","n3_92","n3_93","n3_94","n3_95","n3_96","n3_97","n3_98","n3_99","n3_100"
"n2_1","-0.322619199752808","0.44126483798027","0.31248077750206","0.345868080854416","0.402187407016754","0.427807807922363","0.968023538589478","0.305922746658325","2.39635062217712","0.516953408718109","-0.528650343418121","0.22790889441967","0.368220835924149","0.494940191507339","-0.451210141181946","0.508748352527618","0.599532544612885","-0.403120756149292","-0.358449220657349","0.441835224628448","0.502076983451843","0.527657330036163","0.344210237264633","0.302960693836212","0.438677072525024","0.550957798957825","0.23371958732605","0.461002796888351","0.322825044393539","0.635599553585052","0.340521067380905","0.424697726964951","0.267134130001068","0.492601931095123","0.284190088510513","-0.0509406439960003","0.303309708833694","0.470694601535797","-0.449035584926605","0.565331518650055","0.322807639837265","0.544096827507019","0.457249015569687","0.262668132781982","0.423732429742813","-0.427754163742065","0.405755817890167","0.449254095554352","0.657461404800415","0.131603240966797","0.282261312007904","0.508886456489563","-0.479999125003815","0.42524653673172","0.408445984125137","0.384345859289169","-0.239060655236244","0.558411359786987","0.558020949363708","-0.742540836334229","0.515390574932098","0.388779759407043","-0.405764281749725","-0.31806281208992","-0.235835134983063","0.524521589279175","0.324079155921936","0.352825194597244","0.511145532131195","0.679363191127777","0.384569555521011","-0.507325649261475","0.247763365507126","-0.920708060264587","0.511014103889465","0.373674064874649","0.503804624080658","-0.302784353494644","0.594443202018738","0.270338445901871","-0.347401767969131","-0.343631774187088","0.466849446296692","0.453208357095718","-0.296245634555817","0.300682872533798","0.339451611042023","0.432528913021088","-0.360449761152267","-0.401823759078979","0.0215869452804327","0.459553062915802","0.474548041820526","0.442558974027634","0.704773366451263","-0.205123603343964","0.461245864629745","0.132638782262802","0.411525219678879","0.588881552219391"
"n2_2","-0.0558913424611092","-0.170221209526062","-0.0877546593546867","-0.0278667956590652","-0.134283661842346","0.0349609777331352","-0.0772000402212143","-0.0801609456539154","-0.0306934285908937","-0.0435659065842628","-0.0506834164261818","-0.139622688293457","-0.0666424557566643","0.0669744685292244","0.114119969308376","0.0172003787010908","-0.0561717227101326","-0.0511330515146255","0.16314409673214","-0.0454713366925716","0.0313038378953934","-0.089900054037571","0.0583852790296078","0.027618857100606","0.177312657237053","0.0455965623259544","0.113849066197872","-0.0882317647337914","-0.0392927788197994","0.0703350007534027","-0.16565565764904","-0.107612758874893","-0.0637021288275719","0.000597658043261617","-0.0417898818850517","0.0604139715433121","0.0451437570154667","0.103522144258022","-0.0335699543356895","0.0626924932003021","-0.14110903441906","-0.166534274816513","0.000875991187058389","0.00453756842762232","-0.00452617462724447","0.0781178772449493","0.0898832976818085","0.0344713144004345","0.0375908017158508","-0.00369406305253506","-0.00420971913263202","-0.0116796595975757","0.0225238110870123","-0.0114487875252962","-0.0651444792747498","-0.00475419778376818","0.151760444045067","0.0560081452131271","-0.163784086704254","0.0766845569014549","-0.0320090092718601","-0.0799110159277916","0.129546344280243","-0.0466990917921066","0.0795025825500488","-0.0698024332523346","-0.0627571269869804","-0.172083556652069","-0.106450520455837","-0.0704159066081047","-0.135158717632294","-0.0119426678866148","-0.143255412578583","0.0636705607175827","-0.129765465855598","0.110651299357414","0.0868569239974022","-0.010289803147316","-0.0624135322868824","-0.141090363264084","-0.0811307802796364","0.0160085055977106","-0.0583297051489353","-0.148710086941719","0.0607711598277092","-0.17742070555687","-0.0913658365607262","0.00250930967740715","9.60569304879755e-05","-0.0878816694021225","-0.102603435516357","-0.13394783437252","-0.0563266910612583","0.114327326416969","0.0733364149928093","0.0409056730568409","-0.0181150287389755","-0.135032370686531","0.0973529741168022","-0.0841804444789886"
"n2_3","0.651820540428162","-1.28235065937042","-0.905998945236206","-0.6865114569664","-0.567389130592346","-0.265439599752426","-1.63443970680237","-0.548899590969086","1.52928853034973","-1.0503990650177","1.16002631187439","-0.673146367073059","-0.801060378551483","-1.59815835952759","0.836322665214539","-0.792192339897156","-0.635059952735901","0.626465499401093","0.410177260637283","-0.779302597045898","-0.826881051063538","-0.616187334060669","-0.878633558750153","-1.11687922477722","0.0898250117897987","-0.616928696632385","0.0240794457495213","-0.556007146835327","-0.594343245029449","-1.11733102798462","-0.452698439359665","-1.49108266830444","-0.792041897773743","-0.687899112701416","-0.331899911165237","-2.29942965507507","-2.48375368118286","-1.23647916316986","0.372414082288742","-1.15802407264709","-0.930041372776031","-0.590499043464661","-0.627695739269257","-0.589363157749176","-0.559911608695984","0.364860892295837","-0.527158260345459","-0.452212184667587","-1.0672070980072","-0.484682857990265","-0.650929689407349","-1.12324368953705","1.18340921401978","-0.162789463996887","-0.963400542736053","-0.478335708379745","0.811803221702576","-0.953209519386292","-0.182376861572266","-0.564960122108459","-0.441397458314896","-0.647076785564423","0.291548132896423","0.699181497097015","0.463896244764328","-0.42401334643364","-1.19191014766693","-0.475088626146317","-0.462234824895859","-0.261323511600494","-0.455398261547089","0.57469916343689","-0.332456886768341","-1.07438802719116","-0.350055068731308","-1.71378648281097","-0.871000409126282","0.706285297870636","-0.17988783121109","-1.15375471115112","0.750341951847076","0.951797425746918","-0.525744438171387","-0.644729316234589","0.9557985663414","-0.969040334224701","-0.36212956905365","-1.42015933990479","0.717096865177155","0.370790183544159","-1.63861477375031","-0.564530372619629","-1.44564139842987","-0.685202419757843","-1.36409437656403","0.642507672309875","-2.18085622787476","-1.24327945709229","-0.978137493133545","-0.496162086725235"
"n2_4","-0.251564174890518","0.383770048618317","0.191443294286728","0.342052102088928","0.0498754009604454","0.104443281888962","0.209282860159874","0.066403403878212","0.177894726395607","0.0379567295312881","-0.0810962617397308","0.15034756064415","0.0729412287473679","0.357853889465332","-0.0745986178517342","0.289145588874817","-0.038651030510664","-0.0962501540780067","-0.130676254630089","0.100575767457485","0.0851564258337021","0.0369695350527763","0.189939647912979","0.0216568820178509","0.108530662953854","0.0275356713682413","-0.0662788897752762","0.077818788588047","0.0978424698114395","0.348955303430557","0.0184937547892332","0.317540615797043","0.0703840181231499","0.214302584528923","0.0166694987565279","0.300315946340561","0.156713396310806","0.113664992153645","-0.0156032713130116","0.121276758611202","0.26358762383461","0.0896863713860512","0.223601907491684","0.000369331974070519","0.165876403450966","-0.0507419370114803","0.211741700768471","0.0168433152139187","0.212632358074188","0.449407994747162","0.0520017221570015","0.402799189090729","-0.224797740578651","-0.0774236470460892","0.0632288753986359","0.107120133936405","-0.047290988266468","0.155921041965485","0.169858664274216","-0.0989236086606979","0.0254819840192795","0.263071477413177","-0.200358405709267","-0.0952959358692169","-0.229379445314407","0.0407940708100796","0.277396410703659","0.190356284379959","0.180919140577316","0.152932837605476","0.146197602152824","-0.00647612102329731","0.260394871234894","0.179639518260956","-0.0523307360708714","0.306825459003448","0.239525094628334","-0.133759006857872","0.210338473320007","0.141391426324844","-0.164267525076866","-0.105829484760761","0.212533563375473","0.211158856749535","-0.282063394784927","0.122004300355911","0.124465204775333","0.0829555615782738","-0.228178456425667","-0.236296430230141","0.0633236691355705","0.265801787376404","0.176936417818069","0.079645611345768","0.0309305060654879","-0.174427762627602","0.215598836541176","0.1076650172472","0.202409133315086","0.218201890587807"
"n2_5","0.454437732696533","-0.29643514752388","-0.667412757873535","-0.318734556436539","-0.604718565940857","-0.340487837791443","-0.988142549991608","-0.489673286676407","-2.34989523887634","-0.652769684791565","0.615475833415985","-0.611740410327911","-0.360100716352463","-0.548004269599915","0.56747579574585","-0.695618689060211","-0.354270696640015","0.400057911872864","0.541399598121643","-0.274204879999161","-0.460424840450287","-0.73442667722702","-0.818828284740448","-0.454212069511414","-0.323786020278931","-0.488055855035782","-1.7575706243515","-0.61951619386673","-0.27598512172699","-0.309665501117706","-0.586254000663757","-0.428572714328766","-0.256512701511383","-0.501461207866669","-0.410020232200623","-0.683639585971832","-1.05761229991913","-0.387486457824707","0.415215313434601","-0.529737293720245","-0.231415197253227","-0.346978634595871","-0.5223149061203","-0.453812450170517","-0.538760840892792","0.30216971039772","-0.450724244117737","-0.54093724489212","-0.375084489583969","0.0742875933647156","-0.656549036502838","-0.295564860105515","0.529115438461304","-0.203559443354607","-0.714769840240479","-0.59553325176239","0.600767970085144","-0.739258050918579","-0.270319223403931","0.325168788433075","-0.205730766057968","-0.602214753627777","0.360234916210175","0.418577045202255","0.446350306272507","-0.39755967259407","-0.62449985742569","-0.449436157941818","-0.520555198192596","-0.435895532369614","-0.0587960779666901","0.554746747016907","-0.20853690803051","0.176408976316452","-0.412941932678223","-0.603522598743439","-0.724384427070618","0.58140766620636","-0.267700672149658","-0.485301375389099","0.425627440214157","0.445448815822601","-0.5915447473526","-0.340093731880188","0.487854450941086","-0.613306105136871","-0.637540221214294","-0.398362219333649","0.505355060100555","0.376095235347748","-0.507895112037659","-0.671122193336487","-0.96605384349823","-0.701064825057983","-0.408233731985092","0.455998778343201","-1.00342607498169","-0.425836384296417","-0.46139657497406","-0.535703718662262"
"n2_6","0.151614189147949","0.0205676797777414","-0.342627257108688","-0.0954890921711922","-0.212531313300133","-0.421364843845367","-2.33888149261475","-0.1429193764925","-0.962740004062653","-0.155810087919235","0.185488611459732","-0.16686737537384","-0.154108658432961","-0.12978284060955","0.40399444103241","-0.25966402888298","-0.0294778309762478","0.128798171877861","0.116418220102787","0.00502723222598433","-0.132546633481979","-0.299825102090836","-0.33109849691391","-0.144296407699585","-0.329652100801468","-0.239008530974388","-2.99323201179504","-0.304317831993103","0.0337906517088413","-0.119749985635281","-0.0300581753253937","-0.10983744263649","0.0370775312185287","-0.131595104932785","-0.180088639259338","-0.155680432915688","-0.398152261972427","-0.483198493719101","0.205972790718079","-0.177809923887253","-0.100323751568794","-0.0192416738718748","-0.205179437994957","-0.182437613606453","-0.196198329329491","0.225051671266556","-0.386785387992859","-0.174453929066658","-0.298807948827744","0.18487049639225","-0.482697755098343","-0.186973333358765","0.0771225020289421","-0.0682878568768501","-0.0879836529493332","-0.0305199045687914","0.31862199306488","-0.197749301791191","-0.0494357980787754","0.125171914696693","-0.168450236320496","-0.186619028449059","0.0560880452394485","0.133205309510231","0.119959957897663","-0.0719288364052773","-0.492968171834946","-0.0981878489255905","-0.0436214804649353","-0.207179039716721","0.20042496919632","0.344716906547546","-0.0886524617671967","-0.112231574952602","-0.0787187442183495","-0.123921982944012","-0.450730115175247","0.254675984382629","-0.169495806097984","0.0995623618364334","0.363233149051666","0.307341992855072","-0.190882325172424","-0.210833787918091","0.166054591536522","-0.423117727041245","-0.110434293746948","-0.16612496972084","0.146957024931908","0.21165344119072","-0.186179026961327","-0.297910630702972","-0.297895282506943","-0.329800486564636","-0.126020282506943","0.307502716779709","-0.28680008649826","0.224763438105583","-0.0243774205446243","-0.22492441534996"
"n2_7","-0.0206253919750452","-0.0146521870046854","-0.0211769994348288","0.153074309229851","-0.0397316664457321","-0.194272726774216","-0.048327911645174","0.101183973252773","-0.0462157800793648","0.132862567901611","-0.228520423173904","-0.101689927279949","-0.0672982707619667","0.148137524724007","-0.114672258496284","-0.0356435328722","-0.172522753477097","0.0390982367098331","0.134033009409904","-0.0578839853405952","0.0165294967591763","-0.119691826403141","-0.0531438589096069","-0.127148419618607","-0.0536667704582214","-0.037478506565094","-0.152605786919594","-0.0427093096077442","0.00953098200261593","0.049760490655899","-0.141786202788353","-0.0868174582719803","0.0608450174331665","0.0462514311075211","-0.042620811611414","-0.0532666519284248","-0.144399762153625","0.0760314092040062","0.133555680513382","0.142517998814583","-0.0602692812681198","0.055753979831934","-0.046177227050066","-0.0949514284729958","-0.0176376458257437","0.0432556085288525","0.0713998153805733","-0.0117787718772888","1.22388928502914e-05","0.000650202215183526","-0.180726155638695","-0.0929092690348625","0.0158626884222031","0.0881528109312057","-0.162727490067482","-0.161205619573593","0.0798020213842392","0.0158691834658384","0.0563616342842579","-0.0370134264230728","-0.0197486616671085","-0.0741614028811455","-0.0383764766156673","-0.134981766343117","0.120886743068695","0.0920381769537926","-0.108690701425076","0.0660014078021049","0.0966862440109253","0.0636489242315292","-0.052170816808939","0.0121822664514184","0.0981768593192101","-0.260767668485641","0.0833807811141014","-0.0420450195670128","-0.15551745891571","0.00188762950710952","0.0806443020701408","0.104482084512711","0.162437707185745","0.0278329830616713","-0.0285812597721815","-0.202795222401619","0.0229449197649956","-0.088194765150547","0.021498640999198","-0.0590015091001987","-0.0350307710468769","0.0884118154644966","-0.0135074853897095","-0.0390364900231361","0.183097347617149","0.0375936813652515","0.152591615915298","-0.0973270460963249","0.106148071587086","-0.0131623055785894","-0.00322827138006687","-0.105368673801422"
"n2_8","0.0807871520519257","-0.149264067411423","-0.0332430452108383","-0.247978791594505","-0.220767080783844","-0.328078895807266","0.301104605197906","-0.345667153596878","-0.120513468980789","0.0251175574958324","0.0103667266666889","-0.182382062077522","-0.188707247376442","-0.366737514734268","-0.0348878987133503","-0.0311294756829739","-0.258194506168365","0.0991539061069489","0.206991374492645","-0.282204806804657","0.0413486696779728","-0.175703927874565","-0.141723185777664","-0.033446554094553","-0.494230031967163","-0.201981276273727","0.981456458568573","-0.0357385128736496","-0.205934450030327","-0.189076408743858","-0.157301038503647","-0.247654527425766","-0.136550709605217","-0.145501121878624","-0.187209740281105","-0.0272305123507977","0.33915576338768","0.16742242872715","0.300417751073837","-0.435201048851013","-0.427958786487579","-0.201113432645798","-0.158602386713028","-0.0224758591502905","-0.236412912607193","0.234407290816307","-0.293355137109756","-0.252189517021179","-0.0665739253163338","-1.2385790348053","-0.169045701622963","-0.115998737514019","-0.0413261279463768","-0.251020908355713","0.0707149654626846","-0.197789013385773","0.115091733634472","-0.191079512238503","-0.198960199952126","-0.0834278613328934","-0.318643182516098","-0.29581019282341","0.163636475801468","0.0620376542210579","0.177162542939186","-0.226302102208138","0.0737475454807281","-0.0818807631731033","-0.183405593037605","-0.23743100464344","-0.459435939788818","0.175434499979019","-0.255040943622589","0.614659070968628","-0.235316932201385","-0.336026638746262","-0.00734899332746863","0.0231590699404478","-0.297397792339325","-0.063834510743618","0.0819368734955788","-0.063999280333519","-0.158318772912025","-0.313760012388229","-0.0517211407423019","-0.154921442270279","-0.0932978540658951","-0.382607311010361","0.11576022952795","0.221899524331093","-0.351928800344467","-0.27259561419487","-0.0476871877908707","-0.213185146450996","-0.270176947116852","0.00392116792500019","0.148775860667229","-0.173426151275635","-0.253023684024811","-0.248164251446724"
"n2_9","0.120428860187531","0.00984885916113853","-0.0519934669137001","-0.101147092878819","-0.0521101541817188","-0.117227651178837","0.143108904361725","0.0195042211562395","-0.126293316483498","0.0397049784660339","-0.0726212188601494","-0.115979738533497","0.0649844110012054","0.0736576989293098","-0.0732943639159203","-0.142817974090576","-0.130655437707901","-0.100190840661526","0.0702857822179794","-0.0660289004445076","0.0928095281124115","-0.133958056569099","0.0582000948488712","0.0413471311330795","0.146876752376556","0.0676663741469383","0.214123651385307","0.0287095252424479","-0.159675866365433","-0.0414147973060608","0.0236946549266577","-0.000303070177324116","-0.113021843135357","-0.101866997778416","0.024045692756772","-0.0185638405382633","0.110312305390835","0.114698953926563","-0.109921008348465","0.00399707490578294","-0.0418870560824871","-0.148847565054893","-0.140717074275017","0.0701540410518646","-0.113585509359837","0.158615902066231","0.0627806037664413","-0.068706676363945","-0.0367199219763279","-0.0510343164205551","0.104706577956676","-0.0386897996068001","0.026765301823616","0.0274579208344221","-0.0514077357947826","-0.139262929558754","0.102539047598839","-0.0807687565684319","-0.157902479171753","-0.0342034623026848","0.0861132219433784","-0.112568862736225","-0.0950881019234657","0.0638752430677414","0.181341007351875","-0.0181212034076452","0.00558963138610125","-0.131599590182304","0.0476801618933678","-0.124635547399521","-0.130083531141281","-0.0619674250483513","0.00720931170508265","-0.116557769477367","-0.0206482522189617","0.0369831062853336","-0.0322718285024166","0.126989006996155","-0.103346951305866","0.0978438407182693","0.0423764698207378","0.0909227207303047","0.0296549722552299","-0.0883075371384621","-0.0625027716159821","0.0611248128116131","-0.0567128695547581","0.0883703902363777","0.109182015061378","0.0983909592032433","-0.0752618983387947","-0.0283292196691036","-0.0363172069191933","0.108843289315701","0.0960021764039993","-0.066516749560833","-0.075410820543766","-0.0406759306788445","0.0244975909590721","0.0016280859708786"
"n2_10","0.41053107380867","-0.22223262488842","-0.499587863683701","-0.411341428756714","-0.60052615404129","-0.868457317352295","0.250307023525238","-0.409439265727997","0.648703813552856","0.101098164916039","0.0264577697962523","-0.636322319507599","-0.557031869888306","0.41861966252327","0.52853924036026","-0.47705927491188","-0.394098609685898","0.342087090015411","0.605452060699463","-0.374077618122101","-0.442309558391571","-0.634248614311218","-0.571082532405853","0.058043971657753","-1.54692208766937","-0.491911262273788","0.724361181259155","-0.514935076236725","-0.351628988981247","-0.216433241963387","-0.592045068740845","0.266783356666565","-0.389075934886932","-0.625951170921326","-0.52304995059967","0.125614926218987","0.241489678621292","-0.573791265487671","0.903331518173218","0.462659150362015","-0.405562788248062","-0.352465987205505","-0.592251658439636","-0.48784601688385","-0.562151372432709","0.647412657737732","-0.65086030960083","-0.833644449710846","0.159123986959457","1.07367122173309","-0.57220196723938","-0.326593697071075","0.260238707065582","-0.759061574935913","-0.331956267356873","-0.419793903827667","0.226300090551376","-0.331071466207504","-0.80382764339447","-0.603676438331604","-0.765908122062683","-0.526857614517212","0.685602486133575","0.296030044555664","0.607827663421631","-0.830626249313354","-0.299801021814346","-0.417330145835876","-0.598319709300995","-0.931133091449738","-0.243799328804016","0.62803316116333","-0.500771105289459","-1.12838661670685","-0.575001060962677","0.198412671685219","-0.357852607965469","0.270802408456802","-1.35260725021362","-0.0173912364989519","0.474825382232666","0.298703759908676","-0.710370600223541","-0.560663998126984","0.236636638641357","0.111830547451973","-0.434893369674683","0.381672888994217","0.406385809183121","0.595148503780365","0.297876328229904","-0.591774940490723","0.383583396673203","-0.494664072990417","0.23282465338707","0.209537729620934","0.0863425433635712","-0.189996540546417","-0.367723256349564","-0.869533121585846"
"n2_11","-0.173335343599319","0.437516719102859","0.093851275742054","0.248454079031944","0.206604421138763","-0.232978537678719","-0.0278942696750164","-0.0314306542277336","0.677663445472717","-0.256462007761002","-0.235642701387405","0.0834987089037895","0.100300401449203","-0.191143155097961","0.0513958409428596","0.00491340877488256","0.155934378504753","-0.139360472559929","-0.0479595996439457","0.0767902880907059","0.166597202420235","0.082295686006546","0.182008296251297","-0.0529728829860687","-0.313249558210373","0.0492689684033394","0.106242775917053","0.169500723481178","0.040344625711441","0.380791008472443","0.131192892789841","-0.143879756331444","-0.0849949941039085","0.0973578244447708","0.131545409560204","-0.767942667007446","-0.920226037502289","-0.0786799341440201","-0.0813309252262115","0.0983207002282143","0.233441397547722","0.0644468143582344","-0.00802472047507763","0.21831151843071","0.27656477689743","0.0113172065466642","0.0191435106098652","0.164559081196785","-0.261911809444427","-0.0152157871052623","-0.00384267582558095","0.347333908081055","-0.195034250617027","-0.0396128222346306","0.0778140500187874","0.195570454001427","-0.181928038597107","0.135460674762726","-0.0635332763195038","-0.118143647909164","0.112202100455761","0.174775004386902","-0.0469700805842876","0.103462100028992","-0.0831833109259605","0.128783226013184","0.0478535369038582","0.133087024092674","0.191714882850647","-0.138997510075569","0.354430705308914","-0.0180336087942123","0.220694154500961","-1.05510318279266","0.0208359118551016","0.0870261639356613","0.0258161891251802","-0.0274400617927313","-0.0655697360634804","0.133865639567375","-0.0572004318237305","-0.0699500739574432","0.125528886914253","-0.0360298901796341","0.100706145167351","-0.0234398879110813","0.0105190202593803","-0.0433494746685028","-0.137939393520355","-0.0519983768463135","0.0495665110647678","0.2264683842659","-0.34898629784584","-0.0832855626940727","0.108476750552654","0.116235680878162","-0.540521383285522","0.491325169801712","0.169948130846024","0.168327927589417"
"n2_12","-0.0293439384549856","0.0300278440117836","0.0665644630789757","0.0177326761186123","-0.0522008985280991","-0.150305241346359","0.295202702283859","-0.154904752969742","-0.0523384399712086","0.14540907740593","-0.0803072229027748","-0.223273709416389","-0.226724475622177","0.0109607055783272","0.0326886028051376","-0.0560905039310455","-0.105379968881607","0.164713442325592","0.0510338395833969","0.0392811186611652","-0.164618775248528","-0.266692876815796","-0.0283700078725815","-0.00883837416768074","-0.104224473237991","-0.138428807258606","-0.220593810081482","-0.0373732075095177","-0.108857654035091","0.100333727896214","-0.0337185673415661","0.0899670943617821","0.0189759079366922","0.0192538201808929","-0.0883745402097702","0.0642754063010216","-0.00700161419808865","-0.130924209952354","-0.114731505513191","0.189486682415009","-0.0177776906639338","-0.0585677623748779","-0.266684025526047","-0.0397194437682629","-0.190644398331642","0.0695164576172829","-0.155929803848267","-0.0914149582386017","0.0495158061385155","-0.00495745148509741","-0.0309928767383099","0.0256312564015388","-0.0798535943031311","-0.0440966039896011","0.0854749158024788","0.0278383325785398","0.0463387072086334","-0.150542110204697","0.00833314098417759","-0.0128450123593211","-0.191108033061028","-0.139472439885139","0.0310593713074923","0.0289758574217558","-0.0369316972792149","-0.0962629914283752","-0.211342245340347","0.0301025751978159","0.0870269313454628","0.0890659764409065","0.00709137320518494","0.0992832258343697","0.0188375823199749","-0.287550359964371","-0.0535330176353455","0.276569366455078","-0.100387923419476","-0.0498802252113819","0.155824527144432","0.226425603032112","0.155052080750465","-0.0392248369753361","0.0543380714952946","-0.156703054904938","0.0372390933334827","-0.11753236502409","-0.0212782137095928","-0.182159438729286","0.00688388245180249","0.14269246160984","0.146225973963737","0.0270632319152355","0.084415964782238","0.0696240440011024","-0.0197180416435003","-0.0127351395785809","0.125971093773842","0.138405486941338","-0.0883793458342552","-0.190073758363724"
"n2_13","0.0475693829357624","-0.159775972366333","-0.0574783682823181","-0.176549285650253","-0.121027916669846","0.133600831031799","-0.101478196680546","-0.0355190709233284","-0.0715585872530937","-0.0910791009664536","-0.0666409358382225","0.0519354641437531","-0.0708770975470543","-0.0396639071404934","-0.0320503823459148","0.0670720264315605","0.0545560419559479","0.15168285369873","0.167319297790527","-0.161595731973648","0.0307501945644617","-0.142283886671066","-0.150121122598648","-0.0354987382888794","0.0110279005020857","-0.173700243234634","0.032845251262188","0.0165979638695717","0.0964519903063774","-0.218851953744888","-0.154027119278908","0.00697866128757596","-0.0936601758003235","-0.0641060099005699","0.0117445643991232","0.031199861317873","-0.159163191914558","0.0563392266631126","-0.0945526957511902","0.0608017668128014","-0.127466470003128","-0.0513348393142223","-0.0221978705376387","-0.160349056124687","-0.0685840770602226","-0.0126601019874215","0.0553053021430969","-0.144481167197227","-0.0299866292625666","-0.234610483050346","-0.133893445134163","-0.0483167506754398","-0.0769038945436478","0.0706638246774673","0.032921452075243","-0.0162181556224823","0.139116004109383","0.0316314175724983","0.118936866521835","0.142291486263275","-0.0218643788248301","-0.0106887128204107","0.117295145988464","-0.00726414378732443","0.172781869769096","0.0134063446894288","-0.118708312511444","-0.0879565924406052","-0.144590198993683","-0.127620026469231","-0.156301528215408","-0.0682278722524643","-0.106192670762539","0.0743089094758034","-0.121093690395355","-0.111462585628033","-0.169220373034477","0.101813659071922","0.0884163975715637","-0.00715327495709062","0.142530858516693","-0.0972622036933899","-0.0892762839794159","0.00193128327373415","0.0700568407773972","0.0775531232357025","-0.17497655749321","-0.0463541150093079","-0.0905728787183762","0.0128312269225717","-0.0685775876045227","0.0139703126624227","-0.0361286662518978","0.0970832705497742","0.0615533702075481","-0.0475633703172207","0.0191563237458467","-0.0326407551765442","-0.0829978212714195","0.0201649125665426"
"n2_14","-0.0870222896337509","-0.119993671774864","-0.150394037365913","0.0786454156041145","0.0230633188039064","-0.0971406996250153","0.0896190032362938","-0.0227537732571363","-0.118893213570118","0.1386878490448","-0.0212982706725597","-0.198894828557968","-0.0858763307332993","0.11789271235466","0.031692236661911","-0.101576179265976","-0.0323194973170757","0.100259304046631","0.0157368872314692","-0.0041111633181572","-0.0887978672981262","-0.0248637739568949","-0.0396382436156273","0.0852893739938736","0.0279426798224449","0.0325325503945351","0.0027792111504823","-0.115951254963875","0.0864840522408485","0.113798715174198","0.0781370773911476","0.156195461750031","0.133356064558029","0.0466007478535175","0.0945607349276543","0.155360966920853","-0.131096839904785","-0.0107823731377721","0.020452331751585","0.0557889640331268","0.0232224445790052","0.0763209760189056","-0.233124241232872","-0.108150877058506","0.0634661465883255","-0.143802925944328","-0.118562646210194","0.00478307483717799","-0.163251131772995","0.097353383898735","7.34800996724516e-05","-0.142643228173256","0.161820515990257","-0.00807310920208693","0.0615323409438133","0.00939261354506016","0.0981111153960228","-0.241935253143311","0.00721538159996271","0.0807789787650108","0.0693617686629295","0.000537410494871438","0.0406738556921482","0.0564725250005722","0.0135860498994589","-0.159989282488823","0.0407379940152168","-0.0872784927487373","-0.024761950597167","0.149365469813347","-0.0657003223896027","0.0949884578585625","-0.0584613867104053","0.0218185409903526","0.0555520839989185","-0.0232753567397594","0.0360086932778358","-0.0655696168541908","0.0397914461791515","0.131445646286011","0.0934805050492287","0.105926409363747","0.0600439310073853","-0.00559727055951953","0.0715518817305565","0.00685922428965569","0.103438891470432","-0.0208472516387701","0.126296818256378","-0.10878262668848","0.0522412732243538","-0.0539557673037052","0.0135141210630536","-0.0884452909231186","-0.0585336126387119","0.116383768618107","0.0958337560296059","-0.0617510825395584","-0.145722970366478","-0.203620955348015"
"n2_15","-0.313466578722","0.0453693866729736","0.0567662231624126","0.362820237874985","0.0870820432901382","0.167825445532799","-0.0633913204073906","0.18106934428215","-0.408011585474014","0.0393803231418133","-0.195756912231445","0.00707672303542495","0.0815272927284241","-0.121783152222633","-0.144995987415314","0.180234670639038","0.159803584218025","0.0308168642222881","-0.236632063984871","-0.00753918802365661","0.272816270589828","0.11347234249115","0.0500698126852512","0.320600807666779","-0.074770875275135","0.230213448405266","-0.102586902678013","-0.0125162117183208","0.430665254592896","-0.107763066887856","0.242809399962425","0.0781348198652267","0.123472161591053","0.150452673435211","0.186584010720253","-0.0438600778579712","-0.193631008267403","-0.0936997905373573","-0.165081858634949","0.0754680335521698","0.158566400408745","0.277564018964767","0.123550429940224","0.0990174487233162","0.208803310990334","-0.178213194012642","0.212659031152725","0.000976174662355334","-0.0469395518302917","1.25522899627686","0.153619155287743","0.238241255283356","-0.27318263053894","0.265982061624527","0.283050566911697","0.144202142953873","-0.143898248672485","0.277251660823822","0.0745321810245514","-0.0838162899017334","0.209440842270851","0.0298503637313843","-0.225821703672409","0.0543491616845131","-0.0846754163503647","-0.00104427221231163","-0.0369114689528942","0.0849041417241096","0.279017955064774","0.0584400072693825","0.256222814321518","-0.15633051097393","-0.0512743555009365","0.0188358742743731","0.0309527050703764","0.128130093216896","0.159995406866074","0.0188669264316559","0.21402682363987","0.402574479579926","-0.0312984250485897","-0.0101232239976525","0.211203664541245","-0.0353841632604599","-0.000855843885801733","0.0337853729724884","0.298539102077484","0.385900348424911","0.00218984321691096","-0.0181679390370846","0.290541529655457","0.166860103607178","0.26407790184021","0.251729756593704","0.293998241424561","-0.0273836813867092","-0.171862661838531","0.295755803585052","0.359996885061264","0.20362688601017"
"n2_16","0.170092329382896","-0.172891825437546","-0.0420690774917603","-0.177825227379799","-0.108952470123768","-0.078575611114502","0.00785127189010382","-0.146979346871376","-0.021023141220212","-0.0346979312598705","-0.0819074138998985","-0.139656007289886","0.0595602802932262","0.1429653018713","-0.0738604441285133","0.0465484224259853","-0.179209977388382","-0.0167734362185001","-0.044040709733963","-0.0924783796072006","-0.182954698801041","-0.170939803123474","-0.122182682156563","-0.044998362660408","-0.0834848210215569","0.00375094590708613","-0.113278605043888","-0.141485869884491","-0.115760035812855","-0.0739878192543983","-0.022176394239068","-0.103433586657047","-0.0685513466596603","-0.023609034717083","-0.161531433463097","-0.0393428951501846","0.0862819030880928","-0.0288617145270109","0.108451060950756","0.055533267557621","0.114192999899387","-0.0347784608602524","-0.19754683971405","-0.0811857432126999","-0.027317501604557","0.02621104195714","-0.158977016806602","0.00859733205288649","0.0555497221648693","-0.0594495236873627","-0.000134432862978429","-0.199990227818489","0.169391512870789","-0.0737982168793678","-0.110057890415192","0.0556414276361465","-0.0156210390850902","-0.0356946401298046","0.0742558762431145","-0.0299188755452633","-0.156910762190819","-0.0250283610075712","0.0241726636886597","-0.084601029753685","-0.0746350809931755","-0.0508158579468727","-0.129612520337105","0.0167397800832987","0.0200737453997135","0.103426948189735","0.0381259992718697","0.0159138534218073","0.0571174509823322","-0.0693652257323265","-0.125485524535179","-0.119730815291405","-0.181023582816124","-0.000107381056295708","0.0584580525755882","-0.0204139538109303","-0.10648438334465","-0.104528181254864","-0.173618331551552","0.0010763022582978","-0.0942725911736488","0.0145438024774194","-0.0109718190506101","-0.136064440011978","-0.0894212946295738","0.092308834195137","0.143305644392967","-0.117158629000187","0.0824174508452415","-0.0686442032456398","0.00364855281077325","0.017743706703186","0.0693829357624054","-0.165818467736244","-0.050204299390316","-0.169447168707848"
"n2_17","0.16707007586956","0.116750240325928","-0.000463613134343177","-0.0260104648768902","-0.426689803600311","-0.702453792095184","0.452913403511047","-0.296646296977997","1.30344152450562","0.257416248321533","0.068634144961834","-0.3132583796978","-0.214650467038155","-0.209337458014488","0.00333162420429289","-0.124485775828362","-0.236874312162399","0.154917508363724","0.345292001962662","-0.431384772062302","-0.153536453843117","-0.416310727596283","-0.122414611279964","0.0559192933142185","-1.05416834354401","-0.315020829439163","2.39873075485229","-0.229324460029602","-0.239506155252457","-0.0632729232311249","-0.439319521188736","-0.175925835967064","-0.058285728096962","-0.333953976631165","-0.351400077342987","0.28106364607811","0.5007164478302","-0.0912294611334801","0.487049460411072","0.170566201210022","-0.072521410882473","-0.237212166190147","-0.364931553602219","-0.123081676661968","-0.469507157802582","0.382641404867172","-0.239406317472458","-0.376139044761658","-0.168040007352829","-0.792133450508118","-0.213619291782379","-0.102021545171738","-0.0233825892210007","-0.581073939800262","0.032891534268856","-0.297562837600708","0.137193843722343","-0.30335333943367","-0.343942850828171","0.0501959845423698","-0.490820944309235","-0.276029646396637","0.485738933086395","0.173103153705597","0.335395634174347","-0.497793674468994","-0.112612366676331","-0.284221798181534","-0.38837942481041","-0.513388097286224","-0.116218656301498","0.515384018421173","-0.268863081932068","-0.222563818097115","-0.3232282102108","-0.16907012462616","-0.203240945935249","0.300718039274216","-0.729600846767426","0.0269308071583509","0.3790622651577","0.0949483141303062","-0.399400770664215","-0.472459197044373","0.082837775349617","0.111653067171574","-0.267425835132599","-0.0786121413111687","0.341806054115295","0.153790071606636","-0.214184805750847","-0.356592178344727","0.104113407433033","-0.284335821866989","-0.133817180991173","0.0904586017131805","0.498795330524445","0.143399730324745","-0.072496697306633","-0.447763115167618"
"n2_18","0.115011282265186","-0.220302164554596","-0.175985455513","-0.15397609770298","-0.121449738740921","0.0103268343955278","-0.221279159188271","-0.124959528446198","-0.694121301174164","-0.0637707561254501","0.0454422533512115","-0.24129730463028","0.0120933493599296","-0.0101815909147263","0.0440677516162395","-0.0992969796061516","0.00493195978924632","-0.0994997769594193","0.0416024886071682","-0.0427128076553345","0.025264348834753","-0.107798181474209","-0.0191409308463335","0.0383949428796768","-0.0559880994260311","0.166276603937149","0.628625214099884","-0.0402879491448402","0.0999053940176964","-0.269027829170227","0.0329864881932735","-0.100257769227028","-0.163788944482803","-0.15956138074398","-0.181315869092941","-0.269705176353455","-0.365933924913406","0.0986265912652016","0.0897352397441864","-0.0453408472239971","-0.0501274615526199","0.0383227802813053","-0.0594081394374371","-0.124127835035324","-0.00174346705898643","0.150479644536972","-0.147398501634598","-0.0118125369772315","-0.159811347723007","-0.164083316922188","0.0147959366440773","-0.24004103243351","0.0325094163417816","-0.00911462400108576","-0.0527639910578728","-0.140465393662453","-0.0879931598901749","-0.221716180443764","-0.198486685752869","-0.423699945211411","-0.21538433432579","-0.118868738412857","0.234674587845802","0.0304509364068508","0.0837069749832153","-0.173223167657852","-0.0506936386227608","0.0605085119605064","-0.227815732359886","-0.17205074429512","-0.0608978606760502","0.145789131522179","-0.149372696876526","-0.567366778850555","0.0324067510664463","0.0307230185717344","-0.00645274762064219","0.0039141015149653","-0.124095648527145","0.0781624317169189","0.0812077224254608","-0.0697633251547813","-0.118011273443699","0.0307180918753147","0.0232990588992834","-0.109283298254013","-0.0354957841336727","-0.113778032362461","-0.00249255890958011","0.209682956337929","-0.111669443547726","-0.0202928856015205","-0.248630926012993","-0.120862171053886","-0.000378909084247425","0.0205237232148647","-0.216480776667595","0.00106438563670963","-0.0861304327845573","-0.0561006218194962"
"n2_19","0.023499833419919","-0.0290325861424208","-0.299634009599686","-0.304147243499756","-0.399768501520157","-0.399207055568695","0.224894881248474","-0.301564037799835","0.576778590679169","0.194109216332436","0.0279431287199259","-0.367889106273651","-0.232996553182602","0.0769907310605049","-0.0486216135323048","-0.306254237890244","-0.219432860612869","0.0854915976524353","0.336511552333832","-0.279367655515671","-0.334420770406723","-0.348310083150864","-0.227051213383675","0.102690570056438","-0.933395028114319","-0.184610575437546","0.589987277984619","-0.293265163898468","-0.226032719016075","-0.0306664202362299","-0.24331060051918","0.123182758688927","-0.189989745616913","-0.324124395847321","-0.336310029029846","0.433476179838181","0.774516701698303","-0.0845470055937767","0.500286817550659","0.155739977955818","-0.0625124871730804","-0.236222952604294","-0.36492919921875","-0.0935210287570953","-0.473323702812195","0.273405939340591","-0.338239938020706","-0.355186522006989","0.0656192377209663","-0.701392829418182","-0.310253143310547","0.0152842635288835","0.0463847517967224","-0.261222034692764","0.0208621472120285","-0.227259382605553","0.0481676571071148","-0.107003964483738","-0.316165059804916","-0.332205235958099","-0.479789704084396","-0.206822335720062","0.270192384719849","0.22987088561058","0.393143653869629","-0.349645137786865","-0.0618299208581448","-0.209700673818588","-0.523144245147705","-0.512505412101746","-0.380908578634262","0.496173232793808","-0.41094759106636","-0.445335030555725","-0.124166078865528","0.0845248401165009","-0.293505281209946","0.284958571195602","-0.40326315164566","0.0268196426331997","0.195129603147507","-0.0325189642608166","-0.310112774372101","-0.206893861293793","0.0797202810645103","0.149594143033028","-0.292365878820419","0.198387712240219","0.273374617099762","0.387592315673828","0.113691486418247","-0.222394824028015","0.27022448182106","-0.314113259315491","0.175433576107025","0.175344884395599","0.546847701072693","0.19045427441597","-0.313945770263672","-0.267319917678833"
"n2_20","0.034975565969944","0.0926836356520653","-0.00508648157119751","-0.0301638916134834","-0.138946130871773","-0.127084746956825","0.0699092596769333","-0.0307624693959951","0.0261884033679962","0.155822709202766","-0.0190221723169088","-0.0707490742206573","-0.0352407433092594","-0.0103097688406706","-0.0138802900910378","-0.0497959777712822","0.022197637706995","0.161406829953194","0.0407790914177895","-0.15230692923069","-0.0117238676175475","-0.0150295505300164","-0.0868829935789108","-0.00820227153599262","0.0799192562699318","0.0915830507874489","0.0952545404434204","0.0201842468231916","-0.200394779443741","-0.0111741460859776","-0.114629440009594","-0.0144889131188393","0.0341964177787304","-0.071132704615593","-0.0073815044015646","-0.095519170165062","-0.0725415647029877","-0.178223669528961","-0.098659835755825","0.11265305429697","0.0557336919009686","-0.102242723107338","0.0870411321520805","-0.173740461468697","-0.209881037473679","0.0593299753963947","-0.144205018877983","-0.240457057952881","0.107441149652004","0.202467456459999","-0.0256782490760088","-0.0403789766132832","0.123252607882023","0.0696552023291588","-0.160102322697639","-0.0717611163854599","0.00790294259786606","-0.132907792925835","0.0052659884095192","0.11599987000227","0.0483150631189346","-0.0579451024532318","-0.00616530142724514","-0.117452889680862","0.0923900753259659","-0.105003818869591","-0.136894896626472","0.00936499889940023","-0.0723718628287315","0.0132981259375811","-0.0215713139623404","0.090272881090641","-0.101453468203545","0.0355872884392738","-0.162273749709129","-0.0905559808015823","-0.195415318012238","0.0581842921674252","0.124608241021633","0.000711015774868429","0.103853173553944","-0.00917017366737127","-0.116781868040562","-0.00401680683717132","-0.159263297915459","0.120680823922157","-0.189600542187691","0.0985574945807457","-0.00120123440865427","0.0288268718868494","0.0207800921052694","-0.16076435148716","-0.0693513825535774","-0.139220029115677","0.0178740154951811","0.0723641216754913","-0.138243645429611","0.102304384112358","-0.0942991375923157","-0.123449303209782"
"n2_21","-0.231120094656944","-0.159035623073578","0.0744402185082436","0.122577413916588","0.265630632638931","0.373319387435913","-0.000592353811953217","0.256090223789215","0.0341749973595142","-0.230682387948036","0.0265585333108902","0.101623505353928","0.0897882580757141","-0.410452008247375","-0.0174325853586197","0.154698193073273","0.194160655140877","-0.290792316198349","-0.0909860730171204","0.156356826424599","-0.00818990636616945","0.235551208257675","0.387627869844437","-0.0213835816830397","0.333563625812531","0.257792085409164","0.533848404884338","0.320092499256134","0.184029549360275","-0.135759130120277","0.329442113637924","-0.272664606571198","-0.0559048242866993","0.210320368409157","0.169866219162941","-0.363927066326141","-0.955357015132904","0.194870546460152","-0.271759539842606","-0.282310396432877","-0.0206030290573835","0.0633595436811447","0.287491202354431","0.230787128210068","0.0954426601529121","-0.216050520539284","0.301436305046082","0.10647963732481","-0.0816531851887703","0.188144862651825","0.215585425496101","-0.0488945655524731","-0.0142619619145989","0.232238680124283","0.134643703699112","0.161646157503128","-0.198900550603867","0.2046719789505","0.258720278739929","-0.0190188568085432","0.117191329598427","0.234290540218353","-0.279797375202179","-0.256583988666534","-0.0403822585940361","0.278544425964355","0.186395689845085","0.0169717036187649","0.171635240316391","0.402671992778778","0.140264898538589","-0.282186686992645","0.183817148208618","0.2652587890625","0.253335893154144","-0.198594719171524","0.142512574791908","-0.0951429605484009","0.318984389305115","-0.15769562125206","-0.322324305772781","-0.246226906776428","0.259459733963013","0.257948309183121","0.0666361674666405","0.131950244307518","0.287374526262283","-0.17162036895752","-0.0873868390917778","-0.263540953397751","-0.143085584044456","0.0697788819670677","-0.782254874706268","0.274458795785904","-0.10158409923315","-0.121778190135956","-0.812501728534698","-0.152827084064484","0.250999391078949","0.175058007240295"
"n2_22","0.0291564967483282","0.141123503446579","0.0184645149856806","-0.0191368907690048","0.0533057078719139","0.0132003081962466","0.132737800478935","0.0157897192984819","-0.000227509051910602","0.0698172822594643","-0.010627705603838","-0.0283335708081722","-0.00985997822135687","0.0172270219773054","-0.0447508208453655","-0.197128280997276","-0.00838591624051332","0.0700400397181511","0.143290564417839","-0.0117382789030671","-0.106962643563747","-0.220806553959846","-0.18742710351944","-0.150620386004448","0.120400734245777","-0.172407403588295","-0.0707855448126793","-0.00318345986306667","-0.101007826626301","0.144480794668198","-0.139107152819633","-0.069947674870491","-0.0985764116048813","0.00138608377892524","-0.0906407758593559","0.136908382177353","-0.0211917851120234","-0.0681071355938911","0.0856645628809929","-0.0304094851016998","0.094995990395546","0.0912238955497742","-0.0784595608711243","-0.0589658208191395","0.0170026104897261","-0.0528839454054832","-0.0331864915788174","0.0454045794904232","-0.118024088442326","0.1205974817276","-0.0796737372875214","0.0800959467887878","-0.0652478784322739","0.0603994689881802","-0.108103714883327","-0.137810409069061","0.135123565793037","-0.143306404352188","0.0404626242816448","-0.162229686975479","0.0425266548991203","0.0815655291080475","0.0222668070346117","0.0784186273813248","-0.0717114061117172","0.0028930134139955","-0.0492380559444427","-0.116987265646458","-0.00212568766437471","0.12396352738142","-0.120031110942364","0.170572713017464","-0.0970666110515594","-0.306966364383698","-0.192671865224838","0.0537747107446194","0.0569946989417076","-0.000686074898112565","-0.00146171834785491","0.0519310683012009","0.0437729805707932","0.0933649763464928","-0.123751200735569","-0.0618132650852203","-0.170144572854042","0.011518414132297","-0.0370778180658817","-0.0650956034660339","-0.00454618828371167","0.0462511740624905","0.0342246145009995","-0.0397652126848698","0.0838536247611046","-0.0240611787885427","-0.0274493023753166","-0.02970926836133","-0.118377417325974","-0.0639539808034897","0.118803724646568","-0.160360753536224"
"n2_23","-0.359877824783325","0.895074605941772","-0.291305899620056","1.11779260635376","-0.071320541203022","-0.70497590303421","-1.89890146255493","0.15110220015049","0.275755107402802","1.79035294055939","-0.707973122596741","-0.124230273067951","-0.540161669254303","-0.345473080873489","0.360455214977264","-0.150535017251968","0.393170714378357","0.401129722595215","0.372808545827866","-0.16522054374218","0.420314460992813","-0.508023202419281","-0.387144446372986","1.12327301502228","-1.84765827655792","0.157463327050209","0.941787838935852","-0.409257918596268","0.821291089057922","0.513703942298889","-0.307274430990219","0.643989086151123","0.550725698471069","-0.377394676208496","-0.0306563749909401","1.27484607696533","2.11266756057739","-1.19481313228607","0.468606799840927","1.2654755115509","1.40306401252747","0.459465950727463","-0.454931885004044","-0.28298082947731","-0.348775118589401","0.252470672130585","-0.311765044927597","-0.720720231533051","-0.415317058563232","-0.219548836350441","-0.767492115497589","0.755045354366302","-0.626014351844788","-0.172008439898491","0.0530695877969265","-0.112967155873775","0.24591825902462","0.0294446405023336","-0.35820460319519","-1.0865570306778","-0.257736682891846","-0.36368316411972","0.0430263839662075","0.285307586193085","-0.0159054473042488","-0.27870112657547","-0.833157479763031","-0.39025753736496","0.0336372405290604","-0.7349653840065","1.09829461574554","0.134705051779747","0.311181634664536","-1.82108128070831","-0.585496783256531","0.275969475507736","-0.685115814208984","0.56223076581955","-0.740347146987915","1.74929392337799","0.830683469772339","0.676955938339233","-0.350301027297974","-0.616946220397949","0.82099324464798","0.127449303865433","-0.244195431470871","0.739151418209076","0.372456401586533","0.228210777044296","-0.0178752522915602","-0.16643200814724","2.01428437232971","0.477208763360977","1.49023032188416","0.519890367984772","2.15713906288147","2.80574250221252","0.988052129745483","-0.298216789960861"
"n2_24","-0.775986611843109","0.95052444934845","0.8011394739151","0.930210173130035","0.581645727157593","0.37005603313446","1.3062185049057","0.792915999889374","3.74528050422668","0.881572663784027","-1.11881828308105","0.602904617786407","0.67427521944046","0.83215868473053","-0.911348879337311","0.639835059642792","0.753293037414551","-0.634125590324402","-0.816945612430573","0.722205817699432","0.763966023921967","0.749446392059326","0.804488480091095","0.592522919178009","0.600849986076355","0.957647681236267","0.126853972673416","0.913207113742828","0.868048548698425","0.832843244075775","0.775242865085602","1.06864643096924","0.637024760246277","0.811870813369751","0.436073035001755","2.01546907424927","1.97521889209747","0.8171346783638","-0.850214123725891","1.12124800682068","0.704506635665894","0.801436841487885","0.482241243124008","0.627148628234863","0.682200729846954","-0.815180778503418","0.740352094173431","0.759897172451019","0.791569411754608","-0.136873036623001","0.660259544849396","0.795825004577637","-1.0257374048233","0.694502949714661","0.795866966247559","0.729724586009979","-0.637366652488708","0.581360638141632","0.7672358751297","-1.15536975860596","0.824977099895477","0.764607787132263","-0.738651156425476","-0.917615950107574","-0.500532150268555","0.711719036102295","0.694882452487946","0.876549661159515","0.811294674873352","0.879625499248505","1.0008533000946","-0.739189088344574","0.750452876091003","-1.02270567417145","0.669782757759094","1.18883490562439","0.630807280540466","-0.436009079217911","0.739554643630981","0.421176493167877","-0.658605217933655","-0.722913444042206","0.688458919525146","0.890586793422699","-0.644205212593079","0.795313239097595","0.676332950592041","0.704755842685699","-0.561320781707764","-0.748039364814758","0.842708885669708","0.554092645645142","0.901110589504242","0.815750658512115","1.06930315494537","-0.653754889965057","2.08076930046082","0.517319083213806","0.688732802867889","0.775831341743469"
"n2_25","0.41902294754982","0.490718245506287","-0.662759125232697","0.435729265213013","-0.735066115856171","-0.884738743305206","-1.0890177488327","-0.703519344329834","0.583359956741333","-0.025152649730444","0.022814616560936","-0.688728809356689","-0.742878258228302","-0.202928736805916","0.497823238372803","-0.664316534996033","-0.360582113265991","0.504132568836212","0.828701913356781","-0.5232293009758","-0.644587993621826","-0.879071533679962","-0.806905925273895","-0.279996693134308","-1.61224126815796","-0.645785331726074","0.258136808872223","-0.76989334821701","-0.592334508895874","0.312499582767487","-0.852082431316376","0.396643668413162","-0.192717015743256","-0.74345189332962","-0.47617170214653","0.844032347202301","1.24432694911957","-0.677038133144379","0.712905883789062","0.709385991096497","0.448059111833572","-0.506220161914825","-0.811443626880646","-0.758965134620667","-0.933974981307983","0.689228415489197","-0.821867108345032","-1.05850732326508","-0.177288204431534","-1.33677363395691","-1.07034957408905","0.428938239812851","-0.018366627395153","-0.43113973736763","-0.53949236869812","-0.506565153598785","0.690094470977783","-0.723682582378387","-0.447596430778503","-0.372439950704575","-0.419102638959885","-0.836227059364319","0.540537178516388","0.487378299236298","0.526030361652374","-0.751349985599518","-0.860175430774689","-0.617667615413666","-0.526727378368378","-0.594283759593964","0.419843226671219","0.535308480262756","-0.236268028616905","-2.1501829624176","-0.591563940048218","0.262213230133057","-0.733694195747375","0.737820863723755","-0.633456587791443","0.33690881729126","0.858092248439789","0.685868859291077","-0.902909398078918","-0.741761207580566","0.527475833892822","-0.325717598199844","-0.633674025535583","-0.0675944983959198","0.565747797489166","0.51678866147995","0.19869963824749","-0.699114382266998","-0.210232228040695","-0.544777750968933","0.43092605471611","0.521008431911469","0.788442194461823","0.202945545315742","-0.29032227396965","-0.889408588409424"
"n2_26","-0.00215564086101949","-0.191418305039406","-0.043146301060915","0.0289747249335051","0.0986429378390312","-0.0461500622332096","-0.0565083026885986","-0.147247284650803","-0.153730809688568","0.0553890354931355","-0.0655576512217522","0.00847584288567305","-0.0115076638758183","0.0349483527243137","0.149938315153122","-0.0221818424761295","-0.0855426341295242","0.0462171845138073","0.185124143958092","-0.126843050122261","0.0885730907320976","-0.101316221058369","0.0699594095349312","0.082899734377861","-0.0634637400507927","-0.0770597830414772","0.1512341350317","0.0648045465350151","-0.0313971303403378","0.000638646888546646","-0.0815871059894562","0.0280853863805532","0.116594716906548","-0.0491265803575516","-0.176955372095108","0.126809149980545","-0.124486997723579","-0.135879069566727","-0.063077799975872","0.0443331673741341","-0.155136913061142","0.0341443531215191","-0.166723102331161","-0.0759115442633629","-0.0463916957378387","0.0109145008027554","-0.0505954958498478","-0.088307149708271","0.0484478697180748","-0.127133026719093","-0.0511528737843037","0.0365187041461468","0.143178835511208","0.0841758325695992","0.0515723526477814","-0.143006235361099","-0.0315510407090187","0.0247021820396185","-0.0603592172265053","0.135337188839912","-0.187879249453545","0.0590925328433514","0.155437797307968","0.154057234525681","-0.000767161836847663","-0.0627328231930733","0.0858927965164185","-0.106479480862617","-0.0439469590783119","0.0987515822052956","-0.161565110087395","0.0385263003408909","-0.151649564504623","-0.00975090451538563","-0.0956202372908592","0.0876091942191124","-0.0189142823219299","0.0827671736478806","0.0466982945799828","-0.0276558194309473","-0.0646023899316788","0.130927264690399","-0.192441880702972","-0.0996255800127983","0.00223180581815541","0.0680658295750618","0.0111910505220294","0.108213290572166","0.0566617660224438","0.178072109818459","-0.105471104383469","-0.0431365221738815","0.13691358268261","0.0249275732785463","0.00614159507676959","-0.000438649934949353","-0.0931012704968452","-0.171557709574699","0.0348477475345135","-0.0480013452470303"
"n2_27","0.58896005153656","-0.336739510297775","-0.55917501449585","-0.507554113864899","-0.261878460645676","-0.296639233827591","-0.180316865444183","-0.43472084403038","0.311420351266861","-0.501117765903473","0.413366109132767","-0.309179216623306","-0.291839361190796","-0.374047666788101","0.565625250339508","-0.579206168651581","-0.433304011821747","0.544434905052185","0.337774008512497","-0.0748621895909309","-0.234193220734596","-0.56232738494873","-0.698941051959991","-0.377530574798584","-0.202002510428429","-0.521442711353302","-0.436137825250626","-0.548020899295807","-0.336179196834564","-0.393934845924377","-0.421839833259583","-0.406341999769211","-0.392851620912552","-0.465048998594284","-0.392853945493698","-1.27798819541931","-0.901336491107941","-0.569357514381409","0.604961693286896","-0.495677977800369","-0.376512467861176","-0.348922669887543","-0.359012395143509","-0.43822181224823","-0.442630052566528","0.525863647460938","-0.311299860477448","-0.529003143310547","-0.575125932693481","-0.158604934811592","-0.295042812824249","-0.298483282327652","0.508009195327759","-0.442017525434494","-0.425449728965759","-0.615718722343445","0.428927361965179","-0.333566814661026","-0.364820927381516","-0.119366459548473","-0.608497798442841","-0.529135644435883","0.494674980640411","0.536557793617249","0.570375084877014","-0.415910750627518","-0.368524342775345","-0.502739250659943","-0.469758570194244","-0.406314879655838","-0.264146894216537","0.560265719890594","-0.513595759868622","-1.06289398670197","-0.642326891422272","-0.358810663223267","-0.390018880367279","0.350387096405029","-0.581629872322083","-0.42917063832283","0.466579467058182","0.531670331954956","-0.486702889204025","-0.28065100312233","0.555203974246979","-0.377117842435837","-0.375859498977661","-0.533093094825745","0.386045157909393","0.489064037799835","-0.516858875751495","-0.410225659608841","-0.665015697479248","-0.382619947195053","-0.52897322177887","0.413638889789581","-0.602119743824005","-0.318438470363617","-0.35247728228569","-0.6111199259758"
"n2_28","0.197268277406693","-0.274466037750244","-0.247584268450737","-0.334484994411469","-0.163340494036674","0.0501545108854771","0.0165223944932222","-0.430680185556412","0.104354001581669","0.0555573552846909","-0.0809595137834549","-0.234869077801704","-0.257895052433014","-0.0504372902214527","0.211530908942223","-0.0752002373337746","-0.243317097425461","-0.0293103829026222","0.32539564371109","-0.229207456111908","-0.379815280437469","-0.128666579723358","-0.107064999639988","-0.129963368177414","-0.0924267023801804","-0.31137827038765","-0.549509406089783","-0.079384446144104","-0.289759308099747","-0.348611533641815","-0.14348042011261","0.265257000923157","-0.193569898605347","-0.279875963926315","-0.140583425760269","0.309347152709961","0.636987149715424","0.106527343392372","0.323417693376541","0.0812089815735817","-0.542624771595001","-0.136953935027122","-0.129205137491226","-0.223589643836021","-0.369291543960571","0.22838693857193","-0.28540301322937","-0.296692699193954","0.157992348074913","-0.36371174454689","-0.203279748558998","-0.372606009244919","0.195887729525566","-0.0117805749177933","-0.283864200115204","-0.481717526912689","0.0926091447472572","-0.123938255012035","-0.0520344525575638","-0.0477281734347343","-0.191370725631714","-0.144511729478836","0.145472690463066","0.108050376176834","0.341426998376846","-0.0964063555002213","0.00645675044506788","-0.284133166074753","-0.247241318225861","0.154316321015358","-0.610088765621185","0.41685950756073","-0.107490599155426","0.35426065325737","-0.0959335193037987","0.214421883225441","-0.0798255875706673","-0.0450180545449257","-0.0399549230933189","-0.384832143783569","0.124762885272503","0.193339705467224","-0.394556730985641","-0.180363923311234","0.104553259909153","-0.165325671434402","-0.342098623514175","0.169030413031578","0.140051871538162","0.208849221467972","0.217482581734657","-0.187165886163712","0.193783447146416","-0.26566469669342","0.124000698328018","0.19139152765274","0.459587961435318","-0.742052614688873","-0.566788077354431","-0.284975647926331"
"n2_29","0.172626242041588","-0.187254697084427","-0.0575391873717308","-0.305686384439468","0.104974329471588","0.341030716896057","-0.717478513717651","-0.127584308385849","-0.917312324047089","-0.276167213916779","0.362583637237549","-0.10384812951088","-0.218488037586212","-0.644888460636139","0.21821853518486","-0.145139664411545","-0.121763750910759","0.15893642604351","0.148134350776672","0.147001102566719","-0.00868459139019251","-0.0647794678807259","-0.0466234982013702","-0.174905434250832","0.564346134662628","-0.212778210639954","-1.55420219898224","-0.276891976594925","-0.220570266246796","-0.101516716182232","-0.15318563580513","-0.618210136890411","-0.0584051497280598","-0.212138310074806","0.0231409966945648","-0.685624480247498","-0.771141290664673","-0.163942202925682","-0.093802772462368","-0.362390339374542","-0.390594661235809","-0.0880555361509323","-0.196192249655724","-0.306134283542633","-0.163917288184166","0.150378778576851","0.0258288886398077","0.154617473483086","-0.086543433368206","0.595679521560669","-0.202676936984062","-0.144440189003944","0.200020357966423","-0.0349445044994354","-0.0938026458024979","-0.207164734601974","0.0858399420976639","-0.104240000247955","-0.161531627178192","0.299738585948944","-0.00451103737577796","0.0772576928138733","-0.0659650415182114","0.251280218362808","0.0365035720169544","-0.0306641217321157","-0.0997628420591354","-0.0334444902837276","-0.0398553162813187","0.0507332198321819","-0.408930838108063","-0.125750496983528","-0.0855632424354553","0.436031490564346","-0.218042254447937","-0.617179930210114","-0.040614128112793","-0.0250728763639927","0.0374199599027634","-0.499466955661774","0.154526993632317","0.147569701075554","-0.194750651717186","0.0738483145833015","-0.0139554832130671","-0.27276811003685","-0.0709279328584671","-0.279104709625244","0.0480291396379471","0.0302598848938942","-0.428334951400757","-0.199452444911003","-0.5269575715065","-0.00212628184817731","-0.477778851985931","0.226592689752579","-0.598847091197968","-0.366840869188309","-0.278649538755417","-0.114107847213745"
"n2_30","-0.229628250002861","0.0199687350541353","0.214583665132523","0.210584402084351","0.065311498939991","0.0899190381169319","-0.137280508875847","0.256430894136429","0.320472061634064","-0.0864147916436195","-0.0368374399840832","0.165831327438354","0.228363305330276","-0.196842834353447","-0.242278248071671","0.20853753387928","0.093493826687336","-0.0162946004420519","-0.0828830003738403","0.167300298810005","0.16875821352005","0.209193959832191","0.423810660839081","0.114731326699257","0.219510272145271","0.105127885937691","-0.290823131799698","0.139330163598061","0.122196167707443","-0.109231762588024","0.11455749720335","-0.0342397764325142","-0.00116104725748301","0.313061773777008","0.106647819280624","-0.576765477657318","-0.790011048316956","0.0838022530078888","-0.143940538167953","0.00741000473499298","-0.0339145511388779","0.234050422906876","0.323927015066147","0.120746269822121","0.159294486045837","-0.194861978292465","0.380534112453461","0.166507363319397","0.0256194304674864","0.0160187222063541","0.263722151517868","0.076351635158062","0.00185608910396695","0.217305943369865","0.271137684583664","0.282703936100006","-0.0141003765165806","0.230033963918686","0.215703755617142","-0.150506213307381","0.0599846094846725","0.211587816476822","-0.175769343972206","-0.0543936528265476","-0.310944646596909","0.0544499345123768","0.0958480164408684","0.15664841234684","0.11316055059433","-0.0115777552127838","0.0544463805854321","-0.198923721909523","0.00722517305985093","-0.140924677252769","0.217436254024506","-0.0142114385962486","0.19060106575489","-0.197580844163895","0.123327426612377","0.107597939670086","-0.0452322103083134","-0.113206945359707","0.117008626461029","0.13553412258625","0.0656402632594109","0.0410194210708141","0.161143884062767","-0.0406862124800682","-0.205183908343315","-0.151427939534187","-0.273719131946564","0.0865961909294128","-0.59514307975769","0.107560962438583","0.00201670778915286","-0.0923546850681305","-0.670385718345642","0.19237707555294","0.162612214684486","0.29356262087822"
"n2_31","-0.121814839541912","-0.0765717178583145","0.114982560276985","0.0863560736179352","0.0478179678320885","-0.114032112061977","0.0552801266312599","0.0581111162900925","-0.0269623920321465","-0.0822021961212158","-0.194244727492332","-0.147835224866867","-0.181130692362785","0.112606428563595","0.0162784680724144","-0.00219048513099551","-0.107016883790493","0.062593124806881","0.099112756550312","-0.136287569999695","-0.147292748093605","-0.188057065010071","-0.104008711874485","0.0535517372190952","0.169484496116638","0.0515997521579266","0.040487676858902","-0.0700070038437843","0.0332475900650024","-0.114700444042683","0.104493722319603","-0.0586217157542706","0.0632005035877228","-0.0605757087469101","0.0766562521457672","0.0667598247528076","-0.166028186678886","-0.198419019579887","0.151546061038971","0.0957754924893379","0.0308878365904093","0.0105775557458401","-0.0446762815117836","-0.0755923166871071","0.0212209168821573","-0.0303528364747763","-0.0873005986213684","-0.130988925695419","0.00705149304121733","-0.00104983558412641","0.0370079055428505","0.0958505719900131","-0.0788371935486794","0.0570699907839298","-0.0818073377013206","-0.0595131330192089","-0.114707238972187","-0.111905239522457","-0.0494327358901501","-0.210519313812256","-0.052121140062809","-0.137269347906113","0.0525844544172287","0.0338902585208416","0.0591995604336262","0.0392883010208607","0.0658588632941246","-0.122240871191025","0.0843362286686897","0.0336394980549812","-0.125808835029602","0.021293368190527","-0.074452206492424","-0.119416289031506","0.0173313710838556","0.144090756773949","-0.032997939735651","0.00954581703990698","-0.018158383667469","-0.0552925653755665","-0.0101948622614145","0.0971576645970345","-0.142384231090546","-0.0595363564789295","-0.201218470931053","-0.171728387475014","-0.136270850896835","-0.0294954050332308","0.128822669386864","-0.0497134737670422","0.156569644808769","-0.0965868681669235","0.202387467026711","0.0984656512737274","0.124436810612679","0.000321493687806651","0.0674902275204659","0.0588581375777721","0.0016860367031768","0.0558511167764664"
"n2_32","-0.0594926550984383","0.508392632007599","-0.0865137204527855","0.448450773954391","-0.106474988162518","-0.580737769603729","-0.446813821792603","-0.0983154401183128","-1.47013568878174","-0.127221047878265","0.152848780155182","-0.0897461250424385","-0.0140158133581281","-0.664718866348267","-0.0844492390751839","-0.130853652954102","-0.132297620177269","0.0671000257134438","-0.0704701244831085","-0.279880791902542","-0.0273638814687729","-0.137077808380127","0.0809659287333488","-0.125987872481346","-1.50287210941315","0.0219005178660154","0.124366402626038","-0.0275486242026091","0.0881717875599861","0.274824559688568","-0.0512995682656765","-0.199432089924812","0.12314847111702","-0.0846400633454323","-0.0142878200858831","-0.637364268302917","-0.346368014812469","-0.222017094492912","0.000505202857311815","-0.178971901535988","0.197861656546593","-0.12552398443222","-0.00934533029794693","0.0793256536126137","-0.0314700342714787","-0.0378898791968822","0.0672968775033951","-0.128090783953667","-0.199433892965317","-1.81380248069763","-0.0642349645495415","0.129881918430328","0.182488575577736","-0.0444264337420464","-0.0494319126009941","0.144986018538475","0.00376296928152442","0.0962614938616753","-0.158674344420433","-0.381666362285614","-0.150296196341515","-0.0351804532110691","-0.0900545865297318","-0.0727600455284119","0.10562027990818","-0.211652725934982","-0.187509059906006","-0.112739488482475","0.0410310141742229","-0.331044882535934","0.580073416233063","-0.000222131056943908","0.11606252938509","0.208766505122185","-0.197132512927055","-0.233698770403862","-0.0348090603947639","0.0880424305796623","-0.0276376847177744","-0.139667436480522","0.0295130647718906","0.0770994424819946","-0.117489881813526","-0.28777876496315","-0.0274520497769117","-0.102828614413738","-0.0533616989850998","-0.513315677642822","0.108778782188892","0.129867345094681","-0.225111618638039","0.00746534392237663","-0.176787868142128","-0.107050880789757","-0.139550238847733","0.0787020772695541","-0.613104939460754","0.0922485217452049","0.307557851076126","0.0662059411406517"
"n2_33","0.427126377820969","-0.353505730628967","-0.474859625101089","-0.401831984519958","-0.637713134288788","-0.809343934059143","0.793650448322296","-0.588316321372986","1.0583815574646","0.396885901689529","-0.00323665421456099","-0.545629620552063","-0.535333335399628","0.725404858589172","0.44159796833992","-0.459574371576309","-0.655856907367706","0.529638230800629","0.530503749847412","-0.478428095579147","-0.54834908246994","-0.658239662647247","-0.542539119720459","0.105024375021458","-0.87914776802063","-0.594071567058563","0.559956610202789","-0.685096025466919","-0.643586874008179","-0.24115177989006","-0.568184494972229","0.312775313854218","-0.320891678333282","-0.544760823249817","-0.725454390048981","0.0491594932973385","0.219573214650154","-0.429581224918365","0.973017454147339","0.491006851196289","-0.033019632101059","-0.56655752658844","-0.655554473400116","-0.524462401866913","-0.70730072259903","0.898885071277618","-0.775624692440033","-0.754635214805603","0.327693343162537","-0.410885244607925","-0.379446506500244","-0.217566460371017","0.0683767795562744","-1.17549860477448","0.045876257121563","-0.667567014694214","0.465182155370712","-0.511893093585968","-0.711251795291901","-0.660472691059113","-1.11103463172913","-0.583260178565979","0.70703786611557","0.478243470191956","0.57094806432724","-0.786662757396698","-0.0902096107602119","-0.43476003408432","-1.01026034355164","-0.749798178672791","-0.654193341732025","0.843414127826691","-0.648989498615265","-2.0411913394928","-0.749129951000214","0.562919557094574","-0.297103345394135","0.335039258003235","-1.25387966632843","0.0830117240548134","0.435652375221252","0.165287390351295","-0.678829669952393","-0.59260767698288","0.0632066056132317","0.0847754031419754","-0.55103987455368","0.234636262059212","0.429712861776352","0.802023112773895","0.614546120166779","-0.66948139667511","0.309124827384949","-0.366585791110992","0.272982001304626","0.218271926045418","0.283970713615417","-0.0266192276030779","-0.289009004831314","-0.796846151351929"
"n2_34","0.123140349984169","-0.201356425881386","-0.141445249319077","-0.176481783390045","-0.0194735117256641","-0.128264144062996","-0.00487961526960135","0.0711854621767998","-0.707229912281036","-0.14996363222599","0.0896265432238579","-0.244572669267654","0.0722164660692215","-0.069064199924469","0.177344605326653","-0.137398019433022","-0.0385208278894424","0.120741069316864","0.101772502064705","0.0588186457753181","0.0397277362644672","0.0188837610185146","0.0340054892003536","-0.0227710586041212","-0.0532949827611446","0.0317113921046257","0.94804847240448","-0.0348569080233574","0.0301474388688803","-0.30030369758606","-0.0202534161508083","-0.12514965236187","-0.036462489515543","-0.0530234128236771","-0.216917410492897","-0.278358459472656","-0.508983492851257","0.045626200735569","-0.0185565557330847","-0.0784620046615601","-0.161829024553299","-0.0173135437071323","-0.107809282839298","-0.0694235190749168","-0.0353692471981049","0.0382313653826714","-0.0176354050636292","-0.291212022304535","-0.0446014739573002","-0.195111215114594","-0.171915099024773","-0.241001456975937","-0.0584427826106548","-0.049870677292347","-0.090246357023716","-0.0351991355419159","0.0247665401548147","-0.245574936270714","-0.0672595947980881","-0.386615723371506","-0.128438800573349","-0.227462127804756","0.0579476617276669","0.0581841319799423","0.216108605265617","-0.0179606340825558","-0.227907776832581","0.0238190051168203","-0.0853879675269127","-0.237428352236748","-0.172431349754333","0.164841145277023","-0.0649471208453178","-0.712453186511993","0.0644815340638161","-0.196963772177696","-0.0682261660695076","0.168661296367645","-0.217912301421165","0.14614063501358","0.102386817336082","0.153312593698502","0.0280612576752901","-0.0190368518233299","0.232973664999008","-0.156350091099739","-0.1334627866745","0.125246539711952","0.128697589039803","0.144269868731499","-0.00341435545124114","-0.204176366329193","-0.33886593580246","0.0785749331116676","-0.0518814735114574","0.00926703494042158","-0.240050658583641","0.193441644310951","-0.0782136172056198","-0.0936421826481819"
"n2_35","0.120782025158405","0.0865498483181","-0.0499760806560516","0.157113716006279","0.0183672718703747","-0.107704006135464","0.100712291896343","0.0491923093795776","-0.0682030469179153","-0.0763400793075562","-0.200441986322403","-0.0175953470170498","0.0641147643327713","0.0758270546793938","-0.0162868816405535","-0.16051472723484","-0.0297655668109655","0.120740838348866","-0.00772091187536716","-0.134290501475334","-0.0799430459737778","-0.1111980676651","-0.148480787873268","0.0308339186012745","-0.028125224635005","-0.0883247852325439","-0.0827432200312614","0.0832054689526558","-0.157073467969894","-0.0144259855151176","0.0893556848168373","-0.0447914935648441","-0.00239513535052538","0.0342682115733624","0.140836387872696","-0.0425435975193977","-0.0534291490912437","0.00221327017061412","0.11554928123951","0.0430272929370403","-0.0769316256046295","-0.00937859062105417","-0.185883387923241","-0.0725459530949593","0.0909408852458","-0.128256753087044","0.0555547252297401","-0.0122657837346196","-0.081850454211235","0.0876451805233955","0.0394189096987247","-0.0942306220531464","0.110090836882591","0.100534968078136","0.0183931160718203","0.11230730265379","-0.155419781804085","0.0241994895040989","-0.0446224398910999","-0.0850505456328392","0.0324331596493721","-0.0192883871495724","-0.0309404991567135","0.0474820099771023","-0.0560908168554306","0.0522399209439754","0.0725728869438171","-0.0942467674612999","-0.073296032845974","0.0467095039784908","0.133742213249207","0.11173702031374","0.0998204350471497","-0.195414632558823","0.0928983613848686","-0.0447441376745701","-0.117830984294415","0.122074127197266","0.00247523840516806","-0.0327294543385506","0.0926504582166672","-0.11391044408083","0.0344314351677895","-0.16355736553669","-0.088602215051651","0.0748274549841881","0.0811256021261215","-0.0383083149790764","0.00288798962719738","-0.0773888900876045","0.0211410745978355","0.0633279979228973","-0.0427837669849396","-0.0341343358159065","0.14756640791893","-0.0987039282917976","0.0275469943881035","-0.0131945321336389","0.0824690833687782","-0.078713558614254"
"n2_36","-0.080261155962944","-0.0769661739468575","0.162312462925911","0.138079151511192","0.0604907460510731","0.0764576643705368","-0.0323856994509697","0.284534215927124","-0.47895359992981","-0.238061457872391","0.0780063644051552","0.286647796630859","0.221056759357452","-0.804413795471191","-0.261981099843979","0.282752066850662","0.207587376236916","-0.183976143598557","-0.24801878631115","0.0724416151642799","0.170704245567322","0.384871929883957","0.363705933094025","0.000321105209877715","0.156019181013107","0.180181205272675","0.743044018745422","0.386473655700684","0.0832757651805878","-0.0321443416178226","0.333945631980896","-0.0585809759795666","0.161186754703522","0.286008924245834","0.257666677236557","-1.5954487323761","-1.53021430969238","0.113698251545429","-0.219298928976059","-0.273710578680038","-0.0649962797760963","0.0286529418081045","0.190228775143623","0.262241095304489","0.230319917201996","-0.216658905148506","0.229848936200142","0.121435694396496","-0.277410328388214","-0.165067479014397","0.155989438295364","0.0579866655170918","0.0338459797203541","0.236879527568817","0.23340006172657","0.166729390621185","-0.290406972169876","0.233971074223518","0.103216148912907","0.0782574489712715","0.252953708171844","0.309898346662521","-0.134561792016029","-0.281045854091644","-0.356246829032898","0.202975615859032","0.284153401851654","0.233443856239319","0.269611001014709","0.205689966678619","0.0512223951518536","-0.408275306224823","0.103709854185581","0.64003986120224","0.367175906896591","-0.359614580869675","0.264887452125549","-0.0471152439713478","0.296001583337784","0.122652992606163","-0.135735794901848","-0.236972823739052","0.263395845890045","0.0622467026114464","0.0172099862247705","0.107537105679512","0.257924735546112","-0.190775841474533","-0.304906070232391","-0.273377567529678","-0.461873143911362","0.295183777809143","-0.825545012950897","0.0746304765343666","-0.128263413906097","-0.139146119356155","-1.64254152774811","0.0540773533284664","0.0873274058103561","0.343453258275986"
"n2_37","-0.0609935373067856","0.0441346056759357","-0.0165412370115519","-0.0136757399886847","-0.0320199355483055","-0.0136096859350801","-0.0110094519332051","0.0967949107289314","-0.559321761131287","-0.0214351993054152","-0.0129823507741094","-0.0671630278229713","-0.124812915921211","0.125604048371315","0.0884315371513367","-0.0645763427019119","-0.00199678237549961","0.115657322108746","-0.0856710597872734","0.0470666848123074","-0.131058186292648","-0.17149056494236","0.0733288824558258","-0.149220630526543","0.167597070336342","0.0416460782289505","0.0464190132915974","-0.147564455866814","0.0722566470503807","0.137417569756508","-0.0496482402086258","-0.0548416338860989","0.221573740243912","-0.0693210139870644","-0.00995233468711376","0.0277950372546911","-0.106987453997135","-0.00710514839738607","0.221617802977562","0.088212326169014","0.151384994387627","-0.0560055673122406","-0.0644904375076294","-0.149118199944496","0.0808039382100105","0.00236068875528872","-0.157339677214622","0.0387915708124638","-0.124890521168709","-0.116323843598366","-0.164847865700722","-0.0489776059985161","-0.0998556688427925","-0.0634485483169556","0.0927073657512665","0.137009873986244","-0.0754587799310684","-0.0495753437280655","0.00408671284094453","-0.199772238731384","0.0366003662347794","-0.0228417161852121","0.0753479823470116","0.0279737673699856","0.0774102881550789","-0.0663176849484444","-0.136137455701828","-0.0523875877261162","0.0860298648476601","-0.114375181496143","0.0777496322989464","0.0062670698389411","-0.0660920813679695","-0.579788029193878","-0.172358796000481","-0.067423090338707","-0.00798967853188515","0.15840457379818","-0.0660606101155281","-0.0876801908016205","-0.0326968505978584","0.00527581525966525","-0.0192662496119738","-0.090948149561882","0.0734535455703735","-0.172785550355911","-0.0393151827156544","0.0817620605230331","0.0566747151315212","0.128349736332893","-0.0525173358619213","-0.0430927090346813","0.0487072914838791","-0.100970305502415","0.0946492850780487","-0.0350374318659306","0.0133039355278015","0.0538322739303112","0.23021112382412","-0.0886205062270164"
"n2_38","-0.00598244229331613","0.147342160344124","-0.058821726590395","0.157757267355919","0.0997172221541405","-0.0247398987412453","-0.164421394467354","0.100876532495022","-0.123531438410282","-0.000472151674330235","-0.187463700771332","0.069201223552227","-0.183643281459808","0.151654183864594","0.138629630208015","0.0156692881137133","0.109896756708622","-0.0666404962539673","-0.0477531887590885","-0.0639541000127792","0.0635014548897743","0.0502324625849724","-0.0576593279838562","0.212225273251534","0.0800667554140091","0.053612619638443","-0.0666864365339279","-0.0687342509627342","0.06128790974617","0.0203612204641104","-0.0657885298132896","0.0760821774601936","0.0612002909183502","0.0559617802500725","-0.00183869083411992","-0.109325014054775","-0.157725691795349","-0.0239855963736773","0.0367413610219955","0.111668922007084","0.231794521212578","0.17836731672287","0.0530844293534756","0.110382974147797","-0.0800949484109879","-0.141012340784073","-0.121630594134331","-0.0262314490973949","-0.00869371555745602","0.436783075332642","0.0311443991959095","0.0493764877319336","-0.179032817482948","0.010738923214376","0.0991221442818642","0.0498350262641907","-0.113150209188461","0.0788684114813805","0.108813524246216","-0.130335360765457","-0.06468465924263","-0.0661703944206238","0.0486162155866623","-0.0994720533490181","-0.0881764441728592","0.172271892428398","-0.0782110169529915","-0.0513644702732563","0.126279965043068","0.0266814716160297","0.167459651827812","0.0766575559973717","0.07627172768116","0.122393541038036","-0.00729608535766602","0.272479802370071","0.108863197267056","-0.0462891757488251","0.202814012765884","0.27772068977356","0.123719982802868","0.0833704397082329","0.105993650853634","-0.0666029378771782","0.158331245183945","0.165601417422295","0.113752789795399","0.215788841247559","-0.0355686172842979","-0.0471260547637939","0.130859330296516","0.0746272131800652","0.145025089383125","0.166104301810265","0.164683669805527","-0.0730496048927307","-0.08352180570364","0.0289821494370699","0.284707963466644","-0.0981452092528343"
"n2_39","-0.269593626260757","0.392718940973282","0.35472846031189","0.235500290989876","0.264189034700394","0.220086589455605","0.236563518643379","0.207294970750809","-0.106119364500046","0.263498991727829","-0.365744262933731","0.279879629611969","0.254957973957062","0.370342940092087","-0.14052776992321","0.181963622570038","0.280737668275833","-0.072539359331131","-0.0436474494636059","0.196000039577484","0.128295257687569","0.327687680721283","0.292417258024216","0.323151707649231","0.138641878962517","0.316213220357895","0.0688345432281494","0.162147328257561","0.184086084365845","0.29907900094986","0.177099168300629","0.256724506616592","0.13468699157238","0.136589422821999","0.314513832330704","0.139269381761551","0.134487256407738","0.238593637943268","-0.282243371009827","0.343314796686172","0.371804267168045","0.0685463026165962","0.143002972006798","0.130355894565582","0.0818946957588196","-0.0963809192180634","0.268556475639343","0.348817527294159","0.138422831892967","0.243124648928642","0.0740098804235458","0.512599289417267","-0.324269533157349","0.235462740063667","0.302863955497742","0.131911382079124","-0.170890331268311","0.294227540493011","0.13398115336895","-0.110989555716515","0.261669158935547","0.240411221981049","-0.267185151576996","-0.0978351235389709","-0.057892557233572","0.17439042031765","0.131211951375008","0.20948201417923","0.201571270823479","0.246673911809921","0.382977992296219","-0.242953702807426","0.162297964096069","0.204310029745102","0.125681281089783","0.296412438154221","0.330524623394012","-0.0928396508097649","0.0550547726452351","0.0844705924391747","-0.281558007001877","-0.233013764023781","0.0697115138173103","0.271944105625153","-0.13223634660244","0.152648255228996","0.193159714341164","0.13861982524395","-0.119437523186207","-0.185176759958267","0.233210921287537","0.0632123872637749","0.155464380979538","0.279527753591537","0.356958597898483","-0.131629914045334","0.0815911516547203","0.20248955488205","0.359136879444122","0.151728287339211"
"n2_40","-0.00473809614777565","0.0186053831130266","0.0120591623708606","-0.114757142961025","-0.00303496490232646","0.0145674161612988","0.0383458025753498","-0.0649204850196838","-0.219701170921326","-0.0317203626036644","-0.0391306765377522","-0.0684981793165207","-0.198318123817444","0.141888663172722","0.0663470327854156","0.0493194013834","0.0714390128850937","0.0313635878264904","0.0656634792685509","0.0247224643826485","-0.114143431186676","-0.038646224886179","0.00447015324607491","-0.129330322146416","0.145514011383057","-0.0385122261941433","-0.156145855784416","-0.103511549532413","-0.0647601783275604","-0.138100296258926","0.0546839870512486","-0.0178612507879734","0.0460520125925541","-0.168732911348343","0.0448832362890244","0.112775735557079","-0.184912502765656","-0.00701185548678041","0.053239893168211","-0.0404994487762451","-0.129600957036018","0.0447255074977875","-0.060715276747942","-0.0402216985821724","0.0241261590272188","0.0105172321200371","-0.0964853540062904","-0.1328234821558","-0.0810331031680107","-0.051917526870966","-0.0321613438427448","-0.0290140248835087","-0.0435210727155209","0.09415253251791","-0.13761979341507","0.0992743223905563","0.0425378270447254","-0.184592500329018","0.121887192130089","0.128826782107353","-0.194096237421036","-0.0988141074776649","0.0127470856532454","-0.039206225425005","0.0502179265022278","0.0535686835646629","-0.130943924188614","0.0161704253405333","0.101966857910156","0.0111426543444395","0.0532111935317516","0.114373192191124","0.0317235141992569","-0.0965688899159431","-0.0268759373575449","0.179049924015999","-0.0588434636592865","0.151211515069008","0.00363530055619776","-0.00834975205361843","0.112656071782112","0.0986495763063431","0.000999402487650514","0.028611458837986","-0.0149381216615438","0.0726787000894547","0.0968109741806984","-0.139345422387123","-0.0590348206460476","0.112788952887058","0.0202165599912405","0.0356164909899235","-0.0636548399925232","-0.0804231613874435","-0.0212039016187191","0.00166177644859999","-0.0229385569691658","0.103470712900162","0.0712827444076538","-0.16548091173172"
"n2_41","0.0952702984213829","0.0366171225905418","-0.118739359080791","-0.104065127670765","-0.0962890088558197","-0.135439068078995","0.0725723281502724","-0.0050310967490077","-0.0675094425678253","0.120143555104733","-0.12617564201355","-0.0115003818646073","0.0191769804805517","-0.0966841652989388","0.191173747181892","-0.0466961376368999","-0.201389774680138","0.0465881824493408","-0.0442254170775414","-0.200925081968307","0.100975006818771","-0.156949549913406","-0.0164067689329386","-0.052686732262373","0.119397215545177","-0.0707507580518723","0.036614004522562","-0.0333786644041538","0.0774984061717987","-0.131141692399979","0.0125097203999758","-0.023292688652873","-0.0343402922153473","-0.082415297627449","0.0586762726306915","0.0292649697512388","-0.0340196266770363","-0.0275625232607126","-0.0179302413016558","-0.0847629830241203","-0.0907411649823189","-0.0183859877288342","-0.0633818060159683","-0.0792820230126381","-0.0400333777070045","0.0392042547464371","-0.218418896198273","-0.0500100962817669","-0.0590417273342609","-0.0593831725418568","0.041355699300766","-0.126494899392128","-0.0632069483399391","-0.0209236051887274","-0.00389077281579375","-0.00786166172474623","0.08247060328722","-0.256534099578857","0.0763852447271347","-0.0903765484690666","0.0360631830990314","0.114589996635914","-0.0566942319273949","0.09698735922575","0.16870641708374","-0.0774501264095306","-0.103875644505024","0.0690201595425606","-0.113814540207386","0.0701621100306511","0.0112524852156639","0.0337041579186916","0.0190213639289141","-0.238575458526611","0.0869407504796982","0.144832119345665","0.0275829862803221","0.0885622724890709","-0.0301242060959339","0.0654848366975784","0.00367045123130083","-0.0459883324801922","0.0180898625403643","-0.180298343300819","-0.0746233686804771","-0.116642482578754","0.0509491562843323","-0.000152128282934427","-0.00452186027541757","-0.000956185860559344","-0.0985487550497055","-0.106079764664173","0.0588446818292141","-0.146207168698311","-0.104027166962624","-0.0381882525980473","-0.0961848422884941","-0.00878136977553368","0.10061414539814","-0.0622650347650051"
"n2_42","-0.0457426235079765","-0.094864584505558","0.0965412780642509","-0.125786736607552","-0.0783431008458138","-0.0164052881300449","0.108101218938828","-0.0841073915362358","-0.234267547726631","-0.103764660656452","0.0762809589505196","-0.155563309788704","-0.0240034963935614","-0.0956151708960533","0.0245345868170261","0.0131528498604894","-0.111377701163292","0.0364825986325741","0.177353829145432","0.0390943437814713","-0.175868690013885","-0.0593784116208553","0.0788174495100975","-0.0495925098657608","0.0316820181906223","-0.146991759538651","0.0246608071029186","-0.0794793218374252","-0.0454893074929714","-0.20570382475853","-0.0582959577441216","-0.111620284616947","-0.0644297227263451","0.0476681217551231","-0.0831641480326653","0.0401814170181751","-0.130866929888725","0.0721544027328491","-0.0743195116519928","0.105352349579334","0.0493139326572418","-0.0442829355597496","-0.00208010850474238","-0.100564531981945","-0.11012801527977","-0.0736231505870819","0.0291798450052738","-0.0108923586085439","0.108183711767197","-0.211957901716232","-0.00436023529618979","-0.00840144604444504","0.124407462775707","-0.174572721123695","-0.14016455411911","-0.0973531156778336","0.03022919036448","-0.179873511195183","-0.0960570871829987","-0.0527323372662067","-0.136515572667122","-0.0342618264257908","0.165463119745255","-0.0724481493234634","0.0189134031534195","0.025482589378953","0.120081320405006","-0.0265511050820351","0.0188684910535812","0.0883373841643333","-0.111164771020412","-0.0440180078148842","-0.160210520029068","0.0188949033617973","-0.041022751480341","-0.106954909861088","-0.131823256611824","0.108621634542942","-0.151057049632072","-0.127955302596092","0.00758521584793925","-0.0752712339162827","-0.0651697218418121","-0.09180848300457","-0.0934952422976494","-0.0360935404896736","-0.147153496742249","0.057383980602026","-0.0752226412296295","-0.00412138225510716","-0.0676939561963081","-0.0413092821836472","0.0173802636563778","-0.0205595400184393","-0.00583079690113664","0.000408167281420901","-0.0707400292158127","0.0495404042303562","-0.105158150196075","-0.0567306168377399"
"n2_43","0.146401464939117","-0.13304291665554","0.0107111278921366","-0.030108580365777","-0.0813214331865311","-0.0529570318758488","0.037307221442461","0.0255685448646545","-0.0579815357923508","0.0744445398449898","0.0131046315655112","0.0504409931600094","-0.145304605364799","0.0990621075034142","-0.0856834948062897","-0.0625127181410789","-0.152486443519592","-0.0119952745735645","-0.0712233856320381","-0.0553846098482609","-0.154051646590233","0.0518019497394562","-0.0931322425603867","0.0765387266874313","-0.0409810729324818","-0.000471249019028619","-0.175511881709099","-0.0415300913155079","-0.157765731215477","-0.0318630859255791","0.122100546956062","0.0439994223415852","-0.00039512207149528","-0.0295393001288176","0.029046630486846","0.196918115019798","-0.147139310836792","-0.138042405247688","0.0455397069454193","0.124373652040958","0.0540848970413208","-0.0799763053655624","-0.0845933556556702","0.0559070706367493","-0.061033271253109","-0.138081833720207","0.0750292390584946","-0.0345217809081078","-0.0049698487855494","0.107762381434441","-0.10770233720541","0.030288890004158","-0.0384032502770424","0.00360497133806348","0.114720076322556","0.0959411934018135","0.0868692100048065","-0.073395811021328","0.147206097841263","-0.00292567792348564","-0.0781018510460854","-0.0997205302119255","-0.133732333779335","-0.151331156492233","-0.0774819850921631","-0.11629568785429","-0.0172797162085772","0.0728912800550461","-0.147399201989174","-0.0409947820007801","-0.0188843458890915","0.108760684728622","0.0817652568221092","-0.0643830969929695","-0.0795978158712387","0.064277172088623","0.103340454399586","-0.0257220435887575","-0.0869166329503059","0.220313757658005","0.110256753861904","0.102002188563347","0.101505376398563","-0.0929193124175072","-0.162639796733856","-0.0357967875897884","0.074345663189888","-0.0129570253193378","0.0405059978365898","-0.0496568754315376","0.0175015889108181","0.0831745713949203","0.033684004098177","-0.172493979334831","-0.0804527178406715","-0.0937573164701462","-0.0165778994560242","0.164985775947571","-0.0217048618942499","-0.051555447280407"
"n2_44","-0.0082027455791831","-0.0290252231061459","-0.134455278515816","0.00103347981348634","-0.0101251564919949","-0.0986458882689476","0.174159795045853","-0.0588575638830662","0.0113202231004834","-0.0271743256598711","0.0896693095564842","-0.0257297456264496","0.077764667570591","-0.026688227429986","-0.00128417718224227","-0.113365389406681","0.0111325951293111","0.130095958709717","0.0558351911604404","0.0888839364051819","-0.0442677102982998","-0.159205481410027","-0.109542489051819","0.0520699620246887","0.0270865168422461","-0.0460404083132744","-0.0115443216636777","-0.0150591097772121","-0.026105847209692","0.0741568356752396","-0.127300143241882","0.114143572747707","0.129973158240318","-0.0614909902215004","-0.00474164634943008","-0.0686216056346893","0.0126913376152515","0.148578524589539","-0.0542631186544895","-0.0330468080937862","0.113586694002151","0.0628621429204941","0.0638292729854584","-0.0974511653184891","0.0279467813670635","0.061797309666872","-0.0324421860277653","-0.162254810333252","0.0460933446884155","0.0458095446228981","0.0597718618810177","-0.0809323340654373","-0.00484492396935821","0.10839956253767","-0.00375015614554286","-0.0136071499437094","-0.00430533476173878","-0.021264536306262","-0.0202637538313866","0.084726370871067","0.0765551924705505","0.106628678739071","0.105296544730663","-0.150276079773903","0.165642887353897","-0.136825129389763","-0.0661922469735146","0.0188607312738895","-0.0854923948645592","0.0147535428404808","-0.0642334967851639","0.14940470457077","0.0689212083816528","-0.0286764781922102","0.155751168727875","-0.0408927276730537","0.0115994950756431","-0.0531423278152943","0.166465252637863","-0.0394090712070465","-0.013533222489059","-0.0240508243441582","-0.194974973797798","-0.149378776550293","-0.00621081562712789","0.103731893002987","0.0230919718742371","-0.0277284514158964","-0.0304905343800783","-0.0357475392520428","-0.0531502068042755","0.00578982708975673","0.154874637722969","0.0977683663368225","0.0140607943758368","-0.128088757395744","0.119851559400558","0.0393695496022701","-0.0757506489753723","-0.028271671384573"
"n2_45","-0.0221931878477335","-0.172832190990448","-0.0170888304710388","-0.177276089787483","-0.138216614723206","-0.0116950403898954","0.0785717666149139","0.0175881702452898","-0.0939741283655167","0.0928237438201904","0.00237214541994035","-0.113419242203236","0.0472729802131653","0.0184811968356371","0.0259347185492516","-0.0454876236617565","0.0409022718667984","0.119404658675194","-0.0679490938782692","-0.0435700826346874","-0.139215216040611","-0.0729258731007576","-0.0446422472596169","0.0945313796401024","0.0806635841727257","0.0140354679897428","-0.126700386404991","0.0359805822372437","-0.0719518661499023","-0.188294932246208","-0.10252008587122","0.0637456104159355","-0.0131449326872826","0.0754482373595238","-0.148474678397179","0.055170476436615","0.0676677748560905","-0.0818568170070648","0.149222657084465","0.0166910067200661","-0.0531993545591831","-0.0909320563077927","0.0701750814914703","-0.152659580111504","0.0373481400310993","0.114992700517178","-0.0213470552116632","-0.0723066180944443","-0.0254807807505131","-0.236642822623253","-0.0873407498002052","0.014028325676918","-0.00608384096994996","0.069990836083889","0.0390229076147079","-0.0241606142371893","-0.0223639719188213","-0.0186233222484589","-0.0882153883576393","-0.0222028307616711","-0.148331373929977","-0.141623586416245","-0.017862880602479","0.117720350623131","-0.0657057091593742","-0.0522392280399799","0.0425916127860546","-0.0309511162340641","-0.0749469771981239","-0.0180067494511604","-0.131932333111763","0.131282716989517","-0.118028461933136","0.00347907561808825","0.0248698405921459","0.076623298227787","-0.147976294159889","0.108294792473316","-0.0297137629240751","-0.00832431670278311","0.108490340411663","0.010471754707396","-0.0443102233111858","0.00853732600808144","-0.0447431281208992","-0.00790644623339176","-0.108995117247105","-0.0180070903152227","-0.0589556023478508","0.0247767511755228","-0.0818175077438354","0.0467642247676849","0.044313982129097","-0.133048459887505","0.0585140362381935","0.171399682760239","0.0793436616659164","-0.134332284331322","0.00357863330282271","-0.0791669711470604"
"n2_46","0.018867876380682","-0.505573213100433","0.110070236027241","-0.285862386226654","0.13098669052124","0.584683299064636","-0.0297748632729053","0.154399916529655","0.0417850576341152","-0.805317401885986","0.217005684971809","0.204529732465744","0.105740465223789","0.0082535007968545","-0.270987063646317","0.0857071802020073","-0.0182781163603067","-0.274902373552322","-0.279936879873276","0.26153302192688","-0.120579607784748","0.27454999089241","0.0321341156959534","-0.16984611749649","0.271777033805847","-0.00277177290990949","-0.122823923826218","0.234919100999832","-0.0531484968960285","-0.464942634105682","0.162618800997734","0.192560985684395","-0.192899063229561","0.247591227293015","0.137013092637062","0.287089765071869","-0.676378726959229","0.00710431532934308","-0.623176097869873","0.0759914889931679","-0.133185043931007","0.252088576555252","0.110400930047035","0.0292186439037323","0.165138080716133","-0.545924127101898","0.174603313207626","0.286855310201645","0.326689094305038","2.33313250541687","0.00971278641372919","-0.239877685904503","0.26086214184761","0.559540331363678","0.111917622387409","0.0802143812179565","-0.191806450486183","0.241164892911911","0.416367918252945","0.388255566358566","0.345059722661972","0.0733716562390327","-0.243938505649567","-0.220665171742439","-0.193579524755478","0.440578460693359","0.126622810959816","0.0582784824073315","0.266688108444214","0.488445609807968","-0.212761715054512","-0.294323980808258","-0.18174409866333","-0.541561484336853","0.290509670972824","0.76113748550415","0.0956059247255325","0.0110711362212896","0.622301459312439","-0.26331228017807","-0.0670441761612892","-0.357820302248001","0.234196245670319","0.137458339333534","-0.149158254265785","-0.236382693052292","0.303641945123672","-0.141614720225334","-0.143482685089111","-0.127135217189789","0.353923469781876","0.29546982049942","-0.500085771083832","0.109132006764412","0.264620572328568","-0.0869471207261086","-0.618346035480499","-0.573822736740112","-0.448350608348846","0.203626960515976"
"n2_47","0.195355817675591","-0.0377367697656155","-0.381473392248154","-0.0228255279362202","-0.0652960017323494","-0.677235722541809","-0.201533928513527","0.0230630319565535","-1.79395663738251","0.315712869167328","0.184724792838097","-0.282339662313461","-0.199475511908531","0.565883994102478","0.379552364349365","-0.234408721327782","-0.220090195536613","0.302760273218155","0.33596196770668","-0.0111885769292712","-0.148470878601074","-0.494847446680069","-0.437538325786591","-0.0780330300331116","-0.923823654651642","-0.0783703476190567","0.410450965166092","-0.302383780479431","0.174866929650307","-0.126621693372726","-0.211561799049377","0.292192041873932","0.047917079180479","-0.242385402321815","-0.234552159905434","1.50097751617432","1.06965661048889","-0.750054121017456","0.594454765319824","0.638671398162842","0.121622480452061","-0.00758056901395321","-0.323405742645264","-0.4464131295681","-0.282792150974274","0.517413914203644","-0.318446606397629","-0.645158708095551","0.0483171939849854","0.736313819885254","-0.424379289150238","0.00395367154851556","0.0913824439048767","-0.337468475103378","-0.0577838979661465","-0.138291999697685","0.510205805301666","-0.3255455493927","-0.0638392195105553","0.033283244818449","-0.455031871795654","-0.505713820457458","0.244740307331085","0.402374476194382","0.335528880357742","-0.504778683185577","-0.656525552272797","-0.154949069023132","-0.337237060070038","-0.4312824010849","0.0483475439250469","0.417565017938614","-0.275444686412811","-1.67230403423309","-0.422795474529266","0.416392773389816","-0.476252317428589","0.353858321905136","-0.631354629993439","0.191267594695091","0.571347236633301","0.426247179508209","-0.225164651870728","-0.187355175614357","0.295338422060013","0.101029753684998","-0.247357115149498","0.412548750638962","0.298462212085724","0.461351186037064","0.460663706064224","-0.23701785504818","0.294482529163361","-0.114879325032234","0.755816042423248","0.559286117553711","1.11966562271118","0.249750018119812","0.0696891918778419","-0.244658097624779"
