"dummy","n2_1","n2_2","n2_3","n2_4","n2_5","n2_6","n2_7","n2_8","n2_9","n2_10","n2_11","n2_12","n2_13","n2_14","n2_15","n2_16","n2_17","n2_18","n2_19","n2_20","n2_21","n2_22","n2_23","n2_24","n2_25","n2_26","n2_27","n2_28","n2_29","n2_30","n2_31","n2_32","n2_33","n2_34","n2_35","n2_36","n2_37","n2_38","n2_39","n2_40","n2_41","n2_42","n2_43","n2_44","n2_45","n2_46","n2_47","n2_48","n2_49","n2_50","n2_51","n2_52","n2_53","n2_54","n2_55","n2_56","n2_57","n2_58","n2_59","n2_60","n2_61","n2_62","n2_63","n2_64","n2_65","n2_66","n2_67","n2_68","n2_69","n2_70","n2_71","n2_72","n2_73","n2_74","n2_75","n2_76","n2_77","n2_78","n2_79","n2_80","n2_81","n2_82","n2_83","n2_84","n2_85","n2_86","n2_87","n2_88","n2_89","n2_90","n2_91","n2_92","n2_93","n2_94","n2_95","n2_96","n2_97","n2_98","n2_99","n2_100","n2_101","n2_102","n2_103","n2_104","n2_105","n2_106","n2_107","n2_108","n2_109","n2_110","n2_111","n2_112","n2_113","n2_114","n2_115","n2_116","n2_117","n2_118","n2_119","n2_120","n2_121","n2_122","n2_123","n2_124","n2_125","n2_126","n2_127","n2_128","n2_129","n2_130","n2_131","n2_132","n2_133","n2_134","n2_135","n2_136","n2_137","n2_138","n2_139","n2_140","n2_141","n2_142","n2_143","n2_144","n2_145","n2_146","n2_147","n2_148","n2_149","n2_150","n2_151","n2_152","n2_153","n2_154","n2_155","n2_156","n2_157","n2_158","n2_159","n2_160","n2_161","n2_162","n2_163","n2_164","n2_165","n2_166","n2_167","n2_168","n2_169","n2_170","n2_171","n2_172","n2_173","n2_174","n2_175","n2_176","n2_177","n2_178","n2_179","n2_180","n2_181","n2_182","n2_183","n2_184","n2_185","n2_186","n2_187","n2_188","n2_189","n2_190","n2_191","n2_192","n2_193","n2_194","n2_195","n2_196","n2_197","n2_198","n2_199","n2_200"
"n1_1","0.146604016423225","0.0703341141343117","-0.334253400564194","0.08184664696455","0.0652475878596306","0.10946449637413","-0.0168786570429802","-0.0842595621943474","0.118593692779541","-0.157563254237175","-0.039406955242157","-0.078883521258831","0.0743798613548279","-0.187036156654358","-0.216227307915688","0.114359319210052","0.0872871875762939","0.0957238674163818","-0.0365488044917583","-0.0839920938014984","0.207287862896919","-0.220518589019775","-0.315751492977142","0.0490031614899635","-0.121807053685188","0.00890780799090862","-0.005452252458781","-0.167304664850235","-0.0646635442972183","-0.0131470859050751","-0.0309147220104933","0.0262204091995955","0.00993486400693655","0.0566246546804905","-0.196879982948303","-0.00662798946723342","-0.0493637323379517","-0.134300261735916","0.153624564409256","-0.0951149612665176","-0.187949493527412","0.172496110200882","-0.173329278826714","-0.247248560190201","-0.0123758111149073","-0.198981657624245","0.128908947110176","-0.624447584152222","-0.0886565819382668","-0.142460837960243","-0.144396349787712","0.0215840563178062","-0.0624522492289543","-0.257826775312424","0.0164604559540749","-0.0989947915077209","-0.141430169343948","-0.168520748615265","-0.122093237936497","-0.173073559999466","-0.186809882521629","-0.256896585226059","0.084752582013607","-0.28781920671463","-0.242834150791168","-0.415786653757095","-0.253791153430939","-0.170720830559731","-0.258062064647675","-0.130521804094315","-0.211381673812866","-0.173973396420479","-0.0376251265406609","-0.180922135710716","0.155877128243446","-0.217157706618309","-0.0365976914763451","-0.0538668856024742","-0.033593162894249","-0.0188721753656864","0.0665814951062202","-0.0496011152863503","-0.0307581033557653","-0.019147016108036","0.00923153571784496","0.0942000076174736","-0.171701833605766","-0.170658990740776","-0.16391684114933","-0.129251256585121","0.126962915062904","-0.0771611407399178","-0.0382478050887585","-0.240591362118721","-0.332442611455917","-0.0373676605522633","-0.162988513708115","-0.206429466605186","0.0650934875011444","0.125602766871452","-0.158486098051071","-0.0263129882514477","-0.0391603149473667","0.0765146911144257","-0.0170781444758177","-0.222198620438576","0.143118694424629","0.0511987172067165","-0.128930762410164","-0.0490835905075073","-0.150465741753578","-0.15660072863102","-0.08443333953619","0.120165705680847","-0.107211984694004","-0.317433208227158","-0.233438462018967","-0.0612893290817738","-0.223646998405457","-0.0367471463978291","-0.217048034071922","-0.0833228453993797","-0.147582188248634","-0.0395170152187347","0.0223110225051641","-0.0563159435987473","-0.17816436290741","0.149712681770325","0.2250896692276","-0.200957238674164","0.140653029084206","-0.184426188468933","0.119500629603863","-0.0429610684514046","-0.0666926726698875","0.136597648262978","0.0864370092749596","-0.205483749508858","-0.0531412996351719","-0.0460426025092602","-0.276815682649612","0.193207800388336","-0.09224933385849","-0.0505067892372608","-0.441504806280136","-0.206424608826637","-0.149383828043938","0.182232111692429","-0.109730020165443","0.0474418066442013","-0.298628479242325","-0.0237968396395445","0.121683187782764","-0.0932979360222816","-0.0118792988359928","-0.0691449567675591","-0.0729304254055023","-0.0941358581185341","0.0205784309655428","-0.189838960766792","-0.349063664674759","-0.145821273326874","0.0481571145355701","-0.581174969673157","-0.0686846151947975","-0.347076058387756","-0.0883792266249657","-0.202930942177773","-0.0791143998503685","-0.0474866554141045","-0.0172475688159466","-0.0739758685231209","0.166782990098","-0.0663255006074905","0.0952332243323326","-0.0310566946864128","0.07430549710989","0.151387959718704","0.148136228322983","-0.429934859275818","0.000663803715724498","-0.0663302317261696","-0.117333494126797","-0.101881802082062","0.0179219171404839","0.179218411445618","-0.126674100756645","-0.0653642788529396","-0.030221451073885","0.116177700459957","-0.0591170415282249","-0.262160539627075","-0.0612814426422119","-0.0579283088445663","-0.00201791897416115","-0.291481047868729","-0.0329357199370861","-0.125469043850899","-0.165510833263397","-0.21213498711586"
"n1_2","0.301522582769394","0.274789482355118","-0.239557266235352","0.111388206481934","-0.0668774917721748","-0.0996191278100014","-0.176056936383247","-0.105950750410557","0.256328165531158","-0.141737431287766","-0.366047650575638","0.0158587172627449","0.0701606944203377","-0.176950588822365","-0.125755608081818","0.100529484450817","-0.202365443110466","-0.318703979253769","0.0442055501043797","-0.131367042660713","-0.257114589214325","-0.0984243378043175","0.0154721131548285","0.176903530955315","-0.154343739151955","0.229404449462891","0.139867678284645","-0.0525703057646751","-0.180535048246384","-0.269607603549957","-0.0619339235126972","-0.445220798254013","0.304552853107452","-0.199311152100563","-0.0380288362503052","-0.0551744252443314","-0.161156743764877","-0.199110239744186","0.563920140266418","-0.125740066170692","-0.0903932824730873","-0.0308296922594309","-0.182846263051033","-0.00117874296847731","0.0531433075666428","0.0635428056120872","0.0614298656582832","-0.907997190952301","-0.163240060210228","0.185615181922913","-0.00498575158417225","-0.390878587961197","-0.390809804201126","-0.0197153501212597","-0.230870053172112","-0.190269947052002","-0.0293934755027294","-0.272354573011398","-0.0376673862338066","0.0429661832749844","0.00591602781787515","-0.283480107784271","-0.011513652279973","0.0431381464004517","-0.00408576335757971","-0.222650974988937","-0.161503925919533","-0.0143814021721482","0.0483484268188477","-0.176242783665657","-0.0350378416478634","-0.0574570894241333","0.103165075182915","-0.0629997253417969","-0.0470795482397079","0.190648525953293","-0.0495375506579876","0.00237284577451646","-0.0683138519525528","0.0132301338016987","0.0670169517397881","0.0900514274835587","0.0292408224195242","-0.379105269908905","0.195439919829369","-0.0840381011366844","-0.0978921204805374","-0.155323952436447","-0.0245764795690775","0.1238132417202","-0.144995629787445","0.0663821622729301","-0.170506626367569","0.0403871610760689","-0.210007682442665","0.0192186776548624","0.0649861916899681","-0.00359216053038836","0.0643844678997993","-0.0921192541718483","-0.0309556238353252","-0.0497345440089703","-0.180382817983627","-0.201025694608688","0.128700122237206","0.0583974719047546","0.0296195019036531","-0.0554841905832291","-0.0176797546446323","0.03799919039011","-0.175746023654938","0.0632156878709793","0.25212162733078","-0.0370569415390491","0.0184965971857309","0.541797757148743","-0.00372118270024657","0.00907114148139954","-0.0534739047288895","-0.144736811518669","-0.133571535348892","0.0245888363569975","-0.115646556019783","-0.304793685674667","0.131715849041939","0.161768451333046","-0.109383679926395","-0.022130323573947","-0.373335331678391","-0.136157110333443","-0.115160226821899","-0.0620009079575539","-0.329642713069916","-0.126235872507095","-0.07602209597826","-0.297963201999664","-0.136334583163261","-0.0777314379811287","-0.115308023989201","0.158411964774132","-0.055813480168581","0.0204596668481827","-0.020869692787528","-0.0946895331144333","0.0071901916526258","-0.258173406124115","-0.0154816620051861","0.196900501847267","-0.270792692899704","-0.0254288986325264","0.0626436173915863","0.0339302755892277","-0.032099362462759","0.0887461006641388","0.11099549382925","0.0469049960374832","-0.0641578510403633","0.0662924498319626","0.0598188675940037","-0.254415392875671","-0.0950430482625961","-0.107102856040001","-0.0326246879994869","0.0177357420325279","-0.0463921576738358","-0.145085006952286","-0.0524525716900826","-0.117972679436207","-0.0598180443048477","0.041193813085556","-0.079716257750988","-0.0467130653560162","0.013293263502419","-0.0290411002933979","-0.331439137458801","-0.332470506429672","-0.0561253316700459","0.188762500882149","-0.157939404249191","0.137995511293411","-0.239784494042397","-0.130339622497559","0.0317318290472031","-0.00601865770295262","-0.499857187271118","0.18084380030632","-0.507326126098633","-0.13429106771946","0.0508041605353355","0.199562013149261","-0.244088783860207","-0.0853181108832359","-0.280854135751724","-0.0507583990693092","-0.0691405087709427","0.014091718941927","-0.13898728787899","-0.128330960869789","0.0152227748185396","-0.158870100975037"
"n1_3","0.0179039165377617","-0.114408731460571","-0.0912471637129784","0.0035492992028594","0.016968347132206","-0.0798838287591934","-0.125112175941467","0.040750153362751","-0.166157737374306","0.132743015885353","0.119422912597656","-0.12442746758461","0.0304026454687119","-0.0665747299790382","-0.0311738848686218","0.066992498934269","-0.123427614569664","-0.0855875909328461","-0.142905712127686","-0.0756558924913406","0.0279494468122721","-0.063899852335453","0.0706478729844093","0.215345293283463","0.103352941572666","-0.0321450941264629","-0.33696460723877","-0.0891709625720978","-0.053739033639431","0.175029516220093","-0.131693065166473","-0.407209604978561","-0.316076070070267","-0.107587769627571","-0.0495906323194504","0.0487712509930134","-0.0680152624845505","0.00261461595073342","-0.155946090817451","-0.210537046194077","-0.0333827063441277","-0.09592654556036","-0.192763447761536","-0.0235759112983942","0.231795713305473","0.203594535589218","-0.154675513505936","0.299509316682816","-0.118921890854836","0.121835298836231","-0.17863242328167","-0.0531269460916519","-0.187137678265572","0.0603573992848396","0.263716012239456","-0.519123136997223","0.0777392685413361","0.165398418903351","0.0254707206040621","-0.321206003427505","-0.0283061731606722","0.277361661195755","0.0721331834793091","0.303605079650879","0.0203393269330263","-0.148182764649391","-0.0383818261325359","0.545888721942902","-0.082239992916584","-0.0224726218730211","0.224291518330574","-0.186412826180458","-0.285067677497864","-0.0245256703346968","-0.0999269187450409","0.38531419634819","-0.0933562442660332","-0.0847508981823921","-0.13189572095871","-0.175619795918465","0.0611452981829643","-0.236933410167694","0.0839413329958916","-0.260043263435364","0.224324643611908","-0.312343955039978","-0.131216406822205","-0.142337575554848","-0.22213326394558","0.124699048697948","-0.3261499106884","0.0696375519037247","-0.0127152362838387","0.0676262900233269","-0.0457803569734097","-0.0301215872168541","0.415755838155746","-0.0622852928936481","0.0319990366697311","-0.267081469297409","-0.16152024269104","-0.0152047285810113","-0.263361096382141","0.00253822538070381","-0.0818285718560219","-0.235649704933167","0.00300807086750865","0.155277609825134","0.104242816567421","-0.100806698203087","-0.198937192559242","0.41556978225708","-0.0312913283705711","-0.174648866057396","-0.187405273318291","0.303218424320221","-0.0495411045849323","0.250430464744568","-0.0136932833120227","-0.0457075275480747","-0.122575134038925","0.106774754822254","-0.126048654317856","0.133638307452202","-0.123768471181393","0.0257936641573906","0.0575639195740223","0.0595069415867329","-0.144460022449493","-0.188240438699722","0.0172979030758142","-0.0441493503749371","-0.463427156209946","-0.0339921079576015","0.388395607471466","-0.338028818368912","-0.0770516991615295","-0.132453992962837","-0.0743142068386078","-0.139850050210953","-0.0316877961158752","-0.0142936762422323","-0.110212631523609","0.0661487206816673","-0.0642804428935051","-0.231829687952995","-0.214598193764687","0.100121423602104","-0.167962804436684","0.133174851536751","-0.0783225074410439","0.0909775570034981","0.0464483089745045","-0.185744598507881","-0.21750320494175","0.0297973174601793","-0.182065397500992","0.13684768974781","0.0251792203634977","0.329952895641327","0.107577607035637","0.163062214851379","-0.00174413819331676","0.0313663557171822","-0.0333255417644978","0.212535858154297","-0.0126800592988729","-0.0913911014795303","-0.0432774536311626","-0.137960404157639","0.0768006592988968","-0.0840698331594467","0.00473252777010202","-0.0308761429041624","-0.419938951730728","-0.187788307666779","0.126113057136536","-0.0121901165693998","0.123082242906094","0.176801934838295","-0.0661653652787209","-0.0156496092677116","-0.063534252345562","0.153068453073502","-0.434510678052902","0.124322488903999","0.288659960031509","-0.0300527084618807","0.0694222673773766","0.0792580991983414","0.0319669768214226","0.600186586380005","-0.0337544046342373","-0.343347817659378","-0.268093019723892","-0.0731430575251579","-0.176667928695679","0.189157232642174","0.000728467595763505","0.447099655866623"
"n1_4","-0.410616248846054","0.0457246042788029","0.508283078670502","-0.00657920073717833","-0.316563218832016","-0.439769715070724","-0.112247623503208","0.291147172451019","0.0860408544540405","0.382479339838028","-0.0892093032598495","-0.151432275772095","0.0172997582703829","-0.176439881324768","-0.136601567268372","0.0746122300624847","0.329848825931549","0.00944529008120298","0.214269891381264","-0.218778416514397","-0.110160835087299","-0.218017727136612","-0.737662076950073","-0.195537805557251","-0.606119513511658","-0.036133024841547","0.0017005440313369","0.354413956403732","0.114474073052406","-0.236639872193336","-0.102499693632126","-0.15017269551754","0.0453086458146572","-0.0301471259444952","-0.215435326099396","-0.161300972104073","-0.00183609104715288","-0.159772351384163","-0.0239752773195505","-0.105674773454666","-0.114790253341198","0.209139585494995","-0.0423294864594936","-0.0430456660687923","0.149321496486664","-0.363911360502243","-0.353700876235962","-0.268892049789429","-0.383035480976105","-0.355624377727509","0.206591174006462","-0.165955856442451","-0.0045069963671267","-0.252482056617737","-0.116523548960686","-0.0667870342731476","0.0243429057300091","0.0952022597193718","-0.121812678873539","-0.372745007276535","-0.143538400530815","-0.140340685844421","-0.470306873321533","0.043849166482687","-0.047186691313982","0.259781390428543","-0.0790614187717438","0.289599806070328","-0.260848551988602","-0.106993891298771","-0.22778657078743","-0.203988328576088","0.0735761672258377","-0.0437186062335968","-0.629586100578308","0.0342161953449249","-0.101415604352951","-0.312627613544464","-0.20989428460598","-0.2116339802742","0.00930937472730875","-0.0998269394040108","-0.030750809237361","0.0381343439221382","-0.196610882878304","-0.0165940318256617","-0.200257152318954","-0.187889069318771","-0.176361292600632","-0.120793834328651","0.0583658702671528","-0.182619869709015","-0.0825974494218826","0.331285864114761","0.347501158714294","-0.111195653676987","0.107469975948334","0.464934855699539","0.174811244010925","-0.0753649696707726","-0.117901802062988","-0.253200083971024","0.0531127080321312","-0.166266217827797","-0.203150063753128","-0.247244119644165","0.167657300829887","-0.00103063357528299","-0.228087589144707","-0.321387737989426","-0.0938919112086296","0.176551952958107","-0.358044534921646","-0.148505389690399","-0.0746722519397736","0.0625694096088409","-0.0981384515762329","-0.0651567950844765","0.494707703590393","-0.0100744618102908","-0.0566976219415665","-0.209101125597954","-0.0814019739627838","0.38347664475441","-0.432045876979828","-0.0491147264838219","0.277343839406967","0.107604429125786","-0.221423164010048","-0.157733902335167","-0.114914759993553","-0.119325190782547","0.0670249089598656","-0.0313286408782005","0.166339948773384","0.0500642582774162","0.160771042108536","-0.183719873428345","-0.0583971254527569","0.0125295864418149","0.470498323440552","0.0276951845735312","-0.217295080423355","-0.362690567970276","0.477902293205261","-0.0729172006249428","-0.0491589233279228","0.100655235350132","-0.0394357331097126","-0.0987489074468613","0.0740320533514023","0.0159963294863701","0.0656174570322037","-0.386545151472092","-0.102436579763889","-0.2020243704319","-0.210255995392799","-0.326153010129929","0.0362018197774887","-0.0955707281827927","-0.336643636226654","-0.206760421395302","0.194003880023956","-0.527469515800476","-0.110131420195103","0.0843911468982697","-0.157278820872307","-0.133472636342049","-0.244505792856216","-0.239798948168755","-0.284567773342133","-0.0295459218323231","-0.249418497085571","-0.0598480515182018","0.149926140904427","0.00984977651387453","0.0237895827740431","0.00780004309490323","-0.170828565955162","-0.237025663256645","0.071553573012352","-0.765367567539215","-0.0842964351177216","-0.466249823570251","0.03616763651371","0.172796204686165","0.140772685408592","-0.0328974090516567","-0.124374471604824","-0.412768363952637","0.387968361377716","0.0714803785085678","-0.0945803746581078","0.0907373055815697","-0.0942969545722008","0.382446050643921","-0.022829458117485","0.0172435566782951","-0.294355928897858","-0.0566354095935822"
"n1_5","0.270868480205536","-0.0833921954035759","-0.0853974148631096","0.632369637489319","0.0375408641993999","0.122481144964695","-0.092748336493969","0.035331305116415","-0.00294814212247729","-0.0931727588176727","-0.0396811962127686","0.0135903125628829","0.0297629572451115","-0.0167350973933935","-0.165987938642502","0.000782547751441598","-0.272355645895004","-0.138646021485329","0.0730411484837532","-0.179868832230568","0.0853220075368881","-0.0376985333859921","0.253543049097061","0.236453637480736","-0.0771545246243477","-0.0308151040226221","0.184947207570076","-0.0383737795054913","-0.492268681526184","-0.076342336833477","0.0233600232750177","-0.166333571076393","0.141178607940674","-0.100301340222359","-0.174214422702789","-0.00927391834557056","-0.224211752414703","0.00128731189761311","0.792550683021545","-0.000878063379786909","-0.190029740333557","0.0216564796864986","-0.0983637869358063","-0.156878858804703","0.181216344237328","-0.148434981703758","0.0196408778429031","-0.930562198162079","-0.0554143860936165","-0.005739810410887","0.257204085588455","0.0670378282666206","-0.466434299945831","0.0550754033029079","-0.00511659914627671","0.0503924340009689","0.348787635564804","-0.175148293375969","-0.0354746207594872","0.089794784784317","-0.183590605854988","-0.376188814640045","0.130087956786156","-0.0897377878427505","0.00512064108625054","-0.285964220762253","-0.051379531621933","0.241585031151772","-0.00228395033627748","-0.108346499502659","0.0410107672214508","-0.176806062459946","-0.0820967480540276","-0.110405646264553","-0.17664347589016","0.0584252327680588","-0.0994201079010963","-0.145644724369049","-0.0178481377661228","-0.171069756150246","0.08041150867939","0.0023526749573648","-0.00442937482148409","-0.147906765341759","0.262599766254425","-0.191248193383217","-0.0347093865275383","-0.171833232045174","-0.232913434505463","-0.083283044397831","-0.227961272001266","-0.0532978698611259","-0.0917278006672859","0.210847899317741","-0.137884527444839","-0.0758939236402512","-0.0992046967148781","0.00175843422766775","0.201351314783096","-0.438578248023987","-0.18586927652359","-0.0322809740900993","0.0499825812876225","0.0421232655644417","-0.000183177078724839","0.0421530939638615","0.0808245837688446","0.174228638410568","-0.0237278770655394","0.239547535777092","-0.0468227826058865","0.0385846234858036","0.152863204479218","0.021897504106164","0.0029383422806859","-0.111949875950813","-0.0368697755038738","0.390562832355499","0.00252721970900893","-0.0193436797708273","-0.0313513465225697","0.0330091640353203","-0.0846751108765602","-0.131652891635895","0.0724338367581367","0.454401433467865","-0.150052592158318","-0.019943306222558","-0.0844779759645462","-0.163093134760857","0.00105827057268471","-0.112849809229374","-0.114205926656723","-0.00218888861127198","0.234233751893044","0.0146097661927342","-0.167718231678009","-0.147535905241966","-0.0222069546580315","0.0181632917374372","-0.172308191657066","0.162418633699417","-0.0450274609029293","-0.0182660222053528","-0.0515337809920311","-0.525495588779449","-0.0317421071231365","0.165476500988007","-0.198868826031685","-0.264150202274323","0.124841675162315","-0.159516587853432","-0.127633482217789","-0.0732208490371704","-0.0652830898761749","-0.0156933106482029","0.0118446610867977","0.162671476602554","0.0450244322419167","0.290097951889038","-0.115675672888756","0.0630495920777321","-0.272572338581085","-0.0724748075008392","-0.0159465223550797","-0.0556438937783241","-0.0544860139489174","-0.250471144914627","0.00273090158589184","-0.115769810974598","0.00641996692866087","-0.0838419273495674","-0.179440751671791","-0.0489875376224518","-0.219179943203926","0.06626807898283","0.0802934840321541","0.012848206795752","0.063715398311615","-0.239006191492081","-0.224748685956001","-0.0209418777376413","-0.0282312836498022","0.0403476767241955","-0.204460501670837","0.149007365107536","-0.293121218681335","-0.0504702739417553","0.242923051118851","-0.0395431630313396","-0.36720085144043","0.0873891040682793","-0.192852526903152","0.143310993909836","-0.336713433265686","0.071333073079586","-0.161536395549774","0.0483844690024853","-0.0672429352998734","0.0609758421778679"
"n1_6","-0.261177241802216","0.0660123825073242","-0.0712150633335114","0.00454919505864382","-0.110147640109062","-0.171775430440903","-0.0266196671873331","-0.0694960653781891","0.191492795944214","0.195737436413765","0.192315623164177","-0.17560501396656","0.164723426103592","0.00901646073907614","-0.165869310498238","0.0653062760829926","0.196868687868118","-0.244298189878464","0.0414637587964535","-0.183116406202316","0.0568514056503773","-0.0195363834500313","-0.139602422714233","0.0103620057925582","-0.114609718322754","0.0712265595793724","-0.671711206436157","0.0177859216928482","0.222597554326057","-0.0300510562956333","-0.0778204724192619","-0.225096717476845","-0.323405385017395","-0.335555791854858","-0.0273274332284927","-0.0534815676510334","-0.0888986438512802","-0.0265092700719833","-0.214761108160019","-0.178367212414742","-0.242684543132782","0.116658493876457","-0.0443720556795597","-0.149620115756989","-0.111647129058838","0.258111178874969","-0.161101847887039","0.117230527102947","-0.0473773777484894","0.00509067624807358","0.168742164969444","-0.0154858753085136","0.740984916687012","-0.109274052083492","0.0588651411235332","-0.125458553433418","0.19814170897007","0.367374211549759","-0.0246470253914595","0.0258784983307123","0.0256428364664316","0.428577810525894","-0.126119092106819","0.899463951587677","-0.127189010381699","0.0614432990550995","-0.0217696074396372","-0.214527174830437","0.010221803560853","-0.0294666308909655","0.0797530189156532","-0.314583092927933","-0.310302019119263","-0.115846939384937","-0.15061292052269","1.05083036422729","-0.188533440232277","0.00604178197681904","-0.210205033421516","-0.111069194972515","0.0265407003462315","-0.172623813152313","0.0316776745021343","-0.158526599407196","0.216323405504227","-0.148202240467072","-0.0960014909505844","-0.123952679336071","-0.207973450422287","-0.0587965846061707","-0.0118112806230783","-0.101046875119209","-0.12345926463604","-0.0293459575623274","-0.0414340011775494","-0.0612324588000774","0.989827573299408","-0.0858230069279671","-0.022071611136198","-0.177014201879501","-0.0624853819608688","0.026475241407752","-0.212755650281906","-0.0240994039922953","-0.171135455369949","-0.125630602240562","-0.0261666942387819","-0.0885050222277641","-0.0926367342472076","-0.240281954407692","-0.123929604887962","-0.109096020460129","-0.0234730951488018","-0.0618315041065216","-0.0888658314943314","-0.0438425652682781","-0.12399423122406","0.176816180348396","-0.123302765190601","-0.0361898243427277","-0.0372311249375343","-0.0655325949192047","-0.18635967373848","0.17518076300621","-0.128182142972946","0.0386076718568802","0.0296206008642912","0.00958447810262442","-0.0881102457642555","-0.143742516636848","-0.125794872641563","-0.117779277265072","-0.113073699176311","-0.243389129638672","-0.221515402197838","-0.401155799627304","-0.120859801769257","-0.145128503441811","-0.0723963379859924","0.0463344417512417","-0.010050711221993","0.0945546552538872","-0.0961071997880936","-0.172464609146118","-0.176110550761223","0.137054890394211","-0.0390178300440311","-0.0151741374284029","-0.132803559303284","-0.244466811418533","0.0435745008289814","-0.302172660827637","0.294944047927856","-0.00534975016489625","-0.158294230699539","-0.0725073292851448","-0.13462433218956","0.110246293246746","-0.0671597942709923","0.0495870187878609","0.065522775053978","0.0332821868360043","0.0743876174092293","-0.0419369153678417","-0.13019685447216","0.331362187862396","-0.0446251071989536","-0.0542601272463799","-0.0656771957874298","-0.0454596504569054","-0.145200997591019","-0.129794552922249","-0.0025693136267364","-0.108463823795319","-0.147488549351692","-0.445293545722961","-0.109242789447308","-0.15006822347641","0.0707234963774681","0.255113363265991","-0.14313480257988","-0.190696462988853","0.0336377583444118","0.12650890648365","-0.0336390845477581","0.0497807711362839","0.493814140558243","-0.0418219305574894","-0.0219602230936289","-0.0625875815749168","0.318616449832916","0.471950352191925","0.227036505937576","-0.324791878461838","-0.320483386516571","0.0721057206392288","-0.0502647198736668","-0.0891178846359253","-0.0847485959529877","0.288566797971725"
"n1_7","0.0124233728274703","0.0904034599661827","-0.297080218791962","0.176995843648911","0.0732541754841805","0.311305016279221","-0.169038712978363","-0.196583896875381","0.147194981575012","-0.343634277582169","-0.0666223987936974","0.0537839122116566","0.133656680583954","-0.165593013167381","0.0346850268542767","0.0656851530075073","-0.0209245607256889","-0.175106719136238","-0.075193777680397","-0.198295474052429","0.0705793797969818","-0.110673643648624","-0.117568798363209","-0.053049486130476","0.0761429443955421","0.10990159958601","0.0283433329313993","-0.198402166366577","-0.345766216516495","-0.038264449685812","-0.0968198329210281","0.134663194417953","0.0610526576638222","0.00952258333563805","-0.170283526182175","0.0769043937325478","0.00957310013473034","-0.0717266872525215","0.493788212537766","-0.0271871406584978","-0.16192863881588","0.10834227502346","-0.154378443956375","-0.0463939942419529","-0.0874266773462296","-0.0260639302432537","0.171193584799767","-0.295713633298874","0.0542560815811157","-0.0880830809473991","0.0174746438860893","0.0166118871420622","-0.155801460146904","0.0746380835771561","0.392940759658813","-0.159842848777771","0.156345516443253","-0.115198872983456","-0.123220145702362","0.0804778188467026","0.00202828668989241","-0.279515743255615","0.223821520805359","0.041498064994812","-0.105475418269634","-0.368593990802765","-0.0933815911412239","-0.000902717933058739","-0.15379935503006","-0.0588647052645683","0.120738379657269","-0.0546279139816761","-0.0246551670134068","-0.0703805387020111","0.158690601587296","-0.0113908210769296","0.0198314525187016","-0.113011710345745","0.015639016404748","0.0359957218170166","-0.0209269914776087","0.0159424245357513","-0.0341648608446121","-0.157413586974144","-0.011699971742928","0.0901082009077072","-0.151556074619293","-0.061026107519865","0.0551893822848797","-0.0296346768736839","0.0452725477516651","-0.0725770443677902","-0.0517663396894932","-0.0679678395390511","-0.339920252561569","-0.07658851146698","0.0121461534872651","-0.309655576944351","0.117920093238354","0.128101050853729","0.0263133551925421","-0.0703147649765015","-0.0134794246405363","0.0412658303976059","-0.00864182133227587","-0.0161123778671026","-0.0189539603888988","0.0660098940134048","-0.0345164127647877","0.211528182029724","-0.0216962173581123","-0.0161492377519608","0.10873781889677","-0.0170789211988449","-0.149408608675003","-0.0390423573553562","-0.152972087264061","0.0422479957342148","-0.324404418468475","-0.084644116461277","-0.013664691708982","-0.149562075734138","0.0139466924592853","-0.199865311384201","0.140973493456841","0.294789254665375","-0.0750275775790215","0.140676632523537","0.0354840718209743","-0.0739275589585304","0.0645734369754791","-0.150451108813286","-0.0506743155419827","-0.0849071890115738","-0.0355844721198082","-0.0538214668631554","-0.00663877232000232","-0.11822459846735","-0.161558389663696","0.057157002389431","-0.237636938691139","0.185732200741768","0.00403486751019955","0.0189186371862888","-0.350150853395462","-0.297982543706894","-0.0796407014131546","0.0874318704009056","-0.140804708003998","0.1102065294981","-0.102574311196804","0.00403005164116621","0.10905010253191","0.15958172082901","-0.0320261903107166","-0.0770160853862762","0.117089688777924","0.198187410831451","-0.149739056825638","0.357648968696594","-0.134969130158424","0.0231171324849129","-0.107881732285023","-1.73196604009718e-05","-0.0345210768282413","-0.126359835267067","-0.124474354088306","-0.174714431166649","4.27366176154464e-05","-0.122577339410782","-0.0539928823709488","0.0108374170958996","0.155082523822784","-0.138116404414177","-0.058897890150547","-0.18403372168541","-0.136420652270317","0.0617142766714096","-0.0122870495542884","-0.0544795133173466","-0.184560731053352","0.137790590524673","-0.133065655827522","0.155203461647034","0.0160950273275375","0.115132100880146","-0.196904242038727","-0.0288133844733238","-0.0652766227722168","-0.00484060076996684","-0.14400090277195","-0.0804860964417458","-0.00180586508940905","-0.212661892175674","0.10229630023241","-0.156288206577301","0.0215342659503222","-0.0320280306041241","0.0505094639956951","-0.160233899950981"
"n1_8","-0.00120506109669805","0.229408472776413","-0.472457051277161","-0.0104937683790922","0.0562729798257351","0.0887839794158936","-0.111672624945641","-0.196390762925148","0.504340171813965","-0.258927524089813","0.077615886926651","0.0293031986802816","0.273167759180069","-0.131127879023552","-0.240486428141594","0.127629145979881","0.217440664768219","0.137942090630531","0.0599842891097069","-0.208949461579323","0.0486509539186954","-0.10931932926178","-0.570581197738647","0.114973537623882","0.0259144008159637","0.513074517250061","0.175130322575569","-0.318397492170334","-0.115021303296089","0.0736951008439064","-0.157199174165726","-0.0101941116154194","0.0892040431499481","0.143162593245506","-0.176371172070503","0.0542124807834625","-0.0395484268665314","-0.246311023831367","0.0855615139007568","-0.195257350802422","-0.076233446598053","0.251052677631378","-0.227435246109962","-0.0975759774446487","0.0882411226630211","-0.148951634764671","-0.0993818938732147","-0.485394656658173","0.0661927163600922","-0.171652361750603","-0.16484571993351","-0.0638579279184341","-0.159509599208832","-0.169265329837799","-0.306508839130402","-0.0183479189872742","-0.124923311173916","-0.285795420408249","-0.103748209774494","-0.118013933300972","-0.0284244176000357","-0.326261401176453","0.0226850304752588","-0.187267795205116","-0.257508516311646","-0.416858434677124","-0.257357120513916","-0.288697868585587","-0.25005504488945","-0.237184271216393","-0.199736341834068","-0.119222603738308","0.218341514468193","-0.189376518130302","-0.0255179945379496","-0.25692942738533","-0.14415830373764","-0.213788792490959","-0.103855967521667","-0.169753730297089","0.186711430549622","-0.182633340358734","-0.0664988979697227","0.130277529358864","-0.0823946967720985","0.166797652840614","-0.105998404324055","-0.00676106428727508","-0.0540288053452969","-0.0541396141052246","0.0689713805913925","-0.106286711990833","-0.195702314376831","-0.151029452681541","-0.26513546705246","-0.203361853957176","-0.13285119831562","-0.345142215490341","0.21319517493248","0.176070347428322","0.00581354554742575","-0.0327837504446507","-0.0208510011434555","-0.799158215522766","0.0410558991134167","-0.0946557447314262","0.0810792669653893","0.0590808615088463","-0.272210329771042","0.159831777215004","-0.101344086229801","-0.133095800876617","-0.0274767801165581","-0.0659504681825638","-0.183822363615036","-0.119724288582802","-0.0708092823624611","-0.270207583904266","-0.265400856733322","-0.119540564715862","-0.213190600275993","-0.117713965475559","-0.173069149255753","-0.305820375680923","0.26525554060936","-0.117567345499992","-0.130560979247093","0.266051560640335","0.0931738317012787","-0.168925359845161","-0.667057394981384","-0.0311597753316164","0.0614176467061043","-0.114485844969749","-0.0344868898391724","0.00433480134233832","0.0351765602827072","-0.0704796239733696","-0.10515258461237","0.208263486623764","-0.131899490952492","0.110622026026249","-0.156268686056137","-0.649865984916687","-0.294159173965454","-0.0596409551799297","-0.104016706347466","0.0757540464401245","0.0461756065487862","0.216414362192154","-0.147985756397247","0.08097243309021","0.0434117615222931","0.261053740978241","-0.0182046722620726","-0.112954057753086","-0.182440504431725","-0.211183920502663","-0.114917241036892","-0.35251858830452","-0.657350361347198","-0.189927026629448","0.0818382650613785","-0.331285506486893","-0.15325129032135","-0.490149170160294","-0.20828865468502","-0.0851235911250114","-0.30703204870224","-0.0605528391897678","0.00496499007567763","-0.183834865689278","0.0107734389603138","-0.0485336966812611","0.129279881715775","-0.00966840051114559","-0.027877002954483","0.227988258004189","0.0042443135753274","-0.287968963384628","0.0936805084347725","-0.0731524229049683","-0.232210919260979","-0.162412419915199","0.079092301428318","0.108049213886261","-0.196847766637802","-0.157956689596176","-0.0542419627308846","0.271165698766708","-0.0711856782436371","-0.379615783691406","0.00117950886487961","0.172027409076691","0.00313388602808118","-0.180949583649635","-0.06557597219944","-0.0790051892399788","-0.0856076702475548","-0.311018913984299"
"n1_9","-0.404951959848404","0.0333029851317406","-0.060201358050108","0.0195304658263922","0.0923250317573547","0.0772217363119125","-0.176975905895233","-0.219884306192398","0.136894673109055","-0.091474749147892","0.209498733282089","-0.20686811208725","0.0715718790888786","-0.138925671577454","0.0108524793758988","0.0648541897535324","-0.0547893457114697","-0.142134636640549","-0.129673779010773","-0.231574296951294","0.00831984076648951","-0.198826879262924","0.0542679019272327","-0.318133234977722","-0.066313698887825","0.207626849412918","-0.496161848306656","0.16301454603672","0.152393281459808","0.172586113214493","-0.0339268073439598","-0.268027365207672","-0.534558296203613","-0.35095551609993","-0.103224195539951","0.00556459510698915","-0.251276701688766","-0.176042079925537","-0.325683146715164","-0.0416553020477295","-0.0492259114980698","0.136754542589188","-0.114758551120758","-0.0155922146514058","0.00124465208500624","0.218637511134148","-0.0626165792346001","0.106184229254723","-0.28074723482132","-0.0144779104739428","-0.0718338862061501","0.182704478502274","0.622999846935272","-0.372110068798065","-0.232081070542336","-0.0757246688008308","-0.0811087638139725","0.332680284976959","-0.0477571710944176","-0.0219526495784521","-0.036747258156538","0.463711142539978","0.0943874940276146","0.934884130954742","-0.0651029273867607","0.125880658626556","-0.147893384099007","-0.237266629934311","-0.0093247452750802","-0.0566928051412106","0.0833132714033127","-0.37513342499733","-0.221017628908157","-0.112053014338017","-0.209779843688011","0.947669804096222","-0.227964043617249","-0.197207629680634","-0.227974161505699","0.00520208571106195","0.223937436938286","-0.202970877289772","-0.0281224921345711","0.021204985678196","0.189843013882637","-0.282198041677475","-0.0980470478534698","-0.0765128508210182","-0.145173847675323","-0.051797766238451","-0.107480444014072","0.123207978904247","-0.159872651100159","-0.070619709789753","-0.0291287042200565","-0.103688903152943","0.8343386054039","-0.00624510692432523","0.0534280687570572","-0.183853805065155","-0.116648301482201","-0.00902065169066191","-0.0846919640898705","-0.0389904901385307","-0.212996661663055","-0.292982786893845","0.166417583823204","0.0508843846619129","-0.278534233570099","-0.101827137172222","-0.0620522312819958","-0.0897236615419388","0.0242080744355917","0.0523248501121998","-0.107625663280487","0.193548649549484","-0.0131575269624591","0.213604360818863","0.0402199663221836","0.0269881691783667","-0.177424877882004","0.0752233117818832","-0.189652740955353","0.640217423439026","-0.428781449794769","-0.164434269070625","-0.0851288586854935","0.0251884181052446","-0.0297398492693901","-0.204907283186913","-0.345297336578369","-0.00505463918671012","-0.0962657704949379","-0.11859854310751","-0.245165154337883","-0.3860042989254","-0.0110130328685045","-0.0252494532614946","-0.153703331947327","-0.0761372596025467","-0.117213971912861","0.0307412017136812","-0.0996241793036461","-0.0758415088057518","-0.248725846409798","0.0239360854029655","-0.136736646294594","0.0910977274179459","-0.113120585680008","-0.232145577669144","0.109720826148987","-0.345213115215302","0.130031898617744","-0.155975013971329","-0.316335499286652","0.0109566114842892","-0.102924056351185","0.19564725458622","-0.0918326824903488","-0.257566720247269","-0.104908525943756","0.203243181109428","-0.112869054079056","-0.149214118719101","-0.0538269430398941","0.335652112960815","-0.11209312826395","-0.177558332681656","-0.047496885061264","-0.0554266571998596","-0.190840214490891","-0.0458965934813023","-0.00633594719693065","-0.0699070170521736","0.029032239690423","-0.294171959161758","0.0574130490422249","-0.12332921475172","0.102454759180546","0.251717090606689","-0.145248532295227","-0.0548392869532108","0.043699998408556","0.259001940488815","-0.0780132710933685","0.0898156613111496","0.364177167415619","0.00178245187271386","0.0541496947407722","-0.015643335878849","0.368343472480774","0.357086509466171","0.424662619829178","-0.0266189239919186","-0.220515117049217","-0.0719665139913559","-0.130631983280182","-0.049509160220623","-0.170229539275169","0.353036433458328"
"n1_10","-0.604756534099579","0.0304169934242964","-0.0241518542170525","0.285499542951584","-0.035745594650507","-0.000977135729044676","-0.198393687605858","-0.0948323979973793","0.0289567485451698","0.037825483828783","0.170927911996841","-0.141115933656693","0.183035030961037","-0.193074300885201","-0.0544583275914192","0.0676761418581009","0.0487139113247395","-0.216109827160835","-0.108408741652966","-0.102369986474514","0.416610658168793","-0.220379531383514","0.0433736369013786","-0.43307039141655","-0.0317293182015419","-0.0652318224310875","-1.07847452163696","0.0652610957622528","0.109931319952011","0.255908042192459","-0.0130997784435749","0.00151664216537029","-0.194818511605263","-0.204658359289169","-0.0676366686820984","0.0260652676224709","-0.126478731632233","-0.0482250601053238","-0.0917984396219254","-0.123846344649792","-0.25453045964241","0.107952885329723","-0.205416813492775","-0.189813390374184","-0.0210434384644032","0.220692560076714","0.00909686833620071","0.00157186901196837","-0.234365463256836","-0.383005797863007","0.109486691653728","0.205299615859985","1.09226107597351","-0.229156792163849","0.258970379829407","-0.36577969789505","-0.237009793519974","0.431537806987762","-0.036361962556839","-0.178357914090157","-0.0693823844194412","0.502159297466278","-0.0438959449529648","0.94394850730896","-0.0890901535749435","0.239040032029152","-0.163192346692085","-0.342679530382156","0.0369205288589001","-0.0586372725665569","0.195805072784424","-0.266418486833572","-0.270960927009583","-0.0353069938719273","-0.373044282197952","1.00865578651428","-0.219074308872223","0.0220465138554573","-0.165490254759789","0.0188507158309221","0.0915163978934288","-0.0760965943336487","-0.0913919284939766","-0.0673917010426521","0.0485870242118835","-0.0997506901621819","-0.0180767066776752","-0.0962302461266518","-0.131758004426956","-0.181817695498466","0.0403946861624718","-0.039427287876606","-0.171473607420921","0.00752674229443073","0.146320998668671","-0.199534878134727","1.16290628910065","0.141820907592773","0.152931928634644","-0.0298419967293739","-0.0637681037187576","-0.0183276813477278","-0.135868683457375","-0.0434840135276318","-0.206422746181488","-0.240924909710884","0.138071864843369","0.156076684594154","-0.371090710163116","-0.505899310112","-0.266235858201981","-0.248703569173813","0.00437522260472178","-0.0905873626470566","-0.170551553368568","-0.131846636533737","-0.0204539615660906","0.0708037167787552","0.162807881832123","-0.072093203663826","-0.195402354001999","-0.0473568700253963","-0.0479971431195736","0.775195360183716","-0.240770280361176","0.201038971543312","0.00081556907389313","0.10243271291256","0.169968634843826","-0.0688418373465538","0.0648799166083336","-0.0345184318721294","-0.144175574183464","-0.124571308493614","-0.211830765008926","-0.18192957341671","0.192732974886894","-0.0906363800168037","-0.0708377659320831","0.0241179764270782","-0.0433647930622101","0.0479185581207275","-0.236398041248322","0.171206325292587","0.0669128820300102","0.0316477902233601","-0.149232015013695","0.0747066289186478","-0.121954426169395","0.0625764206051826","0.0902987644076347","0.0253341216593981","0.861352026462555","-0.174440130591393","-0.286059498786926","-0.185671448707581","-0.206005230545998","0.075677365064621","0.0300578344613314","0.388162732124329","-0.181652814149857","0.272069007158279","-0.119910642504692","-0.270388543605804","-0.0754809007048607","0.35682401061058","-0.136242344975471","-0.200834691524506","-0.0983861163258553","-0.0958192944526672","-0.0276845563203096","-0.143300890922546","-0.117784649133682","-0.0166770219802856","-0.0154465129598975","-0.171049401164055","0.0579991862177849","-0.315660655498505","0.0264544207602739","0.0130157060921192","-0.210466623306274","-0.0557118393480778","-0.137877807021141","0.149400472640991","0.135942533612251","0.0205396320670843","0.611335039138794","-0.159259825944901","-0.0981642827391624","-0.514975965023041","0.395635396242142","0.282452344894409","0.482230842113495","-0.344759970903397","-0.198997586965561","0.109908156096935","-0.0882233083248138","-0.000813937629573047","-0.197735160589218","0.333816021680832"
"n1_11","0.0210092533379793","0.231454342603683","-0.125968709588051","-0.0646825730800629","0.0809254199266434","0.114976800978184","-0.182796716690063","0.136980250477791","0.215775817632675","-0.00875786039978266","0.153664439916611","-0.0583904571831226","0.0495117157697678","0.00765536539256573","-0.0345955416560173","0.130504280328751","0.123526960611343","-0.195368736982346","0.142979696393013","-0.193044126033783","-0.0256922822445631","-0.0133040891960263","0.125610709190369","-0.0290550012141466","-0.0156874656677246","0.213663101196289","-0.503136873245239","0.158742517232895","-0.0289870724081993","0.0906984880566597","-0.0982594192028046","0.00274126464501023","-0.35555425286293","-0.277114540338516","-0.142143353819847","-0.0210315492004156","-0.0780597478151321","-0.0493923835456371","-0.263823181390762","-0.152854979038239","-0.0997229292988777","0.078817330300808","-0.0755357816815376","-0.0795964002609253","0.112205408513546","0.0266112517565489","-0.0622742287814617","0.380424648523331","0.160514622926712","0.00653624348342419","0.225279867649078","-0.0318741612136364","0.45393979549408","-0.24897463619709","-0.356997698545456","0.678304612636566","0.273216158151627","0.204663887619972","-0.020412290468812","0.231943905353546","0.0662660375237465","0.376897305250168","0.178475633263588","0.409089118242264","-0.110462158918381","0.205672860145569","-0.106722429394722","0.213540196418762","-0.10869187861681","-0.0316398143768311","0.208173558115959","-0.274414300918579","-0.463116705417633","-0.120315574109554","-0.160752475261688","0.695547938346863","-0.0354545190930367","-0.0730804577469826","-0.342327535152435","-0.0420193113386631","0.15463961660862","-0.155207887291908","0.0481518171727657","0.0880313962697983","0.108043856918812","-0.225579380989075","-0.150302529335022","-0.0728601813316345","-0.127315357327461","-0.0705071985721588","-0.139436736702919","-0.0340651459991932","-0.0321963429450989","0.0749844312667847","-0.0781547352671623","-0.168790221214294","0.584679424762726","-0.137768372893333","0.135888576507568","-0.230688735842705","-0.0589198358356953","-0.0975754112005234","-0.172796994447708","-0.297083288431168","-0.194446995854378","-0.146396741271019","0.0221646334975958","-0.0449391007423401","-0.328751564025879","0.221496686339378","-0.0911880806088448","0.163291960954666","-0.124387852847576","-0.0290768258273602","-0.0171589851379395","0.249730333685875","-0.112198017537594","0.126276135444641","0.052995465695858","-0.0391852557659149","-0.0738165676593781","-0.133312374353409","-0.0806219056248665","0.159654095768929","-0.167549803853035","-0.228262424468994","-0.0920682102441788","0.0816298276185989","-0.067586213350296","-0.0734961777925491","-0.353724539279938","-0.0799295380711555","-0.126448065042496","-0.140851274132729","0.144218474626541","-0.183555960655212","-0.240419387817383","-0.0332556329667568","-0.136386975646019","0.122259341180325","0.10891630500555","0.130567952990532","-0.100579805672169","-0.22516068816185","0.0124578690156341","0.249781370162964","-0.17109939455986","0.0250133778899908","-0.159475550055504","-0.435980468988419","0.1211167126894","-0.54621422290802","-0.15590363740921","-0.0488867126405239","-0.104712031781673","-0.0561117827892303","-0.166422620415688","0.124048382043839","-0.123310558497906","-0.199816450476646","0.1050695925951","0.185409918427467","-0.107868894934654","0.156943127512932","-0.042908538132906","0.113701485097408","-0.119964674115181","-0.0891021490097046","0.00140211055986583","-0.0802992805838585","-0.192495226860046","-0.0888165161013603","0.0320391952991486","-0.0910479128360748","0.0286478586494923","-0.15391880273819","0.00253210822120309","-0.24240842461586","-0.0804091021418571","0.0607669577002525","-0.100404880940914","0.16722272336483","-0.083582229912281","0.0935534536838531","-0.174107491970062","0.0850517302751541","0.272121399641037","-0.15443979203701","-0.0851396545767784","-0.283635824918747","0.252907752990723","0.115888357162476","0.23261559009552","0.197177335619926","-0.18895848095417","-0.0496013313531876","-0.084721677005291","0.0892172604799271","-0.170553356409073","0.314958184957504"
"n1_12","0.0529377833008766","0.226380407810211","0.217582911252975","-0.00289620226249099","-0.323107898235321","-0.443528741598129","-0.093775749206543","0.00478961085900664","0.221224337816238","0.153823524713516","0.0366632603108883","-0.238808542490005","0.207111209630966","-0.166476771235466","-0.250517189502716","-0.00957056507468224","0.277128458023071","-0.0178769882768393","0.212054491043091","-0.0333167314529419","0.0986726135015488","-0.212286040186882","-0.140427589416504","0.10292361676693","-0.543215751647949","0.201929226517677","0.00115294312126935","0.108267746865749","-0.0997626930475235","-0.0518268793821335","-0.0176630802452564","-0.0378938354551792","-0.0332269854843616","0.0221937764436007","-0.0149268480017781","0.0906585231423378","-0.0923243165016174","-0.130632981657982","0.0331481918692589","-0.163174033164978","-0.0586724765598774","0.137149274349213","-0.143898904323578","-0.0635557621717453","-0.0517676137387753","-0.255053102970123","-0.290899753570557","-0.240700006484985","-0.239738330245018","-0.0696225836873055","0.026103101670742","-0.0826382860541344","-0.301219046115875","-0.352265268564224","-0.187129020690918","0.0521268919110298","-0.000778029207140207","0.0255971327424049","-0.153345882892609","-0.0860750153660774","-0.220392942428589","0.00297324382700026","-0.355158448219299","-0.210082665085793","-0.0258914399892092","0.159044176340103","-0.203163534402847","-0.115897707641125","-0.0720868185162544","-0.168583661317825","-0.0074300104752183","-0.191619545221329","-0.139724731445312","-0.0808046534657478","-0.620690405368805","-0.0979649648070335","-0.0624858438968658","-0.184390500187874","-0.150268077850342","-0.134624868631363","0.158033356070518","-0.246062636375427","0.00262404466047883","0.0622048638761044","-0.11237371712923","-0.146953880786896","-0.139354571700096","0.00908375531435013","-0.189038872718811","-0.113258026540279","-0.0442573241889477","-0.177732139825821","-0.0254847686737776","0.289114207029343","0.290596008300781","-0.180148363113403","-0.0792923346161842","0.280375003814697","0.0689845085144043","-0.0389441475272179","-0.197265401482582","-0.038408987224102","-0.0464035049080849","-0.470191836357117","-0.160356357693672","-0.175135985016823","0.0142800146713853","0.10363408178091","-0.105653092265129","0.0242250487208366","-0.119082018733025","-0.0374617092311382","-0.214474931359291","0.0467865355312824","-0.0757097750902176","0.047432865947485","-0.238932982087135","-0.024375855922699","0.205926656723022","-0.0193219147622585","-0.0133719639852643","-0.164951458573341","-0.0664979368448257","0.620187282562256","-0.46625828742981","0.0341872572898865","0.0937811955809593","0.0222150925546885","-0.155425265431404","-0.203515440225601","-0.225306957960129","-0.0823295935988426","-0.163998559117317","0.169512808322906","-0.0265017822384834","-0.0220302995294333","-0.0983911380171776","-0.123489610850811","-0.175580635666847","-0.00224159308709204","0.224337533116341","0.0683338493108749","-0.0997306928038597","-0.390112727880478","0.329173713922501","-0.151660472154617","-0.0690890997648239","0.152576789259911","0.0467752851545811","-0.205562442541122","0.000980889773927629","-0.0765453055500984","-0.162158399820328","-0.5466188788414","-0.179239943623543","-0.202166795730591","-0.291606038808823","-0.132534042000771","0.0576815269887447","-0.178871020674706","-0.412241339683533","-0.125966578722","0.0490516535937786","-0.179703176021576","-0.0435659997165203","-0.0632488504052162","-0.0639967992901802","-0.0903014093637466","-0.386992067098618","-0.218091279268265","-0.14890293776989","-0.145313277840614","-0.283250659704208","-0.102213889360428","-0.0467610657215118","-0.0205873306840658","0.116752982139587","0.00771954329684377","-0.0878652483224869","-0.0861617475748062","-0.0375379845499992","-0.601314783096313","-0.111499600112438","-0.258670806884766","-0.00408025691285729","0.0718682929873466","0.174155041575432","-0.0586463063955307","0.0698609203100204","-0.159058392047882","0.109029434621334","0.0537997968494892","-0.0158145651221275","0.162313506007195","-0.0848317667841911","0.329452365636826","-0.0535907000303268","-0.0044397353194654","-0.220108270645142","-0.0225994419306517"
"n1_13","0.136689513921738","-0.00217958469875157","-0.075596421957016","0.75177264213562","-0.204281434416771","-0.109702475368977","-0.0250822771340609","-0.0907376557588577","-0.0196994207799435","-0.0855278521776199","0.258819222450256","0.0290178991854191","-0.132521882653236","-0.0931109264492989","-0.00640893075615168","-0.0507445856928825","0.0249756053090096","-0.331611126661301","-0.0571468472480774","-0.119165644049644","0.26868012547493","0.011286411434412","0.177712142467499","0.348538398742676","0.042188286781311","-0.0583282969892025","0.0291795488446951","0.0607369393110275","-0.801925718784332","0.139562532305717","-0.110139712691307","-0.151287376880646","0.078631691634655","-0.309945404529572","-0.146024584770203","0.148036375641823","-0.377999693155289","0.0984501764178276","1.19320404529572","-0.217445597052574","-0.11651536077261","0.128438383340836","-0.111170135438442","-0.0657794699072838","0.25544011592865","-0.0618093982338905","0.109692871570587","-0.576737761497498","-0.21302555501461","0.152754187583923","-0.017954220995307","0.380460172891617","-0.473589241504669","-0.0142484372481704","0.626544177532196","-0.0980894491076469","0.640219271183014","0.451475143432617","-0.118542477488518","-0.144540637731552","-0.241181641817093","-0.2984299659729","-0.256440013647079","0.00142827932722867","0.0662989392876625","-0.195279389619827","-0.0355053506791592","0.75058126449585","-0.0537016801536083","-0.0801531448960304","0.157710194587708","-0.120733864605427","-0.35514560341835","-0.0358132906258106","0.0196187328547239","-0.147474348545074","-0.0791285336017609","0.054784145206213","-0.0159274116158485","-0.0830073133111","-0.0295853801071644","-0.0719669833779335","0.162812918424606","-0.295365244150162","0.338701784610748","-0.213436365127563","-0.093506745994091","-0.194238588213921","-0.223417893052101","0.149071171879768","-0.605833649635315","0.0382431000471115","-0.146169200539589","-0.0401147492229939","-0.106675803661346","-0.124914839863777","-0.0895305648446083","-0.0216665659099817","0.0396944098174572","-0.403852462768555","-0.151786878705025","-0.0399087704718113","-0.354657739400864","0.0503638386726379","0.00449631828814745","-0.0819909572601318","-0.058075837790966","0.202222630381584","0.30159518122673","0.285162031650543","-0.146641835570335","0.163732066750526","-0.0281868800520897","0.2714584171772","0.0437190309166908","-0.187812238931656","-0.125359371304512","0.714441359043121","-0.104116506874561","-0.168060168623924","-0.211585015058517","0.104736022651196","-0.0173990167677402","-0.0748584195971489","0.107076957821846","0.654982566833496","-0.133289739489555","-0.0880090296268463","-0.09616419672966","-0.073445551097393","0.212529495358467","-0.0502734482288361","0.038506131619215","0.151435136795044","0.883980691432953","-0.225507169961929","-0.182607233524323","-0.150264725089073","-0.114360727369785","-0.0823866873979568","0.0553383082151413","0.0307748541235924","-0.151319801807404","0.231202304363251","-0.192934513092041","-0.675893425941467","-0.254954040050507","0.0270550679415464","-0.418582856655121","0.111970089375973","0.123341381549835","0.101282276213169","0.14846695959568","-0.0552264600992203","-0.148346424102783","-0.11797122657299","-0.0125121381133795","-0.0138544058427215","0.254351735115051","0.773464322090149","-0.0874892175197601","0.257422357797623","-0.152752086520195","0.00634402828291059","-0.12907600402832","-0.138016685843468","-0.0978647992014885","-0.2281653881073","-0.0227885693311691","-0.0908357128500938","0.0590049661695957","-0.0575061775743961","-0.221363738179207","-0.127815142273903","-0.366202920675278","-0.388242840766907","0.0486011058092117","0.169145703315735","0.235840946435928","-0.291406244039536","-0.369053512811661","-0.0785349011421204","0.10255454480648","0.159383967518806","-0.296280980110168","0.100435078144073","-0.133376941084862","0.0949563086032867","0.296098798513412","0.063385508954525","-0.358898162841797","0.156341910362244","-0.0839061513543129","-0.368405014276505","-0.380225956439972","0.0206590183079243","0.0660137087106705","0.0596881359815598","-0.0366739854216576","0.29273733496666"
"n1_14","-0.0542524494230747","0.0815686285495758","-0.0950412899255753","0.102057039737701","0.0522164665162563","0.138065740466118","-0.168170109391212","-0.124702930450439","0.0188248623162508","-0.00884870532900095","-0.020929204300046","-0.0227437447756529","0.0919461101293564","-0.114618130028248","0.0749419778585434","0.0244702305644751","-0.133564352989197","-0.105989202857018","-0.0800170078873634","-0.194921121001244","-0.00654492015019059","-0.0129168201237917","0.00597630813717842","-0.131408795714378","0.10525730997324","-0.153910368680954","-0.196419507265091","-0.0199481435120106","0.212254568934441","0.0312165766954422","-0.064782053232193","-0.177078291773796","0.0308018531650305","-0.288356155157089","-0.171661123633385","0.0720022022724152","0.0330597050487995","0.0660963803529739","-0.00537565723061562","-0.106544755399227","-0.113933958113194","0.125321254134178","-0.138933286070824","-0.157632157206535","0.287835210561752","0.0270156972110271","0.0830772146582603","-0.0290775261819363","-0.169039100408554","0.0289780460298061","-0.0695790722966194","0.191458255052567","-0.11337323486805","0.0283296033740044","0.375295519828796","-0.493378520011902","-0.105678521096706","0.139761418104172","-0.086333803832531","-0.176518574357033","0.00379104143939912","-0.0912201181054115","0.0344362780451775","0.0906451568007469","-0.10139786452055","-0.0317666456103325","-0.0955369919538498","0.481799751520157","-0.0561742559075356","-0.0502448789775372","0.0171914417296648","-0.0679854601621628","-0.0714934170246124","-0.0721942335367203","0.0585832111537457","0.0516938604414463","0.001565026701428","0.0863893777132034","0.00625559873878956","-0.125489890575409","0.0623381845653057","0.00301006273366511","0.101342707872391","-0.414917856454849","0.102713569998741","0.106953509151936","-0.156081706285477","-0.0147206904366612","-0.0289470311254263","-0.0411513559520245","-0.189585328102112","-0.0850394889712334","-0.0908875614404678","-0.0656374543905258","-0.052769411355257","-0.150255516171455","0.203522339463234","-0.118177428841591","0.173778459429741","0.206134662032127","-0.167457595467567","-0.0233028382062912","-0.245248898863792","0.0498262159526348","-0.0509434342384338","-0.124746799468994","-0.0185475572943687","-0.0692292451858521","0.127260565757751","0.125352263450623","-0.0127222314476967","0.232217028737068","-0.0165092386305332","-0.0706923976540565","0.0217752624303102","0.0445856638252735","-0.104694686830044","0.036420751363039","-0.149102658033371","0.0482701882719994","-0.0654353648424149","-0.0619767494499683","-0.176142975687981","-0.220733448863029","0.213165238499641","0.272331267595291","0.270265877246857","-0.0153415082022548","-0.0704545304179192","-0.02726692520082","0.0789600908756256","-0.0666471943259239","-0.294631242752075","-0.0276781879365444","0.258142799139023","-0.378752559423447","0.175663337111473","-0.00369119853712618","-0.0476331487298012","0.0903521329164505","-0.058596171438694","0.0771726369857788","-0.00205282866954803","0.0529519729316235","0.032308641821146","-0.20205844938755","0.0500078834593296","0.269789844751358","-0.0846027806401253","0.245813965797424","0.029989879578352","0.164631143212318","0.0805335491895676","0.0488749518990517","0.0890786945819855","0.0643739178776741","0.0755294933915138","0.0478698015213013","-0.00032821943750605","0.190166801214218","0.134779542684555","0.198960065841675","-0.0427849143743515","0.110755264759064","-0.021273959428072","-0.00739923771470785","-0.00642653461545706","-0.091899499297142","-0.0523808635771275","-0.00109345733653754","0.108550861477852","-0.133857026696205","0.144153147935867","-0.0904045403003693","-0.347239792346954","-0.319338917732239","-0.0785374939441681","0.055660717189312","0.218500718474388","-0.0253658071160316","-0.180651053786278","0.0728087052702904","-0.103153668344021","-0.0169302932918072","-0.347551643848419","0.0761741250753403","-0.0250831749290228","0.109560512006283","0.0531932003796101","-0.0147271659225225","-0.141551703214645","0.0550131089985371","-0.0282509792596102","-0.279807478189468","0.0897316858172417","-0.115872845053673","-0.0283980555832386","0.0593510940670967","-0.038579635322094","-0.0708971917629242"
"n1_15","-0.188108026981354","0.138651937246323","0.381170153617859","-0.0171035416424274","-0.232639908790588","-0.314171820878983","-0.0778012648224831","0.150347322225571","0.241604760289192","0.323024600744247","-0.093112051486969","-0.164435848593712","0.0716259852051735","-0.0401985123753548","-0.186472102999687","-0.0157014485448599","0.151553452014923","0.020546643063426","0.0895779132843018","-0.154424473643303","-0.0312036722898483","-0.129289537668228","-0.0760595053434372","-0.029689222574234","-0.469563513994217","0.132115170359612","0.0965705141425133","0.213809221982956","-0.0230205040425062","-0.0939032807946205","-0.0531848706305027","-0.185541525483131","-0.0416568145155907","-0.077450342476368","-0.0606609731912613","-0.0921842753887177","-0.0399534851312637","-0.238543555140495","0.033013854175806","-0.135765537619591","-0.0145971849560738","0.0142732858657837","-0.13165594637394","-0.073148176074028","0.177436351776123","-0.0401523932814598","-0.285969465970993","-0.0405495055019855","-0.372849106788635","-0.308756470680237","0.110017605125904","-0.097408689558506","-0.0906071215867996","-0.145609214901924","-0.132181882858276","0.198973894119263","0.174229294061661","0.194234326481819","-0.127069503068924","-0.122852429747581","-0.0479809530079365","-0.0414671115577221","-0.323176711797714","0.0421584658324718","-0.0243450719863176","0.358537614345551","-0.186287716031075","0.0948004275560379","-0.0773066207766533","-0.174964770674706","-0.135457128286362","-0.18169978260994","-0.14876826107502","-0.0381513424217701","-0.58815461397171","0.213313519954681","-0.0526365041732788","-0.176116213202477","-0.21577587723732","-0.0639949440956116","0.0204178802669048","-0.215561807155609","0.132519990205765","-0.0481722317636013","-0.104369692504406","-0.145346626639366","-0.0282054357230663","-0.137573659420013","-0.17599855363369","0.00879026483744383","0.0904540941119194","-0.0386255159974098","-0.101336628198624","0.178704008460045","0.269642978906631","-0.168923199176788","0.114905081689358","0.374740153551102","0.0746139585971832","-0.013996253721416","-0.0350037142634392","-0.0379034094512463","-0.0124311093240976","-0.139737546443939","-0.281907856464386","-0.275698810815811","0.0298446267843246","0.0565651953220367","-0.0890329778194427","-0.153422579169273","-0.0993486493825912","0.0930312871932983","-0.245816469192505","-0.153169050812721","-0.0278711132705212","0.0837140753865242","-0.0654152780771255","-0.0362739935517311","0.341420114040375","-0.160049870610237","-0.0260289143770933","0.00354481977410614","-0.197259932756424","0.495708912611008","-0.41469594836235","-0.0892214775085449","0.147447898983955","0.15707428753376","-0.254995584487915","-0.0558048374950886","-0.203437283635139","-0.11420863121748","-0.0913511514663696","-0.0859231352806091","0.177590414881706","-0.103432029485703","-0.110406666994095","-0.129617810249329","-0.0295339096337557","-0.0645534470677376","0.386442095041275","0.0484091080725193","-0.0618898421525955","-0.247873485088348","0.454344362020493","-0.00199086870998144","-0.0870747342705727","0.218228399753571","-0.0246626380831003","-0.234114199876785","0.0308701414614916","-0.196897849440575","-0.010428293608129","-0.591672360897064","-0.0334750041365623","-0.20115552842617","-0.302350103855133","-0.146975055336952","-0.0474478080868721","-0.289358705282211","-0.126350313425064","-0.0884816274046898","0.0691817030310631","-0.160088822245598","-0.219865173101425","0.0742115080356598","-0.0576447322964668","-0.0759491100907326","-0.139501661062241","-0.131479784846306","-0.138197690248489","-0.185270547866821","-0.359766811132431","-0.0426607690751553","0.0153393289074302","0.0923290774226189","-0.0469373054802418","-0.0370153896510601","-0.0030739230569452","-0.233908504247665","0.0700508952140808","-0.772682785987854","-0.0711498335003853","-0.361095100641251","-0.071118488907814","0.064915344119072","0.18161329627037","0.0888523310422897","0.074660062789917","-0.107731267809868","0.268910884857178","-0.0284009594470263","-0.00807310827076435","0.0727372318506241","-0.192902609705925","0.399474859237671","-0.115239389240742","-0.0128042073920369","-0.119753129780293","-0.00456366362050176"
"n1_16","0.0605841539800167","0.248718917369843","-0.291463285684586","0.162600979208946","-0.160491153597832","-0.221869632601738","-0.217703938484192","-0.218431755900383","0.679446816444397","0.049537256360054","-0.0275084674358368","-0.26410049200058","0.235447466373444","-0.142657145857811","-0.425864934921265","0.00200196797959507","-0.197616294026375","-0.198722139000893","-0.214145615696907","-0.125615417957306","0.00834692176431417","-0.0419419221580029","0.0336527600884438","0.399758875370026","-0.28571629524231","0.813988089561462","-0.000966670166235417","0.128542751073837","0.0236332695931196","0.138285622000694","-0.166105464100838","-0.457028269767761","-0.198755174875259","-0.282863795757294","-0.0758660137653351","0.00091079412959516","-0.38477498292923","-0.350263893604279","0.0158100482076406","-0.17177514731884","-0.131464242935181","0.210069850087166","-0.0973815694451332","-0.158706411719322","-0.022046435624361","0.0299472883343697","-0.110962934792042","-0.253617793321609","-0.647878766059875","-0.083716981112957","-0.113738790154457","0.0900147408246994","-0.433892011642456","-0.268626242876053","-0.421692222356796","0.171486511826515","0.00533428322523832","-0.0291426721960306","0.0611149780452251","0.0673910528421402","0.192744493484497","-0.0300690848380327","-0.265952676534653","-0.331966638565063","-0.248390316963196","-0.137807875871658","-0.0456643998622894","-0.205213814973831","-0.0685677081346512","-0.0738096833229065","0.18015068769455","-0.401019990444183","-0.146755084395409","-0.127426594495773","-0.577618956565857","-0.0520873740315437","-0.091282069683075","-0.428492337465286","-0.263801068067551","-0.0980752781033516","0.111729629337788","-0.115315437316895","0.137927681207657","-0.219305709004402","0.135581448674202","-0.382393628358841","-0.067086435854435","-0.187450736761093","-0.118256241083145","0.122182033956051","-0.0165559966117144","0.0427537448704243","-0.163353800773621","-0.121666416525841","0.00266948947682977","-0.08004380017519","-0.0773718804121017","-0.0287757087498903","0.127586051821709","0.08823062479496","-0.122600138187408","0.0697358101606369","-0.352636188268661","-0.595870435237885","-0.265944868326187","-0.119718909263611","-0.144578605890274","0.167738750576973","0.146472707390785","0.0766803771257401","-0.277466326951981","-0.455167472362518","0.225338563323021","-0.0236988160759211","-0.181552276015282","0.128861844539642","-0.139790892601013","0.319965571165085","0.0275319423526525","-0.0580729991197586","-0.261258602142334","-0.102170139551163","-0.151961132884026","0.584398806095123","-0.27932196855545","-0.113032042980194","-0.649223327636719","-0.0959987938404083","-0.358204931020737","-0.258727520704269","-0.92861807346344","-0.20130181312561","-0.0852144658565521","-0.10151831805706","0.0867668092250824","-0.493774622678757","-0.0824554935097694","-0.0821187570691109","-0.0267289280891418","-0.0176329277455807","0.195915028452873","0.0130576407536864","-0.176712289452553","-0.569093823432922","-0.00834566541016102","-0.0388381630182266","-0.210193231701851","0.0543690696358681","-0.138551726937294","-0.105615548789501","-0.00692693144083023","-0.137388870120049","-0.243342727422714","-0.178740382194519","-0.331876963376999","0.112106345593929","-0.0583354830741882","-0.00805535353720188","0.190730363130569","-0.454727739095688","-0.373710632324219","0.182578235864639","-0.00861852895468473","0.444830685853958","-0.130923822522163","-0.339608401060104","-0.266079604625702","-0.0508390478789806","-0.336752563714981","-0.146830037236214","-0.0326207987964153","-0.206159859895706","-0.249908566474915","-0.0766388699412346","-0.182268396019936","-0.318247318267822","0.154681444168091","0.152622401714325","0.195769146084785","-0.194995075464249","-0.0584477297961712","-0.221979230642319","-0.0507590249180794","0.120980449020863","-0.44278672337532","-0.0458099059760571","0.0122691188007593","0.129810094833374","0.151776328682899","0.409903585910797","-0.0372331812977791","0.177402496337891","0.104167878627777","-0.0484112650156021","-0.198021963238716","0.023828212171793","-0.117256544530392","0.113321959972382","-0.0766423270106316","-0.0914403647184372"
"n1_17","-0.216627448797226","-0.150242701172829","-0.126171350479126","0.229881107807159","-0.10009028762579","-0.06320421397686","-0.0116034578531981","-0.0290464796125889","-0.117805555462837","0.147988080978394","0.0867005586624146","-0.181826144456863","-0.0873834490776062","0.0312677435576916","-0.091760590672493","-0.0533432774245739","-0.0244198013097048","-0.145244181156158","-0.0651398822665215","-0.14876651763916","0.129880622029305","-0.054973628371954","0.187688902020454","0.173383295536041","0.00844244752079248","-0.0563021078705788","-0.695602297782898","0.0339448302984238","-0.31351175904274","0.150573581457138","-0.141342580318451","-0.149258643388748","-0.392201840877533","-0.255067497491837","-0.0110116302967072","0.00580505700781941","-0.168919950723648","0.0765414983034134","0.0713237002491951","-0.0391852855682373","0.0219318605959415","-0.0972604677081108","-0.115336924791336","-0.193947091698647","0.342877924442291","0.0766615197062492","-0.130938217043877","0.132943868637085","-0.322791397571564","0.00328253116458654","-0.0559508875012398","0.258485168218613","-0.361573308706284","0.0357073880732059","0.169912442564964","-0.268763095140457","0.250611156225204","0.692791104316711","-0.106166608631611","-0.149556756019592","-0.0460295490920544","0.20527757704258","-0.0722931250929832","0.158507972955704","-0.00823250506073236","-0.146034017205238","-0.145136460661888","0.627470254898071","-0.204854354262352","-0.152511462569237","0.00676633510738611","-0.247130557894707","-0.438463240861893","-0.13067264854908","-0.0837841331958771","0.430996119976044","-0.0154248550534248","0.0465148873627186","-0.240129739046097","-0.0860401839017868","-0.124854266643524","-0.00840770732611418","0.178818628191948","-0.280699044466019","0.0265971962362528","-0.251216202974319","-0.163606286048889","0.00609640963375568","-0.268461644649506","-0.0122680347412825","-0.0735011920332909","0.0276340544223785","-0.171287566423416","-0.01540572848171","-0.0432557314634323","-0.170780271291733","0.252291917800903","-0.25173145532608","-0.0266819298267365","-0.00968576036393642","-0.241283446550369","-0.130594402551651","-0.305155813694","0.00859999097883701","-0.290457606315613","-0.0513648428022861","0.116445608437061","0.31143644452095","0.172880381345749","0.0678543448448181","0.0138921653851867","0.307450532913208","-0.0543509498238564","0.00719092739745975","0.0313648283481598","-0.0284281726926565","0.0197813380509615","0.450237840414047","-0.0586307868361473","-0.122069984674454","-0.121703676879406","-0.0596916675567627","-0.189663872122765","0.235302522778511","-0.185308068990707","0.0751455053687096","-0.0678410306572914","-0.0580745190382004","-0.174074605107307","-0.144465565681458","0.18490281701088","-0.185519233345985","-0.110227279365063","-0.130879163742065","0.776821792125702","-0.449014544487","0.0241084638983011","-0.101243987679482","-0.0875808894634247","-0.098144568502903","-0.0170886721462011","0.18798354268074","-0.136918559670448","0.159137979149818","-0.20256119966507","-0.141290605068207","-0.0258167181164026","0.199271738529205","-0.167392775416374","0.317805528640747","0.0277314819395542","0.0582610890269279","0.155080407857895","-0.152241826057434","-0.238367035984993","-0.227225378155708","-0.0484602600336075","0.10556423664093","0.0032131215557456","0.0358083322644234","-0.109738186001778","0.354922264814377","-0.202262535691261","0.17663685977459","-0.0643575564026833","0.0672753229737282","-0.109729088842869","-0.0196568984538317","-0.0970508679747581","-0.0280108824372292","0.0211325194686651","-0.159762784838676","-0.0350123047828674","-0.0137456012889743","-0.285682320594788","-0.457424402236938","0.160284101963043","0.0219022855162621","0.235608011484146","-0.335486829280853","-0.0339720472693443","-0.144212111830711","-0.00132919242605567","-0.0443974807858467","-0.0936682969331741","0.0313103944063187","0.209226205945015","-0.0649141222238541","0.0769983008503914","0.0684644505381584","-0.0385918915271759","0.228361696004868","0.193075656890869","-0.351647436618805","-0.16892509162426","0.00956654082983732","-0.127038896083832","0.0536794923245907","-0.0393360629677773","0.261175543069839"
"n1_18","0.221015200018883","0.107312932610512","0.428409695625305","0.141233950853348","-0.46612423658371","-0.524281799793243","-0.104677051305771","0.186480596661568","0.341619908809662","0.0632786676287651","-0.0962663292884827","-0.17977237701416","0.171888440847397","-0.213178813457489","-0.410750895738602","0.163555428385735","0.235415250062943","-0.183063447475433","0.0557378903031349","-0.185587123036385","0.0213811323046684","-0.169072985649109","-0.0656005218625069","0.208593174815178","-0.665387690067291","0.12978807091713","0.0631813853979111","0.0560536049306393","-0.141947939991951","0.0541659481823444","-0.124203100800514","-0.247555419802666","0.0621464364230633","-0.165942400693893","-0.0334229879081249","0.0423606224358082","-0.00565586239099503","-0.245619416236877","0.373702347278595","-0.0846766531467438","-0.116724595427513","0.0250984337180853","-0.217104613780975","-0.0976438745856285","0.081053301692009","-0.186594352126122","-0.34432390332222","-0.424151629209518","-0.449367761611938","-0.151155918836594","0.153808534145355","-0.237288221716881","-0.374320298433304","-0.270743817090988","0.00754857854917645","-0.0614288374781609","0.0786226317286491","0.00389446364715695","-0.0508801750838757","-0.13287541270256","-0.196855321526527","-0.127320230007172","-0.615902423858643","-0.0766502246260643","-0.177522167563438","0.120504930615425","-0.200552701950073","0.165873616933823","-0.0154688246548176","-0.0851494446396828","-0.119718931615353","-0.235743433237076","-0.0395977534353733","-0.117147319018841","-0.773232340812683","-0.0507846064865589","-0.136697471141815","-0.218950971961021","-0.141729816794395","-0.0588895380496979","0.149159386754036","-0.127123385667801","-0.0125297522172332","-0.1061090528965","0.0161422900855541","-0.249560907483101","-0.209056675434113","-0.162384331226349","-0.126066133379936","-0.122927471995354","0.0754096582531929","-0.149504393339157","-0.050587322562933","0.240067213773727","0.244123190641403","-0.0861883908510208","-0.0226390138268471","0.276870131492615","0.130401849746704","-0.0536994561553001","-0.122396156191826","-0.0434917323291302","0.0700766816735268","-0.371973156929016","-0.225407764315605","-0.157099723815918","0.166745349764824","0.110669545829296","-0.0322152860462666","-0.118369534611702","-0.213256359100342","-0.0954082161188126","-0.222050487995148","-0.132922291755676","-0.137540876865387","-0.0237463060766459","-0.206246793270111","0.130248442292213","0.166056513786316","-0.172233030200005","0.00319771631620824","-0.104946181178093","-0.193376988172531","0.557951271533966","-0.616336762905121","0.0838327705860138","0.161664143204689","-0.028512217104435","-0.413573294878006","-0.0510015934705734","-0.177288994193077","-0.104870237410069","-0.247371345758438","0.0406326241791248","0.085204541683197","-0.0688102915883064","-0.209926009178162","-0.181328013539314","-0.114208087325096","0.0882486030459404","0.169041261076927","0.0522695481777191","-0.190942943096161","-0.374994963407516","0.301287680864334","-0.0257734060287476","-0.0941266790032387","0.0218607559800148","0.00410871021449566","-0.293984413146973","-0.0151957767084241","-0.0758543387055397","-0.0849229842424393","-0.440232276916504","-0.0215162131935358","-0.227282345294952","-0.284379601478577","-0.182804390788078","-0.0668139755725861","0.0575938671827316","-0.407497406005859","-0.215477988123894","0.0489127673208714","-0.109796904027462","-0.0368558540940285","-0.0440893322229385","-0.163186624646187","-0.0543852001428604","-0.246237695217133","-0.101813942193985","-0.204364359378815","-0.0347958691418171","-0.319865524768829","-0.149816438555717","-0.120715834200382","0.0570399388670921","-0.00636435858905315","-0.167543724179268","-0.180384293198586","-0.0861617177724838","-0.0381593480706215","-0.798485457897186","-0.00133010803256184","-0.164496377110481","-0.120656944811344","0.126830995082855","0.115991681814194","-0.00776714598760009","0.147051200270653","-0.0967609509825706","0.0452281758189201","0.0633804425597191","0.0535172931849957","0.119737096130848","-0.13147084414959","0.252495378255844","-0.0469945780932903","-0.118256807327271","-0.0557976327836514","0.0228026397526264"
"n1_19","0.167949378490448","-0.159614190459251","-0.0270196571946144","-0.037644986063242","-0.0973270833492279","-0.195903405547142","-0.0650438815355301","-0.209411069750786","-0.0517494082450867","-0.289350390434265","0.0635650753974915","-0.169381186366081","0.146935522556305","-0.000812855025287718","0.197113692760468","0.0876117348670959","-0.514415323734283","-0.186731860041618","-0.4826280772686","-0.128345921635628","-0.00425756443291903","-0.186935767531395","0.0865349546074867","0.155214577913284","0.101966820657253","-0.0146440519019961","-0.331376701593399","-0.250343054533005","-0.0628818199038506","0.0369653776288033","-0.021427171304822","-0.457275301218033","-0.257981687784195","-0.0382845066487789","-0.0329545252025127","0.155944257974625","-0.107296541333199","-0.0321246050298214","-0.33282858133316","-0.0969029068946838","-0.0790250524878502","0.0407512076199055","-0.046461246907711","-0.00693933572620153","0.298348695039749","0.3635573387146","-0.0492378100752831","0.455428451299667","-0.753846168518066","0.127855092287064","-0.392819374799728","-0.114763796329498","-0.531833648681641","-0.0861746594309807","-0.657430708408356","-0.0404787696897984","-0.255990505218506","-0.057806521654129","0.187857121229172","-0.591912865638733","0.158622205257416","0.53082549571991","0.0584962368011475","0.664181411266327","-0.14102728664875","-0.148439005017281","-0.0470444150269032","0.654784023761749","0.197594404220581","0.0173561368137598","0.164719805121422","-0.106029875576496","0.0191659983247519","-0.207457438111305","-0.530242800712585","0.513624548912048","-0.157283499836922","0.066815547645092","-0.17360645532608","-0.224664464592934","-0.0171580947935581","-0.216126561164856","0.379179835319519","-0.344697535037994","0.41192302107811","-0.201800420880318","-0.0308705046772957","-0.158611565828323","-0.301045715808868","0.259770095348358","-0.411105841398239","0.261929839849472","-0.124319687485695","-0.166082441806793","-0.199050769209862","-0.0802410691976547","0.593418419361115","-0.179907843470573","0.100103668868542","-0.0420698374509811","-0.0710369572043419","0.142865359783173","-0.165056422352791","0.0234721787273884","-0.103129833936691","-0.288790315389633","-0.148331135511398","0.302372395992279","0.213143527507782","-0.0947874635457993","-0.0741423740983009","0.416093528270721","0.111588381230831","0.0529517382383347","-0.0360423214733601","0.646225810050964","-0.119163513183594","0.0804499089717865","-0.281228989362717","-0.168167471885681","-0.115236818790436","0.155126705765724","-0.223901465535164","-0.221225202083588","0.273492336273193","-0.0497994460165501","0.220754072070122","0.00113221141509712","-0.26142218708992","-0.155783146619797","0.0791286006569862","-0.0411201417446136","-0.646180629730225","-0.155818998813629","0.544318199157715","-0.129131197929382","0.163702130317688","-0.0912740081548691","-0.0880865901708603","-0.254921406507492","-0.158290535211563","0.17997995018959","-0.012077328749001","0.147914186120033","-0.104397840797901","-0.052744310349226","-0.249263629317284","-0.00589373242110014","-0.0288237147033215","0.133355304598808","-0.180484712123871","-0.0389254093170166","-0.213552713394165","-0.68266499042511","-0.31523808836937","0.269677579402924","-0.281555473804474","0.291934341192245","0.345940709114075","-0.427697896957397","0.130758360028267","0.343116581439972","-0.233125895261765","0.208542749285698","-0.203980445861816","0.225533619523048","-0.0624298341572285","-0.0505026839673519","0.0180223248898983","-0.214669913053513","0.142080187797546","-0.149591132998466","0.00573319941759109","-0.205500409007072","-0.422161042690277","-0.193567886948586","0.346819221973419","0.237111210823059","0.214411363005638","0.270709723234177","-0.0649606734514236","-0.195610091090202","0.205674394965172","0.192076131701469","-0.815706729888916","0.116676852107048","0.146079778671265","0.171407982707024","0.236234039068222","0.34784984588623","-0.0227931290864944","0.477704793214798","-0.00793746951967478","0.0637569800019264","0.0769135877490044","-0.342064261436462","-0.00806019455194473","0.19374842941761","0.171329692006111","0.242799952626228"
"n1_20","0.0905400440096855","0.16075636446476","0.00861936528235674","-0.0411754101514816","-0.127865225076675","-0.0917198956012726","-0.0986686646938324","0.204640731215477","-0.0324353389441967","0.153367266058922","0.0539921522140503","0.122905977070332","0.181378170847893","-0.145345240831375","-0.00369167537428439","0.064702644944191","0.201728582382202","-0.245532527565956","0.0464632660150528","-0.228290200233459","0.000943108578212559","-0.0255012400448322","-0.0794098675251007","0.0677450001239777","-0.122849814593792","0.0164920184761286","-0.378923714160919","-0.0592248551547527","0.115654341876507","-0.0462979264557362","-0.185394585132599","-0.0951647385954857","0.0938703566789627","-0.286234468221664","-0.0303150080144405","-0.0199319086968899","-0.0101535087451339","-0.12486881762743","-0.271571487188339","-0.180370792746544","-0.163321569561958","0.197868496179581","-0.107414186000824","-0.220304265618324","-0.178042382001877","0.144714131951332","-0.0562858879566193","0.57886791229248","0.205986395478249","-0.0376969575881958","0.226215809583664","-0.00932999420911074","0.425641238689423","0.0168339107185602","0.383920669555664","-0.404570728540421","0.111935921013355","0.00191228545736521","-0.126168981194496","-0.0469601266086102","0.0688035488128662","0.345451563596725","-0.0842975229024887","0.445606708526611","-0.0592818111181259","0.0393930189311504","-0.109325744211674","-0.0711748450994492","-0.0705950781702995","-0.0691000521183014","0.160062536597252","-0.0149162719026208","-0.136166408658028","-0.197683036327362","0.0752807036042213","0.486793965101242","-0.0579433590173721","-0.0792912170290947","-0.153572887182236","-0.128032043576241","0.182610586285591","-0.118089839816093","-0.131173342466354","-0.408502757549286","0.030444547533989","-0.216837242245674","-0.0613483972847462","-0.00924904923886061","0.0661707147955894","-0.00291994144208729","-0.0169077571481466","0.0124827735126019","-0.0475820489227772","0.0980821549892426","-0.0269069764763117","-0.0418719351291656","0.422663509845734","-0.103724747896194","0.00661288993433118","-0.151724964380264","-0.0776029601693153","-0.0502607561647892","-0.411959052085876","-0.0969941467046738","-0.0999576970934868","-0.138658598065376","0.0835999399423599","-0.0720710083842278","0.102387078106403","-0.380066275596619","-0.17892549932003","0.0192970838397741","-0.0572501420974731","0.0132843041792512","-0.119945392012596","0.176447197794914","-0.0215795245021582","-0.149214997887611","0.0220620427280664","-0.0673957392573357","-0.0752164870500565","-0.115500472486019","-0.199416756629944","-0.178052112460136","0.141566514968872","0.176463589072227","0.166890799999237","0.0588525757193565","-0.143091470003128","-0.110811732709408","-0.115934938192368","-0.0891546681523323","-0.170493572950363","-0.039342250674963","-0.236900120973587","-0.331079691648483","-0.172065079212189","-0.096331886947155","-0.168183282017708","0.0346625335514545","-0.00844773277640343","0.170735031366348","-0.140596717596054","-0.123906388878822","-0.158767580986023","0.105388917028904","-0.108520552515984","0.161366447806358","-0.235741794109344","-0.153926074504852","0.241270080208778","-0.356239169836044","0.178164348006248","0.335734903812408","0.00268339412286878","-0.0545328967273235","-0.0624991990625858","0.048433318734169","-0.224648401141167","0.2355887144804","0.121130764484406","-0.000613558106124401","0.157717406749725","0.217824056744576","-0.188892632722855","0.243734255433083","-0.0583256036043167","-0.00913031026721001","0.0762225091457367","-0.0284590795636177","0.0138143822550774","-0.0403052978217602","0.00427724234759808","-0.0881920605897903","-0.426132053136826","-0.459131479263306","-0.00943680293858051","0.0416981540620327","-0.0745231583714485","0.148058831691742","-0.08406662940979","0.0156854186207056","-0.052743099629879","-0.0536934211850166","-0.11597790569067","0.170242741703987","0.286080896854401","-0.168953269720078","-0.0941105633974075","-0.0738460943102837","0.0644184127449989","0.531013906002045","0.0470013208687305","-0.448860496282578","-0.129143670201302","0.0637302622199059","-0.0169577896595001","-0.0448992252349854","-0.0304467435926199","0.416664451360703"
"n1_21","0.0330655574798584","0.160035595297813","-0.135795727372169","0.0517027340829372","-0.00499371020123363","0.126649916172028","0.0123333856463432","0.107951238751411","-0.0268079396337271","-0.0386373735964298","0.117624022066593","0.0643585026264191","0.00647090934216976","-0.182505816221237","-0.00462655862793326","-0.0145820593461394","0.0317659340798855","-0.100037127733231","-0.0726507604122162","-0.174148768186569","0.0723143368959427","-0.175728410482407","0.0644658654928207","-0.00226147170178592","-0.00715317623689771","0.0520007610321045","-0.200067058205605","-0.0626439228653908","0.0345563925802708","0.097423791885376","-0.136700317263603","0.0386916846036911","-0.0875293985009193","-0.285471111536026","-0.0883370339870453","0.0243924297392368","-0.0880197435617447","0.00381715036928654","-0.203358799219131","-0.159516081213951","-0.15780608355999","0.0116485878825188","-0.0300502795726061","-0.139843329787254","-0.0402190499007702","-0.00769485533237457","-0.0807002112269402","0.253889620304108","0.131441622972488","0.0552889332175255","-0.0838683396577835","0.103155121207237","0.21209180355072","-0.0584539696574211","0.505149781703949","-0.64634907245636","0.0887138172984123","0.101274974644184","0.00622668769210577","-0.10332465171814","0.0529212728142738","0.205823749303818","0.174992620944977","0.231937572360039","-0.0809227451682091","-0.129691705107689","-0.126931115984917","0.129521906375885","-0.0310814026743174","-0.0678913965821266","0.212459772825241","0.11036816239357","-0.222175270318985","-0.0182682983577251","0.114687815308571","0.173754990100861","0.0306866783648729","-0.0141784455627203","0.0394457839429379","-0.184189707040787","0.152037501335144","0.0367596000432968","0.00979159213602543","-0.260059803724289","0.152178809046745","-0.132163360714912","0.012942505069077","0.023373257368803","0.00169927277602255","0.00263881008140743","-0.149769574403763","-0.100837022066116","-0.0339437685906887","0.00136351375840604","-0.0435310713946819","-0.183191582560539","0.260142505168915","-0.0289855990558863","0.0680584609508514","-0.164779603481293","-0.0515757463872433","0.0778760313987732","-0.337737113237381","0.0520641654729843","0.127457976341248","-0.0673152282834053","0.0602130368351936","0.0771861895918846","0.107256725430489","-0.186879873275757","-0.0434378497302532","0.271685034036636","0.0169040709733963","0.0263907704502344","-0.0555888116359711","0.107315607368946","-0.0380130372941494","0.0406971052289009","-0.0832234621047974","0.0376851372420788","-0.0426440052688122","-0.128134727478027","-0.152550622820854","-0.0830429419875145","0.110900558531284","0.263024985790253","0.0674031525850296","0.136158481240273","-0.175173103809357","-0.0181992836296558","-0.0315897315740585","-0.00385223072953522","-0.230234950780869","-0.0361711792647839","-0.144795224070549","-0.465695142745972","-0.169382438063622","0.00733909429982305","-0.0412717275321484","0.0197163354605436","-0.175612553954124","0.154861882328987","-0.178867548704147","-0.0671733021736145","0.00325810676440597","3.8094149203971e-06","-0.110715940594673","0.085583284497261","-0.085521973669529","-0.0591565817594528","-0.0310354512184858","-0.18413382768631","0.166886538267136","0.0728961154818535","-0.0688702911138535","0.00837365724146366","0.0273654125630856","0.13554647564888","-0.0994116216897964","0.311664760112762","0.00941496435552835","0.128989025950432","0.0979161858558655","-0.0093060377985239","-0.12007774412632","0.257317632436752","0.0264851506799459","0.0145507697016001","0.0285623390227556","-0.0371045805513859","-0.0302053354680538","-0.0198316611349583","0.00217697885818779","-0.0492815263569355","-0.260653972625732","-0.438339710235596","0.0902741849422455","-0.0593567043542862","0.0796571150422096","0.0838393047451973","-0.184136271476746","0.148565471172333","-0.023757342249155","0.160243108868599","-0.187681153416634","0.0166032500565052","0.0761229172348976","0.0791988745331764","-0.0245585981756449","0.0460360087454319","-0.0561601854860783","0.279160290956497","0.0217275153845549","-0.492969989776611","-0.0232642237097025","-0.0561646223068237","-0.0346786566078663","-0.0237281043082476","-0.0446469485759735","0.251177042722702"
"n1_22","0.119368277490139","0.194538190960884","-0.0955037474632263","0.109263554215431","-0.285626858472824","-0.236380115151405","-0.0907231047749519","0.230579003691673","-0.00773808918893337","0.076418437063694","-0.093410387635231","0.0216509290039539","0.0467736609280109","-0.0538063496351242","0.0805062279105186","0.148106038570404","0.198350951075554","-0.162499129772186","0.195299297571182","-0.160283043980598","-0.0838095247745514","-0.0339808501303196","-0.105278991162777","0.0237598568201065","-0.238788574934006","0.0658164918422699","-0.0592878684401512","0.0801182687282562","-0.210856094956398","-0.0203838050365448","-0.0147220743820071","-0.279071867465973","0.120326861739159","-0.171443372964859","0.00109796249307692","-0.132386595010757","0.0758309736847878","0.0787953287363052","0.316940277814865","-0.145244255661964","-0.0462774522602558","0.00715363770723343","-0.122144177556038","-0.00103757961187512","0.00321386056020856","-0.0344169549643993","-0.248905912041664","-0.142200276255608","0.0765590444207191","0.100143298506737","0.125920966267586","0.0103959972038865","0.0846457481384277","0.0754047781229019","0.765160441398621","-0.523106276988983","0.358366698026657","0.165771976113319","-0.0147272134199739","-0.101605840027332","0.0332647152245045","-0.117158077657223","-0.148974269628525","0.217370554804802","-0.118791595101357","-0.0517726875841618","-0.117331199347973","0.312022864818573","-0.0261711087077856","-0.0687153041362762","-0.0843433365225792","0.05488296225667","-0.195630565285683","-0.00435362616553903","0.274187088012695","0.206404075026512","0.0289058536291122","0.00973764900118113","0.00277523836120963","-0.0970199406147003","0.10282839089632","0.0876068025827408","-0.117984913289547","-0.424022167921066","-0.0905896425247192","-0.297261238098145","-0.145231559872627","-0.150592029094696","0.0083278426900506","-0.0564150363206863","0.0975139737129211","-0.138974130153656","-0.0816999301314354","0.156809136271477","0.0464033111929893","-0.102480992674828","0.194933012127876","-0.0202666912227869","0.0589619837701321","-0.153544962406158","0.0754448473453522","-0.016151811927557","-0.258029639720917","0.0760711207985878","-0.0315455496311188","-0.014532851986587","-0.0258047431707382","-0.0339065566658974","0.161583721637726","0.0101538142189384","-0.106254905462265","0.310026854276657","-0.0282819326967001","-0.108903467655182","-0.162657618522644","0.179226621985435","-0.077668234705925","-0.0407983213663101","0.024348683655262","-0.0166171211749315","-0.173632502555847","0.0546747632324696","-0.0489135235548019","-0.471985340118408","0.326191782951355","0.444524526596069","0.424334019422531","0.109177641570568","-0.314520478248596","-0.0193470399826765","0.0702478438615799","-0.0779551416635513","-0.1171730235219","0.19728347659111","0.103350110352039","-0.140055537223816","-0.286893278360367","-0.0672199577093124","-0.0241805836558342","0.129590585827827","0.0539552122354507","0.18765427172184","-0.146597236394882","0.119636334478855","-0.0149790290743113","-0.183980673551559","-0.0515636838972569","0.144531086087227","-0.119033440947533","-0.188036262989044","0.0813044533133507","-0.331587940454483","0.0781297907233238","0.240456908941269","-0.0270042587071657","-0.102214775979519","-0.0236766133457422","-0.24285052716732","-0.154076963663101","0.407057195901871","0.228900521993637","0.218228742480278","0.294870525598526","0.105653151869774","-0.0907190144062042","0.0220258068293333","-0.155354455113411","-0.0289377570152283","-0.0353420078754425","-0.0906167551875114","0.139243692159653","-0.0876467823982239","-0.302564024925232","-0.120345644652843","-0.522894263267517","-0.19150784611702","-0.0574206113815308","0.124021947383881","-0.181842520833015","0.163805037736893","-0.186182916164398","-0.303172260522842","-0.140823349356651","-0.11256106197834","-0.281151562929153","0.166107729077339","-0.0491958782076836","-0.0274078510701656","-0.0293895676732063","0.0321397669613361","0.130377799272537","0.127964019775391","-0.2371486723423","-0.168612152338028","-0.244242236018181","0.0366060547530651","0.0281522125005722","0.00768586387857795","-0.043590884655714","0.0857175216078758"
"n1_23","0.279138207435608","-0.0025505714584142","-0.00594395818188787","0.588685035705566","0.0491663590073586","-0.0933663696050644","-0.14493128657341","0.103610306978226","-0.0336384549736977","0.0556830130517483","-0.074971079826355","0.0973398387432098","0.0821508467197418","0.0190630871802568","-0.0233753174543381","0.0933222249150276","-0.0351056791841984","-0.214916944503784","0.12933337688446","-0.104795262217522","-0.0456261895596981","-0.122601948678493","0.176140084862709","0.0239520817995071","-0.0275760758668184","0.127006039023399","0.097362793982029","-0.00265679368749261","-0.585157215595245","-0.032607838511467","0.0277985818684101","-0.1593918800354","0.269403517246246","-0.186495468020439","-0.15226174890995","0.0830588564276695","-0.134151324629784","0.095666415989399","0.891042411327362","-0.06734449416399","-0.141580536961555","0.153426110744476","-0.0743850842118263","-0.0802042260766029","0.0529828853905201","0.0079124178737402","0.00976094882935286","-0.873722553253174","0.0876309424638748","0.149433016777039","0.0502907857298851","-0.0245818123221397","-0.330247431993484","0.033865824341774","0.826347589492798","-0.138940721750259","0.395991444587708","-0.0710560902953148","0.0600111745297909","-0.0498941540718079","-0.0563307069242001","-0.332954466342926","-0.0998012125492096","0.114024326205254","-0.0845036208629608","-0.121914707124233","-0.0842738598585129","0.440923005342484","-0.0134291797876358","-0.131977468729019","0.150658741593361","0.0485967323184013","-0.194270178675652","-0.171529710292816","0.0393401868641376","0.0995083898305893","-0.132989585399628","-0.04733682051301","0.00817245524376631","-0.0660575553774834","0.0790636017918587","-0.0795479863882065","0.0993960201740265","-0.239203900098801","0.129983201622963","-0.0727372244000435","-0.026592968031764","-0.0292446315288544","0.0342088900506496","-0.109665974974632","-0.131056651473045","-0.0702044442296028","-0.167136460542679","0.150631010532379","-0.201428920030594","-0.0802654102444649","0.203833609819412","-0.0718974620103836","0.149697303771973","-0.419343858957291","-0.0500702559947968","-0.0407937467098236","-0.223730579018593","0.093966118991375","0.0930385366082191","0.100517295300961","0.0991919487714767","-0.00246541039086878","0.168450012803078","0.0583915449678898","-0.137017369270325","0.224554136395454","-0.0681696236133575","0.0690764114260674","0.00824935082346201","0.227935656905174","-0.0631971880793571","0.235119566321373","-0.0393405295908451","-0.125759899616241","-0.0206520762294531","0.0508827306330204","-0.0539469085633755","-0.128237754106522","-0.0190217159688473","0.488961398601532","0.248784929513931","0.0771014019846916","-0.117767550051212","-0.197103708982468","0.0110709276050329","-0.142094999551773","-0.385760486125946","0.0480679124593735","0.250506579875946","-0.126770719885826","-0.145413994789124","-0.184338763356209","-0.121415622532368","-0.0346790328621864","-0.0348352007567883","0.22159381210804","-0.0744245424866676","0.0251582618802786","-0.162855640053749","-0.421652287244797","0.0221164394170046","0.0909537300467491","-0.123861275613308","-0.350222170352936","0.0476617440581322","-0.235607042908669","-0.108988292515278","0.0857226401567459","-0.186050444841385","-0.0903808698058128","0.0885945111513138","0.0505406707525253","-0.022828321903944","0.813308835029602","0.0230388008058071","0.0347287096083164","0.0316991172730923","0.040696557611227","-0.0322803445160389","-0.0825458690524101","-0.00966678094118834","-0.141340598464012","0.100323051214218","-0.127479031682014","0.0886929556727409","-0.0355825126171112","-0.177688151597977","-0.160362035036087","-0.362286984920502","-0.187035992741585","0.0147724291309714","-0.00643213046714664","-0.00720932008698583","-0.0538617596030235","-0.227847337722778","0.0364696905016899","-0.0270286239683628","0.0254878047853708","-0.321841865777969","0.116539053618908","-0.209605693817139","0.128364220261574","0.0671512931585312","-0.0156362485140562","-0.292968571186066","0.0705665871500969","-0.33453094959259","-0.137310028076172","-0.311600714921951","0.010727321729064","-0.0626241788268089","-0.0132477954030037","0.108038373291492","0.251208484172821"
